{"learner":{"attributes":{"scikit_learn":"{\"_estimator_type\": \"regressor\"}"},"feature_names":["duration_p","elev_av","aspect_av","landform","land_use","1_3y_fir_p","3_8y_fir_p","8_ny_fir_p","fuel_model","f_load_av","sW_1m_av","sW_3m_av","sW_7_av","sW_28_av","sW_100_av","sW_289_av","t_2m_C_av","d_2m_C_av","rh_2m_av","VPD_Pa_av","sP_hPa_av","gp_m2s2_av","dfmc_av","HDW_av","Haines_av","FWI_12h_av","DC_12h_av","FFMC_12h_a","wv10_kh_av","wdir10_av","wv100_k_av","wdir100_av","Recirc","CircVar","t_950_av","t_850_av","t_700_av","t_500_av","t_300_av","rh_950_av","rh_850_av","rh_500_av","rh_300_av","wv_950_av","wv_850_av","wv_700_av","wv_500_av","wv_300_av","wdi_950_av","wdi_850_av","wdi_700_av","wdi_500_av","wdi_300_av","vwv_950_av","vwv_850_av","vwv_700_av","vwv_500_av","vwv_300_av","gp_950_av","gp_850_av","gp_700_av","gp_500_av","gp_300_av","gT_9_8_av","gT_8_7_av","gT_7_5_av","gT_5_3_av","wSv_9_av","wSdir_9_av","wSv_7_av","wSdir_7_av","wSv_5_av","wSdir_5_av","wSv_1_av","wSdir_1_av","CBH_m_av","HigCC_p_av","LowCC_p_av","MidCC_p_av","TotCC_p_av","Cape_av","BLH_m_av","BLH_m_rt","LCL_hPa_av","LCL_m_av","LFC_hPa_av","CCL_hPa_av","VentIdx_av","CMLG_av","f_start","ros_p_lg1_log"],"feature_types":["float","float","float","c","c","float","float","float","c","float","float","float","float","float","float","float","float","float","float","float","float","float","float","float","c","float","float","float","float","float","float","float","float","float","float","float","float","float","float","float","float","float","float","float","float","float","float","float","float","float","float","float","float","float","float","float","float","float","float","float","float","float","float","float","float","float","float","float","float","float","float","float","float","float","float","float","float","float","float","float","float","float","float","float","float","float","float","float","float","float","float"],"gradient_booster":{"model":{"cats":{"enc":[{"offsets":[],"values":[]},{"offsets":[],"values":[]},{"offsets":[],"values":[]},{"offsets":[0,4,8,12,16,20,24,28,32,36,40,44,47],"values":[49,49,46,48,49,50,46,48,50,49,46,48,50,50,46,48,50,51,46,48,50,52,46,48,51,49,46,48,51,50,46,48,51,52,46,48,52,49,46,48,52,50,46,48,110,97,110]},{"offsets":[0,3,6,9,12,15,18,21,24,27],"values":[49,46,48,50,46,48,51,46,48,52,46,48,53,46,48,54,46,48,55,46,48,56,46,48,110,97,110]},{"offsets":[],"values":[]},{"offsets":[],"values":[]},{"offsets":[],"values":[]},{"offsets":[0,5,10,15,20,25,30,35,40,45,50,55,58,62],"values":[50,50,49,46,48,50,50,50,46,48,50,50,51,46,48,50,50,55,46,48,50,51,49,46,48,50,51,50,46,48,50,51,51,46,48,50,51,52,46,48,50,51,53,46,48,50,51,54,46,48,50,51,55,46,48,52,46,48,57,56,46,48]},{"offsets":[],"values":[]},{"offsets":[],"values":[]},{"offsets":[],"values":[]},{"offsets":[],"values":[]},{"offsets":[],"values":[]},{"offsets":[],"values":[]},{"offsets":[],"values":[]},{"offsets":[],"values":[]},{"offsets":[],"values":[]},{"offsets":[],"values":[]},{"offsets":[],"values":[]},{"offsets":[],"values":[]},{"offsets":[],"values":[]},{"offsets":[],"values":[]},{"offsets":[],"values":[]},{"offsets":[0,3,6],"values":[50,46,48,52,46,48]},{"offsets":[],"values":[]},{"offsets":[],"values":[]},{"offsets":[],"values":[]},{"offsets":[],"values":[]},{"offsets":[],"values":[]},{"offsets":[],"values":[]},{"offsets":[],"values":[]},{"offsets":[],"values":[]},{"offsets":[],"values":[]},{"offsets":[],"values":[]},{"offsets":[],"values":[]},{"offsets":[],"values":[]},{"offsets":[],"values":[]},{"offsets":[],"values":[]},{"offsets":[],"values":[]},{"offsets":[],"values":[]},{"offsets":[],"values":[]},{"offsets":[],"values":[]},{"offsets":[],"values":[]},{"offsets":[],"values":[]},{"offsets":[],"values":[]},{"offsets":[],"values":[]},{"offsets":[],"values":[]},{"offsets":[],"values":[]},{"offsets":[],"values":[]},{"offsets":[],"values":[]},{"offsets":[],"values":[]},{"offsets":[],"values":[]},{"offsets":[],"values":[]},{"offsets":[],"values":[]},{"offsets":[],"values":[]},{"offsets":[],"values":[]},{"offsets":[],"values":[]},{"offsets":[],"values":[]},{"offsets":[],"values":[]},{"offsets":[],"values":[]},{"offsets":[],"values":[]},{"offsets":[],"values":[]},{"offsets":[],"values":[]},{"offsets":[],"values":[]},{"offsets":[],"values":[]},{"offsets":[],"values":[]},{"offsets":[],"values":[]},{"offsets":[],"values":[]},{"offsets":[],"values":[]},{"offsets":[],"values":[]},{"offsets":[],"values":[]},{"offsets":[],"values":[]},{"offsets":[],"values":[]},{"offsets":[],"values":[]},{"offsets":[],"values":[]},{"offsets":[],"values":[]},{"offsets":[],"values":[]},{"offsets":[],"values":[]},{"offsets":[],"values":[]},{"offsets":[],"values":[]},{"offsets":[],"values":[]},{"offsets":[],"values":[]},{"offsets":[],"values":[]},{"offsets":[],"values":[]},{"offsets":[],"values":[]},{"offsets":[],"values":[]},{"offsets":[],"values":[]},{"offsets":[],"values":[]},{"offsets":[],"values":[]},{"offsets":[],"values":[]}],"feature_segments":[0,0,0,0,12,21,21,21,21,34,34,34,34,34,34,34,34,34,34,34,34,34,34,34,34,36,36,36,36,36,36,36,36,36,36,36,36,36,36,36,36,36,36,36,36,36,36,36,36,36,36,36,36,36,36,36,36,36,36,36,36,36,36,36,36,36,36,36,36,36,36,36,36,36,36,36,36,36,36,36,36,36,36,36,36,36,36,36,36,36,36,36],"sorted_idx":[0,1,2,3,4,5,6,7,8,9,10,11,0,1,2,3,4,5,6,7,8,0,1,2,3,4,5,6,7,8,9,10,11,12,0,1]},"gbtree_model_param":{"num_parallel_tree":"1","num_trees":"2700"},"iteration_indptr":[0,1,2,3,4,5,6,7,8,9,10,11,12,13,14,15,16,17,18,19,20,21,22,23,24,25,26,27,28,29,30,31,32,33,34,35,36,37,38,39,40,41,42,43,44,45,46,47,48,49,50,51,52,53,54,55,56,57,58,59,60,61,62,63,64,65,66,67,68,69,70,71,72,73,74,75,76,77,78,79,80,81,82,83,84,85,86,87,88,89,90,91,92,93,94,95,96,97,98,99,100,101,102,103,104,105,106,107,108,109,110,111,112,113,114,115,116,117,118,119,120,121,122,123,124,125,126,127,128,129,130,131,132,133,134,135,136,137,138,139,140,141,142,143,144,145,146,147,148,149,150,151,152,153,154,155,156,157,158,159,160,161,162,163,164,165,166,167,168,169,170,171,172,173,174,175,176,177,178,179,180,181,182,183,184,185,186,187,188,189,190,191,192,193,194,195,196,197,198,199,200,201,202,203,204,205,206,207,208,209,210,211,212,213,214,215,216,217,218,219,220,221,222,223,224,225,226,227,228,229,230,231,232,233,234,235,236,237,238,239,240,241,242,243,244,245,246,247,248,249,250,251,252,253,254,255,256,257,258,259,260,261,262,263,264,265,266,267,268,269,270,271,272,273,274,275,276,277,278,279,280,281,282,283,284,285,286,287,288,289,290,291,292,293,294,295,296,297,298,299,300,301,302,303,304,305,306,307,308,309,310,311,312,313,314,315,316,317,318,319,320,321,322,323,324,325,326,327,328,329,330,331,332,333,334,335,336,337,338,339,340,341,342,343,344,345,346,347,348,349,350,351,352,353,354,355,356,357,358,359,360,361,362,363,364,365,366,367,368,369,370,371,372,373,374,375,376,377,378,379,380,381,382,383,384,385,386,387,388,389,390,391,392,393,394,395,396,397,398,399,400,401,402,403,404,405,406,407,408,409,410,411,412,413,414,415,416,417,418,419,420,421,422,423,424,425,426,427,428,429,430,431,432,433,434,435,436,437,438,439,440,441,442,443,444,445,446,447,448,449,450,451,452,453,454,455,456,457,458,459,460,461,462,463,464,465,466,467,468,469,470,471,472,473,474,475,476,477,478,479,480,481,482,483,484,485,486,487,488,489,490,491,492,493,494,495,496,497,498,499,500,501,502,503,504,505,506,507,508,509,510,511,512,513,514,515,516,517,518,519,520,521,522,523,524,525,526,527,528,529,530,531,532,533,534,535,536,537,538,539,540,541,542,543,544,545,546,547,548,549,550,551,552,553,554,555,556,557,558,559,560,561,562,563,564,565,566,567,568,569,570,571,572,573,574,575,576,577,578,579,580,581,582,583,584,585,586,587,588,589,590,591,592,593,594,595,596,597,598,599,600,601,602,603,604,605,606,607,608,609,610,611,612,613,614,615,616,617,618,619,620,621,622,623,624,625,626,627,628,629,630,631,632,633,634,635,636,637,638,639,640,641,642,643,644,645,646,647,648,649,650,651,652,653,654,655,656,657,658,659,660,661,662,663,664,665,666,667,668,669,670,671,672,673,674,675,676,677,678,679,680,681,682,683,684,685,686,687,688,689,690,691,692,693,694,695,696,697,698,699,700,701,702,703,704,705,706,707,708,709,710,711,712,713,714,715,716,717,718,719,720,721,722,723,724,725,726,727,728,729,730,731,732,733,734,735,736,737,738,739,740,741,742,743,744,745,746,747,748,749,750,751,752,753,754,755,756,757,758,759,760,761,762,763,764,765,766,767,768,769,770,771,772,773,774,775,776,777,778,779,780,781,782,783,784,785,786,787,788,789,790,791,792,793,794,795,796,797,798,799,800,801,802,803,804,805,806,807,808,809,810,811,812,813,814,815,816,817,818,819,820,821,822,823,824,825,826,827,828,829,830,831,832,833,834,835,836,837,838,839,840,841,842,843,844,845,846,847,848,849,850,851,852,853,854,855,856,857,858,859,860,861,862,863,864,865,866,867,868,869,870,871,872,873,874,875,876,877,878,879,880,881,882,883,884,885,886,887,888,889,890,891,892,893,894,895,896,897,898,899,900,901,902,903,904,905,906,907,908,909,910,911,912,913,914,915,916,917,918,919,920,921,922,923,924,925,926,927,928,929,930,931,932,933,934,935,936,937,938,939,940,941,942,943,944,945,946,947,948,949,950,951,952,953,954,955,956,957,958,959,960,961,962,963,964,965,966,967,968,969,970,971,972,973,974,975,976,977,978,979,980,981,982,983,984,985,986,987,988,989,990,991,992,993,994,995,996,997,998,999,1000,1001,1002,1003,1004,1005,1006,1007,1008,1009,1010,1011,1012,1013,1014,1015,1016,1017,1018,1019,1020,1021,1022,1023,1024,1025,1026,1027,1028,1029,1030,1031,1032,1033,1034,1035,1036,1037,1038,1039,1040,1041,1042,1043,1044,1045,1046,1047,1048,1049,1050,1051,1052,1053,1054,1055,1056,1057,1058,1059,1060,1061,1062,1063,1064,1065,1066,1067,1068,1069,1070,1071,1072,1073,1074,1075,1076,1077,1078,1079,1080,1081,1082,1083,1084,1085,1086,1087,1088,1089,1090,1091,1092,1093,1094,1095,1096,1097,1098,1099,1100,1101,1102,1103,1104,1105,1106,1107,1108,1109,1110,1111,1112,1113,1114,1115,1116,1117,1118,1119,1120,1121,1122,1123,1124,1125,1126,1127,1128,1129,1130,1131,1132,1133,1134,1135,1136,1137,1138,1139,1140,1141,1142,1143,1144,1145,1146,1147,1148,1149,1150,1151,1152,1153,1154,1155,1156,1157,1158,1159,1160,1161,1162,1163,1164,1165,1166,1167,1168,1169,1170,1171,1172,1173,1174,1175,1176,1177,1178,1179,1180,1181,1182,1183,1184,1185,1186,1187,1188,1189,1190,1191,1192,1193,1194,1195,1196,1197,1198,1199,1200,1201,1202,1203,1204,1205,1206,1207,1208,1209,1210,1211,1212,1213,1214,1215,1216,1217,1218,1219,1220,1221,1222,1223,1224,1225,1226,1227,1228,1229,1230,1231,1232,1233,1234,1235,1236,1237,1238,1239,1240,1241,1242,1243,1244,1245,1246,1247,1248,1249,1250,1251,1252,1253,1254,1255,1256,1257,1258,1259,1260,1261,1262,1263,1264,1265,1266,1267,1268,1269,1270,1271,1272,1273,1274,1275,1276,1277,1278,1279,1280,1281,1282,1283,1284,1285,1286,1287,1288,1289,1290,1291,1292,1293,1294,1295,1296,1297,1298,1299,1300,1301,1302,1303,1304,1305,1306,1307,1308,1309,1310,1311,1312,1313,1314,1315,1316,1317,1318,1319,1320,1321,1322,1323,1324,1325,1326,1327,1328,1329,1330,1331,1332,1333,1334,1335,1336,1337,1338,1339,1340,1341,1342,1343,1344,1345,1346,1347,1348,1349,1350,1351,1352,1353,1354,1355,1356,1357,1358,1359,1360,1361,1362,1363,1364,1365,1366,1367,1368,1369,1370,1371,1372,1373,1374,1375,1376,1377,1378,1379,1380,1381,1382,1383,1384,1385,1386,1387,1388,1389,1390,1391,1392,1393,1394,1395,1396,1397,1398,1399,1400,1401,1402,1403,1404,1405,1406,1407,1408,1409,1410,1411,1412,1413,1414,1415,1416,1417,1418,1419,1420,1421,1422,1423,1424,1425,1426,1427,1428,1429,1430,1431,1432,1433,1434,1435,1436,1437,1438,1439,1440,1441,1442,1443,1444,1445,1446,1447,1448,1449,1450,1451,1452,1453,1454,1455,1456,1457,1458,1459,1460,1461,1462,1463,1464,1465,1466,1467,1468,1469,1470,1471,1472,1473,1474,1475,1476,1477,1478,1479,1480,1481,1482,1483,1484,1485,1486,1487,1488,1489,1490,1491,1492,1493,1494,1495,1496,1497,1498,1499,1500,1501,1502,1503,1504,1505,1506,1507,1508,1509,1510,1511,1512,1513,1514,1515,1516,1517,1518,1519,1520,1521,1522,1523,1524,1525,1526,1527,1528,1529,1530,1531,1532,1533,1534,1535,1536,1537,1538,1539,1540,1541,1542,1543,1544,1545,1546,1547,1548,1549,1550,1551,1552,1553,1554,1555,1556,1557,1558,1559,1560,1561,1562,1563,1564,1565,1566,1567,1568,1569,1570,1571,1572,1573,1574,1575,1576,1577,1578,1579,1580,1581,1582,1583,1584,1585,1586,1587,1588,1589,1590,1591,1592,1593,1594,1595,1596,1597,1598,1599,1600,1601,1602,1603,1604,1605,1606,1607,1608,1609,1610,1611,1612,1613,1614,1615,1616,1617,1618,1619,1620,1621,1622,1623,1624,1625,1626,1627,1628,1629,1630,1631,1632,1633,1634,1635,1636,1637,1638,1639,1640,1641,1642,1643,1644,1645,1646,1647,1648,1649,1650,1651,1652,1653,1654,1655,1656,1657,1658,1659,1660,1661,1662,1663,1664,1665,1666,1667,1668,1669,1670,1671,1672,1673,1674,1675,1676,1677,1678,1679,1680,1681,1682,1683,1684,1685,1686,1687,1688,1689,1690,1691,1692,1693,1694,1695,1696,1697,1698,1699,1700,1701,1702,1703,1704,1705,1706,1707,1708,1709,1710,1711,1712,1713,1714,1715,1716,1717,1718,1719,1720,1721,1722,1723,1724,1725,1726,1727,1728,1729,1730,1731,1732,1733,1734,1735,1736,1737,1738,1739,1740,1741,1742,1743,1744,1745,1746,1747,1748,1749,1750,1751,1752,1753,1754,1755,1756,1757,1758,1759,1760,1761,1762,1763,1764,1765,1766,1767,1768,1769,1770,1771,1772,1773,1774,1775,1776,1777,1778,1779,1780,1781,1782,1783,1784,1785,1786,1787,1788,1789,1790,1791,1792,1793,1794,1795,1796,1797,1798,1799,1800,1801,1802,1803,1804,1805,1806,1807,1808,1809,1810,1811,1812,1813,1814,1815,1816,1817,1818,1819,1820,1821,1822,1823,1824,1825,1826,1827,1828,1829,1830,1831,1832,1833,1834,1835,1836,1837,1838,1839,1840,1841,1842,1843,1844,1845,1846,1847,1848,1849,1850,1851,1852,1853,1854,1855,1856,1857,1858,1859,1860,1861,1862,1863,1864,1865,1866,1867,1868,1869,1870,1871,1872,1873,1874,1875,1876,1877,1878,1879,1880,1881,1882,1883,1884,1885,1886,1887,1888,1889,1890,1891,1892,1893,1894,1895,1896,1897,1898,1899,1900,1901,1902,1903,1904,1905,1906,1907,1908,1909,1910,1911,1912,1913,1914,1915,1916,1917,1918,1919,1920,1921,1922,1923,1924,1925,1926,1927,1928,1929,1930,1931,1932,1933,1934,1935,1936,1937,1938,1939,1940,1941,1942,1943,1944,1945,1946,1947,1948,1949,1950,1951,1952,1953,1954,1955,1956,1957,1958,1959,1960,1961,1962,1963,1964,1965,1966,1967,1968,1969,1970,1971,1972,1973,1974,1975,1976,1977,1978,1979,1980,1981,1982,1983,1984,1985,1986,1987,1988,1989,1990,1991,1992,1993,1994,1995,1996,1997,1998,1999,2000,2001,2002,2003,2004,2005,2006,2007,2008,2009,2010,2011,2012,2013,2014,2015,2016,2017,2018,2019,2020,2021,2022,2023,2024,2025,2026,2027,2028,2029,2030,2031,2032,2033,2034,2035,2036,2037,2038,2039,2040,2041,2042,2043,2044,2045,2046,2047,2048,2049,2050,2051,2052,2053,2054,2055,2056,2057,2058,2059,2060,2061,2062,2063,2064,2065,2066,2067,2068,2069,2070,2071,2072,2073,2074,2075,2076,2077,2078,2079,2080,2081,2082,2083,2084,2085,2086,2087,2088,2089,2090,2091,2092,2093,2094,2095,2096,2097,2098,2099,2100,2101,2102,2103,2104,2105,2106,2107,2108,2109,2110,2111,2112,2113,2114,2115,2116,2117,2118,2119,2120,2121,2122,2123,2124,2125,2126,2127,2128,2129,2130,2131,2132,2133,2134,2135,2136,2137,2138,2139,2140,2141,2142,2143,2144,2145,2146,2147,2148,2149,2150,2151,2152,2153,2154,2155,2156,2157,2158,2159,2160,2161,2162,2163,2164,2165,2166,2167,2168,2169,2170,2171,2172,2173,2174,2175,2176,2177,2178,2179,2180,2181,2182,2183,2184,2185,2186,2187,2188,2189,2190,2191,2192,2193,2194,2195,2196,2197,2198,2199,2200,2201,2202,2203,2204,2205,2206,2207,2208,2209,2210,2211,2212,2213,2214,2215,2216,2217,2218,2219,2220,2221,2222,2223,2224,2225,2226,2227,2228,2229,2230,2231,2232,2233,2234,2235,2236,2237,2238,2239,2240,2241,2242,2243,2244,2245,2246,2247,2248,2249,2250,2251,2252,2253,2254,2255,2256,2257,2258,2259,2260,2261,2262,2263,2264,2265,2266,2267,2268,2269,2270,2271,2272,2273,2274,2275,2276,2277,2278,2279,2280,2281,2282,2283,2284,2285,2286,2287,2288,2289,2290,2291,2292,2293,2294,2295,2296,2297,2298,2299,2300,2301,2302,2303,2304,2305,2306,2307,2308,2309,2310,2311,2312,2313,2314,2315,2316,2317,2318,2319,2320,2321,2322,2323,2324,2325,2326,2327,2328,2329,2330,2331,2332,2333,2334,2335,2336,2337,2338,2339,2340,2341,2342,2343,2344,2345,2346,2347,2348,2349,2350,2351,2352,2353,2354,2355,2356,2357,2358,2359,2360,2361,2362,2363,2364,2365,2366,2367,2368,2369,2370,2371,2372,2373,2374,2375,2376,2377,2378,2379,2380,2381,2382,2383,2384,2385,2386,2387,2388,2389,2390,2391,2392,2393,2394,2395,2396,2397,2398,2399,2400,2401,2402,2403,2404,2405,2406,2407,2408,2409,2410,2411,2412,2413,2414,2415,2416,2417,2418,2419,2420,2421,2422,2423,2424,2425,2426,2427,2428,2429,2430,2431,2432,2433,2434,2435,2436,2437,2438,2439,2440,2441,2442,2443,2444,2445,2446,2447,2448,2449,2450,2451,2452,2453,2454,2455,2456,2457,2458,2459,2460,2461,2462,2463,2464,2465,2466,2467,2468,2469,2470,2471,2472,2473,2474,2475,2476,2477,2478,2479,2480,2481,2482,2483,2484,2485,2486,2487,2488,2489,2490,2491,2492,2493,2494,2495,2496,2497,2498,2499,2500,2501,2502,2503,2504,2505,2506,2507,2508,2509,2510,2511,2512,2513,2514,2515,2516,2517,2518,2519,2520,2521,2522,2523,2524,2525,2526,2527,2528,2529,2530,2531,2532,2533,2534,2535,2536,2537,2538,2539,2540,2541,2542,2543,2544,2545,2546,2547,2548,2549,2550,2551,2552,2553,2554,2555,2556,2557,2558,2559,2560,2561,2562,2563,2564,2565,2566,2567,2568,2569,2570,2571,2572,2573,2574,2575,2576,2577,2578,2579,2580,2581,2582,2583,2584,2585,2586,2587,2588,2589,2590,2591,2592,2593,2594,2595,2596,2597,2598,2599,2600,2601,2602,2603,2604,2605,2606,2607,2608,2609,2610,2611,2612,2613,2614,2615,2616,2617,2618,2619,2620,2621,2622,2623,2624,2625,2626,2627,2628,2629,2630,2631,2632,2633,2634,2635,2636,2637,2638,2639,2640,2641,2642,2643,2644,2645,2646,2647,2648,2649,2650,2651,2652,2653,2654,2655,2656,2657,2658,2659,2660,2661,2662,2663,2664,2665,2666,2667,2668,2669,2670,2671,2672,2673,2674,2675,2676,2677,2678,2679,2680,2681,2682,2683,2684,2685,2686,2687,2688,2689,2690,2691,2692,2693,2694,2695,2696,2697,2698,2699,2700],"tree_info":[0,0,0,0,0,0,0,0,0,0,0,0,0,0,0,0,0,0,0,0,0,0,0,0,0,0,0,0,0,0,0,0,0,0,0,0,0,0,0,0,0,0,0,0,0,0,0,0,0,0,0,0,0,0,0,0,0,0,0,0,0,0,0,0,0,0,0,0,0,0,0,0,0,0,0,0,0,0,0,0,0,0,0,0,0,0,0,0,0,0,0,0,0,0,0,0,0,0,0,0,0,0,0,0,0,0,0,0,0,0,0,0,0,0,0,0,0,0,0,0,0,0,0,0,0,0,0,0,0,0,0,0,0,0,0,0,0,0,0,0,0,0,0,0,0,0,0,0,0,0,0,0,0,0,0,0,0,0,0,0,0,0,0,0,0,0,0,0,0,0,0,0,0,0,0,0,0,0,0,0,0,0,0,0,0,0,0,0,0,0,0,0,0,0,0,0,0,0,0,0,0,0,0,0,0,0,0,0,0,0,0,0,0,0,0,0,0,0,0,0,0,0,0,0,0,0,0,0,0,0,0,0,0,0,0,0,0,0,0,0,0,0,0,0,0,0,0,0,0,0,0,0,0,0,0,0,0,0,0,0,0,0,0,0,0,0,0,0,0,0,0,0,0,0,0,0,0,0,0,0,0,0,0,0,0,0,0,0,0,0,0,0,0,0,0,0,0,0,0,0,0,0,0,0,0,0,0,0,0,0,0,0,0,0,0,0,0,0,0,0,0,0,0,0,0,0,0,0,0,0,0,0,0,0,0,0,0,0,0,0,0,0,0,0,0,0,0,0,0,0,0,0,0,0,0,0,0,0,0,0,0,0,0,0,0,0,0,0,0,0,0,0,0,0,0,0,0,0,0,0,0,0,0,0,0,0,0,0,0,0,0,0,0,0,0,0,0,0,0,0,0,0,0,0,0,0,0,0,0,0,0,0,0,0,0,0,0,0,0,0,0,0,0,0,0,0,0,0,0,0,0,0,0,0,0,0,0,0,0,0,0,0,0,0,0,0,0,0,0,0,0,0,0,0,0,0,0,0,0,0,0,0,0,0,0,0,0,0,0,0,0,0,0,0,0,0,0,0,0,0,0,0,0,0,0,0,0,0,0,0,0,0,0,0,0,0,0,0,0,0,0,0,0,0,0,0,0,0,0,0,0,0,0,0,0,0,0,0,0,0,0,0,0,0,0,0,0,0,0,0,0,0,0,0,0,0,0,0,0,0,0,0,0,0,0,0,0,0,0,0,0,0,0,0,0,0,0,0,0,0,0,0,0,0,0,0,0,0,0,0,0,0,0,0,0,0,0,0,0,0,0,0,0,0,0,0,0,0,0,0,0,0,0,0,0,0,0,0,0,0,0,0,0,0,0,0,0,0,0,0,0,0,0,0,0,0,0,0,0,0,0,0,0,0,0,0,0,0,0,0,0,0,0,0,0,0,0,0,0,0,0,0,0,0,0,0,0,0,0,0,0,0,0,0,0,0,0,0,0,0,0,0,0,0,0,0,0,0,0,0,0,0,0,0,0,0,0,0,0,0,0,0,0,0,0,0,0,0,0,0,0,0,0,0,0,0,0,0,0,0,0,0,0,0,0,0,0,0,0,0,0,0,0,0,0,0,0,0,0,0,0,0,0,0,0,0,0,0,0,0,0,0,0,0,0,0,0,0,0,0,0,0,0,0,0,0,0,0,0,0,0,0,0,0,0,0,0,0,0,0,0,0,0,0,0,0,0,0,0,0,0,0,0,0,0,0,0,0,0,0,0,0,0,0,0,0,0,0,0,0,0,0,0,0,0,0,0,0,0,0,0,0,0,0,0,0,0,0,0,0,0,0,0,0,0,0,0,0,0,0,0,0,0,0,0,0,0,0,0,0,0,0,0,0,0,0,0,0,0,0,0,0,0,0,0,0,0,0,0,0,0,0,0,0,0,0,0,0,0,0,0,0,0,0,0,0,0,0,0,0,0,0,0,0,0,0,0,0,0,0,0,0,0,0,0,0,0,0,0,0,0,0,0,0,0,0,0,0,0,0,0,0,0,0,0,0,0,0,0,0,0,0,0,0,0,0,0,0,0,0,0,0,0,0,0,0,0,0,0,0,0,0,0,0,0,0,0,0,0,0,0,0,0,0,0,0,0,0,0,0,0,0,0,0,0,0,0,0,0,0,0,0,0,0,0,0,0,0,0,0,0,0,0,0,0,0,0,0,0,0,0,0,0,0,0,0,0,0,0,0,0,0,0,0,0,0,0,0,0,0,0,0,0,0,0,0,0,0,0,0,0,0,0,0,0,0,0,0,0,0,0,0,0,0,0,0,0,0,0,0,0,0,0,0,0,0,0,0,0,0,0,0,0,0,0,0,0,0,0,0,0,0,0,0,0,0,0,0,0,0,0,0,0,0,0,0,0,0,0,0,0,0,0,0,0,0,0,0,0,0,0,0,0,0,0,0,0,0,0,0,0,0,0,0,0,0,0,0,0,0,0,0,0,0,0,0,0,0,0,0,0,0,0,0,0,0,0,0,0,0,0,0,0,0,0,0,0,0,0,0,0,0,0,0,0,0,0,0,0,0,0,0,0,0,0,0,0,0,0,0,0,0,0,0,0,0,0,0,0,0,0,0,0,0,0,0,0,0,0,0,0,0,0,0,0,0,0,0,0,0,0,0,0,0,0,0,0,0,0,0,0,0,0,0,0,0,0,0,0,0,0,0,0,0,0,0,0,0,0,0,0,0,0,0,0,0,0,0,0,0,0,0,0,0,0,0,0,0,0,0,0,0,0,0,0,0,0,0,0,0,0,0,0,0,0,0,0,0,0,0,0,0,0,0,0,0,0,0,0,0,0,0,0,0,0,0,0,0,0,0,0,0,0,0,0,0,0,0,0,0,0,0,0,0,0,0,0,0,0,0,0,0,0,0,0,0,0,0,0,0,0,0,0,0,0,0,0,0,0,0,0,0,0,0,0,0,0,0,0,0,0,0,0,0,0,0,0,0,0,0,0,0,0,0,0,0,0,0,0,0,0,0,0,0,0,0,0,0,0,0,0,0,0,0,0,0,0,0,0,0,0,0,0,0,0,0,0,0,0,0,0,0,0,0,0,0,0,0,0,0,0,0,0,0,0,0,0,0,0,0,0,0,0,0,0,0,0,0,0,0,0,0,0,0,0,0,0,0,0,0,0,0,0,0,0,0,0,0,0,0,0,0,0,0,0,0,0,0,0,0,0,0,0,0,0,0,0,0,0,0,0,0,0,0,0,0,0,0,0,0,0,0,0,0,0,0,0,0,0,0,0,0,0,0,0,0,0,0,0,0,0,0,0,0,0,0,0,0,0,0,0,0,0,0,0,0,0,0,0,0,0,0,0,0,0,0,0,0,0,0,0,0,0,0,0,0,0,0,0,0,0,0,0,0,0,0,0,0,0,0,0,0,0,0,0,0,0,0,0,0,0,0,0,0,0,0,0,0,0,0,0,0,0,0,0,0,0,0,0,0,0,0,0,0,0,0,0,0,0,0,0,0,0,0,0,0,0,0,0,0,0,0,0,0,0,0,0,0,0,0,0,0,0,0,0,0,0,0,0,0,0,0,0,0,0,0,0,0,0,0,0,0,0,0,0,0,0,0,0,0,0,0,0,0,0,0,0,0,0,0,0,0,0,0,0,0,0,0,0,0,0,0,0,0,0,0,0,0,0,0,0,0,0,0,0,0,0,0,0,0,0,0,0,0,0,0,0,0,0,0,0,0,0,0,0,0,0,0,0,0,0,0,0,0,0,0,0,0,0,0,0,0,0,0,0,0,0,0,0,0,0,0,0,0,0,0,0,0,0,0,0,0,0,0,0,0,0,0,0,0,0,0,0,0,0,0,0,0,0,0,0,0,0,0,0,0,0,0,0,0,0,0,0,0,0,0,0,0,0,0,0,0,0,0,0,0,0,0,0,0,0,0,0,0,0,0,0,0,0,0,0,0,0,0,0,0,0,0,0,0,0,0,0,0,0,0,0,0,0,0,0,0,0,0,0,0,0,0,0,0,0,0,0,0,0,0,0,0,0,0,0,0,0,0,0,0,0,0,0,0,0,0,0,0,0,0,0,0,0,0,0,0,0,0,0,0,0,0,0,0,0,0,0,0,0,0,0,0,0,0,0,0,0,0,0,0,0,0,0,0,0,0,0,0,0,0,0,0,0,0,0,0,0,0,0,0,0,0,0,0,0,0,0,0,0,0,0,0,0,0,0,0,0,0,0,0,0,0,0,0,0,0,0,0,0,0,0,0,0,0,0,0,0,0,0,0,0,0,0,0,0,0,0,0,0,0,0,0,0,0,0,0,0,0,0,0,0,0,0,0,0,0,0,0,0,0,0,0,0,0,0,0,0,0,0,0,0,0,0,0,0,0,0,0,0,0,0,0,0,0,0,0,0,0,0,0,0,0,0,0,0,0,0,0,0,0,0,0,0,0,0,0,0,0,0,0,0,0,0,0,0,0,0,0,0,0,0,0,0,0,0,0,0,0,0,0,0,0,0,0,0,0,0,0,0,0,0,0,0,0,0,0,0,0,0,0,0,0,0,0,0,0,0,0,0,0,0,0,0,0,0,0,0,0,0,0,0,0,0,0,0,0,0,0,0,0,0,0,0,0,0,0,0,0,0,0,0,0,0,0,0,0,0,0,0,0,0,0,0,0,0,0,0,0,0,0,0,0,0,0,0,0,0,0,0,0,0,0,0,0,0,0,0,0,0,0,0,0,0,0,0,0,0,0,0,0,0,0,0,0,0,0,0,0,0,0,0,0,0,0,0,0,0,0,0,0,0,0,0,0,0,0,0,0,0,0,0,0,0,0,0,0,0,0,0,0,0,0,0,0,0,0,0,0,0,0,0,0,0,0,0,0,0,0,0,0,0,0,0,0,0,0,0,0,0,0,0,0,0,0,0,0,0,0,0,0,0,0,0,0,0,0,0,0,0,0,0,0,0,0,0,0,0,0,0,0,0,0,0,0,0,0,0,0,0,0,0,0,0,0,0,0,0,0,0,0,0,0,0,0,0,0,0,0,0,0,0,0,0,0,0,0,0,0,0,0,0,0,0,0,0,0,0,0,0,0,0,0,0,0,0,0,0,0,0,0,0,0,0,0,0,0,0,0,0,0,0,0,0,0,0,0,0,0,0,0,0,0,0,0,0,0,0,0,0,0,0,0,0,0,0,0,0,0,0,0,0,0,0,0,0,0,0,0,0,0,0,0,0,0,0,0,0,0,0,0,0,0,0,0,0,0,0,0,0,0,0,0,0,0,0,0,0,0,0,0,0,0,0,0,0,0,0,0,0,0,0,0,0,0,0,0,0,0,0,0,0,0,0,0,0,0,0,0,0,0,0,0,0,0,0,0,0,0,0,0,0,0,0,0,0,0,0,0,0,0,0,0,0,0,0,0,0,0,0,0,0,0,0,0,0,0,0,0,0,0,0,0,0,0,0,0,0,0,0,0,0,0,0,0,0,0,0,0,0,0,0,0,0,0,0,0,0,0,0,0,0,0,0,0,0,0,0,0,0,0,0,0,0,0,0,0,0,0,0,0,0,0,0,0,0,0,0,0,0,0,0,0,0,0,0,0,0,0,0,0,0,0,0,0,0,0,0,0,0,0,0,0,0,0,0,0,0,0,0,0,0,0,0,0,0,0,0,0,0,0,0,0,0,0,0,0,0,0,0,0,0,0,0,0,0,0,0,0,0,0,0,0,0,0,0,0,0,0,0,0,0,0,0,0,0,0,0,0,0,0,0,0,0,0,0,0,0,0,0,0,0,0,0,0,0,0,0,0,0,0,0,0,0,0,0,0,0,0,0,0,0,0,0,0,0,0,0,0,0,0,0,0,0,0,0,0,0,0,0,0,0,0,0,0,0,0,0,0,0,0,0,0,0,0,0,0,0,0,0,0,0,0,0,0,0,0,0,0,0,0,0,0,0,0,0,0,0,0,0,0,0,0,0,0,0,0,0,0,0,0,0,0,0,0,0,0,0,0,0,0,0,0,0,0,0,0,0,0,0,0,0,0,0,0,0,0,0,0,0,0,0,0,0,0],"trees":[{"base_weights":[1.6344395E-2,-1.9927236E0,7.370644E-1,-2E0,4.4973716E-2,1.4836715E0,-9.805297E-1,9.543448E-3,-2E0,4.5625114E-1,1.886129E0,-1.20175205E-1,-1.5141399E0,-8.523966E-1,-2E0,-9.475606E-1,6.402566E-1,1.9054238E-1,2E0,9.9443235E-2,-6.904574E-2,-1.9631165E0,-3.305401E-1,1.4678438E-3,-1.3789377E0,-2E0,-6.526751E-3,-0E0,-5.8137085E-2,2.8646606E-1,1.150811E0,-3.5390034E-2,6.4681715E-1,2E0,-0E0,-5.86493E-1,5.2349937E-1,-6.7495E-1,-2E0,-1.1248425E0,4.234291E-1,-2.6079698E-2,-6.1405633E-2,-7.2551735E-2,-8.202094E-1,-1.5879461E-1,9.365445E-1,7.1053755E-1,6.306027E-2,-1.8533729E-2,1.0654765E0,2E0,-0E0,-4.40516E-2,7.1112925E-1,6.590514E-3,-1.008248E0,-2.0506116E-2,8.3204645E-1,-4.7384825E-2,5.745902E-3,-7.2551735E-2,-1.1796889E0,-1.7173482E-3,-7.226927E-2,9.0948737E-1,-1.2559583E-2,-5.221823E-2,8.4625045E-3,-3.6008347E-2,1.0399915E-1,-1.7965472E-3,1.1914654E0,9.411267E-1,-0E0,4.726033E-3,1.3228469E0,2E0,-0E0,-0E0,4.6619363E-2,-4.6340317E-2,-1.0244466E-2,1.4530311E0,1.9225736E-1,-1.8262378E0,-6.4923793E-1,1.2222758E-2,4.1543465E-2,3.656153E-1,-1.9643607E-2,1.4951546E0,1.6046414E-2,4.492738E-2,4.6420082E-1,5.732146E-2,2.2353902E-2,2.794664E-1,2E0,1.2464726E-2,6.674412E-2,-1.4986463E-1,3.4601092E-2,-2.8486287E-2,-7.2551735E-2,-1.7231958E-1,-4.862207E-2,-9.191854E-3,6.9815236E-1,7.2551735E-2,2.2790074E-2,2.4640463E-2,9.440295E-4,-1.8312603E-2,3.9678123E-2,2E0,6.790542E-1,-1.7698739E-2,8.333026E-3,6.245875E-3,-1.6559616E-2,-0E0,3.874164E-2,7.554559E-1,2E0,-4.4378918E-3,4.1981403E-2,-1.394388E-2,5.8858212E-2,2.787935E-2,7.2551735E-2],"categories":[],"categories_nodes":[],"categories_segments":[],"categories_sizes":[],"default_left":[0,0,0,0,0,0,0,0,0,0,0,0,0,0,0,0,0,0,0,0,0,0,0,0,0,0,0,0,0,0,0,0,0,0,0,0,0,0,0,0,0,0,0,0,0,0,0,1,0,0,0,0,0,0,0,0,0,0,0,0,0,0,0,0,0,0,0,0,0,0,0,0,0,0,0,0,0,0,0,0,0,0,0,0,0,0,0,0,0,0,0,0,0,0,0,0,0,0,0,0,0,0,0,0,0,0,0,0,0,0,0,0,0,0,0,0,0,0,0,0,0,0,0,0,0,0,0,0,0,0,0],"id":0,"left_children":[1,3,5,7,-1,9,11,-1,13,15,17,19,21,23,25,27,29,31,33,35,-1,37,39,-1,41,43,-1,-1,-1,45,47,-1,49,51,53,55,57,59,61,63,65,-1,-1,-1,67,69,71,73,-1,-1,75,77,-1,-1,79,-1,81,-1,83,-1,-1,-1,85,-1,-1,87,-1,-1,-1,-1,89,-1,91,93,-1,-1,95,97,-1,-1,-1,-1,-1,99,101,103,105,-1,-1,107,-1,109,-1,-1,111,-1,-1,113,115,-1,-1,117,-1,-1,-1,119,-1,-1,121,-1,-1,-1,-1,-1,-1,123,125,-1,-1,-1,-1,-1,-1,127,129,-1,-1,-1,-1,-1,-1],"loss_changes":[1.6096671E3,9.543494E1,1.0543086E3,4.299292E1,0E0,2.3317639E2,1.1328099E2,0E0,3.3447266E1,4.5845318E1,1.3368982E2,4.4465446E1,7.870703E1,1.873747E1,1.7960083E1,1.3150272E1,2.5987644E1,2.8695393E1,8.3010254E1,2.8666578E1,0E0,2.0023315E1,3.1416817E1,0E0,1.377945E0,1.7865967E1,0E0,0E0,0E0,2.9168503E1,1.2286995E1,0E0,2.083815E1,5.00459E1,2.5942184E1,1.3584008E1,2.2392673E1,1.2858082E1,1.7990295E1,2.143676E1,1.2074347E1,0E0,0E0,0E0,1.762987E1,1.5105335E1,1.1515766E1,7.106945E0,0E0,0E0,5.5149E0,3.5813965E1,0E0,0E0,8.3602915E0,0E0,3.2573357E0,0E0,1.774577E1,0E0,0E0,0E0,1.2152889E1,0E0,0E0,9.560528E-1,0E0,0E0,0E0,0E0,9.210792E0,0E0,5.1181297E0,2.6130924E0,0E0,0E0,9.301872E-1,4.148474E1,0E0,0E0,0E0,0E0,0E0,7.3864136E0,9.804543E0,1.697258E0,9.016948E0,0E0,0E0,8.889287E0,0E0,8.710232E0,0E0,0E0,1.2835956E0,0E0,0E0,1.6249962E1,2.5142578E1,0E0,0E0,4.1285143E0,0E0,0E0,0E0,3.3627062E0,0E0,0E0,6.886589E0,0E0,0E0,0E0,0E0,0E0,0E0,1.6451416E1,1.0740016E1,0E0,0E0,0E0,0E0,0E0,0E0,2.3360487E1,9.815186E0,0E0,0E0,0E0,0E0,0E0,0E0],"parents":[2147483647,0,0,1,1,2,2,3,3,5,5,6,6,8,8,9,9,10,10,11,11,12,12,13,13,14,14,15,15,16,16,17,17,18,18,19,19,21,21,22,22,24,24,25,25,29,29,30,30,32,32,33,33,34,34,35,35,36,36,37,37,38,38,39,39,40,40,44,44,45,45,46,46,47,47,50,50,51,51,54,54,56,56,58,58,62,62,65,65,70,70,72,72,73,73,76,76,77,77,83,83,84,84,85,85,86,86,89,89,91,91,94,94,97,97,98,98,101,101,105,105,108,108,115,115,116,116,123,123,124,124],"right_children":[2,4,6,8,-1,10,12,-1,14,16,18,20,22,24,26,28,30,32,34,36,-1,38,40,-1,42,44,-1,-1,-1,46,48,-1,50,52,54,56,58,60,62,64,66,-1,-1,-1,68,70,72,74,-1,-1,76,78,-1,-1,80,-1,82,-1,84,-1,-1,-1,86,-1,-1,88,-1,-1,-1,-1,90,-1,92,94,-1,-1,96,98,-1,-1,-1,-1,-1,100,102,104,106,-1,-1,108,-1,110,-1,-1,112,-1,-1,114,116,-1,-1,118,-1,-1,-1,120,-1,-1,122,-1,-1,-1,-1,-1,-1,124,126,-1,-1,-1,-1,-1,-1,128,130,-1,-1,-1,-1,-1,-1],"split_conditions":[2.5798771E0,5.5970516E4,3.75E0,1.5120038E1,4.4973716E-2,4.2646362E1,7.75E0,9.543448E-3,2.7209424E2,1.1947853E4,3.7228466E1,9.714286E1,2.589029E4,1.5800957E2,3.3330292E2,2.2382306E-1,5.816424E3,9.3095914E4,2.1589239E-1,2.8302626E1,-6.904574E-2,5.3135307E1,1.9220617E1,1.4678438E-3,5.147157E1,8.425952E1,-6.526751E-3,-0E0,-5.8137085E-2,9.6502686E2,5.7987003E1,-3.5390034E-2,2.9224842E0,6.719976E-1,1.3240714E2,-1.8929357E-2,1.3523174E1,-2.339396E-2,2.1256299E2,3.1667534E1,9.032258E1,-2.6079698E-2,-6.1405633E-2,-7.2551735E-2,1.7324631E-1,-1.0797394E1,1.8967012E1,2.8644266E0,6.306027E-2,-1.8533729E-2,4.3531226E2,6.0753843E3,-0E0,-4.40516E-2,7.7486987E0,6.590514E-3,1.9001271E3,-2.0506116E-2,4.170457E1,-4.7384825E-2,5.745902E-3,-7.2551735E-2,9.3875946E2,-1.7173482E-3,-7.226927E-2,3.1792944E2,-1.2559583E-2,-5.221823E-2,8.4625045E-3,-3.6008347E-2,6.652412E2,-1.7965472E-3,1.9738193E0,-7.9750643E0,-0E0,4.726033E-3,5.7502727E4,-1.24650985E-1,-0E0,-0E0,4.6619363E-2,-4.6340317E-2,-1.0244466E-2,3.2652584E1,2.4151224E2,1.9740956E-1,3.270669E2,1.2222758E-2,4.1543465E-2,-6.4128476E-1,-1.9643607E-2,-2.1811028E-1,1.6046414E-2,4.492738E-2,-7.010621E0,5.732146E-2,2.2353902E-2,2.7204878E1,1.23980255E1,1.2464726E-2,6.674412E-2,1.5035143E-1,3.4601092E-2,-2.8486287E-2,-7.2551735E-2,2.8437158E-1,-4.862207E-2,-9.191854E-3,4.9801038E2,7.2551735E-2,2.2790074E-2,2.4640463E-2,9.440295E-4,-1.8312603E-2,3.9678123E-2,9.310207E4,2.963626E-1,-1.7698739E-2,8.333026E-3,6.245875E-3,-1.6559616E-2,-0E0,3.874164E-2,2.3859186E-1,-1.218267E1,-4.4378918E-3,4.1981403E-2,-1.394388E-2,5.8858212E-2,2.787935E-2,7.2551735E-2],"split_indices":[90,23,0,40,0,73,0,0,26,23,25,7,23,51,2,10,21,62,53,7,0,52,9,0,41,47,0,0,0,20,47,0,90,70,2,57,44,55,48,43,7,0,0,0,68,37,35,90,0,0,81,58,0,0,71,0,19,0,39,0,0,0,20,0,0,31,0,0,0,0,1,0,88,64,0,0,61,55,0,0,0,0,0,45,29,10,31,0,0,70,0,72,0,0,65,0,0,34,36,0,0,72,0,0,0,11,0,0,1,0,0,0,0,0,0,62,74,0,0,0,0,0,0,11,68,0,0,0,0,0,0],"split_type":[0,0,0,0,0,0,0,0,0,0,0,0,0,0,0,0,0,0,0,0,0,0,0,0,0,0,0,0,0,0,0,0,0,0,0,0,0,0,0,0,0,0,0,0,0,0,0,0,0,0,0,0,0,0,0,0,0,0,0,0,0,0,0,0,0,0,0,0,0,0,0,0,0,0,0,0,0,0,0,0,0,0,0,0,0,0,0,0,0,0,0,0,0,0,0,0,0,0,0,0,0,0,0,0,0,0,0,0,0,0,0,0,0,0,0,0,0,0,0,0,0,0,0,0,0,0,0,0,0,0,0],"sum_hessian":[1.104E3,2.9E2,8.14E2,2.83E2,7E0,5.68E2,2.46E2,7E0,2.76E2,1.62E2,4.06E2,9.6E1,1.5E2,3.2E1,2.44E2,1.7E1,1.45E2,4.4E1,3.62E2,8.7E1,9E0,1.07E2,4.3E1,1.2E1,2E1,2.37E2,7E0,8E0,9E0,8.9E1,5.6E1,1.1E1,3.3E1,3.41E2,2.1E1,3.2E1,5.5E1,1.6E1,9.1E1,2.1E1,2.2E1,1E1,1E1,2.18E2,1.9E1,5.3E1,3.6E1,3.6E1,2E1,8E0,2.5E1,3.28E2,1.3E1,7E0,1.4E1,1.1E1,2.1E1,1.1E1,4.4E1,9E0,7E0,5E1,4.1E1,1.1E1,1E1,1.4E1,8E0,1.2E1,7E0,1.2E1,4.1E1,7E0,2.9E1,2.7E1,9E0,7E0,1.8E1,3.2E2,8E0,7E0,7E0,1.3E1,8E0,2E1,2.4E1,1.5E1,2.6E1,7E0,7E0,3.1E1,1E1,1.8E1,1.1E1,1.3E1,1.4E1,1E1,8E0,1.6E1,3.04E2,7E0,1.3E1,1.7E1,7E0,7E0,8E0,1.8E1,8E0,1E1,2.1E1,7E0,1.1E1,7E0,7E0,8E0,8E0,2.85E2,1.9E1,1E1,7E0,7E0,1.1E1,8E0,1.3E1,1.6E1,2.69E2,7E0,1.2E1,7E0,9E0,1.2E1,2.57E2],"tree_param":{"num_deleted":"0","num_feature":"91","num_nodes":"131","size_leaf_vector":"1"}},{"base_weights":[-1.2389371E-3,-2E0,6.7941755E-1,-2E0,-7.929775E-1,1.3956546E0,-9.360369E-1,-2E0,-1.0857587E-2,-1.764866E0,2.9628336E-1,9.778969E-1,2E0,-2.5093806E-1,-1.5178494E0,-0E0,-2E0,-2E0,-1.1478325E-2,-1.754842E-1,3.8683727E-2,1.6410238E0,4.0601456E-1,2E0,3.8358883E-3,-1.0376874E0,1.6901371E-1,-1.9427769E0,-8.140808E-2,-9.996031E-3,-2E0,-2.8620487E-2,-7.2551735E-2,9.293761E-3,-2.4194282E-2,1.8649741E0,-0E0,-9.900438E-2,8.941877E-1,2E0,-5.1034456E-3,8.191065E-3,-1.5137192E0,1.0556334E0,-1.9153634E-1,-8.354488E-1,-2E0,-9.1999155E-1,7.143593E-1,-2E0,-2.3691801E-2,8.055275E-1,2E0,-2.6849043E-2,2.6509497E-2,3.4259218E-1,-5.3101164E-1,1.1731337E0,-0E0,2E0,2.0478467E-2,-7.2551735E-2,-6.6623944E-1,6.29808E-2,-0E0,-6.544606E-1,3.536519E-1,-4.848576E-2,-1.0232766E-3,-1.7736876E-2,-2E0,-6.672039E-2,-0E0,4.2530537E-2,-0E0,-2E0,-2.7853446E-2,5.330039E-2,3.9277595E-1,2E0,5.691587E-1,-4.2125773E-1,6.59857E-1,-1.0650575E0,2.668069E-1,2.368226E-1,1.3388227E0,5.989803E-1,-2.4277939E-2,7.2551735E-2,3.001436E-2,-3.9444406E-2,-0E0,-1.10104226E-1,-1.142656E0,4.8848078E-2,-1.7171627E-1,-2.4895195E-2,-7.2551735E-2,-2E0,-3.076076E-2,-6.790289E-4,2.6363034E-2,1.7903857E-2,2E0,4.181245E-3,2.8917657E-2,3.521603E-3,-3.2179296E-2,-2.4058796E-3,1.0198108E0,-6.4024135E-2,-6.594859E-1,9.3317E-1,-2.400528E-2,-8.715297E-3,2.5679938E-2,1.4537416E0,1.4303091E-2,-3.494347E-3,4.1080248E-2,-1.8271245E-2,9.148084E-3,-1.263948E-2,-5.588375E-2,-2.2872651E-2,1.0022783E-2,-2.6435059E-2,-7.2551735E-2,2E0,2.0924099E-2,-0E0,1.3904233E0,-0E0,-3.1333853E-2,4.351899E-2,1.1746089E-2,1.5780007E0,1.2257388E-2,3.4474228E-2,2E0,2.0157527E-2,5.93218E-2,3.346979E-2,1.7540339E0,7.2551735E-2,3.1343326E-2,7.1430095E-2,3.9108485E-2],"categories":[0,1,2,3,4,6,7,2],"categories_nodes":[26,58],"categories_segments":[0,7],"categories_sizes":[7,1],"default_left":[0,0,0,0,0,1,0,1,0,0,0,0,0,0,0,0,0,0,0,0,0,0,0,0,0,0,1,0,0,0,0,0,0,0,0,0,0,0,0,0,0,0,0,0,0,0,0,0,0,0,0,0,0,0,0,0,0,0,1,0,0,0,0,0,0,0,0,0,0,0,0,0,0,0,0,0,0,0,0,0,0,0,0,0,0,0,0,0,0,0,0,0,0,0,0,0,0,0,0,0,0,0,0,0,0,0,0,0,0,0,0,0,0,0,0,0,0,0,0,0,0,0,0,0,0,0,0,0,0,0,0,0,0,0,0,0,0,0,0,0,0,0,0,0,0,0,0,0,0],"id":1,"left_children":[1,3,5,7,9,11,13,15,-1,17,19,21,23,25,27,-1,29,31,-1,33,-1,35,37,39,-1,41,43,45,47,-1,49,-1,-1,-1,-1,51,53,55,57,59,-1,-1,61,63,65,67,69,71,73,75,-1,77,79,-1,-1,81,83,85,87,89,-1,-1,91,-1,-1,93,95,-1,-1,-1,97,-1,-1,-1,-1,99,-1,-1,101,103,105,107,109,111,113,115,117,119,-1,-1,-1,-1,-1,121,123,-1,125,-1,-1,127,-1,-1,-1,-1,129,-1,-1,-1,-1,-1,131,-1,133,135,-1,-1,-1,137,-1,-1,-1,-1,-1,-1,-1,-1,-1,-1,-1,139,-1,-1,141,-1,-1,-1,-1,143,-1,-1,145,-1,-1,-1,147,-1,-1,-1,-1],"loss_changes":[1.5403425E3,5.854016E1,9.688069E2,2.2920654E1,5.6431366E1,2.2310498E2,1.01185165E2,2.636377E1,0E0,1.273555E1,1.2049309E1,1.5981519E2,2.0403992E1,4.3264816E1,8.2492676E1,0E0,1.7935059E1,1.8038559E0,0E0,5.7637076E0,0E0,7.3865845E1,5.9444195E1,3.7685608E1,0E0,2.9570389E1,2.9156704E1,1.6898834E1,2.778938E1,0E0,6.61792E0,0E0,0E0,0E0,0E0,3.4253418E1,1.793715E1,2.4160393E1,2.9492218E1,1.3128052E1,0E0,0E0,1.3803238E1,2.0567953E1,1.7196198E1,8.265734E0,8.890961E0,1.803365E1,7.181388E0,3.7661133E0,0E0,8.286451E0,2.5256042E1,0E0,0E0,1.6264624E1,2.8776636E1,1.25056E1,1.5993452E1,1.0183716E0,0E0,0E0,6.139455E0,0E0,0E0,8.518999E0,1.8293709E1,0E0,0E0,0E0,4.0391846E0,0E0,0E0,0E0,0E0,6.0913086E-1,0E0,0E0,4.912922E0,8.769531E0,1.4615712E0,6.291624E0,1.3021147E1,8.111488E0,2.0077223E1,6.1774273E0,5.992813E0,9.344032E0,0E0,0E0,0E0,0E0,0E0,4.588187E0,3.5043392E0,0E0,6.1996756E0,0E0,0E0,6.3233643E0,0E0,0E0,0E0,0E0,1.0691345E1,0E0,0E0,0E0,0E0,0E0,1.1524769E1,0E0,4.0163765E0,1.3938198E0,0E0,0E0,0E0,6.813263E0,0E0,0E0,0E0,0E0,0E0,0E0,0E0,0E0,0E0,0E0,0E0,3.099121E0,0E0,0E0,1.6132736E0,0E0,0E0,0E0,0E0,2.2661133E0,0E0,0E0,2.9541016E-1,0E0,0E0,0E0,4.6939087E-1,0E0,0E0,0E0,0E0],"parents":[2147483647,0,0,1,1,2,2,3,3,4,4,5,5,6,6,7,7,9,9,10,10,11,11,12,12,13,13,14,14,16,16,17,17,19,19,21,21,22,22,23,23,25,25,26,26,27,27,28,28,30,30,35,35,36,36,37,37,38,38,39,39,42,42,43,43,44,44,45,45,46,46,47,47,48,48,49,49,51,51,52,52,55,55,56,56,57,57,58,58,59,59,62,62,65,65,66,66,70,70,75,75,78,78,79,79,80,80,81,81,82,82,83,83,84,84,85,85,86,86,87,87,93,93,94,94,96,96,99,99,104,104,110,110,112,112,113,113,117,117,129,129,132,132,137,137,140,140,144,144],"right_children":[2,4,6,8,10,12,14,16,-1,18,20,22,24,26,28,-1,30,32,-1,34,-1,36,38,40,-1,42,44,46,48,-1,50,-1,-1,-1,-1,52,54,56,58,60,-1,-1,62,64,66,68,70,72,74,76,-1,78,80,-1,-1,82,84,86,88,90,-1,-1,92,-1,-1,94,96,-1,-1,-1,98,-1,-1,-1,-1,100,-1,-1,102,104,106,108,110,112,114,116,118,120,-1,-1,-1,-1,-1,122,124,-1,126,-1,-1,128,-1,-1,-1,-1,130,-1,-1,-1,-1,-1,132,-1,134,136,-1,-1,-1,138,-1,-1,-1,-1,-1,-1,-1,-1,-1,-1,-1,140,-1,-1,142,-1,-1,-1,-1,144,-1,-1,146,-1,-1,-1,148,-1,-1,-1,-1],"split_conditions":[2.5566618E0,9.524994E1,3.75E0,4.0738197E1,1.0909551E1,3.0790381E0,8.166667E0,1.3326101E0,-1.0857587E-2,2.4035576E1,4.183962E1,9.967926E0,2.7428107E2,2.93066E2,2.899656E4,-0E0,-1.0334883E1,9.790954E0,-1.1478325E-2,-7.90025E0,3.8683727E-2,9.941657E1,4.042693E1,-6.403689E0,3.8358883E-3,-7.820852E0,1E-45,1.0184445E1,2.6586975E2,-9.996031E-3,-4.6936965E0,-2.8620487E-2,-7.2551735E-2,9.293761E-3,-2.4194282E-2,2.8738832E0,1.2574945E3,-8.745978E0,3.0455463E1,1.8075143E-1,-5.1034456E-3,8.191065E-3,3.795388E1,1.2893707E1,4.295384E1,1.1234327E2,-1.8058246E-1,-4.810851E-2,4.9242535E0,6.2281334E-1,-2.3691801E-2,1.85E2,2.666667E0,-2.6849043E-2,2.6509497E-2,9.408705E4,4.8805826E2,9.18337E0,1E-45,5.9304028E1,2.0478467E-2,-7.2551735E-2,3.3395603E0,6.29808E-2,-0E0,-1.6234523E-2,6.5E1,-4.848576E-2,-1.0232766E-3,-1.7736876E-2,-9.011733E0,-6.672039E-2,-0E0,4.2530537E-2,-0E0,3.1716362E1,-2.7853446E-2,5.330039E-2,5.0009937E1,3.6667618E1,-4.3309037E-2,2.784219E2,1.835923E1,7.971997E2,2.66E0,1.4558894E1,3.1750176E0,7.231753E-1,-2.4277939E-2,7.2551735E-2,3.001436E-2,-3.9444406E-2,-0E0,1.842411E1,-6.892829E0,4.8848078E-2,1.8762962E2,-2.4895195E-2,-7.2551735E-2,1.7740843E1,-3.076076E-2,-6.790289E-4,2.6363034E-2,1.7903857E-2,-6.81905E0,4.181245E-3,2.8917657E-2,3.521603E-3,-3.2179296E-2,-2.4058796E-3,8.7222594E-1,-6.4024135E-2,1.2739288E1,2.0856142E1,-2.400528E-2,-8.715297E-3,2.5679938E-2,1.4282249E-2,1.4303091E-2,-3.494347E-3,4.1080248E-2,-1.8271245E-2,9.148084E-3,-1.263948E-2,-5.588375E-2,-2.2872651E-2,1.0022783E-2,-2.6435059E-2,-7.2551735E-2,7.3854774E1,2.0924099E-2,-0E0,-1.07668705E1,-0E0,-3.1333853E-2,4.351899E-2,1.1746089E-2,1.0044602E4,1.2257388E-2,3.4474228E-2,1.2645149E1,2.0157527E-2,5.93218E-2,3.346979E-2,6.9506174E-1,7.2551735E-2,3.1343326E-2,7.1430095E-2,3.9108485E-2],"split_indices":[90,27,0,44,30,90,0,82,0,35,46,17,51,81,23,0,63,36,0,65,0,7,25,64,0,66,4,41,1,0,64,0,0,0,0,90,81,63,44,53,0,0,46,17,46,82,54,54,71,72,0,89,0,0,0,62,81,41,8,6,0,0,90,0,0,55,89,0,0,0,64,0,0,0,0,34,0,0,47,25,54,31,9,19,80,44,84,78,0,0,0,0,0,44,65,0,31,0,0,47,0,0,0,0,66,0,0,0,0,0,69,0,17,9,0,0,0,70,0,0,0,0,0,0,0,0,0,0,0,49,0,0,67,0,0,0,0,87,0,0,71,0,0,0,74,0,0,0,0],"split_type":[0,0,0,0,0,0,0,0,0,0,0,0,0,0,0,0,0,0,0,0,0,0,0,0,0,0,1,0,0,0,0,0,0,0,0,0,0,0,0,0,0,0,0,0,0,0,0,0,0,0,0,0,0,0,0,0,0,0,1,0,0,0,0,0,0,0,0,0,0,0,0,0,0,0,0,0,0,0,0,0,0,0,0,0,0,0,0,0,0,0,0,0,0,0,0,0,0,0,0,0,0,0,0,0,0,0,0,0,0,0,0,0,0,0,0,0,0,0,0,0,0,0,0,0,0,0,0,0,0,0,0,0,0,0,0,0,0,0,0,0,0,0,0,0,0,0,0,0,0],"sum_hessian":[1.106E3,2.77E2,8.29E2,2.31E2,4.6E1,5.75E2,2.54E2,2.21E2,1E1,2.4E1,2.2E1,4.23E2,1.52E2,1.19E2,1.35E2,7E0,2.14E2,1.7E1,7E0,1.4E1,8E0,1.93E2,2.3E2,1.45E2,7E0,4.1E1,7.8E1,1.03E2,3.2E1,8E0,2.06E2,7E0,1E1,7E0,7E0,1.7E2,2.3E1,1.13E2,1.17E2,1.38E2,7E0,1.1E1,3E1,2.2E1,5.6E1,1.9E1,8.4E1,1.6E1,1.6E1,1.98E2,8E0,3.2E1,1.38E2,1.2E1,1.1E1,5.5E1,5.8E1,8.8E1,2.9E1,1.28E2,1E1,1.4E1,1.6E1,1.3E1,9E0,3.1E1,2.5E1,1E1,9E0,7E0,7.7E1,7E0,9E0,9E0,7E0,1.9E2,8E0,9E0,2.3E1,1.22E2,1.6E1,1.5E1,4E1,3.5E1,2.3E1,1.5E1,7.3E1,1.6E1,1.3E1,1.21E2,7E0,9E0,7E0,1.7E1,1.4E1,8E0,1.7E1,7E0,7E1,1.83E2,7E0,1E1,1.3E1,7E0,1.15E2,8E0,8E0,7E0,8E0,1.3E1,2.7E1,9E0,2.6E1,1.4E1,9E0,7E0,8E0,6.3E1,1E1,7E0,9E0,9E0,8E0,7E0,7E0,9E0,8E0,9E0,1.74E2,1.06E2,9E0,8E0,1.9E1,7E0,1.9E1,7E0,7E0,5.5E1,8E0,1.1E1,9.5E1,7E0,1.2E1,1.6E1,3.9E1,8.8E1,7E0,2.5E1,1.4E1],"tree_param":{"num_deleted":"0","num_feature":"91","num_nodes":"149","size_leaf_vector":"1"}},{"base_weights":[-0E0,5.9121567E-1,-1.359269E0,-3.5105324E-1,1.1579452E0,-2E0,-8.3222264E-1,1.9800115E-1,-1.2812845E0,-3.7618032E-1,1.5816362E0,-7.851138E-1,-2E0,-2E0,-6.0863517E-2,-1.2013872E0,6.153116E-1,-1.0211548E-1,-2E0,1.035866E-1,-1.5460619E0,2E0,5.1304746E-1,-5.7854176E-2,1.3745047E-2,-2E0,-1.0138448E-2,-2E0,-4.8102526E-4,-4.952397E-1,1.3108308E0,-1.8557748E0,6.2136995E-3,-5.4150883E-2,9.6381587E-1,-8.509264E-1,1.0718235E0,-2E0,-0E0,3.486778E-1,-5.2153435E-2,-7.2551735E-2,-3.2485795E-1,2.659913E-1,2E0,7.664673E-1,-1.1586683E0,-7.2551735E-2,-1.95423E-2,-7.2551735E-2,-2.9649291E-2,2.1151915E-1,-1.1137661E0,1.8712835E0,2.3865916E-3,-7.2551735E-2,-7.2177686E-3,-3.467765E-2,2.015212E-1,7.2547185E-1,7.2551735E-2,-1.2295568E0,8.871777E-3,5.93888E-2,-0E0,-7.2551735E-2,-1.4933675E-2,6.273233E-1,-3.9553355E-2,1.1790447E-2,-3.614468E-2,4.5080937E-2,-4.706771E-2,2E0,3.4373652E-3,4.561224E-1,2E0,-6.465587E-2,-6.7247965E-5,-2.9709453E-2,5.6509584E-1,-1.5616232E0,-0E0,7.2551735E-2,2.3799099E-2,-2.7281043E-1,6.9919467E-1,9.546535E-1,-2.7659592E-1,-5.722114E-2,-1.8440165E-2,6.250217E-2,3.3010963E-1,2E0,2.1682833E-1,-2.1543677E-1,8.071861E-1,2.7224587E-2,7.2551735E-2,9.3837553E-1,-0E0,-1.571608E-2,-1.7713207E0,-1.6787853E-2,1.7032616E-2,-2.4498066E-2,2.566949E-3,6.0701147E-3,3.5315793E-2,1.185514E0,1.1924115E-1,5.498226E-3,-2.6798002E-2,6.2703294E-1,-6.433539E-2,8.064175E-3,2E0,2.8449524E-2,-2.0999916E-2,-3.9141376E-2,2.9606655E-1,1.3109214E0,2.9270127E-1,5.207512E-2,-0E0,1.2437292E-2,-1.3042319E-2,-8.88756E-1,-7.2551735E-2,1.4193441E0,6.4341924E-3,2.2067107E-2,-8.085565E-3,9.950716E-1,-0E0,-3.053893E-2,1.5948836E-2,2.7435498E-2,7.2551735E-2,-1.8580094E-2,3.1182965E-2,5.5315513E-3,6.412994E-2,-1.3444725E-2,6.7981285E-1,-4.1773397E-2,-1.2753745E-2,1.6210968E0,1.6718352E-2,4.5435194E-2,1.4998632E-2,9.6648246E-1,-0E0,6.652438E-2,1.9142795E-2,4.758327E-2,8.4578935E-3],"categories":[3],"categories_nodes":[42],"categories_segments":[0],"categories_sizes":[1],"default_left":[0,0,0,0,0,0,0,0,0,0,0,0,0,0,1,0,0,0,1,0,0,0,0,0,0,0,0,0,0,0,1,1,0,0,0,0,0,0,0,0,0,0,1,0,0,0,0,0,0,0,0,0,0,0,0,0,0,0,0,0,0,0,0,0,0,0,0,0,0,0,0,0,0,0,0,0,0,0,0,0,0,0,0,0,0,0,0,0,0,0,0,0,0,0,0,0,0,0,0,0,0,0,0,0,0,0,0,0,0,0,0,0,0,1,0,0,0,0,0,0,0,0,0,0,0,0,0,0,0,0,0,0,0,0,0,0,0,0,0,0,0,0,0,0,0,0,0,0,0,0,0,0,0,0,0,0,0],"id":2,"left_children":[1,3,5,7,9,11,13,15,17,19,21,23,25,27,29,31,33,35,37,39,41,43,45,-1,-1,47,-1,49,-1,51,53,55,-1,57,59,61,63,65,-1,67,-1,-1,69,71,73,75,77,-1,-1,-1,-1,79,81,83,-1,-1,-1,-1,85,87,-1,89,-1,-1,-1,-1,-1,91,-1,-1,-1,-1,-1,93,-1,95,97,-1,-1,-1,99,101,103,-1,-1,105,107,109,111,-1,-1,-1,113,115,117,119,121,-1,-1,123,125,-1,127,-1,-1,-1,-1,-1,-1,129,131,-1,-1,133,135,-1,137,-1,-1,-1,139,141,143,-1,-1,-1,-1,145,-1,147,-1,-1,-1,149,-1,-1,-1,-1,-1,-1,-1,-1,-1,-1,151,-1,-1,153,-1,-1,-1,155,-1,-1,-1,-1,-1],"loss_changes":[8.899116E2,4.1337454E2,1.3900269E2,1.5170316E2,3.164441E2,1.6643677E1,2.2237805E2,1.1148321E2,1.0642189E2,6.3464993E1,2.2382666E2,2.3268848E1,1.4842102E1,2.3596222E1,8.665141E1,4.2129505E1,3.5268276E1,4.8098858E1,2.4532654E1,3.230207E1,2.7547928E1,5.4341797E1,6.2308247E1,0E0,0E0,7.5983276E0,0E0,2.6201782E0,0E0,5.0034782E1,2.2337658E1,1.7021103E1,0E0,1.4994233E1,2.1353851E1,1.5940142E1,1.2060255E1,1.0990448E1,0E0,3.130565E1,0E0,0E0,1.0554365E1,4.2496304E1,2.4404907E1,4.589704E1,1.274313E1,0E0,0E0,0E0,0E0,2.1895393E1,2.9398125E1,4.616623E0,0E0,0E0,0E0,0E0,1.1929195E1,2.1218761E1,0E0,3.8294106E0,0E0,0E0,0E0,0E0,0E0,1.8762976E1,0E0,0E0,0E0,0E0,0E0,6.1297974E1,0E0,2.5783604E1,2.6182327E0,0E0,0E0,0E0,8.437976E0,7.0508423E0,6.56777E0,0E0,0E0,4.5993357E0,2.4783134E0,1.2258217E1,5.2979736E0,0E0,0E0,0E0,7.2633705E0,3.2411255E1,1.4111417E1,1.945364E1,1.6536171E1,0E0,0E0,1.2108658E1,4.053953E0,0E0,8.403656E0,0E0,0E0,0E0,0E0,0E0,0E0,1.0986969E1,5.1833315E0,0E0,0E0,6.990609E0,1.2455168E1,0E0,8.68042E0,0E0,0E0,0E0,1.4172232E1,1.5813038E1,1.2002515E1,0E0,0E0,0E0,0E0,1.2147741E0,0E0,5.4684906E0,0E0,0E0,0E0,1.1930943E0,0E0,0E0,0E0,0E0,0E0,0E0,0E0,0E0,0E0,0E0,5.0785017E0,0E0,0E0,4.3482666E0,0E0,0E0,0E0,3.2894135E0,0E0,0E0,0E0,0E0,0E0],"parents":[2147483647,0,0,1,1,2,2,3,3,4,4,5,5,6,6,7,7,8,8,9,9,10,10,11,11,12,12,13,13,14,14,15,15,16,16,17,17,18,18,19,19,20,20,21,21,22,22,25,25,27,27,29,29,30,30,31,31,33,33,34,34,35,35,36,36,37,37,39,39,42,42,43,43,44,44,45,45,46,46,51,51,52,52,53,53,58,58,59,59,61,61,67,67,73,73,75,75,76,76,80,80,81,81,82,82,85,85,86,86,87,87,88,88,92,92,93,93,94,94,95,95,96,96,99,99,100,100,102,102,109,109,110,110,113,113,114,114,116,116,120,120,121,121,122,122,127,127,129,129,133,133,144,144,147,147,151,151],"right_children":[2,4,6,8,10,12,14,16,18,20,22,24,26,28,30,32,34,36,38,40,42,44,46,-1,-1,48,-1,50,-1,52,54,56,-1,58,60,62,64,66,-1,68,-1,-1,70,72,74,76,78,-1,-1,-1,-1,80,82,84,-1,-1,-1,-1,86,88,-1,90,-1,-1,-1,-1,-1,92,-1,-1,-1,-1,-1,94,-1,96,98,-1,-1,-1,100,102,104,-1,-1,106,108,110,112,-1,-1,-1,114,116,118,120,122,-1,-1,124,126,-1,128,-1,-1,-1,-1,-1,-1,130,132,-1,-1,134,136,-1,138,-1,-1,-1,140,142,144,-1,-1,-1,-1,146,-1,148,-1,-1,-1,150,-1,-1,-1,-1,-1,-1,-1,-1,-1,-1,152,-1,-1,154,-1,-1,-1,156,-1,-1,-1,-1,-1],"split_conditions":[1.68E3,1.565062E1,1.5850093E3,3.7600544E1,2.8580842E0,2.2685118E1,2.3984268E0,2.5467792E0,4.75E0,4.971101E1,1.75E0,9.195372E1,7.829669E1,1.36088085E1,2.8859968E0,1.4426239E-2,-6.3590384E-1,8.902397E0,3.1581063E0,1.6649082E-1,-9.2402935E-2,9.164942E2,9.666667E0,-5.7854176E-2,1.3745047E-2,2.929696E2,-1.0138448E-2,2.0745017E-1,-4.8102526E-4,8.165981E-3,1.7516224E-2,4.3393135E3,6.2136995E-3,9.407856E4,6.669807E1,4.3391186E1,4.296926E1,2.4035576E1,-0E0,8E0,-5.2153435E-2,-7.2551735E-2,1E-45,-1.0593498E-1,3.4232245E2,1.4337216E3,1.13578156E2,-7.2551735E-2,-1.95423E-2,-7.2551735E-2,-2.9649291E-2,-2.4031621E-1,2.7052097E3,2.333333E0,2.3865916E-3,-7.2551735E-2,-7.2177686E-3,-3.467765E-2,7.690473E0,1.5064639E1,7.2551735E-2,2.0665672E2,8.871777E-3,5.93888E-2,-0E0,-7.2551735E-2,-1.4933675E-2,-7.5099983E0,-3.9553355E-2,1.1790447E-2,-3.614468E-2,4.5080937E-2,-4.706771E-2,2.1589239E-1,3.4373652E-3,3.34239E0,5.1176693E1,-6.465587E-2,-6.7247965E-5,-2.9709453E-2,2.3536514E-3,1.2295613E0,2.899E-11,7.2551735E-2,2.3799099E-2,5.624983E1,3.1483805E4,8.1937714E2,3.3572297E0,-5.722114E-2,-1.8440165E-2,6.250217E-2,-3.6324715E1,5.5701685E2,1.1097443E3,4.711496E1,-2.480532E-2,2.7224587E-2,7.2551735E-2,-3.4613882E-3,5.649674E3,-1.571608E-2,-3.7783974E1,-1.6787853E-2,1.7032616E-2,-2.4498066E-2,2.566949E-3,6.0701147E-3,3.5315793E-2,2.9286676E1,1.9343845E2,5.498226E-3,-2.6798002E-2,4.7373193E2,2.5142167E0,8.064175E-3,4.229561E1,2.8449524E-2,-2.0999916E-2,-3.9141376E-2,2.4E2,-6.9957027E0,1.14286035E-1,5.207512E-2,-0E0,1.2437292E-2,-1.3042319E-2,-3.1467024E-2,-7.2551735E-2,7.336728E-2,6.4341924E-3,2.2067107E-2,-8.085565E-3,6.6E2,-0E0,-3.053893E-2,1.5948836E-2,2.7435498E-2,7.2551735E-2,-1.8580094E-2,3.1182965E-2,5.5315513E-3,6.412994E-2,-1.3444725E-2,-7.3395658E0,-4.1773397E-2,-1.2753745E-2,2.594727E2,1.6718352E-2,4.5435194E-2,1.4998632E-2,1.4792046E2,-0E0,6.652438E-2,1.9142795E-2,4.758327E-2,8.4578935E-3],"split_indices":[89,30,19,39,90,47,90,90,0,18,0,27,76,28,90,68,68,71,90,13,70,19,0,0,0,52,0,6,0,33,33,75,0,62,41,25,25,35,0,0,0,0,3,70,48,81,73,0,0,0,0,72,19,0,0,0,0,0,28,67,0,49,0,0,0,0,0,64,0,0,0,0,0,53,0,90,25,0,0,0,32,88,80,0,0,41,60,1,90,0,0,0,38,26,26,52,56,0,0,70,58,0,38,0,0,0,0,0,0,76,51,0,0,85,90,0,73,0,0,0,89,65,74,0,0,0,0,55,0,54,0,0,0,89,0,0,0,0,0,0,0,0,0,0,37,0,0,50,0,0,0,2,0,0,0,0,0],"split_type":[0,0,0,0,0,0,0,0,0,0,0,0,0,0,0,0,0,0,0,0,0,0,0,0,0,0,0,0,0,0,0,0,0,0,0,0,0,0,0,0,0,0,1,0,0,0,0,0,0,0,0,0,0,0,0,0,0,0,0,0,0,0,0,0,0,0,0,0,0,0,0,0,0,0,0,0,0,0,0,0,0,0,0,0,0,0,0,0,0,0,0,0,0,0,0,0,0,0,0,0,0,0,0,0,0,0,0,0,0,0,0,0,0,0,0,0,0,0,0,0,0,0,0,0,0,0,0,0,0,0,0,0,0,0,0,0,0,0,0,0,0,0,0,0,0,0,0,0,0,0,0,0,0,0,0,0,0],"sum_hessian":[1.097E3,7.65E2,3.32E2,2.87E2,4.78E2,1.24E2,2.08E2,1.81E2,1.06E2,1.03E2,3.75E2,1.7E1,1.07E2,7.2E1,1.36E2,4E1,1.41E2,4.6E1,6E1,7.4E1,2.9E1,2.41E2,1.34E2,1E1,7E0,1E2,7E0,6.5E1,7E0,1.05E2,3.1E1,2.7E1,1.3E1,4.8E1,9.3E1,2.9E1,1.7E1,5.3E1,7E0,6.6E1,8E0,1.5E1,1.4E1,2E1,2.21E2,1.18E2,1.6E1,9.3E1,7E0,5.7E1,8E0,4.9E1,5.6E1,2E1,1.1E1,2E1,7E0,1E1,3.8E1,8E1,1.3E1,2.2E1,7E0,1E1,7E0,4.6E1,7E0,5.7E1,9E0,7E0,7E0,1.3E1,7E0,2.13E2,8E0,9.8E1,2E1,9E0,7E0,1.1E1,3.8E1,3.9E1,1.7E1,1.3E1,7E0,1.9E1,1.9E1,6.6E1,1.4E1,1.2E1,1E1,9E0,4.8E1,1.92E2,2.1E1,3.3E1,6.5E1,7E0,1.3E1,2.1E1,1.7E1,8E0,3.1E1,9E0,8E0,9E0,1E1,9E0,1E1,5E1,1.6E1,7E0,7E0,2.8E1,2E1,1.2E1,1.8E2,1.3E1,8E0,1.2E1,2.1E1,3E1,3.5E1,1.3E1,8E0,1E1,7E0,1.5E1,1.6E1,3.9E1,1.1E1,7E0,9E0,1.6E1,1.2E1,8E0,1.2E1,1.1E1,1.69E2,8E0,1.3E1,1E1,2E1,1.2E1,2.3E1,7E0,8E0,3E1,9E0,8E0,8E0,1.5E1,8E0,2.3E1,7E0,8E0,7E0],"tree_param":{"num_deleted":"0","num_feature":"91","num_nodes":"157","size_leaf_vector":"1"}},{"base_weights":[-2.5465088E-3,-1.8326843E0,6.453859E-1,-1.9203832E0,4.328769E-2,1.3575583E0,-9.3222296E-1,-2E0,-9.7777295E-1,9.4444495E-1,2E0,-5.01803E-1,-1.7031546E0,-9.280815E-3,-2E0,-2.5036463E-1,-1.7120928E0,3.3506706E-1,1.6420338E0,8.369219E-1,2E0,1.6572887E-2,-9.553719E-1,-1.9534107E0,4.1279045E-4,-2E0,-2.1858234E-2,7.1575767E-1,-8.4064746E-1,-7.2551735E-2,-6.02917E-3,4.4404382E-1,-4.8021417E-2,8.704517E-1,2E0,1.1601698E0,-0E0,2E0,9.956729E-5,-4.1060328E-1,6.152043E-1,-1.2195506E0,1.9836466E-1,-2.461409E-3,-2E0,-2E0,-3.195679E-2,4.313489E-2,-0E0,-5.5039447E-2,-2.1593797E-1,-3.1844717E-1,7.280329E-1,-1.3339862E-1,1.247351E0,7.2551735E-2,3.623853E-1,-0E0,1.4529381E0,-2.4448922E-2,3.385889E-2,2E0,9.044134E-3,-9.097548E-1,-0E0,-3.1588686E-1,1.4728673E0,-1.4902228E0,-1.3323537E-1,-1.7858608E-2,2.9468495E-2,-2.4043543E-2,-7.2551735E-2,-2.970966E-2,-7.2551735E-2,-2.4721377E-2,1.4446759E-2,-9.2182535E-1,6.1597455E-2,2.2962275E-1,1.0310549E0,1.4879274E-2,-2.3316907E-2,7.2551735E-2,4.3988007E-1,2.5575738E-2,-0E0,1.6729243E0,1.8600587E-2,2.4383187E-2,2E0,-4.8225395E-2,-9.742066E-3,2.4578549E-2,-4.5626768E-1,-2.8222088E-2,8.002117E-3,6.978957E-2,1.4411267E-2,-6.330429E-1,-1.8618162E0,-2.6133163E-2,1.0618934E-2,-4.6771884E-2,-6.8399444E-4,2.031347E-2,-2.736788E-1,-2.7842665E-2,4.4829968E-1,1.3486432E0,9.236535E-3,9.1974187E-1,-8.14209E-3,7.113986E-2,2.2747526E-2,2.5839174E-2,7.2551735E-2,-3.1319093E-2,1.7900148E-3,-3.3762503E-2,-0E0,-7.2551735E-2,-1.1630511E-2,2.6254104E-3,-2.9082255E-2,-0E0,8.298511E-1,1.582538E0,6.097739E-1,1.4691887E-2,-1.4741669E-2,1.236829E-2,4.0523726E-2,2.066942E-2,-1.608278E-2,3.825615E-2,8.193418E-3,1.2225914E-2,1.7953464E0,-0E0,4.608825E-2,7.2551735E-2,2.3501767E-2],"categories":[0,1,3,4,5,7,8,9,10,11,12],"categories_nodes":[109],"categories_segments":[0],"categories_sizes":[11],"default_left":[0,0,0,0,0,0,0,1,0,0,0,0,0,0,0,0,0,0,0,0,0,0,0,0,0,0,0,0,0,0,0,0,0,0,0,0,0,0,0,0,0,0,0,0,0,0,0,0,0,0,0,0,0,0,0,0,0,0,0,0,0,0,0,0,0,0,0,0,0,0,0,0,0,0,0,0,0,0,0,0,0,0,0,0,0,0,0,0,0,0,0,0,0,0,0,0,0,0,0,0,0,0,0,0,0,0,0,0,0,1,0,0,0,0,0,0,0,0,0,0,0,0,0,0,0,0,0,0,0,0,0,0,0,0,0,0,0,0,0,0,0,0,0],"id":3,"left_children":[1,3,5,7,-1,9,11,13,15,17,19,21,23,-1,25,27,29,31,33,35,37,39,41,43,-1,45,-1,47,49,-1,-1,51,-1,53,55,57,59,61,-1,63,65,67,69,-1,71,73,-1,-1,-1,-1,75,77,79,81,83,-1,85,-1,87,-1,-1,89,-1,91,93,95,97,99,101,-1,-1,-1,-1,-1,-1,-1,-1,103,105,107,109,-1,-1,-1,111,-1,-1,113,-1,-1,115,-1,-1,-1,117,-1,-1,-1,-1,119,121,-1,-1,-1,-1,-1,123,-1,125,127,129,131,-1,-1,-1,-1,-1,-1,-1,-1,-1,-1,-1,-1,-1,133,135,137,139,-1,-1,-1,-1,-1,-1,-1,-1,-1,141,-1,-1,-1,-1],"loss_changes":[1.3303365E3,8.633008E1,9.329276E2,8.224463E1,0E0,1.6504724E2,8.369508E1,1.5565674E1,4.7799454E1,1.5537137E2,7.658209E1,4.1714825E1,4.1265594E1,0E0,9.91394E0,3.230759E1,2.8741165E1,3.959102E1,5.5592896E1,1.8627304E1,3.59364E1,2.3352165E1,3.035244E1,2.9078094E1,0E0,4.979248E0,0E0,8.524718E0,1.2959501E1,0E0,0E0,4.3372986E1,0E0,2.875579E1,3.1160492E1,1.5728302E1,1.7437086E1,1.5767029E1,0E0,1.0702142E1,3.283142E1,2.089183E1,1.1252766E1,0E0,8.154327E0,1.1879883E0,0E0,0E0,0E0,0E0,8.461602E0,1.4305691E1,2.0444145E1,8.3181095E0,3.1253273E1,0E0,3.1927059E0,0E0,4.9683304E0,0E0,0E0,6.125122E0,0E0,4.6836243E0,1.17527485E1,6.863988E0,6.9621086E0,1.5613861E1,7.259058E0,0E0,0E0,0E0,0E0,0E0,0E0,0E0,0E0,6.5169315E0,7.748515E0,1.4967678E1,2.699157E1,0E0,0E0,0E0,1.1936546E1,0E0,0E0,4.862236E0,0E0,0E0,5.1121826E0,0E0,0E0,0E0,5.587521E0,0E0,0E0,0E0,0E0,4.948803E0,1.3127808E1,0E0,0E0,0E0,0E0,0E0,5.7645893E0,0E0,9.002839E0,8.316765E0,5.8201165E0,8.1258583E-1,0E0,0E0,0E0,0E0,0E0,0E0,0E0,0E0,0E0,0E0,0E0,0E0,0E0,9.04511E0,2.6389275E0,9.830894E0,8.8874655E0,0E0,0E0,0E0,0E0,0E0,0E0,0E0,0E0,0E0,5.548645E0,0E0,0E0,0E0,0E0],"parents":[2147483647,0,0,1,1,2,2,3,3,5,5,6,6,7,7,8,8,9,9,10,10,11,11,12,12,14,14,15,15,16,16,17,17,18,18,19,19,20,20,21,21,22,22,23,23,25,25,27,27,28,28,31,31,33,33,34,34,35,35,36,36,37,37,39,39,40,40,41,41,42,42,44,44,45,45,50,50,51,51,52,52,53,53,54,54,56,56,58,58,61,61,63,63,64,64,65,65,66,66,67,67,68,68,77,77,78,78,79,79,80,80,84,84,87,87,90,90,94,94,99,99,100,100,106,106,108,108,109,109,110,110,111,111,125,125,126,126,127,127,128,128,138,138],"right_children":[2,4,6,8,-1,10,12,14,16,18,20,22,24,-1,26,28,30,32,34,36,38,40,42,44,-1,46,-1,48,50,-1,-1,52,-1,54,56,58,60,62,-1,64,66,68,70,-1,72,74,-1,-1,-1,-1,76,78,80,82,84,-1,86,-1,88,-1,-1,90,-1,92,94,96,98,100,102,-1,-1,-1,-1,-1,-1,-1,-1,104,106,108,110,-1,-1,-1,112,-1,-1,114,-1,-1,116,-1,-1,-1,118,-1,-1,-1,-1,120,122,-1,-1,-1,-1,-1,124,-1,126,128,130,132,-1,-1,-1,-1,-1,-1,-1,-1,-1,-1,-1,-1,-1,134,136,138,140,-1,-1,-1,-1,-1,-1,-1,-1,-1,142,-1,-1,-1,-1],"split_conditions":[2.5718746E0,5.5970516E4,3.75E0,7.313998E-1,4.328769E-2,2.205558E-2,5.4705666E1,1.3326101E0,-6.973771E0,2.021976E1,4.1200302E1,8.166667E0,3.5444633E1,-9.280815E-3,3.0061838E2,2.8437158E-1,5.3576794E1,8.62492E2,2.29348E1,8.198667E2,-5.852192E0,5.417638E1,3.0136908E2,-1.5207471E-1,4.1279045E-4,1.0534331E0,-2.1858234E-2,7.9440865E1,8.860588E0,-7.2551735E-2,-6.02917E-3,1.1209452E1,-4.8021417E-2,4.2628307E0,1.2012318E1,2.7024152E2,8.2254395E1,2.4841051E-1,9.956729E-5,3.1363636E1,1.5242441E-1,2.4194316E3,2.7663566E4,-2.461409E-3,4.75E0,-1.0313134E1,-3.195679E-2,4.313489E-2,-0E0,-5.5039447E-2,7.9572096E0,-2.960358E-1,3.0790381E0,3.046631E0,-6.441432E0,7.2551735E-2,9.6109474E1,-0E0,9.4277875E4,-2.4448922E-2,3.385889E-2,1.4E1,9.044134E-3,1.7713805E2,-8.14336E0,1.8980856E-1,1.1855765E-2,8.146524E0,2.637304E0,-1.7858608E-2,2.9468495E-2,-2.4043543E-2,-7.2551735E-2,-2.970966E-2,-7.2551735E-2,-2.4721377E-2,1.4446759E-2,9.530825E1,-7.345522E0,1.2E2,2.3789331E2,1.4879274E-2,-2.3316907E-2,7.2551735E-2,5.75611E4,2.5575738E-2,-0E0,1.525648E4,1.8600587E-2,2.4383187E-2,8.456456E1,-4.8225395E-2,-9.742066E-3,2.4578549E-2,3.3218827E0,-2.8222088E-2,8.002117E-3,6.978957E-2,1.4411267E-2,1.2691994E1,7.8601966E0,-2.6133163E-2,1.0618934E-2,-4.6771884E-2,-6.8399444E-4,2.031347E-2,2.166667E0,-2.7842665E-2,3.5823144E-3,1E-45,3.9738144E1,-2.0493029E-1,-8.14209E-3,7.113986E-2,2.2747526E-2,2.5839174E-2,7.2551735E-2,-3.1319093E-2,1.7900148E-3,-3.3762503E-2,-0E0,-7.2551735E-2,-1.1630511E-2,2.6254104E-3,-2.9082255E-2,7.049612E2,1.2213293E1,9.33343E2,1.776742E1,1.4691887E-2,-1.4741669E-2,1.236829E-2,4.0523726E-2,2.066942E-2,-1.608278E-2,3.825615E-2,8.193418E-3,1.2225914E-2,2.3506233E1,-0E0,4.608825E-2,7.2551735E-2,2.3501767E-2],"split_indices":[90,23,0,6,0,6,18,82,65,30,25,0,44,0,52,11,25,83,34,83,65,25,50,54,0,70,0,7,30,0,0,30,0,36,36,26,76,14,0,7,13,19,23,0,0,63,0,0,0,0,69,72,90,90,64,0,27,0,62,0,0,9,0,29,66,74,32,36,84,0,0,0,0,0,0,0,0,27,65,89,50,0,0,0,61,0,0,59,0,0,49,0,0,0,90,0,0,0,0,28,76,0,0,0,0,0,0,0,32,8,73,70,0,0,0,0,0,0,0,0,0,0,0,0,0,86,78,20,30,0,0,0,0,0,0,0,0,0,9,0,0,0,0],"split_type":[0,0,0,0,0,0,0,0,0,0,0,0,0,0,0,0,0,0,0,0,0,0,0,0,0,0,0,0,0,0,0,0,0,0,0,0,0,0,0,0,0,0,0,0,0,0,0,0,0,0,0,0,0,0,0,0,0,0,0,0,0,0,0,0,0,0,0,0,0,0,0,0,0,0,0,0,0,0,0,0,0,0,0,0,0,0,0,0,0,0,0,0,0,0,0,0,0,0,0,0,0,0,0,0,0,0,0,0,0,1,0,0,0,0,0,0,0,0,0,0,0,0,0,0,0,0,0,0,0,0,0,0,0,0,0,0,0,0,0,0,0,0,0],"sum_hessian":[1.112E3,2.9E2,8.22E2,2.83E2,7E0,5.67E2,2.55E2,1.94E2,8.9E1,3.66E2,2.01E2,1.67E2,8.8E1,7E0,1.87E2,4.7E1,4.2E1,1.98E2,1.68E2,6.3E1,1.38E2,7.8E1,8.9E1,7.7E1,1.1E1,1.78E2,9E0,1.7E1,3E1,3.1E1,1.1E1,1.88E2,1E1,6.7E1,1.01E2,4.5E1,1.8E1,1.28E2,1E1,4.5E1,3.3E1,7.3E1,1.6E1,9E0,6.8E1,1.67E2,1.1E1,1E1,7E0,1.2E1,1.8E1,5E1,1.38E2,1.8E1,4.9E1,8.7E1,1.4E1,1E1,3.5E1,1.1E1,7E0,1.21E2,7E0,1.9E1,2.6E1,1.6E1,1.7E1,5.7E1,1.6E1,7E0,9E0,9E0,5.9E1,7E0,1.6E2,1.1E1,7E0,1.9E1,3.1E1,5.5E1,8.3E1,8E0,1E1,2.2E1,2.7E1,7E0,7E0,2.6E1,9E0,8E0,1.13E2,9E0,1E1,1E1,1.6E1,9E0,7E0,1E1,7E0,2E1,3.7E1,7E0,9E0,1.2E1,7E0,1.3E1,1.8E1,8E0,4.7E1,6.2E1,2.1E1,1.6E1,1.1E1,1.8E1,8E0,8E0,1.05E2,9E0,7E0,1.3E1,7E0,3E1,7E0,1.1E1,7E0,2.3E1,2.4E1,4.4E1,1.8E1,1.2E1,9E0,7E0,9E0,1E1,1.3E1,1.5E1,9E0,8E0,3.6E1,1.1E1,7E0,2.8E1,8E0],"tree_param":{"num_deleted":"0","num_feature":"91","num_nodes":"143","size_leaf_vector":"1"}},{"base_weights":[2.0650826E-2,5.5214226E-1,-1.7068847E0,-1.1669581E0,1.2976474E0,-2E0,-7.1475315E-1,-1.7690738E-1,-1.8685366E0,8.6694354E-1,2E0,-2E0,-1.2253758E-2,-1.5686828E0,-2.535757E-1,-4.4524008E-1,6.427495E-2,-6.394189E-1,-2E0,2.767631E-1,1.5153834E0,1.1849531E0,2E0,-2E0,-1.0082084E-2,-1.9715911E0,-1.8361667E-3,-1.3795286E0,6.1603475E-2,-2.5889513E-1,-7.2551735E-2,-3.375221E-2,-0E0,-7.2551735E-2,-8.189383E-1,4.2069557E-1,-8.874334E-1,6.3066256E-1,1.968878E0,1.3684924E0,-1.8548213E-2,7.2551735E-2,1.272911E-2,-7.2551735E-2,-1.3228962E0,-2.8850691E-2,-7.2551735E-2,-2.159925E-2,-6.191541E-2,-2.7026057E-2,3.601943E-1,2.3574407E-1,-1.0991007E0,-4.9241547E-2,-3.1153488E-1,6.695446E-1,-1.9679622E-1,-4.902283E-2,-0E0,9.171435E-1,-4.373308E-2,2E0,1.3411089E-2,1.823482E0,7.971195E-1,1.6204815E-2,-2.1173017E-2,-7.2551735E-2,-1.2347363E-2,1.0046967E0,-0E0,-0E0,5.5333376E-2,-6.696532E-2,-4.2393598E-1,4.5926725E-3,-5.7197803E-1,-1.6310327E-1,1.0716001E0,8.3658E-2,-7.9460925E-1,2.8554618E-1,1.7905209E0,9.188474E-1,2E0,2.1411441E-2,2E0,1.1664314E0,-3.4239136E-2,1.3244604E-2,4.6547327E-2,-3.9135545E-1,2.888696E-2,5.6576765E-1,-4.651388E-1,-0E0,-3.5054475E-2,-5.070828E-3,-2.6179405E-2,-5.5967474E-1,5.35918E-1,1.1971209E0,-7.6564387E-3,-1.5119947E-2,3.3870304E-1,-5.1274415E-2,-0E0,4.1699305E-2,-1.9253594E-1,7.2551735E-2,1.8464806E-2,-0E0,5.8122087E-2,2.5295915E-2,2E0,2.4542948E-2,7.2551735E-2,3.3741842E-3,1.4460057E0,2.2574626E-2,-2.8535891E-2,1.0863136E-2,-2.9596567E-2,8.523587E-1,-0E0,-9.372095E-1,1.1689215E-2,-3.2034177E-2,-3.8899053E-2,3.724062E-2,-0E0,-6.491336E-3,1.341691E0,2.6866328E-2,-0E0,-2.1824893E-2,9.922037E-3,7.2551735E-2,3.2159258E-2,2.6677374E-2,6.005836E-2,4.1748226E-2,8.402384E-3,-4.445394E-2,-6.6176276E-3,-1.5620257E-2,1.2874658E-2,1.1308257E-2,1.4707288E0,-9.264411E-3,8.711136E-3,3.0997021E-2,6.340966E-2],"categories":[0,1,3,4,5,6,7,8,9,10,11],"categories_nodes":[123],"categories_segments":[0],"categories_sizes":[11],"default_left":[0,0,0,0,0,0,0,0,0,0,0,0,0,0,0,0,0,0,0,0,0,0,0,0,0,0,0,0,0,0,0,0,0,0,0,0,0,0,0,0,0,0,0,0,0,0,0,0,0,0,0,1,0,0,0,0,1,0,0,0,0,0,0,0,0,0,0,0,0,0,0,0,0,0,0,0,0,0,0,0,0,0,0,0,0,0,0,0,0,0,0,0,0,0,0,0,0,0,0,0,0,0,0,0,1,0,0,0,0,0,0,0,0,0,0,0,0,0,0,0,0,0,0,1,0,0,0,0,0,0,0,0,0,0,0,0,0,0,0,0,0,0,0,0,0,0,0,0,0,0,0,0,0],"id":4,"left_children":[1,3,5,7,9,11,13,15,17,19,21,23,-1,25,27,29,-1,31,33,35,37,39,41,43,-1,45,-1,47,49,51,-1,-1,-1,-1,53,55,57,59,61,63,65,-1,-1,-1,67,-1,-1,-1,-1,-1,69,71,73,-1,75,77,79,-1,-1,81,-1,83,-1,85,87,-1,-1,-1,-1,89,91,93,-1,-1,95,-1,97,99,101,103,105,107,109,111,113,-1,115,117,119,-1,-1,121,-1,123,125,-1,-1,-1,-1,127,129,131,-1,-1,133,-1,-1,-1,135,-1,-1,-1,-1,-1,137,-1,-1,-1,139,-1,-1,-1,-1,141,-1,143,-1,145,-1,-1,-1,-1,147,-1,149,-1,-1,-1,-1,-1,-1,-1,-1,-1,-1,-1,-1,-1,151,-1,-1,-1,-1],"loss_changes":[1.0250651E3,1.0986771E3,1.3844385E2,1.7840732E2,1.8548944E2,1.8628296E1,4.054559E1,6.233078E1,2.4998291E1,1.450112E2,6.279944E1,2.0820435E1,0E0,2.0316269E1,2.917341E1,2.9860744E1,0E0,4.288988E0,4.86156E1,3.6548264E1,6.897504E1,2.6392822E1,2.359851E1,1.1709595E0,0E0,3.157257E0,0E0,1.3200264E0,1.6142752E1,4.1988052E1,0E0,0E0,0E0,0E0,1.0873636E1,2.9839134E1,1.1396109E1,3.9707954E1,2.8072632E1,2.1717697E1,7.062279E0,0E0,0E0,0E0,1.602658E1,0E0,0E0,0E0,0E0,0E0,1.2061607E1,2.110634E1,1.6043804E1,0E0,4.38538E0,4.674788E1,1.1151726E1,0E0,0E0,3.1225445E1,0E0,1.0949646E1,0E0,1.3004227E1,1.6863003E1,0E0,0E0,0E0,0E0,1.4412136E0,1.2361294E1,1.6414827E1,0E0,0E0,5.818718E0,0E0,6.7056704E-1,1.4885295E1,1.6792389E1,6.357022E0,1.0377287E1,1.8997656E1,1.2195374E1,1.4230501E1,3.7891846E0,0E0,4.2608185E0,9.220154E0,1.2141309E1,0E0,0E0,9.087072E0,0E0,4.668269E0,1.4191126E1,0E0,0E0,0E0,0E0,8.125719E0,6.161539E0,1.8947174E1,0E0,0E0,4.4486113E0,0E0,0E0,0E0,6.9028196E0,0E0,0E0,0E0,0E0,0E0,4.823456E0,0E0,0E0,0E0,5.169983E-1,0E0,0E0,0E0,0E0,2.082075E0,0E0,3.4428234E0,0E0,4.760625E0,0E0,0E0,0E0,0E0,8.167618E0,0E0,2.1872773E0,0E0,0E0,0E0,0E0,0E0,0E0,0E0,0E0,0E0,0E0,0E0,0E0,0E0,7.4266357E0,0E0,0E0,0E0,0E0],"parents":[2147483647,0,0,1,1,2,2,3,3,4,4,5,5,6,6,7,7,8,8,9,9,10,10,11,11,13,13,14,14,15,15,17,17,18,18,19,19,20,20,21,21,22,22,23,23,25,25,27,27,28,28,29,29,34,34,35,35,36,36,37,37,38,38,39,39,40,40,44,44,50,50,51,51,52,52,54,54,55,55,56,56,59,59,61,61,63,63,64,64,69,69,70,70,71,71,74,74,76,76,77,77,78,78,79,79,80,80,81,81,82,82,83,83,84,84,86,86,87,87,88,88,91,91,93,93,94,94,99,99,100,100,101,101,104,104,108,108,114,114,118,118,123,123,125,125,127,127,132,132,134,134,148,148],"right_children":[2,4,6,8,10,12,14,16,18,20,22,24,-1,26,28,30,-1,32,34,36,38,40,42,44,-1,46,-1,48,50,52,-1,-1,-1,-1,54,56,58,60,62,64,66,-1,-1,-1,68,-1,-1,-1,-1,-1,70,72,74,-1,76,78,80,-1,-1,82,-1,84,-1,86,88,-1,-1,-1,-1,90,92,94,-1,-1,96,-1,98,100,102,104,106,108,110,112,114,-1,116,118,120,-1,-1,122,-1,124,126,-1,-1,-1,-1,128,130,132,-1,-1,134,-1,-1,-1,136,-1,-1,-1,-1,-1,138,-1,-1,-1,140,-1,-1,-1,-1,142,-1,144,-1,146,-1,-1,-1,-1,148,-1,150,-1,-1,-1,-1,-1,-1,-1,-1,-1,-1,-1,-1,-1,152,-1,-1,-1,-1],"split_conditions":[6E0,2.688404E0,3.096224E0,2.2195195E-1,2.205558E-2,4.1847534E1,2.5113693E1,4.572557E4,1.2183461E-1,2.021976E1,3.4030506E1,2.899656E4,-1.2253758E-2,2.4194316E3,5.8367007E3,1.2012318E1,6.427495E-2,3.3219017E1,2.4205549E0,5.875759E1,1.698697E3,3.666667E0,5.496974E1,3.0033716E2,-1.0082084E-2,9.037796E0,-1.8361667E-3,-6.1536193E0,-3.851609E1,7.9440865E1,-7.2551735E-2,-3.375221E-2,-0E0,-7.2551735E-2,2.6029938E1,2.3789331E2,1.0007219E0,9.5347055E4,5.8349758E4,3.7236767E0,1.7576357E1,7.2551735E-2,1.272911E-2,-7.2551735E-2,3.4972036E-1,-2.8850691E-2,-7.2551735E-2,-2.159925E-2,-6.191541E-2,-2.7026057E-2,-1.9373456E-2,4.2083433E3,9.33513E4,-4.9241547E-2,3.1330832E2,1.1376843E1,2.8351042E0,-4.902283E-2,-0E0,2.0862572E2,-4.373308E-2,2.1943699E1,1.3411089E-2,-1.0539337E1,4.5924046E1,1.6204815E-2,-2.1173017E-2,-7.2551735E-2,-1.2347363E-2,2.2006712E1,4.6756477E1,2.333333E0,5.5333376E-2,-6.696532E-2,-7.891994E0,4.5926725E-3,-3.03536E1,-4.649062E-1,2.5737402E1,1.0405334E0,1.6E2,2.8E2,1.083333E0,6.854591E2,1.5565002E1,2.1411441E-2,-7.970841E-2,1.5380923E1,1.7793657E1,1.3244604E-2,4.6547327E-2,-5.7020254E0,2.888696E-2,1.5706067E-1,-5.6176744E-3,-0E0,-3.5054475E-2,-5.070828E-3,-2.6179405E-2,-9.26685E0,1.4121294E3,3.4178787E1,-7.6564387E-3,-1.5119947E-2,3.6160935E-5,-5.1274415E-2,-0E0,4.1699305E-2,-5.19246E0,7.2551735E-2,1.8464806E-2,-0E0,5.8122087E-2,2.5295915E-2,2.333333E0,2.4542948E-2,7.2551735E-2,3.3741842E-3,2.958981E2,2.2574626E-2,-2.8535891E-2,1.0863136E-2,-2.9596567E-2,1E-45,-0E0,9.400091E4,1.1689215E-2,2.7499738E2,-3.8899053E-2,3.724062E-2,-0E0,-6.491336E-3,1.5846391E1,2.6866328E-2,1.4282249E-2,-2.1824893E-2,9.922037E-3,7.2551735E-2,3.2159258E-2,2.6677374E-2,6.005836E-2,4.1748226E-2,8.402384E-3,-4.445394E-2,-6.6176276E-3,-1.5620257E-2,1.2874658E-2,1.1308257E-2,1.5110845E4,-9.264411E-3,8.711136E-3,3.0997021E-2,6.340966E-2],"split_indices":[0,90,90,10,6,44,46,23,12,30,45,23,0,19,87,36,0,16,90,39,19,0,18,48,0,36,0,64,38,7,0,0,0,0,16,50,88,62,61,69,35,0,0,0,76,0,0,0,0,0,56,75,62,0,80,30,90,0,0,49,0,30,0,37,41,0,0,0,0,30,42,0,0,0,37,0,68,70,9,69,89,89,0,86,35,0,56,41,9,0,0,63,0,13,55,0,0,0,0,63,81,25,0,0,33,0,0,0,63,0,0,0,0,0,0,0,0,0,26,0,0,0,0,3,0,62,0,31,0,0,0,0,9,0,70,0,0,0,0,0,0,0,0,0,0,0,0,0,59,0,0,0,0],"split_type":[0,0,0,0,0,0,0,0,0,0,0,0,0,0,0,0,0,0,0,0,0,0,0,0,0,0,0,0,0,0,0,0,0,0,0,0,0,0,0,0,0,0,0,0,0,0,0,0,0,0,0,0,0,0,0,0,0,0,0,0,0,0,0,0,0,0,0,0,0,0,0,0,0,0,0,0,0,0,0,0,0,0,0,0,0,0,0,0,0,0,0,0,0,0,0,0,0,0,0,0,0,0,0,0,0,0,0,0,0,0,0,0,0,0,0,0,0,0,0,0,0,0,0,1,0,0,0,0,0,0,0,0,0,0,0,0,0,0,0,0,0,0,0,0,0,0,0,0,0,0,0,0,0],"sum_hessian":[1.108E3,8.49E2,2.59E2,2.56E2,5.93E2,1.57E2,1.02E2,1.08E2,1.48E2,3.79E2,2.14E2,1.48E2,9E0,3.3E1,6.9E1,9.7E1,1.1E1,1.9E1,1.29E2,2.01E2,1.78E2,1.09E2,1.05E2,1.39E2,9E0,2.5E1,8E0,1.4E1,5.5E1,9E1,7E0,1.2E1,7E0,8.8E1,4.1E1,1.81E2,2E1,6.3E1,1.15E2,9.5E1,1.4E1,9.4E1,1.1E1,1.15E2,2.4E1,8E0,1.7E1,7E0,7E0,1.3E1,4.2E1,5.7E1,3.3E1,1.7E1,2.4E1,1.3E2,5.1E1,1.3E1,7E0,5.6E1,7E0,1.02E2,1.3E1,4.9E1,4.6E1,7E0,7E0,1.2E1,1.2E1,1.4E1,2.8E1,5E1,7E0,1.3E1,2E1,8E0,1.6E1,4.2E1,8.8E1,3.5E1,1.6E1,3.5E1,2.1E1,1.7E1,8.5E1,1.1E1,3.8E1,3.2E1,1.4E1,7E0,7E0,2E1,8E0,2.2E1,2.8E1,1.3E1,7E0,7E0,9E0,2.8E1,1.4E1,8.1E1,7E0,1E1,2.5E1,8E0,8E0,1.2E1,2.3E1,1.2E1,9E0,8E0,9E0,7E0,7.8E1,7E0,3.1E1,8E0,2.4E1,7E0,7E0,7E0,1.3E1,1.4E1,8E0,1.8E1,1E1,1.6E1,1.2E1,7E0,7E0,7E0,7.4E1,1E1,1.5E1,1.3E1,1E1,6.7E1,1.1E1,9E0,1.5E1,7E0,7E0,1.1E1,7E0,9E0,7E0,1E1,6.4E1,7E0,8E0,2.4E1,4E1],"tree_param":{"num_deleted":"0","num_feature":"91","num_nodes":"153","size_leaf_vector":"1"}},{"base_weights":[-1.6832598E-2,-1.0225114E0,5.8488166E-1,-2E0,-2.701397E-1,1.2286804E0,-1.0279979E0,-2E0,-1.5465089E-2,-9.0247935E-1,3.7984097E-1,8.814798E-2,1.6329991E0,-1.5079137E0,-3.2784814E-1,-2E0,-1.2449112E0,-1.169162E0,1.0298985E0,7.426712E-1,-8.648655E-2,5.8391786E-1,-9.262064E-1,2E0,9.7637063E-1,-1.950273E0,-1.7258616E-1,-6.243034E-1,7.0725626E-1,-2.1957297E-2,-7.2551735E-2,-6.074113E-2,-1.8040809E-1,-1.3745501E0,1.0890433E-1,5.525348E-2,6.133443E-3,-8.370343E-2,1.0649072E0,-3.6197037E-2,1.2070839E-1,7.787828E-1,-3.186245E-2,-1.3050056E0,1.8819384E-2,2E0,2.7479067E-1,1.9701157E0,3.8087788E-1,-2.4345371E-1,-2E0,-4.685997E-2,5.8953804E-1,-8.466631E-1,1.6849186E-2,4.2344667E-2,-0E0,-2.9262086E-2,1.4049937E-2,-1.9662884E0,-8.980509E-1,2.2330267E-2,-1.3598742E-2,1.1964375E-2,-2.5092935E-2,1.2644955E0,-2.4071953E-3,3.754321E-1,-1.4028147E-2,-1.323078E-1,1.371303E0,-7.25401E-2,-3.1115374E-1,7.2551735E-2,-0E0,-8.8367965E-3,2.96495E-2,-0E0,2E0,7.351237E-1,-1.6445577E0,1.4779965E-2,-3.6493987E-2,-2.2229591E-2,-2E0,3.882993E-2,-9.186434E-4,-1.3089389E0,5.3455785E-2,-2E0,-2.2708295E-2,-1.393659E0,-3.976416E-1,1.5872523E0,1.1772471E-2,7.556446E-1,-0E0,2.6445823E-2,-4.5209935E-1,1.846739E-2,1.6057724E0,1.844012E-2,-3.655178E-2,1.252047E-2,7.2551735E-2,-0E0,1.2208538E0,-7.2551735E-2,-9.108575E-3,-7.2551735E-2,-1.1519732E0,-1.6560512E0,-0E0,2.4955219E-2,-1.36098135E-2,-7.2551735E-2,-3.8603563E-2,-1.6615753E0,-1.1727139E-2,4.4932687E-3,-7.742772E-1,1.9886047E-2,6.651915E-2,1.0278849E-2,3.3141308E-2,9.441733E-3,-1.380028E-2,1.3195128E-3,-8.4500414E-1,7.2551735E-2,9.1696066E-1,4.7492042E-1,-6.6664934E-1,1.4710195E0,-4.889904E-4,-5.003857E-2,-1.9074343E-2,-3.0465249E-2,-7.070743E-2,-2.8825982E-2,-7.1225196E-2,-4.28388E-3,-4.1658483E-2,-4.0426947E-2,-9.2581995E-3,4.813331E-2,9.565939E-3,2.9701881E-2,5.631743E-4,9.102745E-3,-5.2586507E-2,1.9250661E0,8.356555E-1,7.2551735E-2,2.379241E-2,1.0719037E0,1.8070254E-4,1.3925829E-2,4.941413E-2],"categories":[3,6,0,1,2,3,4,5,7,8,0,1,2,3,4,6,5],"categories_nodes":[25,37,72,128],"categories_segments":[0,2,10,16],"categories_sizes":[2,8,6,1],"default_left":[0,0,0,0,0,0,0,0,0,1,0,0,0,0,0,0,0,0,0,0,1,0,0,0,0,1,0,0,0,0,0,0,0,0,0,0,0,1,0,0,0,0,0,0,0,0,0,0,0,0,0,0,0,0,0,0,0,0,0,0,0,0,0,0,0,0,0,0,0,0,0,0,1,0,0,0,0,0,0,0,0,0,0,0,0,0,0,0,0,0,0,1,0,0,0,0,0,0,0,0,0,0,0,0,0,0,0,0,0,0,0,0,0,0,0,0,0,1,0,0,0,0,0,0,0,0,0,0,1,0,0,0,0,0,0,0,0,0,0,0,0,0,0,0,0,0,0,0,0,0,0,0,0,0,0,0,0,0,0],"id":5,"left_children":[1,3,5,7,9,11,13,15,-1,17,19,21,23,25,27,29,31,33,35,37,39,41,43,45,47,49,51,53,55,-1,-1,-1,57,59,61,-1,-1,63,65,-1,67,69,-1,71,-1,73,75,77,79,81,83,-1,85,87,-1,-1,-1,-1,-1,89,91,-1,-1,-1,-1,93,-1,95,-1,97,99,-1,101,-1,-1,-1,-1,-1,103,105,107,-1,-1,-1,109,-1,-1,111,113,115,-1,117,119,121,-1,123,125,-1,127,-1,129,-1,-1,-1,-1,131,133,-1,-1,-1,135,137,-1,-1,-1,-1,-1,139,-1,-1,141,-1,-1,-1,-1,-1,-1,-1,143,-1,145,147,149,151,-1,-1,-1,-1,-1,-1,-1,-1,-1,-1,-1,-1,-1,-1,-1,-1,-1,153,155,-1,-1,157,-1,-1,-1],"loss_changes":[6.805622E2,3.3749112E2,7.327526E2,1.8013184E1,1.06243774E2,2.3014575E2,6.59339E1,1.4799316E1,0E0,7.174555E1,2.2731155E1,7.134593E1,1.3676227E2,6.7661835E1,2.9158138E1,9.832336E0,1.9408333E1,3.225183E1,5.983982E0,2.098999E1,1.3641966E1,2.9983147E1,2.8466148E1,5.9630005E1,1.1007973E2,4.051413E1,3.3514496E1,1.9230055E1,8.096784E0,0E0,0E0,0E0,8.986134E0,2.3901962E1,6.789053E0,0E0,0E0,8.128325E0,1.3733753E1,0E0,7.5960197E0,4.810184E1,0E0,2.3343208E1,0E0,5.4729553E1,9.450502E0,3.1585388E1,9.30432E1,1.2509566E1,9.6091E0,0E0,8.119737E0,2.671709E1,0E0,0E0,0E0,0E0,0E0,5.463028E0,1.3644779E1,0E0,0E0,0E0,0E0,1.1930336E1,0E0,5.9754715E0,0E0,1.2056677E1,7.81192E0,0E0,1.4591108E1,0E0,0E0,0E0,0E0,0E0,1.8364777E1,3.8493237E1,1.4086445E1,0E0,0E0,0E0,5.254822E-1,0E0,0E0,1.9292702E1,8.73236E0,1.170105E0,0E0,6.066124E0,8.61074E0,5.104851E0,0E0,3.6757374E-1,3.3926578E0,0E0,6.9717727E0,0E0,5.8323746E0,0E0,0E0,0E0,0E0,1.7046875E1,2.15764E1,0E0,0E0,0E0,2.0239449E-1,3.0688171E0,0E0,0E0,0E0,0E0,0E0,1.2997284E0,0E0,0E0,4.6504936E0,0E0,0E0,0E0,0E0,0E0,0E0,0E0,1.6083975E0,0E0,4.1158237E0,4.1842203E0,1.8022919E1,1.1365585E1,0E0,0E0,0E0,0E0,0E0,0E0,0E0,0E0,0E0,0E0,0E0,0E0,0E0,0E0,0E0,0E0,0E0,4.726799E0,4.7799053E0,0E0,0E0,2.4279556E0,0E0,0E0,0E0],"parents":[2147483647,0,0,1,1,2,2,3,3,4,4,5,5,6,6,7,7,9,9,10,10,11,11,12,12,13,13,14,14,15,15,16,16,17,17,18,18,19,19,20,20,21,21,22,22,23,23,24,24,25,25,26,26,27,27,28,28,32,32,33,33,34,34,37,37,38,38,40,40,41,41,43,43,45,45,46,46,47,47,48,48,49,49,50,50,52,52,53,53,59,59,60,60,65,65,67,67,69,69,70,70,72,72,78,78,79,79,80,80,84,84,87,87,88,88,89,89,91,91,92,92,93,93,95,95,96,96,98,98,100,100,105,105,106,106,110,110,111,111,117,117,120,120,128,128,130,130,131,131,132,132,133,133,151,151,152,152,155,155],"right_children":[2,4,6,8,10,12,14,16,-1,18,20,22,24,26,28,30,32,34,36,38,40,42,44,46,48,50,52,54,56,-1,-1,-1,58,60,62,-1,-1,64,66,-1,68,70,-1,72,-1,74,76,78,80,82,84,-1,86,88,-1,-1,-1,-1,-1,90,92,-1,-1,-1,-1,94,-1,96,-1,98,100,-1,102,-1,-1,-1,-1,-1,104,106,108,-1,-1,-1,110,-1,-1,112,114,116,-1,118,120,122,-1,124,126,-1,128,-1,130,-1,-1,-1,-1,132,134,-1,-1,-1,136,138,-1,-1,-1,-1,-1,140,-1,-1,142,-1,-1,-1,-1,-1,-1,-1,144,-1,146,148,150,152,-1,-1,-1,-1,-1,-1,-1,-1,-1,-1,-1,-1,-1,-1,-1,-1,-1,154,156,-1,-1,158,-1,-1,-1],"split_conditions":[1.374676E1,2.5566618E0,3.833333E0,3.3790152E2,2.7052097E3,4.1387653E1,2.6366607E4,2.758514E2,-1.5465089E-2,3.1478357E0,8.832288E1,1.227689E1,-7.5099983E0,1.2654078E2,1.5324858E4,1.5860202E1,3.1355336E4,9.385651E1,6.042882E2,1.3293951E2,7.8952435E-6,3.3023386E2,2.702428E2,3.9869152E1,3.8044E1,1E-45,1.5048975E-1,3.0285986E2,1.4358591E0,-2.1957297E-2,-7.2551735E-2,-6.074113E-2,6.5780475E2,2.1661641E2,3.9971214E1,5.525348E-2,6.133443E-3,1E-45,1.5479408E4,-3.6197037E-2,-8.711905E0,2.906265E0,-3.186245E-2,2.1394221E2,1.8819384E-2,1.2012318E1,1.5225883E1,2.8859968E0,7.921276E1,1.4618923E-2,2.1658682E3,-4.685997E-2,4.4444447E0,1.9220617E1,1.6849186E-2,4.2344667E-2,-0E0,-2.9262086E-2,1.4049937E-2,2.9274118E1,9.738185E0,2.2330267E-2,-1.3598742E-2,1.1964375E-2,-2.5092935E-2,1.0031992E1,-2.4071953E-3,5.351617E-3,-1.4028147E-2,-4.7828812E-2,-3.4499902E-1,-7.25401E-2,1E-45,7.2551735E-2,-0E0,-8.8367965E-3,2.96495E-2,-0E0,4.4798286E1,2.021976E1,1.25E0,1.4779965E-2,-3.6493987E-2,-2.2229591E-2,1.3862733E2,3.882993E-2,-9.186434E-4,2.0184536E-1,-7.931595E0,7.9710065E2,-2.2708295E-2,6.229053E3,3.0312943E1,3.1270207E4,1.1772471E-2,9.6442314E1,1.9499971E0,2.6445823E-2,1.6711703E2,1.846739E-2,2.2707265E2,1.844012E-2,-3.655178E-2,1.252047E-2,7.2551735E-2,9.175202E3,2.666667E0,-7.2551735E-2,-9.108575E-3,-7.2551735E-2,1.9356E1,-2.9583149E-2,-0E0,2.4955219E-2,-1.36098135E-2,-7.2551735E-2,-3.8603563E-2,2.654367E0,-1.1727139E-2,4.4932687E-3,1.8569319E1,1.9886047E-2,6.651915E-2,1.0278849E-2,3.3141308E-2,9.441733E-3,-1.380028E-2,1.3195128E-3,1E-45,7.2551735E-2,1.7324631E-1,1.8E2,2.3190042E2,-6.441432E0,-4.889904E-4,-5.003857E-2,-1.9074343E-2,-3.0465249E-2,-7.070743E-2,-2.8825982E-2,-7.1225196E-2,-4.28388E-3,-4.1658483E-2,-4.0426947E-2,-9.2581995E-3,4.813331E-2,9.565939E-3,2.9701881E-2,5.631743E-4,9.102745E-3,-5.2586507E-2,3.0756757E2,2.2418243E-1,7.2551735E-2,2.379241E-2,-5.316468E0,1.8070254E-4,1.3925829E-2,4.941413E-2],"split_indices":[30,90,0,31,19,25,23,82,0,90,7,80,64,73,59,47,60,76,1,2,33,29,2,39,47,4,13,2,88,0,0,0,1,31,82,0,0,8,59,0,63,90,0,31,0,36,9,90,67,33,75,0,5,9,0,0,0,0,0,34,30,0,0,0,0,43,0,33,0,72,67,0,4,0,0,0,0,0,73,30,0,0,0,0,82,0,0,10,66,26,0,75,40,60,0,80,88,0,50,0,50,0,0,0,0,87,0,0,0,0,9,56,0,0,0,0,0,90,0,0,41,0,0,0,0,0,0,0,4,0,68,89,29,64,0,0,0,0,0,0,0,0,0,0,0,0,0,0,0,0,0,50,68,0,0,64,0,0,0],"split_type":[0,0,0,0,0,0,0,0,0,0,0,0,0,0,0,0,0,0,0,0,0,0,0,0,0,1,0,0,0,0,0,0,0,0,0,0,0,1,0,0,0,0,0,0,0,0,0,0,0,0,0,0,0,0,0,0,0,0,0,0,0,0,0,0,0,0,0,0,0,0,0,0,1,0,0,0,0,0,0,0,0,0,0,0,0,0,0,0,0,0,0,0,0,0,0,0,0,0,0,0,0,0,0,0,0,0,0,0,0,0,0,0,0,0,0,0,0,0,0,0,0,0,0,0,0,0,0,0,1,0,0,0,0,0,0,0,0,0,0,0,0,0,0,0,0,0,0,0,0,0,0,0,0,0,0,0,0,0,0],"sum_hessian":[1.114E3,4.17E2,6.97E2,1.69E2,2.48E2,4.99E2,1.98E2,1.59E2,1E1,1.26E2,1.22E2,1.32E2,3.67E2,1.15E2,8.3E1,1.16E2,4.3E1,1.12E2,1.4E1,6.9E1,5.3E1,9E1,4.2E1,1.81E2,1.86E2,8.5E1,3E1,6.6E1,1.7E1,9E0,1.07E2,2.9E1,1.4E1,9.7E1,1.5E1,7E0,7E0,1.9E1,5E1,9E0,4.4E1,8.1E1,9E0,3.4E1,8E0,1.59E2,2.2E1,6.7E1,1.19E2,1.5E1,7E1,1.2E1,1.8E1,5.6E1,1E1,1E1,7E0,7E0,7E0,3.9E1,5.8E1,8E0,7E0,1.1E1,8E0,4.3E1,7E0,3.1E1,1.3E1,3.2E1,4.9E1,1.8E1,1.6E1,1.46E2,1.3E1,1.1E1,1.1E1,8E0,5.9E1,1.03E2,1.6E1,8E0,7E0,9E0,6.1E1,1E1,8E0,3.7E1,1.9E1,3.2E1,7E0,2.6E1,3.2E1,3E1,1.3E1,1.5E1,1.6E1,7E0,2.5E1,1.3E1,3.6E1,7E0,9E0,9E0,5E1,4.2E1,6.1E1,9E0,7E0,4.7E1,1.4E1,2.9E1,8E0,8E0,1.1E1,2E1,1.2E1,1.9E1,7E0,1.3E1,1.9E1,8E0,2.2E1,7E0,8E0,9E0,7E0,1.1E1,1.4E1,1.9E1,1.7E1,2.5E1,1.7E1,5.1E1,1E1,7E0,7E0,1.1E1,1.8E1,8E0,1.1E1,9E0,1E1,7E0,7E0,8E0,9E0,1.2E1,1.3E1,8E0,9E0,2.6E1,2.5E1,1.9E1,7E0,1.8E1,7E0,8E0,1E1],"tree_param":{"num_deleted":"0","num_feature":"91","num_nodes":"159","size_leaf_vector":"1"}},{"base_weights":[-2.481036E-3,5.436101E-1,-1.4643441E0,1.1361184E0,-1.1874689E0,-2E0,-6.261322E-1,1.952703E0,6.312694E-1,-2E0,-3.160751E-1,-2E0,-7.60823E-4,-1.6167046E0,-2.6388454E-1,2E0,6.521462E-1,-1.0032198E-1,1.1278497E0,-1.8781178E-2,-2E0,-8.500459E-1,3.562735E-1,-2E0,-1.4069162E-2,-1.8721278E0,-1.0898587E-2,5.694197E-1,-6.3765544E-1,2.1343242E-1,2E0,-2.5468592E-2,1.1408412E0,-9.888709E-1,2.440668E-1,7.558358E-1,1.8805083E0,-7.2551735E-2,-4.222142E-2,-5.870591E-2,-5.095712E-1,6.3928187E-1,-3.6164828E-2,-2.5224382E-2,-2E0,-2.53208E-2,-7.2551735E-2,-1.6956672E-2,1.1725652E0,-9.299567E-1,2.4931308E-2,-1.0434674E-2,3.1604253E-2,9.1218174E-1,2E0,1.3999934E-2,5.3341754E-2,-1.8266602E0,-3.7885714E-1,-3.0347234E-2,3.907944E-1,1.3390838E0,3.0642918E-1,2E0,5.9135544E-1,-6.8744606E-1,1.2231502E-2,2.35632E-1,5.0810825E-2,-2.3609199E-2,-2E0,5.2180223E-2,1.593579E-2,-3.3276168E-1,-1.351973E0,-7.116993E-4,1.2493618E0,2E0,2.379728E-2,-2.5114523E-2,-7.2551735E-2,-9.484451E-1,2.2995815E-2,7.037227E-1,-3.995633E-1,-1.6495764E-2,1.7327042E0,5.1131386E-1,-2.6620083E-2,1.5563107E-2,7.2551735E-2,-6.395436E-3,1.0515696E0,-7.686353E-1,-9.301284E-3,-9.260463E-3,5.136236E-1,-1.766523E-2,-2E0,-7.451067E-1,1.5420722E-2,-8.814835E-3,-1.7269019E0,1.6594319E-2,5.8981646E-2,7.2551735E-2,3.0613048E-2,-4.61153E-2,-9.074261E-3,8.60532E-1,-1.7981855E-2,1.2976425E-2,-8.2393754E-1,1.9672371E0,2.7318653E-2,7.787105E-1,-5.8586153E-5,4.7600586E-2,1.5157878E-2,-1.37488535E-2,-3.2599665E-2,-0E0,7.109867E-1,-2E0,-3.3124816E-2,-3.618331E-2,-2.3104786E-3,-7.2551735E-2,-1.1341469E0,4.2308962E-1,1.6500815E0,-4.400893E-2,-0E0,7.2551735E-2,3.4570355E-2,2.489012E-1,1.1275542E0,4.674797E-1,-3.1992394E-2,3.144516E-2,9.758158E-3,-7.2551735E-2,-3.3131972E-2,-1.2581708E-2,-5.8441248E-2,-1.5674953E-1,8.5887456E-1,6.796193E-2,2.7503267E-2,2.1032065E-2,-4.7491146E-3,2.0919088E-2,1.4030747E0,3.5236917E-2,-7.689745E-3,-1.8846812E-2,6.697331E-3,3.7483733E-2,5.0020884E-3,6.0034446E-2,2.3998465E-2],"categories":[],"categories_nodes":[],"categories_segments":[],"categories_sizes":[],"default_left":[0,0,0,0,0,0,0,0,0,0,0,0,0,0,0,0,0,0,0,0,0,0,0,0,0,0,0,0,0,0,0,0,0,0,0,0,0,0,0,0,0,0,0,0,0,0,0,0,0,0,0,0,0,0,0,0,0,0,0,0,0,0,0,0,0,1,0,0,0,0,0,0,0,0,0,0,0,0,0,0,0,0,0,0,0,0,0,0,0,0,0,0,0,0,0,0,0,0,0,0,0,0,0,0,0,0,0,0,0,0,0,0,0,0,0,0,0,0,0,0,0,0,0,0,0,0,0,0,0,0,1,0,0,0,0,0,0,0,0,0,0,0,0,0,0,0,0,0,0,0,0,0,0,0,0,0,0,0,0,0,0],"id":6,"left_children":[1,3,5,7,9,11,13,15,17,19,21,23,-1,25,27,29,31,33,35,-1,37,39,41,43,-1,45,-1,47,49,51,53,-1,55,57,59,61,63,-1,-1,-1,65,67,-1,-1,69,-1,-1,-1,71,73,-1,-1,-1,75,77,-1,-1,79,81,-1,83,85,87,89,91,93,-1,95,-1,-1,97,-1,-1,99,101,-1,103,105,-1,-1,-1,107,-1,109,111,-1,113,115,-1,-1,-1,-1,117,119,-1,-1,121,-1,123,125,-1,-1,127,-1,-1,-1,-1,-1,-1,129,-1,-1,131,133,-1,135,137,-1,-1,-1,-1,-1,139,141,-1,-1,-1,-1,143,145,147,-1,-1,-1,-1,149,151,153,-1,-1,-1,-1,-1,-1,-1,155,157,-1,-1,-1,-1,-1,159,-1,-1,-1,-1,-1,-1,-1,-1],"loss_changes":[8.940022E2,8.378982E2,1.667041E2,2.4692511E2,1.8182321E2,2.7240417E1,4.997395E1,5.8907104E1,1.399262E2,1.0334656E1,4.4752453E1,1.9457764E1,0E0,9.8448715E0,3.593332E1,4.5616028E1,3.0770826E1,5.078633E1,6.0354614E1,0E0,9.1864014E-1,1.5810047E1,2.3762836E1,1.4046387E1,0E0,3.544487E0,0E0,2.5001884E1,3.289982E1,9.099284E0,2.3050476E1,0E0,5.7839966E0,2.1254192E1,2.0102104E1,4.0141594E1,3.524701E1,0E0,0E0,0E0,9.504677E0,1.3512758E1,0E0,0E0,6.677063E0,0E0,0E0,0E0,2.3906212E0,1.4726437E1,0E0,0E0,0E0,1.1206705E1,8.34845E0,0E0,0E0,3.720127E0,2.107896E1,0E0,2.7453924E1,5.1700073E1,2.2221222E1,1.0509216E1,1.1177543E1,7.017994E-1,0E0,6.175495E0,0E0,0E0,8.943237E0,0E0,0E0,1.22217655E1,1.2990051E1,0E0,4.4861336E0,6.8969727E-1,0E0,0E0,0E0,3.4658775E0,0E0,1.6658943E1,1.2152155E1,0E0,8.43985E0,1.2148785E1,0E0,0E0,0E0,0E0,1.0256901E0,6.193085E-1,0E0,0E0,2.5052767E0,0E0,1.7283936E0,3.1053991E0,0E0,0E0,3.8381958E-1,0E0,0E0,0E0,0E0,0E0,0E0,2.194936E1,0E0,0E0,6.638629E0,8.56308E-1,0E0,9.017899E0,1.5760051E1,0E0,0E0,0E0,0E0,0E0,2.88661E-1,5.4315186E-1,0E0,0E0,0E0,0E0,4.886532E0,1.4156047E1,3.9648438E-1,0E0,0E0,0E0,0E0,4.72379E0,2.401348E0,9.290596E0,0E0,0E0,0E0,0E0,0E0,0E0,0E0,4.2863636E0,2.6921005E0,0E0,0E0,0E0,0E0,0E0,1.403923E-1,0E0,0E0,0E0,0E0,0E0,0E0,0E0,0E0],"parents":[2147483647,0,0,1,1,2,2,3,3,4,4,5,5,6,6,7,7,8,8,9,9,10,10,11,11,13,13,14,14,15,15,16,16,17,17,18,18,20,20,21,21,22,22,23,23,25,25,27,27,28,28,29,29,30,30,32,32,33,33,34,34,35,35,36,36,40,40,41,41,44,44,48,48,49,49,53,53,54,54,57,57,58,58,60,60,61,61,62,62,63,63,64,64,65,65,67,67,70,70,73,73,74,74,76,76,77,77,81,81,83,83,84,84,86,86,87,87,92,92,93,93,96,96,98,98,99,99,102,102,109,109,112,112,113,113,115,115,116,116,122,122,123,123,128,128,129,129,130,130,135,135,136,136,137,137,145,145,146,146,152,152],"right_children":[2,4,6,8,10,12,14,16,18,20,22,24,-1,26,28,30,32,34,36,-1,38,40,42,44,-1,46,-1,48,50,52,54,-1,56,58,60,62,64,-1,-1,-1,66,68,-1,-1,70,-1,-1,-1,72,74,-1,-1,-1,76,78,-1,-1,80,82,-1,84,86,88,90,92,94,-1,96,-1,-1,98,-1,-1,100,102,-1,104,106,-1,-1,-1,108,-1,110,112,-1,114,116,-1,-1,-1,-1,118,120,-1,-1,122,-1,124,126,-1,-1,128,-1,-1,-1,-1,-1,-1,130,-1,-1,132,134,-1,136,138,-1,-1,-1,-1,-1,140,142,-1,-1,-1,-1,144,146,148,-1,-1,-1,-1,150,152,154,-1,-1,-1,-1,-1,-1,-1,156,158,-1,-1,-1,-1,-1,160,-1,-1,-1,-1,-1,-1,-1,-1],"split_conditions":[5E0,2.4547783E-1,3.0604403E0,-7.8679414E0,2.4205549E0,4.1847534E1,1.9898829E1,3.2007576E1,3.0849652E0,1.24665886E-1,5.6894324E2,2.899656E4,-7.60823E-4,2.7052097E3,-8.0017395E0,-6.1275434E-1,6.3131315E-1,2.455532E0,2.205558E-2,-1.8781178E-2,2.2825208E0,1.4440302E0,8.767014E1,4.3019104E0,-1.4069162E-2,3.9855578E0,-1.0898587E-2,1.808E1,3.610798E4,3.638374E3,3.29862E1,-2.5468592E-2,1.8475674E1,1.6699001E1,-1.9001207E-1,1.416667E0,1.7E0,-7.2551735E-2,-4.222142E-2,-5.870591E-2,1.0164764E1,3.807103E1,-3.6164828E-2,-2.5224382E-2,-7.589096E-1,-2.53208E-2,-7.2551735E-2,-1.6956672E-2,-3.3044163E-2,2.2966348E2,2.4931308E-2,-1.0434674E-2,3.1604253E-2,-9.977347E0,7.5716995E1,1.3999934E-2,5.3341754E-2,-8.334299E-2,4.720214E1,-3.0347234E-2,4.7119545E1,9.316069E4,2.6880174E0,3.6641895E1,1.9885384E-1,2.6360605E0,1.2231502E-2,-7.8074985E0,5.0810825E-2,-2.3609199E-2,-8.360893E0,5.2180223E-2,1.593579E-2,3.1474062E1,1.1601598E1,-7.116993E-4,2.2884274E-1,1.7896506E-1,2.379728E-2,-2.5114523E-2,-7.2551735E-2,2.9698324E-1,2.2995815E-2,3.2319824E2,1.0424024E1,-1.6495764E-2,3.0029297E-1,1.7716718E0,-2.6620083E-2,1.5563107E-2,7.2551735E-2,-6.395436E-3,1.1328376E-1,8.4033615E1,-9.301284E-3,-9.260463E-3,2.4926433E-1,-1.766523E-2,9.544928E1,1.9717337E2,1.5420722E-2,-8.814835E-3,1.7026728E1,1.6594319E-2,5.8981646E-2,7.2551735E-2,3.0613048E-2,-4.61153E-2,-9.074261E-3,1.4166638E1,-1.7981855E-2,1.2976425E-2,6.799008E1,-6.2944694E0,2.7318653E-2,1.7745355E2,2.6383846E1,4.7600586E-2,1.5157878E-2,-1.37488535E-2,-3.2599665E-2,-0E0,1.7544729E-1,8.425952E1,-3.3124816E-2,-3.618331E-2,-2.3104786E-3,-7.2551735E-2,-4.1740578E-2,9.5409116E-5,2.19158E-4,-4.400893E-2,-0E0,7.2551735E-2,3.4570355E-2,2.3064125E-1,-6.953531E0,7.442177E1,-3.1992394E-2,3.144516E-2,9.758158E-3,-7.2551735E-2,-3.3131972E-2,-1.2581708E-2,-5.8441248E-2,1.5963496E-3,2.513854E1,6.796193E-2,2.7503267E-2,2.1032065E-2,-4.7491146E-3,2.0919088E-2,2.708817E-1,3.5236917E-2,-7.689745E-3,-1.8846812E-2,6.697331E-3,3.7483733E-2,5.0020884E-3,6.0034446E-2,2.3998465E-2],"split_indices":[0,14,90,64,90,44,46,39,90,12,81,23,0,19,66,74,7,90,6,0,90,88,79,17,0,43,0,9,23,19,73,0,9,9,54,0,0,0,0,0,36,73,0,0,70,0,0,0,55,52,0,0,0,63,25,0,0,53,39,0,40,62,78,25,14,90,0,65,0,0,66,0,0,44,22,0,14,72,0,0,0,15,0,50,17,0,15,88,0,0,0,0,12,7,0,0,14,0,27,51,0,0,44,0,0,0,0,0,0,28,0,0,40,65,0,49,67,0,0,0,0,0,13,47,0,0,0,0,54,79,32,0,0,0,0,11,65,7,0,0,0,0,0,0,0,56,43,0,0,0,0,0,74,0,0,0,0,0,0,0,0],"split_type":[0,0,0,0,0,0,0,0,0,0,0,0,0,0,0,0,0,0,0,0,0,0,0,0,0,0,0,0,0,0,0,0,0,0,0,0,0,0,0,0,0,0,0,0,0,0,0,0,0,0,0,0,0,0,0,0,0,0,0,0,0,0,0,0,0,0,0,0,0,0,0,0,0,0,0,0,0,0,0,0,0,0,0,0,0,0,0,0,0,0,0,0,0,0,0,0,0,0,0,0,0,0,0,0,0,0,0,0,0,0,0,0,0,0,0,0,0,0,0,0,0,0,0,0,0,0,0,0,0,0,0,0,0,0,0,0,0,0,0,0,0,0,0,0,0,0,0,0,0,0,0,0,0,0,0,0,0,0,0,0,0],"sum_hessian":[1.109E3,8.08E2,3.01E2,6.03E2,2.05E2,1.63E2,1.38E2,2.27E2,3.76E2,9.1E1,1.14E2,1.55E2,8E0,3.4E1,1.04E2,1.9E2,3.7E1,1.52E2,2.24E2,8E0,8.3E1,6.4E1,5E1,1.45E2,1E1,2.7E1,7E0,3.1E1,7.3E1,1.6E1,1.74E2,9E0,2.8E1,4.2E1,1.1E2,1.54E2,7E1,6.8E1,1.5E1,1.6E1,4.8E1,4.3E1,7E0,1.3E1,1.32E2,7E0,2E1,1.1E1,2E1,6.1E1,1.2E1,9E0,7E0,2.7E1,1.47E2,1.1E1,1.7E1,1.5E1,2.7E1,1.1E1,9.9E1,6.4E1,9E1,4.8E1,2.2E1,4.1E1,7E0,3.1E1,1.2E1,8E0,1.24E2,1.2E1,8E0,2.8E1,3.3E1,7E0,2E1,1.38E2,9E0,7E0,8E0,1.8E1,9E0,7.2E1,2.7E1,1.1E1,5.3E1,7.7E1,1.3E1,7E0,4.1E1,8E0,1.4E1,3.1E1,1E1,1E1,2.1E1,7E0,1.17E2,1.9E1,9E0,1E1,2.3E1,9E0,1.1E1,1.31E2,7E0,1E1,8E0,6.5E1,7E0,9E0,1.8E1,4E1,1.3E1,5.1E1,2.6E1,7E0,7E0,1.2E1,1.9E1,7E0,1.4E1,1.08E2,9E0,1.2E1,7E0,8E0,1.5E1,4.5E1,2E1,1.1E1,7E0,3.1E1,9E0,2.3E1,2.8E1,1.7E1,9E0,7E0,7E0,1E2,8E0,8E0,7E0,1.9E1,2.6E1,1.3E1,7E0,1.3E1,1E1,1.3E1,1.5E1,1E1,7E0,1E1,9E0,1.9E1,7E0,8E0,7E0],"tree_param":{"num_deleted":"0","num_feature":"91","num_nodes":"161","size_leaf_vector":"1"}},{"base_weights":[3.0377388E-2,-1.4617683E0,7.18266E-1,-1.047441E0,-2E0,4.026205E-1,2E0,-1.4769402E-1,-1.7053536E0,-8.140481E-3,-2E0,9.353765E-1,-1.1996003E0,2E0,-4.554501E-3,8.4377515E-1,-5.976548E-1,-3.1590384E-1,-1.8601094E0,-2.679383E-2,-7.2551735E-2,3.695047E-1,1.184497E0,-1.8218857E0,-8.1305873E-1,2E0,8.570177E-1,-3.1462247E-3,1.4369811E0,-2.8489363E-1,-6.869308E-2,-2.0877568E-2,-0E0,-7.2551735E-2,-1.0128164E0,9.431257E-2,1.2215399E0,1.7812423E0,6.964471E-1,-2E0,-0E0,-1.3305627E0,-1.24462046E-1,7.2551735E-2,2.5006887E-2,7.0328645E-2,2.6735535E-1,1.0236412E-2,6.7257404E-2,-7.3413306E-1,2.2443147E-1,-1.4762505E0,-6.1917746E-1,7.326825E-1,-1.8969585E-1,1.5135031E0,7.3272754E-3,7.035081E-1,1.99534E0,1.1838233E0,3.7189227E-1,-7.2551735E-2,-1.3313822E-2,-5.970418E-1,-7.2551735E-2,-4.5734853E-2,3.6433324E-1,-1.5945138E-2,3.634126E-2,-1.1517836E0,1.3590279E-2,-4.2906106E-3,3.2276265E-2,-2.2472866E-2,-6.324882E-2,1.5750848E-3,-8.075188E-1,1.5269493E-2,1.1183146E0,2.8452212E-1,-5.8330965E-1,2.4876544E-2,6.0821652E-2,1.1048428E0,-0E0,2E0,2.314159E-3,7.219129E-1,1.6016878E0,1.1275742E0,-1.3561927E-1,-9.651869E-1,8.356731E-3,-1.5195764E-2,8.726942E-1,-1.4776918E0,-4.0413757E-4,-1.2309745E-2,1.2092672E-2,-3.478144E-2,-7.283189E-3,1.1581873E-2,-6.821178E-3,5.0624773E-2,8.868933E-3,-6.0107033E-3,5.244182E-1,-1.0087131E0,-9.757084E-2,5.2294478E-2,1.2536135E-2,2E0,1.4806305E-2,-1.5568255E-2,1.0792967E0,6.989444E-2,1.1331003E-2,-2.2445838E-3,1.3616788E0,1.8130118E-1,-5.766171E-2,-1.0123996E-2,-4.1579258E-2,1.2545287E-2,4.1765943E-2,-6.7033224E-2,-1.5551388E-2,-0E0,7.959641E-1,-4.8438817E-2,-2.785436E-3,1.4577677E-2,-3.9342433E-1,2.9533155E-2,2E0,4.280952E-3,1.3031673E0,1.7812029E0,5.742911E-1,-2.7969517E-2,3.8465604E-1,4.0434726E-2,1.013392E-2,-3.2126058E-2,3.2641622E-4,7.2551735E-2,2.7956504E-2,5.9785057E-2,1.7290175E-2,7.227049E-2,3.0150345E-2,3.1055275E-2,-0E0,1.7232234E-2,9.879288E-1,-9.297276E-3,3.423747E-2,4.852725E-2,7.5036907E-3],"categories":[],"categories_nodes":[],"categories_segments":[],"categories_sizes":[],"default_left":[0,0,1,0,0,0,0,0,0,0,0,0,0,0,0,0,0,0,0,0,0,0,0,0,0,1,0,0,0,0,0,0,0,0,0,0,0,0,0,0,0,0,0,0,0,0,0,0,0,0,0,0,0,0,0,0,0,0,0,0,0,0,0,0,0,0,0,0,0,1,0,0,0,0,0,0,0,0,0,0,0,0,0,0,0,0,0,0,0,0,0,0,0,0,0,0,0,0,0,0,0,0,0,0,0,0,0,1,1,0,0,0,0,0,0,0,0,0,0,0,0,0,0,0,0,0,0,0,0,0,0,0,0,0,0,0,0,1,0,0,0,0,0,0,0,0,0,0,0,0,0,0,0,0,0,0,0,0,0],"id":7,"left_children":[1,3,5,7,9,11,13,15,17,-1,19,21,23,25,-1,27,29,31,33,-1,-1,35,37,39,41,43,45,-1,47,49,-1,-1,-1,-1,51,53,55,57,59,61,-1,63,65,-1,-1,-1,67,-1,-1,69,71,73,75,77,79,81,-1,83,85,87,89,-1,-1,91,-1,-1,93,-1,-1,95,-1,97,-1,-1,-1,-1,99,101,103,105,107,-1,-1,109,-1,111,-1,113,115,117,119,121,-1,-1,123,125,-1,-1,-1,-1,-1,-1,-1,-1,-1,-1,127,129,131,-1,-1,133,-1,-1,135,-1,-1,-1,137,139,-1,-1,-1,-1,-1,-1,-1,-1,141,-1,-1,-1,143,-1,145,-1,147,149,151,-1,153,-1,-1,-1,-1,-1,-1,-1,-1,-1,-1,-1,-1,155,157,-1,-1,-1,-1],"loss_changes":[1.144738E3,1.2253967E2,3.423573E2,1.5211902E2,1.9696594E1,5.4223804E2,3.704889E1,5.365679E1,2.9285461E1,0E0,4.4661865E0,6.537335E1,3.453717E1,2.6559875E1,0E0,2.2504122E1,3.1855196E1,2.4503388E0,4.4029083E1,0E0,0E0,3.532103E1,9.219061E1,2.475618E1,3.5924774E1,3.9692993E0,1.799226E1,0E0,8.807625E0,1.764317E1,0E0,0E0,0E0,0E0,8.710754E0,2.3599506E1,9.088482E0,2.9100433E1,2.8271835E1,1.2254791E1,0E0,2.8974197E1,3.1261562E1,0E0,0E0,0E0,1.55483265E1,0E0,0E0,2.067711E1,7.1269317E0,2.415722E0,5.958544E0,9.979864E0,1.7219748E1,1.5177917E-1,0E0,7.97338E0,2.1838623E1,1.0962692E1,4.7353092E1,0E0,0E0,1.2607078E1,0E0,0E0,1.6843973E1,0E0,0E0,9.717075E0,0E0,4.4652247E0,0E0,0E0,0E0,0E0,1.8806076E0,2.2543392E0,4.263315E0,5.398278E0,9.29236E0,0E0,0E0,2.837532E0,0E0,1.8690338E1,0E0,1.9506071E1,1.2024826E1,1.5261147E1,3.7730633E1,1.7658596E0,0E0,0E0,2.0888042E0,5.7412415E0,0E0,0E0,0E0,0E0,0E0,0E0,0E0,0E0,0E0,0E0,4.9311924E0,6.2804966E0,5.4962893E0,0E0,0E0,4.09906E0,0E0,0E0,5.663273E0,0E0,0E0,0E0,1.0528351E1,1.3751504E1,0E0,0E0,0E0,0E0,0E0,0E0,0E0,0E0,2.0872755E0,0E0,0E0,0E0,5.5110188E0,0E0,2.1877747E0,0E0,4.596813E0,1.9125366E-1,2.8406234E0,0E0,1.1584254E1,0E0,0E0,0E0,0E0,0E0,0E0,0E0,0E0,0E0,0E0,0E0,0E0,1.2554608E1,3.9391117E0,0E0,0E0,0E0,0E0],"parents":[2147483647,0,0,1,1,2,2,3,3,4,4,5,5,6,6,7,7,8,8,10,10,11,11,12,12,13,13,15,15,16,16,17,17,18,18,21,21,22,22,23,23,24,24,25,25,26,26,28,28,29,29,34,34,35,35,36,36,37,37,38,38,39,39,41,41,42,42,46,46,49,49,50,50,51,51,52,52,53,53,54,54,55,55,57,57,58,58,59,59,60,60,63,63,66,66,69,69,71,71,76,76,77,77,78,78,79,79,80,80,83,83,85,85,87,87,88,88,89,89,90,90,91,91,94,94,95,95,106,106,107,107,108,108,111,111,114,114,118,118,119,119,128,128,132,132,134,134,136,136,137,137,138,138,140,140,153,153,154,154],"right_children":[2,4,6,8,10,12,14,16,18,-1,20,22,24,26,-1,28,30,32,34,-1,-1,36,38,40,42,44,46,-1,48,50,-1,-1,-1,-1,52,54,56,58,60,62,-1,64,66,-1,-1,-1,68,-1,-1,70,72,74,76,78,80,82,-1,84,86,88,90,-1,-1,92,-1,-1,94,-1,-1,96,-1,98,-1,-1,-1,-1,100,102,104,106,108,-1,-1,110,-1,112,-1,114,116,118,120,122,-1,-1,124,126,-1,-1,-1,-1,-1,-1,-1,-1,-1,-1,128,130,132,-1,-1,134,-1,-1,136,-1,-1,-1,138,140,-1,-1,-1,-1,-1,-1,-1,-1,142,-1,-1,-1,144,-1,146,-1,148,150,152,-1,154,-1,-1,-1,-1,-1,-1,-1,-1,-1,-1,-1,-1,156,158,-1,-1,-1,-1],"split_conditions":[2.688404E0,5.666667E0,3.2168734E0,2.2051394E-1,-5.785757E-1,6E0,-6.2825837E0,-7.6517086E0,1.6292168E2,-8.140481E-3,-8.27904E0,4.2646362E1,4.9090908E1,9.485726E1,-4.554501E-3,9.440951E0,9.7560974E1,1.4787917E2,2.2905617E0,-2.679383E-2,-7.2551735E-2,1.8238046E3,3.0383987E1,3.5444633E1,1.9344286E1,7.249242E-2,4.775806E1,-3.1462247E-3,2.6218708E1,4.6602165E1,-6.869308E-2,-2.0877568E-2,-0E0,-7.2551735E-2,1.911743E0,4.364988E3,3.032624E-2,7.860551E1,1.03840685E1,-7.0876117E0,-0E0,8.535276E1,1.658721E1,7.2551735E-2,2.5006887E-2,7.0328645E-2,-7.827555E0,1.0236412E-2,6.7257404E-2,2.455532E0,1.5224243E4,-5.093068E1,2.0381756E1,2.8556845E1,9.4994495E2,2.1320496E1,7.3272754E-3,7.236015E1,4.166667E0,8.298557E1,3.4650817E0,-7.2551735E-2,-1.3313822E-2,7.359326E2,-7.2551735E-2,-4.5734853E-2,1.9106495E1,-1.5945138E-2,3.634126E-2,9.14809E2,1.3590279E-2,1.3916276E-1,3.2276265E-2,-2.2472866E-2,-6.324882E-2,1.5750848E-3,3.9398563E1,1.9931027E-1,1.1390492E1,-7.562457E-1,4.042693E1,2.4876544E-2,6.0821652E-2,1.0233298E-1,-0E0,3.1755422E4,2.314159E-3,9.3177516E4,9.8866943E2,5.641513E-2,1.00242836E2,-1.7023197E-1,8.356731E-3,-1.5195764E-2,1.7976366E1,3.2371607E-1,-4.0413757E-4,-1.2309745E-2,1.2092672E-2,-3.478144E-2,-7.283189E-3,1.1581873E-2,-6.821178E-3,5.0624773E-2,8.868933E-3,-6.0107033E-3,2.4559689E-1,6.739291E2,1.4178151E-4,5.2294478E-2,1.2536135E-2,2.7860625E0,1.4806305E-2,-1.5568255E-2,-8.496128E-2,6.989444E-2,1.1331003E-2,-2.2445838E-3,2.5680695E1,7.934865E0,-5.766171E-2,-1.0123996E-2,-4.1579258E-2,1.2545287E-2,4.1765943E-2,-6.7033224E-2,-1.5551388E-2,-0E0,2.9829673E-3,-4.8438817E-2,-2.785436E-3,1.4577677E-2,6.4110117E0,2.9533155E-2,9.555414E1,4.280952E-3,3.0953594E4,1.582571E-4,-1.0867632E-2,-2.7969517E-2,3.253934E4,4.0434726E-2,1.013392E-2,-3.2126058E-2,3.2641622E-4,7.2551735E-2,2.7956504E-2,5.9785057E-2,1.7290175E-2,7.227049E-2,3.0150345E-2,3.1055275E-2,-0E0,1.2982226E1,2.8956696E1,-9.297276E-3,3.423747E-2,4.852725E-2,7.5036907E-3],"split_indices":[90,0,90,10,70,0,64,64,51,0,66,73,7,27,0,44,7,82,90,0,0,81,39,44,30,32,82,0,7,46,0,0,0,0,78,21,53,48,17,66,0,7,40,0,0,0,66,0,0,90,59,67,41,34,20,35,0,29,0,76,71,0,0,1,0,0,9,0,0,85,0,74,0,0,0,0,73,14,44,70,25,0,0,70,0,60,0,62,20,13,42,70,0,0,44,68,0,0,0,0,0,0,0,0,0,0,11,85,33,0,0,90,0,0,57,0,0,0,34,41,0,0,0,0,0,0,0,0,32,0,0,0,22,0,79,0,60,33,53,0,23,0,0,0,0,0,0,0,0,0,0,0,0,22,16,0,0,0,0],"split_type":[0,0,0,0,0,0,0,0,0,0,0,0,0,0,0,0,0,0,0,0,0,0,0,0,0,0,0,0,0,0,0,0,0,0,0,0,0,0,0,0,0,0,0,0,0,0,0,0,0,0,0,0,0,0,0,0,0,0,0,0,0,0,0,0,0,0,0,0,0,0,0,0,0,0,0,0,0,0,0,0,0,0,0,0,0,0,0,0,0,0,0,0,0,0,0,0,0,0,0,0,0,0,0,0,0,0,0,0,0,0,0,0,0,0,0,0,0,0,0,0,0,0,0,0,0,0,0,0,0,0,0,0,0,0,0,0,0,0,0,0,0,0,0,0,0,0,0,0,0,0,0,0,0,0,0,0,0,0,0],"sum_hessian":[1.107E3,3.48E2,7.59E2,2.56E2,9.2E1,6.26E2,1.33E2,1.1E2,1.46E2,8E0,8.4E1,4.71E2,1.55E2,1.26E2,7E0,3.3E1,7.7E1,1.6E1,1.3E2,8E0,7.6E1,1.47E2,3.24E2,5.5E1,1E2,9.9E1,2.7E1,1.3E1,2E1,6.5E1,1.2E1,9E0,7E0,7.3E1,5.7E1,1.14E2,3.3E1,1.42E2,1.82E2,4.8E1,7E0,5.5E1,4.5E1,9.2E1,7E0,7E0,2E1,7E0,1.3E1,3.5E1,3E1,2.2E1,3.5E1,3.5E1,7.9E1,2.4E1,9E0,2.6E1,1.16E2,6.9E1,1.13E2,4.1E1,7E0,3.1E1,2.4E1,1.3E1,3.2E1,1E1,1E1,2.6E1,9E0,2.3E1,7E0,8E0,1.4E1,7E0,2.8E1,1.4E1,2.1E1,3.5E1,4.4E1,7E0,1.7E1,1.5E1,1.1E1,1.09E2,7E0,3.7E1,3.2E1,4.5E1,6.8E1,2.2E1,9E0,1.2E1,2E1,1.9E1,7E0,1.3E1,1E1,2E1,8E0,7E0,7E0,1.4E1,7E0,1.1E1,2.4E1,2.1E1,2.3E1,8E0,7E0,9.9E1,1E1,8E0,2.9E1,2.4E1,8E0,7E0,3.8E1,5.7E1,1.1E1,7E0,1.5E1,1E1,1E1,1.2E1,7E0,8E0,1.6E1,1.4E1,7E0,7E0,1.6E1,9E0,9E1,7E0,2.2E1,2.2E1,1.6E1,8E0,4.9E1,7E0,9E0,7E0,9E0,8.3E1,7E0,1.3E1,9E0,1.5E1,7E0,9E0,7E0,3.3E1,1.6E1,2.6E1,7E0,9E0,7E0],"tree_param":{"num_deleted":"0","num_feature":"91","num_nodes":"159","size_leaf_vector":"1"}},{"base_weights":[-2.4195684E-3,4.8742846E-1,-1.580189E0,-7.9111457E-1,1.2241914E0,-2E0,-8.00144E-1,4.060564E-2,-1.4988625E0,9.741268E-1,2E0,-2E0,-1.0459443E0,-1.3720498E0,-2.2755069E-1,8.708125E-1,-2.152626E-1,-7.2551735E-2,-7.4133354E-1,5.8182836E-1,1.4469267E0,2E0,2.009257E-2,-2E0,-9.464376E-3,-1.8232696E0,-8.189167E-3,-1.678138E0,-2.450335E-3,9.260215E-2,-5.1616352E-2,1.2430896E0,-3.206447E-3,-0E0,-1.1225873E0,-8.9010596E-1,9.254292E-3,7.589558E-1,-1.6301231E-1,2E0,8.58495E-1,7.2551735E-2,2.793794E-2,-7.2551735E-2,-2.8831271E-2,-7.2551735E-2,-2.0458512E-2,-1.7060021E-2,1.2747432E-2,-1.2541442E0,-7.2551735E-2,-3.7697512E-1,6.6608644E-1,5.924236E-3,1.561808E0,-7.036496E-1,3.0161357E-1,-6.6616535E-2,5.5476474E-3,-1.3954278E0,-5.473822E-1,9.0314806E-1,-4.1314846E-1,1.2838148E-1,-3.7807226E-2,2E0,2.5094058E-2,1.0293686E0,-1.7801795E-2,-1.3961266E0,-1.5618991E-2,5.21615E-3,-8.1246024E-1,4.1691773E-2,-7.3111034E-3,2.7775487E-2,6.7945726E-2,-4.5322407E-2,-0E0,-1.01625666E-1,7.1238965E-1,-5.9483096E-2,-1.941948E-2,1.3749508E-4,-6.613416E-1,1.6195543E-1,1.3047243E0,-3.5713863E-2,-0E0,-2.6618108E-1,5.984173E-1,3.1199943E-2,7.2551735E-2,1.3498868E0,3.165502E-1,-2.2474939E-2,-5.619106E-2,-9.857255E-3,-3.985491E-2,-4.29881E-1,2.8169585E-2,-1.4421198E-3,9.811672E-1,-1.9941355E-1,-8.1119394E-1,5.569067E-1,-5.647311E-1,4.9505112E-1,1.554935E0,-2.253753E-2,-0E0,4.210511E-3,3.5452574E-2,1.6749709E0,4.008876E-1,9.688647E-1,-2.928368E-1,3.3299548E-3,-3.3175245E-2,1.1620699E0,1.2338489E-2,-1.1026675E-2,-0E0,-1.1203516E-2,-3.270337E-2,8.7711674E-1,-1.4929629E-2,4.8657106E-3,-3.8376234E-2,-1.5704954E-3,6.862126E-1,8.207258E-3,1.650445E0,7.2551735E-2,8.1607497E-1,3.3114735E-2,-1.10994E-2,6.418691E-3,5.082561E-2,1.8926846E-2,-3.2110933E-2,5.3084627E-2,2.1138724E-2,1.1091357E0,1.7610315E-3,9.8289365E-1,1.0406073E-3,1.979368E-2,1.7904996E0,4.3518092E-2,-0E0,1.6520217E-2,5.6412973E-2,4.5703713E-2,1.27083175E-2,4.3505426E-2,7.2551735E-2],"categories":[0,2,3,0,1,2,3,0,1,2,3,4,5,7,8],"categories_nodes":[85,106,143],"categories_segments":[0,3,7],"categories_sizes":[3,4,8],"default_left":[0,0,0,0,1,0,0,0,0,0,0,0,0,0,0,0,0,0,0,0,0,0,0,0,0,0,0,0,0,0,0,0,0,0,0,0,0,0,0,0,0,0,0,0,0,0,0,0,0,0,0,0,0,0,0,0,0,0,0,0,0,0,0,0,0,0,0,0,0,0,0,0,0,0,0,0,0,0,0,0,0,0,0,0,0,1,0,0,0,0,0,0,0,0,0,0,0,0,0,0,0,0,0,0,0,0,1,0,0,0,0,0,0,0,0,0,0,0,0,0,0,0,0,0,0,0,0,0,0,0,0,0,0,0,0,0,0,0,0,0,0,0,0,1,0,0,0,0,0,0,0,0,0,0,0,0,0],"id":8,"left_children":[1,3,5,7,9,11,13,15,17,19,21,23,25,27,29,31,33,-1,35,37,39,41,-1,43,-1,45,47,49,-1,51,-1,53,-1,55,57,59,-1,61,63,65,67,-1,-1,-1,-1,-1,-1,-1,-1,69,-1,71,73,-1,75,77,79,-1,-1,81,83,85,87,89,-1,91,-1,93,-1,95,-1,-1,97,-1,-1,-1,-1,-1,-1,99,101,-1,-1,-1,103,105,107,-1,-1,109,111,-1,-1,113,115,-1,-1,-1,-1,117,-1,-1,119,121,123,125,127,129,131,-1,-1,-1,-1,133,135,137,139,-1,-1,141,-1,-1,-1,-1,-1,143,-1,-1,-1,-1,145,-1,147,-1,149,-1,-1,-1,-1,-1,-1,-1,-1,151,-1,153,-1,-1,155,-1,-1,-1,-1,-1,-1,-1,-1],"loss_changes":[8.628577E2,8.030496E2,1.1721747E2,1.8576811E2,1.419685E2,1.710382E1,3.9004807E1,3.38244E1,9.7754395E1,8.1969055E1,1.976117E1,1.8434387E1,2.503788E1,2.2464394E1,2.8802221E1,1.4946024E1,2.3590849E1,0E0,1.6106045E1,3.4851387E1,8.291202E1,3.7110596E0,0E0,1.6832886E0,0E0,6.7641106E0,4.8384466E0,3.2352295E0,0E0,1.686716E1,0E0,7.725025E0,0E0,2.2078924E1,2.3517883E1,1.2943382E1,0E0,3.718775E1,1.58571E1,1.4183868E1,3.0570587E1,0E0,0E0,0E0,0E0,0E0,0E0,0E0,0E0,1.792614E0,0E0,8.744568E0,1.34834E1,0E0,8.87764E-1,1.105069E1,1.2780529E1,0E0,0E0,3.8858833E0,4.3638535E0,5.40448E1,7.2098517E0,9.278403E0,0E0,3.7225342E-1,0E0,2.3126472E1,0E0,2.1723557E-1,0E0,0E0,1.7259855E0,0E0,0E0,0E0,0E0,0E0,0E0,1.2549243E1,8.580309E0,0E0,0E0,0E0,2.5859776E0,2.226566E1,2.1588776E1,0E0,0E0,2.8104565E0,3.1715078E0,0E0,0E0,2.0110657E1,1.8071365E1,0E0,0E0,0E0,0E0,9.071549E0,0E0,0E0,1.6603813E0,4.219805E-1,4.4210815E-1,1.715251E1,1.0892155E1,4.498831E0,9.109497E0,0E0,0E0,0E0,0E0,1.7375443E1,1.0982061E1,5.6917305E0,1.3500271E1,0E0,0E0,8.9159966E-1,0E0,0E0,0E0,0E0,0E0,6.2819614E0,0E0,0E0,0E0,0E0,4.532508E0,0E0,9.301697E0,0E0,9.545717E0,0E0,0E0,0E0,0E0,0E0,0E0,0E0,0E0,6.084297E0,0E0,1.464653E0,0E0,0E0,3.7135162E0,0E0,0E0,0E0,0E0,0E0,0E0,0E0,0E0],"parents":[2147483647,0,0,1,1,2,2,3,3,4,4,5,5,6,6,7,7,8,8,9,9,10,10,11,11,12,12,13,13,14,14,15,15,16,16,18,18,19,19,20,20,21,21,23,23,25,25,26,26,27,27,29,29,31,31,33,33,34,34,35,35,37,37,38,38,39,39,40,40,49,49,51,51,52,52,54,54,55,55,56,56,59,59,60,60,61,61,62,62,63,63,65,65,67,67,69,69,72,72,79,79,80,80,84,84,85,85,86,86,89,89,90,90,93,93,94,94,99,99,102,102,103,103,104,104,105,105,106,106,107,107,108,108,113,113,114,114,115,115,116,116,119,119,125,125,130,130,132,132,134,134,143,143,145,145,148,148],"right_children":[2,4,6,8,10,12,14,16,18,20,22,24,26,28,30,32,34,-1,36,38,40,42,-1,44,-1,46,48,50,-1,52,-1,54,-1,56,58,60,-1,62,64,66,68,-1,-1,-1,-1,-1,-1,-1,-1,70,-1,72,74,-1,76,78,80,-1,-1,82,84,86,88,90,-1,92,-1,94,-1,96,-1,-1,98,-1,-1,-1,-1,-1,-1,100,102,-1,-1,-1,104,106,108,-1,-1,110,112,-1,-1,114,116,-1,-1,-1,-1,118,-1,-1,120,122,124,126,128,130,132,-1,-1,-1,-1,134,136,138,140,-1,-1,142,-1,-1,-1,-1,-1,144,-1,-1,-1,-1,146,-1,148,-1,150,-1,-1,-1,-1,-1,-1,-1,-1,152,-1,154,-1,-1,156,-1,-1,-1,-1,-1,-1,-1,-1],"split_conditions":[6E0,2.838694E0,3.0365922E0,2.2051394E-1,3.3218827E0,2.9234448E2,1.9107916E4,-7.9750643E0,2.2905617E0,2.012659E1,3.166667E0,4.1847534E1,3.372319E1,2.7257597E1,-2.961799E0,3.7195225E1,9.7560974E1,-7.2551735E-2,3.1377922E4,2.390532E2,3.2852314E1,4.1825318E-1,2.009257E-2,3.0165257E1,-9.464376E-3,1.467727E-3,-4.855275E0,5.2659863E1,-2.450335E-3,2.3318733E1,-5.1616352E-2,2.9049683E0,-3.206447E-3,9.5735425E-1,2.2707265E2,1.4440302E0,9.254292E-3,3.75E0,1.0223195E4,2.75E0,9.539281E4,7.2551735E-2,2.793794E-2,-7.2551735E-2,-2.8831271E-2,-7.2551735E-2,-2.0458512E-2,-1.7060021E-2,1.2747432E-2,-7.9808044E0,-7.2551735E-2,2.3023352E3,6.54415E-2,5.924236E-3,1.0119621E1,2.3984268E0,2.5402277E0,-6.6616535E-2,5.5476474E-3,2.673799E1,-4.986227E-1,4.042693E1,1.2537323E0,1.0530248E1,-3.7807226E-2,-1.9611433E-1,2.5094058E-2,-6.403689E0,-1.7801795E-2,5.4494995E3,-1.5618991E-2,5.21615E-3,-6.8657017E0,4.1691773E-2,-7.3111034E-3,2.7775487E-2,6.7945726E-2,-4.5322407E-2,-0E0,9.265923E1,6.026721E0,-5.9483096E-2,-1.941948E-2,1.3749508E-4,-1.2457766E3,1E-45,1.2300401E-2,-3.5713863E-2,-0E0,3.0476501E1,-7.7647634E0,3.1199943E-2,7.2551735E-2,2.8124276E-1,-7.949202E0,-2.2474939E-2,-5.619106E-2,-9.857255E-3,-3.985491E-2,2.666667E0,2.8169585E-2,-1.4421198E-3,5.6842993E2,4.3160577E2,8.327217E-3,2.3506233E1,1E-45,-7.581685E-1,3.756503E1,-2.253753E-2,-0E0,4.210511E-3,3.5452574E-2,1.416667E0,1.0995071E3,1.7851266E2,1.5E1,3.3299548E-3,-3.3175245E-2,1.1773139E2,1.2338489E-2,-1.1026675E-2,-0E0,-1.1203516E-2,-3.270337E-2,9.62496E0,-1.4929629E-2,4.8657106E-3,-3.8376234E-2,-1.5704954E-3,2.195984E1,8.207258E-3,-1.7413473E0,7.2551735E-2,2.5115002E1,3.3114735E-2,-1.10994E-2,6.418691E-3,5.082561E-2,1.8926846E-2,-3.2110933E-2,5.3084627E-2,2.1138724E-2,1E-45,1.7610315E-3,1.1148714E1,1.0406073E-3,1.979368E-2,1.0880274E-3,4.3518092E-2,-0E0,1.6520217E-2,5.6412973E-2,4.5703713E-2,1.27083175E-2,4.3505426E-2,7.2551735E-2],"split_indices":[0,90,90,10,90,48,23,64,90,30,0,44,42,44,63,18,7,0,60,50,18,54,0,34,0,54,63,73,0,45,0,79,0,7,50,88,0,0,87,0,62,0,0,0,0,0,0,0,0,37,0,19,33,0,43,90,90,0,0,16,72,25,88,28,0,54,0,64,0,58,0,0,64,0,0,0,0,0,0,73,36,0,0,0,67,8,79,0,0,40,66,0,0,54,66,0,0,0,0,0,0,0,1,1,57,9,4,68,2,0,0,0,0,0,26,2,89,0,0,82,0,0,0,0,0,78,0,0,0,0,9,0,68,0,44,0,0,0,0,0,0,0,0,4,0,28,0,0,55,0,0,0,0,0,0,0,0],"split_type":[0,0,0,0,0,0,0,0,0,0,0,0,0,0,0,0,0,0,0,0,0,0,0,0,0,0,0,0,0,0,0,0,0,0,0,0,0,0,0,0,0,0,0,0,0,0,0,0,0,0,0,0,0,0,0,0,0,0,0,0,0,0,0,0,0,0,0,0,0,0,0,0,0,0,0,0,0,0,0,0,0,0,0,0,0,1,0,0,0,0,0,0,0,0,0,0,0,0,0,0,0,0,0,0,0,0,1,0,0,0,0,0,0,0,0,0,0,0,0,0,0,0,0,0,0,0,0,0,0,0,0,0,0,0,0,0,0,0,0,0,0,0,0,1,0,0,0,0,0,0,0,0,0,0,0,0,0],"sum_hessian":[1.105E3,8.44E2,2.61E2,3.08E2,5.36E2,1.42E2,1.19E2,1.42E2,1.66E2,4.5E2,8.6E1,1.13E2,2.9E1,5.7E1,6.2E1,3.3E1,1.09E2,7.3E1,9.3E1,2.5E2,2E2,7.3E1,1.3E1,1.05E2,8E0,1.5E1,1.4E1,4.5E1,1.2E1,5E1,1.2E1,2.4E1,9E0,9E1,1.9E1,8.2E1,1.1E1,2.03E2,4.7E1,8.3E1,1.17E2,6.5E1,8E0,9.8E1,7E0,8E0,7E0,7E0,7E0,3.1E1,1.4E1,2.7E1,2.3E1,7E0,1.7E1,2.6E1,6.4E1,1.2E1,7E0,2.9E1,5.3E1,1.82E2,2.1E1,3.6E1,1.1E1,7E1,1.3E1,1.05E2,1.2E1,2.4E1,7E0,1.2E1,1.5E1,1.5E1,8E0,8E0,9E0,1.3E1,1.3E1,3.2E1,3.2E1,2E1,9E0,8E0,4.5E1,6.6E1,1.16E2,8E0,1.3E1,1.9E1,1.7E1,7E0,6.3E1,7E1,3.5E1,7E0,1.7E1,8E0,7E0,2.5E1,7E0,8E0,2.4E1,1.4E1,3.1E1,4.4E1,2.2E1,3E1,8.6E1,7E0,1.2E1,1E1,7E0,5E1,2E1,1.7E1,1.8E1,1.2E1,1.3E1,1.6E1,8E0,7E0,7E0,8E0,2.3E1,3.4E1,1E1,9E0,1.3E1,7E0,2.3E1,7E0,7.9E1,2.8E1,2.2E1,1.2E1,8E0,8E0,9E0,7E0,1.1E1,7E0,9E0,2.5E1,9E0,1.4E1,9E0,1.1E1,6.8E1,1.5E1,7E0,1.3E1,1.2E1,7E0,7E0,2.5E1,4.3E1],"tree_param":{"num_deleted":"0","num_feature":"91","num_nodes":"157","size_leaf_vector":"1"}},{"base_weights":[-0E0,-1.3963023E0,6.3410497E-1,-9.457744E-1,-2E0,1.2025923E0,-7.3479265E-1,3.6283787E-2,-1.5460005E0,-1.4954475E-2,-2E0,8.884815E-1,2E0,-1.0849608E0,-9.9768795E-2,9.8095477E-1,-3.2044238E-1,1.3043842E-2,-1.6686035E0,-1.3463486E-2,-2E0,1.795916E-1,1.1662205E0,9.078315E-1,2E0,-1.0400224E-1,-1.4022938E0,1.294135E-1,-7.2551735E-2,7.050864E-2,2.5540012E-1,-0E0,-5.574229E-2,-1.8311477E0,-3.0741048E-1,-7.2551735E-2,-3.728035E-2,-3.743917E-1,5.920767E-1,9.512475E-1,1.7957559E0,-6.373116E-3,5.2816372E-2,7.2551735E-2,2.0769121E-2,-5.120032E-1,3.2062266E-2,-1.6468455E0,-3.856723E-2,-6.0327107E-1,4.7041014E-1,-4.7227833E-3,