{"learner":{"attributes":{"scikit_learn":"{\"_estimator_type\": \"regressor\"}"},"feature_names":["duration_p","ros_p_lg1_log","3_8y_fir_p","8_ny_fir_p","FWI_12h_av","f_load_av","wv100_k_av","f_start","landform","HDW_av","wv_850_av","gT_s_9_av","DC_12h_av","gT_8_7_av","rh_950_av","wSv_1_av","BLH_m_rt","wv10_kh_av","aspect_av","gT_9_8_av"],"feature_types":["float","float","float","float","float","float","float","float","c","float","float","float","float","float","float","float","float","float","float","float"],"gradient_booster":{"model":{"cats":{"enc":[{"offsets":[],"values":[]},{"offsets":[],"values":[]},{"offsets":[],"values":[]},{"offsets":[],"values":[]},{"offsets":[],"values":[]},{"offsets":[],"values":[]},{"offsets":[],"values":[]},{"offsets":[],"values":[]},{"offsets":[0,4,8,12,16,20,24,28,32,36,40,44,47],"values":[49,49,46,48,49,50,46,48,50,49,46,48,50,50,46,48,50,51,46,48,50,52,46,48,51,49,46,48,51,50,46,48,51,52,46,48,52,49,46,48,52,50,46,48,110,97,110]},{"offsets":[],"values":[]},{"offsets":[],"values":[]},{"offsets":[],"values":[]},{"offsets":[],"values":[]},{"offsets":[],"values":[]},{"offsets":[],"values":[]},{"offsets":[],"values":[]},{"offsets":[],"values":[]},{"offsets":[],"values":[]},{"offsets":[],"values":[]},{"offsets":[],"values":[]}],"feature_segments":[0,0,0,0,0,0,0,0,0,12,12,12,12,12,12,12,12,12,12,12,12],"sorted_idx":[0,1,2,3,4,5,6,7,8,9,10,11]},"gbtree_model_param":{"num_parallel_tree":"1","num_trees":"2700"},"iteration_indptr":[0,1,2,3,4,5,6,7,8,9,10,11,12,13,14,15,16,17,18,19,20,21,22,23,24,25,26,27,28,29,30,31,32,33,34,35,36,37,38,39,40,41,42,43,44,45,46,47,48,49,50,51,52,53,54,55,56,57,58,59,60,61,62,63,64,65,66,67,68,69,70,71,72,73,74,75,76,77,78,79,80,81,82,83,84,85,86,87,88,89,90,91,92,93,94,95,96,97,98,99,100,101,102,103,104,105,106,107,108,109,110,111,112,113,114,115,116,117,118,119,120,121,122,123,124,125,126,127,128,129,130,131,132,133,134,135,136,137,138,139,140,141,142,143,144,145,146,147,148,149,150,151,152,153,154,155,156,157,158,159,160,161,162,163,164,165,166,167,168,169,170,171,172,173,174,175,176,177,178,179,180,181,182,183,184,185,186,187,188,189,190,191,192,193,194,195,196,197,198,199,200,201,202,203,204,205,206,207,208,209,210,211,212,213,214,215,216,217,218,219,220,221,222,223,224,225,226,227,228,229,230,231,232,233,234,235,236,237,238,239,240,241,242,243,244,245,246,247,248,249,250,251,252,253,254,255,256,257,258,259,260,261,262,263,264,265,266,267,268,269,270,271,272,273,274,275,276,277,278,279,280,281,282,283,284,285,286,287,288,289,290,291,292,293,294,295,296,297,298,299,300,301,302,303,304,305,306,307,308,309,310,311,312,313,314,315,316,317,318,319,320,321,322,323,324,325,326,327,328,329,330,331,332,333,334,335,336,337,338,339,340,341,342,343,344,345,346,347,348,349,350,351,352,353,354,355,356,357,358,359,360,361,362,363,364,365,366,367,368,369,370,371,372,373,374,375,376,377,378,379,380,381,382,383,384,385,386,387,388,389,390,391,392,393,394,395,396,397,398,399,400,401,402,403,404,405,406,407,408,409,410,411,412,413,414,415,416,417,418,419,420,421,422,423,424,425,426,427,428,429,430,431,432,433,434,435,436,437,438,439,440,441,442,443,444,445,446,447,448,449,450,451,452,453,454,455,456,457,458,459,460,461,462,463,464,465,466,467,468,469,470,471,472,473,474,475,476,477,478,479,480,481,482,483,484,485,486,487,488,489,490,491,492,493,494,495,496,497,498,499,500,501,502,503,504,505,506,507,508,509,510,511,512,513,514,515,516,517,518,519,520,521,522,523,524,525,526,527,528,529,530,531,532,533,534,535,536,537,538,539,540,541,542,543,544,545,546,547,548,549,550,551,552,553,554,555,556,557,558,559,560,561,562,563,564,565,566,567,568,569,570,571,572,573,574,575,576,577,578,579,580,581,582,583,584,585,586,587,588,589,590,591,592,593,594,595,596,597,598,599,600,601,602,603,604,605,606,607,608,609,610,611,612,613,614,615,616,617,618,619,620,621,622,623,624,625,626,627,628,629,630,631,632,633,634,635,636,637,638,639,640,641,642,643,644,645,646,647,648,649,650,651,652,653,654,655,656,657,658,659,660,661,662,663,664,665,666,667,668,669,670,671,672,673,674,675,676,677,678,679,680,681,682,683,684,685,686,687,688,689,690,691,692,693,694,695,696,697,698,699,700,701,702,703,704,705,706,707,708,709,710,711,712,713,714,715,716,717,718,719,720,721,722,723,724,725,726,727,728,729,730,731,732,733,734,735,736,737,738,739,740,741,742,743,744,745,746,747,748,749,750,751,752,753,754,755,756,757,758,759,760,761,762,763,764,765,766,767,768,769,770,771,772,773,774,775,776,777,778,779,780,781,782,783,784,785,786,787,788,789,790,791,792,793,794,795,796,797,798,799,800,801,802,803,804,805,806,807,808,809,810,811,812,813,814,815,816,817,818,819,820,821,822,823,824,825,826,827,828,829,830,831,832,833,834,835,836,837,838,839,840,841,842,843,844,845,846,847,848,849,850,851,852,853,854,855,856,857,858,859,860,861,862,863,864,865,866,867,868,869,870,871,872,873,874,875,876,877,878,879,880,881,882,883,884,885,886,887,888,889,890,891,892,893,894,895,896,897,898,899,900,901,902,903,904,905,906,907,908,909,910,911,912,913,914,915,916,917,918,919,920,921,922,923,924,925,926,927,928,929,930,931,932,933,934,935,936,937,938,939,940,941,942,943,944,945,946,947,948,949,950,951,952,953,954,955,956,957,958,959,960,961,962,963,964,965,966,967,968,969,970,971,972,973,974,975,976,977,978,979,980,981,982,983,984,985,986,987,988,989,990,991,992,993,994,995,996,997,998,999,1000,1001,1002,1003,1004,1005,1006,1007,1008,1009,1010,1011,1012,1013,1014,1015,1016,1017,1018,1019,1020,1021,1022,1023,1024,1025,1026,1027,1028,1029,1030,1031,1032,1033,1034,1035,1036,1037,1038,1039,1040,1041,1042,1043,1044,1045,1046,1047,1048,1049,1050,1051,1052,1053,1054,1055,1056,1057,1058,1059,1060,1061,1062,1063,1064,1065,1066,1067,1068,1069,1070,1071,1072,1073,1074,1075,1076,1077,1078,1079,1080,1081,1082,1083,1084,1085,1086,1087,1088,1089,1090,1091,1092,1093,1094,1095,1096,1097,1098,1099,1100,1101,1102,1103,1104,1105,1106,1107,1108,1109,1110,1111,1112,1113,1114,1115,1116,1117,1118,1119,1120,1121,1122,1123,1124,1125,1126,1127,1128,1129,1130,1131,1132,1133,1134,1135,1136,1137,1138,1139,1140,1141,1142,1143,1144,1145,1146,1147,1148,1149,1150,1151,1152,1153,1154,1155,1156,1157,1158,1159,1160,1161,1162,1163,1164,1165,1166,1167,1168,1169,1170,1171,1172,1173,1174,1175,1176,1177,1178,1179,1180,1181,1182,1183,1184,1185,1186,1187,1188,1189,1190,1191,1192,1193,1194,1195,1196,1197,1198,1199,1200,1201,1202,1203,1204,1205,1206,1207,1208,1209,1210,1211,1212,1213,1214,1215,1216,1217,1218,1219,1220,1221,1222,1223,1224,1225,1226,1227,1228,1229,1230,1231,1232,1233,1234,1235,1236,1237,1238,1239,1240,1241,1242,1243,1244,1245,1246,1247,1248,1249,1250,1251,1252,1253,1254,1255,1256,1257,1258,1259,1260,1261,1262,1263,1264,1265,1266,1267,1268,1269,1270,1271,1272,1273,1274,1275,1276,1277,1278,1279,1280,1281,1282,1283,1284,1285,1286,1287,1288,1289,1290,1291,1292,1293,1294,1295,1296,1297,1298,1299,1300,1301,1302,1303,1304,1305,1306,1307,1308,1309,1310,1311,1312,1313,1314,1315,1316,1317,1318,1319,1320,1321,1322,1323,1324,1325,1326,1327,1328,1329,1330,1331,1332,1333,1334,1335,1336,1337,1338,1339,1340,1341,1342,1343,1344,1345,1346,1347,1348,1349,1350,1351,1352,1353,1354,1355,1356,1357,1358,1359,1360,1361,1362,1363,1364,1365,1366,1367,1368,1369,1370,1371,1372,1373,1374,1375,1376,1377,1378,1379,1380,1381,1382,1383,1384,1385,1386,1387,1388,1389,1390,1391,1392,1393,1394,1395,1396,1397,1398,1399,1400,1401,1402,1403,1404,1405,1406,1407,1408,1409,1410,1411,1412,1413,1414,1415,1416,1417,1418,1419,1420,1421,1422,1423,1424,1425,1426,1427,1428,1429,1430,1431,1432,1433,1434,1435,1436,1437,1438,1439,1440,1441,1442,1443,1444,1445,1446,1447,1448,1449,1450,1451,1452,1453,1454,1455,1456,1457,1458,1459,1460,1461,1462,1463,1464,1465,1466,1467,1468,1469,1470,1471,1472,1473,1474,1475,1476,1477,1478,1479,1480,1481,1482,1483,1484,1485,1486,1487,1488,1489,1490,1491,1492,1493,1494,1495,1496,1497,1498,1499,1500,1501,1502,1503,1504,1505,1506,1507,1508,1509,1510,1511,1512,1513,1514,1515,1516,1517,1518,1519,1520,1521,1522,1523,1524,1525,1526,1527,1528,1529,1530,1531,1532,1533,1534,1535,1536,1537,1538,1539,1540,1541,1542,1543,1544,1545,1546,1547,1548,1549,1550,1551,1552,1553,1554,1555,1556,1557,1558,1559,1560,1561,1562,1563,1564,1565,1566,1567,1568,1569,1570,1571,1572,1573,1574,1575,1576,1577,1578,1579,1580,1581,1582,1583,1584,1585,1586,1587,1588,1589,1590,1591,1592,1593,1594,1595,1596,1597,1598,1599,1600,1601,1602,1603,1604,1605,1606,1607,1608,1609,1610,1611,1612,1613,1614,1615,1616,1617,1618,1619,1620,1621,1622,1623,1624,1625,1626,1627,1628,1629,1630,1631,1632,1633,1634,1635,1636,1637,1638,1639,1640,1641,1642,1643,1644,1645,1646,1647,1648,1649,1650,1651,1652,1653,1654,1655,1656,1657,1658,1659,1660,1661,1662,1663,1664,1665,1666,1667,1668,1669,1670,1671,1672,1673,1674,1675,1676,1677,1678,1679,1680,1681,1682,1683,1684,1685,1686,1687,1688,1689,1690,1691,1692,1693,1694,1695,1696,1697,1698,1699,1700,1701,1702,1703,1704,1705,1706,1707,1708,1709,1710,1711,1712,1713,1714,1715,1716,1717,1718,1719,1720,1721,1722,1723,1724,1725,1726,1727,1728,1729,1730,1731,1732,1733,1734,1735,1736,1737,1738,1739,1740,1741,1742,1743,1744,1745,1746,1747,1748,1749,1750,1751,1752,1753,1754,1755,1756,1757,1758,1759,1760,1761,1762,1763,1764,1765,1766,1767,1768,1769,1770,1771,1772,1773,1774,1775,1776,1777,1778,1779,1780,1781,1782,1783,1784,1785,1786,1787,1788,1789,1790,1791,1792,1793,1794,1795,1796,1797,1798,1799,1800,1801,1802,1803,1804,1805,1806,1807,1808,1809,1810,1811,1812,1813,1814,1815,1816,1817,1818,1819,1820,1821,1822,1823,1824,1825,1826,1827,1828,1829,1830,1831,1832,1833,1834,1835,1836,1837,1838,1839,1840,1841,1842,1843,1844,1845,1846,1847,1848,1849,1850,1851,1852,1853,1854,1855,1856,1857,1858,1859,1860,1861,1862,1863,1864,1865,1866,1867,1868,1869,1870,1871,1872,1873,1874,1875,1876,1877,1878,1879,1880,1881,1882,1883,1884,1885,1886,1887,1888,1889,1890,1891,1892,1893,1894,1895,1896,1897,1898,1899,1900,1901,1902,1903,1904,1905,1906,1907,1908,1909,1910,1911,1912,1913,1914,1915,1916,1917,1918,1919,1920,1921,1922,1923,1924,1925,1926,1927,1928,1929,1930,1931,1932,1933,1934,1935,1936,1937,1938,1939,1940,1941,1942,1943,1944,1945,1946,1947,1948,1949,1950,1951,1952,1953,1954,1955,1956,1957,1958,1959,1960,1961,1962,1963,1964,1965,1966,1967,1968,1969,1970,1971,1972,1973,1974,1975,1976,1977,1978,1979,1980,1981,1982,1983,1984,1985,1986,1987,1988,1989,1990,1991,1992,1993,1994,1995,1996,1997,1998,1999,2000,2001,2002,2003,2004,2005,2006,2007,2008,2009,2010,2011,2012,2013,2014,2015,2016,2017,2018,2019,2020,2021,2022,2023,2024,2025,2026,2027,2028,2029,2030,2031,2032,2033,2034,2035,2036,2037,2038,2039,2040,2041,2042,2043,2044,2045,2046,2047,2048,2049,2050,2051,2052,2053,2054,2055,2056,2057,2058,2059,2060,2061,2062,2063,2064,2065,2066,2067,2068,2069,2070,2071,2072,2073,2074,2075,2076,2077,2078,2079,2080,2081,2082,2083,2084,2085,2086,2087,2088,2089,2090,2091,2092,2093,2094,2095,2096,2097,2098,2099,2100,2101,2102,2103,2104,2105,2106,2107,2108,2109,2110,2111,2112,2113,2114,2115,2116,2117,2118,2119,2120,2121,2122,2123,2124,2125,2126,2127,2128,2129,2130,2131,2132,2133,2134,2135,2136,2137,2138,2139,2140,2141,2142,2143,2144,2145,2146,2147,2148,2149,2150,2151,2152,2153,2154,2155,2156,2157,2158,2159,2160,2161,2162,2163,2164,2165,2166,2167,2168,2169,2170,2171,2172,2173,2174,2175,2176,2177,2178,2179,2180,2181,2182,2183,2184,2185,2186,2187,2188,2189,2190,2191,2192,2193,2194,2195,2196,2197,2198,2199,2200,2201,2202,2203,2204,2205,2206,2207,2208,2209,2210,2211,2212,2213,2214,2215,2216,2217,2218,2219,2220,2221,2222,2223,2224,2225,2226,2227,2228,2229,2230,2231,2232,2233,2234,2235,2236,2237,2238,2239,2240,2241,2242,2243,2244,2245,2246,2247,2248,2249,2250,2251,2252,2253,2254,2255,2256,2257,2258,2259,2260,2261,2262,2263,2264,2265,2266,2267,2268,2269,2270,2271,2272,2273,2274,2275,2276,2277,2278,2279,2280,2281,2282,2283,2284,2285,2286,2287,2288,2289,2290,2291,2292,2293,2294,2295,2296,2297,2298,2299,2300,2301,2302,2303,2304,2305,2306,2307,2308,2309,2310,2311,2312,2313,2314,2315,2316,2317,2318,2319,2320,2321,2322,2323,2324,2325,2326,2327,2328,2329,2330,2331,2332,2333,2334,2335,2336,2337,2338,2339,2340,2341,2342,2343,2344,2345,2346,2347,2348,2349,2350,2351,2352,2353,2354,2355,2356,2357,2358,2359,2360,2361,2362,2363,2364,2365,2366,2367,2368,2369,2370,2371,2372,2373,2374,2375,2376,2377,2378,2379,2380,2381,2382,2383,2384,2385,2386,2387,2388,2389,2390,2391,2392,2393,2394,2395,2396,2397,2398,2399,2400,2401,2402,2403,2404,2405,2406,2407,2408,2409,2410,2411,2412,2413,2414,2415,2416,2417,2418,2419,2420,2421,2422,2423,2424,2425,2426,2427,2428,2429,2430,2431,2432,2433,2434,2435,2436,2437,2438,2439,2440,2441,2442,2443,2444,2445,2446,2447,2448,2449,2450,2451,2452,2453,2454,2455,2456,2457,2458,2459,2460,2461,2462,2463,2464,2465,2466,2467,2468,2469,2470,2471,2472,2473,2474,2475,2476,2477,2478,2479,2480,2481,2482,2483,2484,2485,2486,2487,2488,2489,2490,2491,2492,2493,2494,2495,2496,2497,2498,2499,2500,2501,2502,2503,2504,2505,2506,2507,2508,2509,2510,2511,2512,2513,2514,2515,2516,2517,2518,2519,2520,2521,2522,2523,2524,2525,2526,2527,2528,2529,2530,2531,2532,2533,2534,2535,2536,2537,2538,2539,2540,2541,2542,2543,2544,2545,2546,2547,2548,2549,2550,2551,2552,2553,2554,2555,2556,2557,2558,2559,2560,2561,2562,2563,2564,2565,2566,2567,2568,2569,2570,2571,2572,2573,2574,2575,2576,2577,2578,2579,2580,2581,2582,2583,2584,2585,2586,2587,2588,2589,2590,2591,2592,2593,2594,2595,2596,2597,2598,2599,2600,2601,2602,2603,2604,2605,2606,2607,2608,2609,2610,2611,2612,2613,2614,2615,2616,2617,2618,2619,2620,2621,2622,2623,2624,2625,2626,2627,2628,2629,2630,2631,2632,2633,2634,2635,2636,2637,2638,2639,2640,2641,2642,2643,2644,2645,2646,2647,2648,2649,2650,2651,2652,2653,2654,2655,2656,2657,2658,2659,2660,2661,2662,2663,2664,2665,2666,2667,2668,2669,2670,2671,2672,2673,2674,2675,2676,2677,2678,2679,2680,2681,2682,2683,2684,2685,2686,2687,2688,2689,2690,2691,2692,2693,2694,2695,2696,2697,2698,2699,2700],"tree_info":[0,0,0,0,0,0,0,0,0,0,0,0,0,0,0,0,0,0,0,0,0,0,0,0,0,0,0,0,0,0,0,0,0,0,0,0,0,0,0,0,0,0,0,0,0,0,0,0,0,0,0,0,0,0,0,0,0,0,0,0,0,0,0,0,0,0,0,0,0,0,0,0,0,0,0,0,0,0,0,0,0,0,0,0,0,0,0,0,0,0,0,0,0,0,0,0,0,0,0,0,0,0,0,0,0,0,0,0,0,0,0,0,0,0,0,0,0,0,0,0,0,0,0,0,0,0,0,0,0,0,0,0,0,0,0,0,0,0,0,0,0,0,0,0,0,0,0,0,0,0,0,0,0,0,0,0,0,0,0,0,0,0,0,0,0,0,0,0,0,0,0,0,0,0,0,0,0,0,0,0,0,0,0,0,0,0,0,0,0,0,0,0,0,0,0,0,0,0,0,0,0,0,0,0,0,0,0,0,0,0,0,0,0,0,0,0,0,0,0,0,0,0,0,0,0,0,0,0,0,0,0,0,0,0,0,0,0,0,0,0,0,0,0,0,0,0,0,0,0,0,0,0,0,0,0,0,0,0,0,0,0,0,0,0,0,0,0,0,0,0,0,0,0,0,0,0,0,0,0,0,0,0,0,0,0,0,0,0,0,0,0,0,0,0,0,0,0,0,0,0,0,0,0,0,0,0,0,0,0,0,0,0,0,0,0,0,0,0,0,0,0,0,0,0,0,0,0,0,0,0,0,0,0,0,0,0,0,0,0,0,0,0,0,0,0,0,0,0,0,0,0,0,0,0,0,0,0,0,0,0,0,0,0,0,0,0,0,0,0,0,0,0,0,0,0,0,0,0,0,0,0,0,0,0,0,0,0,0,0,0,0,0,0,0,0,0,0,0,0,0,0,0,0,0,0,0,0,0,0,0,0,0,0,0,0,0,0,0,0,0,0,0,0,0,0,0,0,0,0,0,0,0,0,0,0,0,0,0,0,0,0,0,0,0,0,0,0,0,0,0,0,0,0,0,0,0,0,0,0,0,0,0,0,0,0,0,0,0,0,0,0,0,0,0,0,0,0,0,0,0,0,0,0,0,0,0,0,0,0,0,0,0,0,0,0,0,0,0,0,0,0,0,0,0,0,0,0,0,0,0,0,0,0,0,0,0,0,0,0,0,0,0,0,0,0,0,0,0,0,0,0,0,0,0,0,0,0,0,0,0,0,0,0,0,0,0,0,0,0,0,0,0,0,0,0,0,0,0,0,0,0,0,0,0,0,0,0,0,0,0,0,0,0,0,0,0,0,0,0,0,0,0,0,0,0,0,0,0,0,0,0,0,0,0,0,0,0,0,0,0,0,0,0,0,0,0,0,0,0,0,0,0,0,0,0,0,0,0,0,0,0,0,0,0,0,0,0,0,0,0,0,0,0,0,0,0,0,0,0,0,0,0,0,0,0,0,0,0,0,0,0,0,0,0,0,0,0,0,0,0,0,0,0,0,0,0,0,0,0,0,0,0,0,0,0,0,0,0,0,0,0,0,0,0,0,0,0,0,0,0,0,0,0,0,0,0,0,0,0,0,0,0,0,0,0,0,0,0,0,0,0,0,0,0,0,0,0,0,0,0,0,0,0,0,0,0,0,0,0,0,0,0,0,0,0,0,0,0,0,0,0,0,0,0,0,0,0,0,0,0,0,0,0,0,0,0,0,0,0,0,0,0,0,0,0,0,0,0,0,0,0,0,0,0,0,0,0,0,0,0,0,0,0,0,0,0,0,0,0,0,0,0,0,0,0,0,0,0,0,0,0,0,0,0,0,0,0,0,0,0,0,0,0,0,0,0,0,0,0,0,0,0,0,0,0,0,0,0,0,0,0,0,0,0,0,0,0,0,0,0,0,0,0,0,0,0,0,0,0,0,0,0,0,0,0,0,0,0,0,0,0,0,0,0,0,0,0,0,0,0,0,0,0,0,0,0,0,0,0,0,0,0,0,0,0,0,0,0,0,0,0,0,0,0,0,0,0,0,0,0,0,0,0,0,0,0,0,0,0,0,0,0,0,0,0,0,0,0,0,0,0,0,0,0,0,0,0,0,0,0,0,0,0,0,0,0,0,0,0,0,0,0,0,0,0,0,0,0,0,0,0,0,0,0,0,0,0,0,0,0,0,0,0,0,0,0,0,0,0,0,0,0,0,0,0,0,0,0,0,0,0,0,0,0,0,0,0,0,0,0,0,0,0,0,0,0,0,0,0,0,0,0,0,0,0,0,0,0,0,0,0,0,0,0,0,0,0,0,0,0,0,0,0,0,0,0,0,0,0,0,0,0,0,0,0,0,0,0,0,0,0,0,0,0,0,0,0,0,0,0,0,0,0,0,0,0,0,0,0,0,0,0,0,0,0,0,0,0,0,0,0,0,0,0,0,0,0,0,0,0,0,0,0,0,0,0,0,0,0,0,0,0,0,0,0,0,0,0,0,0,0,0,0,0,0,0,0,0,0,0,0,0,0,0,0,0,0,0,0,0,0,0,0,0,0,0,0,0,0,0,0,0,0,0,0,0,0,0,0,0,0,0,0,0,0,0,0,0,0,0,0,0,0,0,0,0,0,0,0,0,0,0,0,0,0,0,0,0,0,0,0,0,0,0,0,0,0,0,0,0,0,0,0,0,0,0,0,0,0,0,0,0,0,0,0,0,0,0,0,0,0,0,0,0,0,0,0,0,0,0,0,0,0,0,0,0,0,0,0,0,0,0,0,0,0,0,0,0,0,0,0,0,0,0,0,0,0,0,0,0,0,0,0,0,0,0,0,0,0,0,0,0,0,0,0,0,0,0,0,0,0,0,0,0,0,0,0,0,0,0,0,0,0,0,0,0,0,0,0,0,0,0,0,0,0,0,0,0,0,0,0,0,0,0,0,0,0,0,0,0,0,0,0,0,0,0,0,0,0,0,0,0,0,0,0,0,0,0,0,0,0,0,0,0,0,0,0,0,0,0,0,0,0,0,0,0,0,0,0,0,0,0,0,0,0,0,0,0,0,0,0,0,0,0,0,0,0,0,0,0,0,0,0,0,0,0,0,0,0,0,0,0,0,0,0,0,0,0,0,0,0,0,0,0,0,0,0,0,0,0,0,0,0,0,0,0,0,0,0,0,0,0,0,0,0,0,0,0,0,0,0,0,0,0,0,0,0,0,0,0,0,0,0,0,0,0,0,0,0,0,0,0,0,0,0,0,0,0,0,0,0,0,0,0,0,0,0,0,0,0,0,0,0,0,0,0,0,0,0,0,0,0,0,0,0,0,0,0,0,0,0,0,0,0,0,0,0,0,0,0,0,0,0,0,0,0,0,0,0,0,0,0,0,0,0,0,0,0,0,0,0,0,0,0,0,0,0,0,0,0,0,0,0,0,0,0,0,0,0,0,0,0,0,0,0,0,0,0,0,0,0,0,0,0,0,0,0,0,0,0,0,0,0,0,0,0,0,0,0,0,0,0,0,0,0,0,0,0,0,0,0,0,0,0,0,0,0,0,0,0,0,0,0,0,0,0,0,0,0,0,0,0,0,0,0,0,0,0,0,0,0,0,0,0,0,0,0,0,0,0,0,0,0,0,0,0,0,0,0,0,0,0,0,0,0,0,0,0,0,0,0,0,0,0,0,0,0,0,0,0,0,0,0,0,0,0,0,0,0,0,0,0,0,0,0,0,0,0,0,0,0,0,0,0,0,0,0,0,0,0,0,0,0,0,0,0,0,0,0,0,0,0,0,0,0,0,0,0,0,0,0,0,0,0,0,0,0,0,0,0,0,0,0,0,0,0,0,0,0,0,0,0,0,0,0,0,0,0,0,0,0,0,0,0,0,0,0,0,0,0,0,0,0,0,0,0,0,0,0,0,0,0,0,0,0,0,0,0,0,0,0,0,0,0,0,0,0,0,0,0,0,0,0,0,0,0,0,0,0,0,0,0,0,0,0,0,0,0,0,0,0,0,0,0,0,0,0,0,0,0,0,0,0,0,0,0,0,0,0,0,0,0,0,0,0,0,0,0,0,0,0,0,0,0,0,0,0,0,0,0,0,0,0,0,0,0,0,0,0,0,0,0,0,0,0,0,0,0,0,0,0,0,0,0,0,0,0,0,0,0,0,0,0,0,0,0,0,0,0,0,0,0,0,0,0,0,0,0,0,0,0,0,0,0,0,0,0,0,0,0,0,0,0,0,0,0,0,0,0,0,0,0,0,0,0,0,0,0,0,0,0,0,0,0,0,0,0,0,0,0,0,0,0,0,0,0,0,0,0,0,0,0,0,0,0,0,0,0,0,0,0,0,0,0,0,0,0,0,0,0,0,0,0,0,0,0,0,0,0,0,0,0,0,0,0,0,0,0,0,0,0,0,0,0,0,0,0,0,0,0,0,0,0,0,0,0,0,0,0,0,0,0,0,0,0,0,0,0,0,0,0,0,0,0,0,0,0,0,0,0,0,0,0,0,0,0,0,0,0,0,0,0,0,0,0,0,0,0,0,0,0,0,0,0,0,0,0,0,0,0,0,0,0,0,0,0,0,0,0,0,0,0,0,0,0,0,0,0,0,0,0,0,0,0,0,0,0,0,0,0,0,0,0,0,0,0,0,0,0,0,0,0,0,0,0,0,0,0,0,0,0,0,0,0,0,0,0,0,0,0,0,0,0,0,0,0,0,0,0,0,0,0,0,0,0,0,0,0,0,0,0,0,0,0,0,0,0,0,0,0,0,0,0,0,0,0,0,0,0,0,0,0,0,0,0,0,0,0,0,0,0,0,0,0,0,0,0,0,0,0,0,0,0,0,0,0,0,0,0,0,0,0,0,0,0,0,0,0,0,0,0,0,0,0,0,0,0,0,0,0,0,0,0,0,0,0,0,0,0,0,0,0,0,0,0,0,0,0,0,0,0,0,0,0,0,0,0,0,0,0,0,0,0,0,0,0,0,0,0,0,0,0,0,0,0,0,0,0,0,0,0,0,0,0,0,0,0,0,0,0,0,0,0,0,0,0,0,0,0,0,0,0,0,0,0,0,0,0,0,0,0,0,0,0,0,0,0,0,0,0,0,0,0,0,0,0,0,0,0,0,0,0,0,0,0,0,0,0,0,0,0,0,0,0,0,0,0,0,0,0,0,0,0,0,0,0,0,0,0,0,0,0,0,0,0,0,0,0,0,0,0,0,0,0,0,0,0,0,0,0,0,0,0,0,0,0,0,0,0,0,0,0,0,0,0,0,0,0,0,0,0,0,0,0,0,0,0,0,0,0,0,0,0,0,0,0,0,0,0,0,0,0,0,0,0,0,0,0,0,0,0,0,0,0,0,0,0,0,0,0,0,0,0,0,0,0,0,0,0,0,0,0,0,0,0,0,0,0,0,0,0,0,0,0,0,0,0,0,0,0,0,0,0,0,0,0,0,0,0,0,0,0,0,0,0,0,0,0,0,0,0,0,0,0,0,0,0,0,0,0,0,0,0,0,0,0,0,0,0,0,0,0,0,0,0,0,0,0,0,0,0,0,0,0,0,0,0,0,0,0,0,0,0,0,0,0,0,0,0,0,0,0,0,0,0,0,0,0,0,0,0,0,0,0,0,0,0,0,0,0,0,0,0,0,0,0,0,0,0,0,0,0,0,0,0,0,0,0,0,0,0,0,0,0,0,0,0,0,0,0,0,0,0,0,0,0,0,0,0,0,0,0,0,0,0,0,0,0,0,0,0,0,0,0,0,0,0,0,0,0,0,0,0,0,0,0,0,0,0,0,0,0,0,0,0,0,0,0,0,0,0,0,0,0,0,0,0,0,0,0,0,0,0,0,0,0,0,0,0,0,0,0,0,0,0,0,0,0,0,0,0,0,0,0,0,0,0,0,0,0,0,0,0,0,0,0,0,0,0,0,0,0,0,0,0,0,0,0,0,0,0,0,0,0,0,0,0,0,0,0,0,0,0,0,0,0,0,0,0,0,0,0,0,0,0,0,0,0,0,0,0,0,0,0,0,0,0,0,0,0,0,0,0,0,0,0,0,0,0,0,0,0,0,0,0,0,0,0,0,0],"trees":[{"base_weights":[1.5126217E-2,-1.8516144E0,6.848742E-1,-3.160773E-1,-1.9949403E0,-2.1127537E-1,1.1631279E0,-4.7336638E-2,4.1104134E-2,-2E0,-1.0765823E0,3.1706378E-1,-8.708807E-1,1.7481471E0,-5.6315506E-1,-2E0,-1.2410332E0,-1.3179814E0,1.1939151E-2,-4.060436E-1,6.6544694E-1,-1.1701206E0,9.044814E-1,2E0,1.1402656E0,-1.2855406E-1,-1.3782855E0,-3.2492697E-2,-7.2551735E-2,9.3614106E-4,-1.7310562E0,-5.7450664E-1,-7.2551735E-2,-0E0,-5.4366566E-2,8.478065E-1,-4.2499144E-2,-1.7367344E0,-6.063948E-1,6.4744025E-2,-6.335698E-3,2E0,1.2274925E0,8.0636185E-1,2E0,-3.1114525E-1,5.463206E-1,-5.733808E-1,-2E0,-7.21459E-2,-3.2994285E-2,-8.65599E-1,2.2699347E-2,-3.4068894E-1,1.8676503E-2,4.68541E-1,1.4151424E0,-8.53861E-1,-7.2551735E-2,8.401443E-2,-1.1999807E0,2.1981686E-2,2E0,6.1368626E-1,6.0333423E-2,-5.8358952E-2,1.0047847E0,7.2551735E-2,2.5664868E-2,-5.8563355E-2,-1.0884857E0,-0E0,3.8862295E-2,-5.766236E-2,-0E0,-7.2551735E-2,-1.7043695E-2,-1.0012424E-2,-1.0207134E0,-0E0,-3.687409E-2,7.478533E-1,-6.747585E-2,7.2551735E-2,5.9381014E-1,-0E0,-4.7543664E-2,-1.945591E-2,4.2201707E-1,-7.124537E-2,-4.3384138E-1,7.2551735E-2,3.001613E-2,8.811558E-1,-0E0,-2.9389681E-2,3.201872E-1,1.132348E0,-1.9808972E-2,3.3337686E-2,-3.4079558E-1,-4.7988743E-2,-1.6201567E-2,-3.354169E-2,3.1096138E-2,-4.3009147E-2,-1.3893883E-2,-9.588489E-3,1.2733626E-2,-7.3677234E-2,1.1643462E0,-3.040459E-1,9.3552405E-3,3.2232344E-2,-0E0,2.1064864E-2,-0E0,5.9730555E-3,-3.3777297E-2,3.8324956E-2,1.0265177E-2,3.5991892E-2,-2.7587616E-3,1.5046575E0,6.2878317E-1,4.3182755E-3,-4.6030307E-1,-1.3597108E-2,5.1398473E-3,6.6233673E-3,5.2654896E-2,-0E0,-1.6139105E-2,7.1499115E-1,1.7054974E0,1.8647671E-1,5.8555476E-2,-7.9426867E-1,-1.3158821E-2,3.5752613E-2,8.392661E-3,1.9843595E0,1.16110705E-2,5.814173E-1,-2.4121048E-2,-3.634067E-2,-8.3104465E-3,-1.854288E-2,1.0967554E-2,7.2551735E-2,3.8258843E-2,3.701719E-2,7.086793E-3],"categories":[0,1,2,0,1,2,4,7,8,9,10,11],"categories_nodes":[63,97],"categories_segments":[0,3],"categories_sizes":[3,9],"default_left":[0,0,0,0,0,0,0,0,0,0,0,0,1,0,1,1,0,0,0,0,0,0,0,0,1,0,0,0,0,0,0,1,0,1,0,0,0,0,0,0,0,0,0,0,0,0,0,0,0,0,0,0,0,0,0,0,0,0,0,0,0,0,0,1,0,0,0,0,0,0,0,0,0,0,0,0,0,0,0,0,0,0,0,0,0,0,0,0,0,0,0,0,0,0,0,0,0,1,0,0,0,0,0,0,0,0,0,0,0,0,0,0,0,0,0,0,0,0,0,0,0,0,0,0,0,0,0,0,0,0,0,0,0,0,0,1,0,1,0,0,0,0,0,0,0,0,0,0,0,0,0,0,0],"id":0,"left_children":[1,3,5,7,9,11,13,-1,-1,15,17,19,21,23,25,27,29,31,-1,33,35,37,39,41,43,45,47,-1,-1,-1,49,51,-1,53,-1,55,-1,57,59,-1,-1,61,63,65,67,69,71,73,75,-1,-1,77,-1,79,-1,81,83,85,-1,87,89,-1,91,93,-1,95,97,-1,-1,99,101,-1,-1,-1,103,-1,-1,-1,105,107,-1,109,111,-1,113,-1,-1,-1,115,-1,117,-1,-1,119,-1,-1,121,123,-1,-1,125,-1,-1,-1,-1,-1,-1,-1,-1,127,129,131,-1,-1,-1,-1,-1,-1,-1,-1,-1,-1,-1,133,135,-1,137,-1,-1,-1,-1,-1,-1,139,141,143,-1,145,147,-1,-1,149,-1,151,-1,-1,-1,-1,-1,-1,-1,-1,-1],"loss_changes":[1.3901271E3,6.146985E1,3.5278018E2,4.8587933E1,5.8848755E1,1.0258856E2,5.444716E2,0E0,0E0,8.722046E0,3.1096703E1,4.2543034E1,7.338242E1,1.1716797E2,4.826954E1,9.0997314E-1,2.4153275E1,4.59478E1,0E0,2.5853775E1,4.1376705E1,3.305786E1,2.2835087E1,2.4328003E1,7.352612E1,1.2996292E1,2.6647217E1,0E0,0E0,0E0,4.823532E-1,1.8851566E1,0E0,9.242804E0,0E0,2.0411797E1,0E0,1.9641937E1,2.7424793E1,0E0,0E0,5.925598E0,1.3260376E1,3.0127296E1,5.231674E0,1.5167207E1,6.0305524E0,1.6741455E1,9.399696E0,0E0,0E0,2.3170052E0,0E0,8.093637E0,0E0,1.1263517E1,1.9942253E1,1.153894E1,0E0,8.314847E0,1.7503113E1,0E0,3.767212E0,6.0694437E0,0E0,1.2433454E1,3.0369553E1,0E0,0E0,1.9209936E1,7.991047E-1,0E0,0E0,0E0,2.1627544E1,0E0,0E0,0E0,1.3265095E0,3.2181604E0,0E0,1.7434263E1,3.0071003E0,0E0,4.0499096E0,0E0,0E0,0E0,1.35637E0,0E0,8.494865E0,0E0,0E0,1.1110992E0,0E0,0E0,8.517263E0,2.1485275E1,0E0,0E0,3.6508913E0,0E0,0E0,0E0,0E0,0E0,0E0,0E0,0E0,2.291191E0,7.2516747E0,6.215248E-1,0E0,0E0,0E0,0E0,0E0,0E0,0E0,0E0,0E0,0E0,0E0,7.6593475E0,2.5700718E1,0E0,6.045971E0,0E0,0E0,0E0,0E0,0E0,0E0,1.7820101E0,1.8018204E1,1.7859936E1,0E0,1.7246771E0,5.512495E0,0E0,0E0,5.3530884E-1,0E0,5.0650015E0,0E0,0E0,0E0,0E0,0E0,0E0,0E0,0E0,0E0],"parents":[2147483647,0,0,1,1,2,2,3,3,4,4,5,5,6,6,9,9,10,10,11,11,12,12,13,13,14,14,15,15,16,16,17,17,19,19,20,20,21,21,22,22,23,23,24,24,25,25,26,26,30,30,31,31,33,33,35,35,37,37,38,38,41,41,42,42,43,43,44,44,45,45,46,46,47,47,48,48,51,51,53,53,55,55,56,56,57,57,59,59,60,60,62,62,63,63,65,65,66,66,69,69,70,70,74,74,78,78,79,79,81,81,82,82,84,84,88,88,90,90,93,93,96,96,97,97,100,100,109,109,110,110,111,111,123,123,124,124,126,126,133,133,134,134,135,135,137,137,138,138,141,141,143,143],"right_children":[2,4,6,8,10,12,14,-1,-1,16,18,20,22,24,26,28,30,32,-1,34,36,38,40,42,44,46,48,-1,-1,-1,50,52,-1,54,-1,56,-1,58,60,-1,-1,62,64,66,68,70,72,74,76,-1,-1,78,-1,80,-1,82,84,86,-1,88,90,-1,92,94,-1,96,98,-1,-1,100,102,-1,-1,-1,104,-1,-1,-1,106,108,-1,110,112,-1,114,-1,-1,-1,116,-1,118,-1,-1,120,-1,-1,122,124,-1,-1,126,-1,-1,-1,-1,-1,-1,-1,-1,128,130,132,-1,-1,-1,-1,-1,-1,-1,-1,-1,-1,-1,134,136,-1,138,-1,-1,-1,-1,-1,-1,140,142,144,-1,146,148,-1,-1,150,-1,152,-1,-1,-1,-1,-1,-1,-1,-1,-1],"split_conditions":[1.2899385E1,2.4723156E1,1.4764254E1,1.0783716E1,7.313998E-1,-7.0960083E0,3.833333E0,-4.7336638E-2,4.1104134E-2,1.2325982E1,5.3576794E1,8.713697E0,1.5739179E1,3.09571E1,4.9361894E-1,1.8235466E0,3.8931446E1,4.666667E0,1.1939151E-2,2.9467201E1,7.25E0,9.836317E0,4.166667E0,-7.397505E0,1.6208475E1,2.1176433E2,2.8269026E1,-3.2492697E-2,-7.2551735E-2,9.3614106E-4,3.7144924E1,-1.7000952E1,-7.2551735E-2,1.3084776E1,-5.4366566E-2,2.205558E-2,-4.2499144E-2,4.216638E1,3.833333E0,6.4744025E-2,-6.335698E-3,1.4105948E1,1.3199088E1,1.461242E1,1.083333E0,1.2083333E1,1.1689484E1,1.192425E2,1.114534E2,-7.21459E-2,-3.2994285E-2,1.7793657E1,2.2699347E-2,8.4149065E0,1.8676503E-2,1.305E3,1.0708626E1,1.18E3,-7.2551735E-2,3.7228466E1,4.3753498E1,2.1981686E-2,1.1216901E3,1E-45,6.0333423E-2,3.774985E1,1.1097443E3,7.2551735E-2,2.5664868E-2,6.5E1,-6.403689E0,-0E0,3.8862295E-2,-5.766236E-2,1.8171759E1,-7.2551735E-2,-1.7043695E-2,-1.0012424E-2,3.904561E1,1.6904637E4,-3.687409E-2,1.5E1,5.790291E2,7.2551735E-2,-9.662919E0,-0E0,-4.7543664E-2,-1.945591E-2,2.5115002E1,-7.124537E-2,6.7320104E0,7.2551735E-2,3.001613E-2,3.9239016E4,-0E0,-2.9389681E-2,7.506855E2,1E-45,-1.9808972E-2,3.3337686E-2,-7.9264975E0,-4.7988743E-2,-1.6201567E-2,-3.354169E-2,3.1096138E-2,-4.3009147E-2,-1.3893883E-2,-9.588489E-3,1.2733626E-2,1.2168165E1,1.3817712E2,2.9813313E1,9.3552405E-3,3.2232344E-2,-0E0,2.1064864E-2,-0E0,5.9730555E-3,-3.3777297E-2,3.8324956E-2,1.0265177E-2,3.5991892E-2,-2.7587616E-3,6.814727E1,2.702428E2,4.3182755E-3,1.9106495E1,-1.3597108E-2,5.1398473E-3,6.6233673E-3,5.2654896E-2,-0E0,-1.6139105E-2,3.8260056E1,2.666667E0,1.4635478E1,5.8555476E-2,-1.420601E1,7.666667E0,3.5752613E-2,8.392661E-3,1.344432E2,1.16110705E-2,-6.3689384E0,-2.4121048E-2,-3.634067E-2,-8.3104465E-3,-1.854288E-2,1.0967554E-2,7.2551735E-2,3.8258843E-2,3.701719E-2,7.086793E-3],"split_indices":[1,14,6,17,2,19,0,0,0,1,4,10,1,14,11,16,14,0,0,15,0,6,0,13,1,16,14,0,0,0,15,11,0,1,0,2,0,14,0,0,0,1,17,1,0,0,17,18,15,0,0,5,0,6,0,7,6,7,0,4,4,0,12,8,0,14,12,0,0,7,13,0,0,0,5,0,0,0,4,9,0,7,12,0,19,0,0,0,10,0,17,0,0,9,0,0,12,8,0,0,19,0,0,0,0,0,0,0,0,6,18,14,0,0,0,0,0,0,0,0,0,0,0,15,18,0,5,0,0,0,0,0,0,4,0,1,0,11,0,0,0,15,0,13,0,0,0,0,0,0,0,0,0],"split_type":[0,0,0,0,0,0,0,0,0,0,0,0,0,0,0,0,0,0,0,0,0,0,0,0,0,0,0,0,0,0,0,0,0,0,0,0,0,0,0,0,0,0,0,0,0,0,0,0,0,0,0,0,0,0,0,0,0,0,0,0,0,0,0,1,0,0,0,0,0,0,0,0,0,0,0,0,0,0,0,0,0,0,0,0,0,0,0,0,0,0,0,0,0,0,0,0,0,1,0,0,0,0,0,0,0,0,0,0,0,0,0,0,0,0,0,0,0,0,0,0,0,0,0,0,0,0,0,0,0,0,0,0,0,0,0,0,0,0,0,0,0,0,0,0,0,0,0,0,0,0,0,0,0],"sum_hessian":[1.104E3,2.9E2,8.14E2,2.6E1,2.64E2,2.83E2,5.31E2,1.6E1,1E1,1.84E2,8E1,1.57E2,1.26E2,3.97E2,1.34E2,1.52E2,3.2E1,6.9E1,1.1E1,5E1,1.07E2,1.09E2,1.7E1,1.92E2,2.05E2,9E1,4.4E1,8E0,1.44E2,9E0,2.3E1,4.2E1,2.7E1,3.8E1,1.2E1,9.9E1,8E0,5.1E1,5.8E1,9E0,8E0,1.35E2,5.7E1,1.64E2,4.1E1,7.3E1,1.7E1,2.5E1,1.9E1,1.4E1,9E0,3.5E1,7E0,2.3E1,1.5E1,6.3E1,3.6E1,2.4E1,2.7E1,2.7E1,3.1E1,7E0,1.28E2,2.7E1,3E1,3E1,1.34E2,3.3E1,8E0,5.8E1,1.5E1,1E1,7E0,7E0,1.8E1,1.2E1,7E0,1E1,2.5E1,1.6E1,7E0,4.2E1,2.1E1,1.6E1,2E1,9E0,1.5E1,8E0,1.9E1,1.3E1,1.8E1,1.19E2,9E0,1.9E1,8E0,1E1,2E1,1.25E2,9E0,1.1E1,4.7E1,8E0,7E0,9E0,9E0,1.7E1,8E0,8E0,8E0,1.4E1,2.8E1,1.4E1,7E0,1.2E1,8E0,1.2E1,7E0,8E0,1E1,1.2E1,7E0,7E0,1.3E1,6.8E1,5.7E1,8E0,3.9E1,7E0,7E0,8E0,2E1,7E0,7E0,1.7E1,5.1E1,4.2E1,1.5E1,2E1,1.9E1,8E0,9E0,4.1E1,1E1,3E1,1.2E1,1.2E1,8E0,8E0,1.1E1,3E1,1.1E1,1.1E1,1.9E1],"tree_param":{"num_deleted":"0","num_feature":"20","num_nodes":"153","size_leaf_vector":"1"}},{"base_weights":[-2.420311E-3,5.416722E-1,-1.7392437E0,-1.2676647E0,1.240741E0,-7.2551735E-2,-7.0860344E-1,-1.6392952E0,-5.074841E-2,8.3370644E-1,1.9646925E0,-1.3882791E0,-2.6447198E-1,-2E0,-6.3626975E-1,3.4705845E-1,-9.440722E-1,3.122801E-1,1.4421612E0,6.938396E-1,2E0,-1.6274617E0,-7.444142E-3,3.691503E-2,-1.3038043E0,-1.8620588E-2,-2E0,-2.8235388E-1,-1.2438815E0,4.9245026E-2,-2.5226313E-1,-3.2018155E-3,-4.8276044E-2,4.787136E-1,-8.981089E-1,8.6029387E-1,1.9817642E0,8.610738E-1,-1.5995547E-3,5.7716244E-1,2E0,-3.7704654E-2,-7.2551735E-2,-7.60701E-1,4.0258998E-1,-6.225491E-2,-1.6467229E-2,-2.4296485E-2,-2E0,2.3176767E-1,-6.133064E-1,-5.8898963E-2,-1.1634232E-2,-2.9506825E-2,1.259228E-1,6.015083E-1,-4.7924107E-1,-1.237604E-2,-4.091263E-2,1.1877729E0,-0E0,2.1954302E-2,2E0,1.1029098E0,-0E0,-0E0,4.1115403E-2,9.873527E-1,2E0,-8.886013E-4,-4.1935552E-2,-0E0,1.0031221E0,-3.7613053E-2,-2E0,2.260558E-2,-4.142935E-3,-2.5232663E-2,-8.403961E-3,-3.722294E-3,1.4436331E-2,4.1602675E-2,7.893013E-1,-0E0,-2.8253708E-2,1.7385541E0,5.8256965E-3,-2.9647093E-2,4.7565842E-1,2E0,2.7675264E-2,4.85963E-2,1.5953388E-2,4.7196634E-2,6.0263154E-4,7.2551735E-2,5.3223145E-1,-1.5346914E-2,1.9751124E-2,4.4098E-2,1.5594274E-2,-7.2551735E-2,-9.671691E-1,3.0218673E-1,-1.9345757E-1,1.1858221E0,2.942475E-1,2E0,7.667534E-3,4.6460187E-1,-2.2651644E-2,-3.863391E-3,3.4164052E-2,7.2551735E-2,5.8872052E-3,-3.6742738E-3,4.359772E-2,-8.3126705E-3,-4.4236466E-2,2.3215558E-2,-3.5014176E-3,-1.7163672E-2,1.7233405E-3,5.74688E-1,1.4378343E0,-7.1923494E-2,6.808999E-1,3.4538977E-2,7.2551735E-2,-0E0,2.63344E-2,-0E0,9.2174304E-1,1.9478371E-2,5.998523E-2,1.8993098E-1,-2.4686096E-2,9.198737E-1,-3.1450152E-4,4.1929185E-2,1.2612687E-2,1.798605E-2,-7.7014114E-3,-0E0,4.4821333E-2],"categories":[],"categories_nodes":[],"categories_segments":[],"categories_sizes":[],"default_left":[0,0,0,0,0,0,0,0,0,0,0,0,0,0,0,0,0,0,0,0,0,0,0,0,0,0,0,0,0,0,0,0,0,0,1,0,0,0,0,1,0,0,0,0,0,0,0,0,0,0,0,0,0,0,0,0,0,0,0,0,0,0,0,0,0,0,0,0,0,0,0,0,0,0,0,0,0,0,0,0,0,0,1,0,0,0,1,0,0,0,0,0,0,0,0,0,0,0,0,0,0,0,0,0,0,0,0,0,0,0,0,0,0,0,0,0,0,0,0,0,0,0,0,0,0,0,0,0,0,0,0,0,0,0,0,0,0,0,0,0,0,0,0,0,0],"id":1,"left_children":[1,3,5,7,9,-1,11,13,15,17,19,21,23,25,27,29,31,33,35,37,39,41,-1,43,45,-1,47,49,51,-1,53,-1,-1,55,57,59,61,63,-1,65,67,-1,-1,69,71,-1,-1,-1,73,75,77,-1,-1,-1,79,81,83,-1,-1,85,87,-1,89,91,-1,-1,-1,93,95,-1,-1,97,99,-1,101,-1,-1,-1,-1,-1,-1,103,105,-1,-1,107,109,-1,111,113,-1,-1,-1,-1,-1,-1,115,-1,-1,-1,-1,-1,117,119,121,123,125,127,-1,129,-1,-1,-1,-1,-1,-1,-1,-1,-1,-1,-1,-1,-1,131,133,135,137,-1,-1,-1,-1,-1,139,-1,-1,141,-1,143,-1,-1,-1,-1,-1,-1,-1],"loss_changes":[1.0553496E3,1.0769216E3,1.5110626E2,1.0587967E2,1.7654327E2,0E0,3.2072598E1,7.170569E1,2.4566349E1,1.2476825E2,6.337805E1,9.985329E0,2.5216606E1,1.04627075E1,1.1749987E1,2.9463318E1,5.677725E0,4.650813E1,5.2821777E1,6.78932E0,2.2827148E1,5.277466E0,0E0,1.8756462E1,3.4471893E0,0E0,4.416931E0,8.6970005E0,5.017166E0,0E0,8.087616E0,0E0,0E0,2.474604E1,2.1322365E0,2.7346634E1,9.8402405E0,8.507996E0,0E0,7.37328E0,1.4454407E1,0E0,0E0,4.66094E0,1.1135755E1,0E0,0E0,0E0,9.3548584E-1,3.886252E0,1.4776897E-1,0E0,0E0,0E0,2.20691E0,1.778772E1,3.573319E0,0E0,0E0,4.32323E1,1.4320126E1,0E0,5.4130554E0,2.7818184E0,0E0,0E0,0E0,7.0368977E0,2.4998596E1,0E0,0E0,8.513987E0,3.8883018E-1,0E0,1.119635E1,0E0,0E0,0E0,0E0,0E0,0E0,4.0434904E0,2.4270447E1,0E0,0E0,2.3963531E1,9.724505E0,0E0,7.1811676E0,1.8531494E1,0E0,0E0,0E0,0E0,0E0,0E0,1.0271563E1,0E0,0E0,0E0,0E0,0E0,2.8360825E0,4.9575186E0,2.7602978E0,8.352104E0,1.0311195E1,1.9543915E0,0E0,1.927803E0,0E0,0E0,0E0,0E0,0E0,0E0,0E0,0E0,0E0,0E0,0E0,0E0,0E0,6.227463E0,6.2137985E0,7.5261917E0,6.5764694E0,0E0,0E0,0E0,0E0,0E0,9.051018E-1,0E0,0E0,4.4294734E0,0E0,6.5378838E0,0E0,0E0,0E0,0E0,0E0,0E0,0E0],"parents":[2147483647,0,0,1,1,2,2,3,3,4,4,6,6,7,7,8,8,9,9,10,10,11,11,12,12,13,13,14,14,15,15,16,16,17,17,18,18,19,19,20,20,21,21,23,23,24,24,26,26,27,27,28,28,30,30,33,33,34,34,35,35,36,36,37,37,39,39,40,40,43,43,44,44,48,48,49,49,50,50,54,54,55,55,56,56,59,59,60,60,62,62,63,63,67,67,68,68,71,71,72,72,74,74,81,81,82,82,85,85,86,86,88,88,89,89,96,96,102,102,103,103,104,104,105,105,106,106,107,107,109,109,123,123,124,124,125,125,126,126,132,132,135,135,137,137],"right_children":[2,4,6,8,10,-1,12,14,16,18,20,22,24,26,28,30,32,34,36,38,40,42,-1,44,46,-1,48,50,52,-1,54,-1,-1,56,58,60,62,64,-1,66,68,-1,-1,70,72,-1,-1,-1,74,76,78,-1,-1,-1,80,82,84,-1,-1,86,88,-1,90,92,-1,-1,-1,94,96,-1,-1,98,100,-1,102,-1,-1,-1,-1,-1,-1,104,106,-1,-1,108,110,-1,112,114,-1,-1,-1,-1,-1,-1,116,-1,-1,-1,-1,-1,118,120,122,124,126,128,-1,130,-1,-1,-1,-1,-1,-1,-1,-1,-1,-1,-1,-1,-1,132,134,136,138,-1,-1,-1,-1,-1,140,-1,-1,142,-1,144,-1,-1,-1,-1,-1,-1,-1],"split_conditions":[6E0,1.3159695E1,1.548112E1,4.2445698E1,2.205558E-2,-7.2551735E-2,4.5290234E1,2.205558E-2,3.416667E0,2.021976E1,1.4878774E1,1.0805949E1,-2.703287E0,5.9427925E1,-6.513049E0,-7.839233E0,2.8080229E1,5.875759E1,3.6613477E4,1.478472E1,9.234829E0,6.3289E1,-7.444142E-3,1.7396639E1,1.192425E2,-1.8620588E-2,-1.0334883E1,1.7755867E1,6.528182E2,4.9245026E-2,7.8740156E-1,-3.2018155E-3,-4.8276044E-2,2.5737402E1,5.9414867E1,1.0534785E3,2.1943699E1,3.166667E0,-1.5995547E-3,1.7953838E2,4.042693E1,-3.7704654E-2,-7.2551735E-2,1.5659415E1,5.409398E1,-6.225491E-2,-1.6467229E-2,-2.4296485E-2,3.0057379E1,-5.9947557E0,3.9327843E1,-5.8898963E-2,-1.1634232E-2,-2.9506825E-2,5.64975E1,1.4531325E1,-7.318807E0,-1.237604E-2,-4.091263E-2,-6.039255E0,1.6297342E2,2.1954302E-2,7.5716995E1,-7.3590565E0,-0E0,-0E0,4.1115403E-2,3.8734615E1,-6.3689384E0,-8.886013E-4,-4.1935552E-2,-7.0945077E0,-6.3718767E0,-3.7613053E-2,1.2136537E1,2.260558E-2,-4.142935E-3,-2.5232663E-2,-8.403961E-3,-3.722294E-3,1.4436331E-2,2.9634432E1,1.3798322E2,-0E0,-2.8253708E-2,2.166667E0,1.459478E1,-2.9647093E-2,1.5659415E1,2.666667E0,2.7675264E-2,4.85963E-2,1.5953388E-2,4.7196634E-2,6.0263154E-4,7.2551735E-2,2.7663566E4,-1.5346914E-2,1.9751124E-2,4.4098E-2,1.5594274E-2,-7.2551735E-2,-9.020497E0,1.7951138E2,4.1956177E1,4.170759E1,-9.390397E0,1.808E1,7.667534E-3,1.0555605E2,-2.2651644E-2,-3.863391E-3,3.4164052E-2,7.2551735E-2,5.8872052E-3,-3.6742738E-3,4.359772E-2,-8.3126705E-3,-4.4236466E-2,2.3215558E-2,-3.5014176E-3,-1.7163672E-2,1.7233405E-3,1.7496868E1,3.9280624E1,1.3792529E1,9.480182E1,3.4538977E-2,7.2551735E-2,-0E0,2.63344E-2,-0E0,3.8818672E1,1.9478371E-2,5.998523E-2,2.75E0,-2.4686096E-2,6.3131315E-1,-3.1450152E-4,4.1929185E-2,1.2612687E-2,1.798605E-2,-7.7014114E-3,-0E0,4.4821333E-2],"split_indices":[0,1,1,4,2,0,4,2,0,6,1,17,19,3,13,13,3,14,9,1,3,15,0,5,18,0,19,5,12,0,3,0,0,5,16,12,6,0,0,16,4,0,0,5,4,0,0,0,4,19,4,0,0,0,4,1,13,0,0,13,18,0,4,19,0,0,0,4,13,0,0,13,19,0,1,0,0,0,0,0,0,14,16,0,0,0,1,0,5,0,0,0,0,0,0,0,9,0,0,0,0,0,13,18,14,4,19,5,0,15,0,0,0,0,0,0,0,0,0,0,0,0,0,5,15,6,3,0,0,0,0,0,15,0,0,0,0,3,0,0,0,0,0,0,0],"split_type":[0,0,0,0,0,0,0,0,0,0,0,0,0,0,0,0,0,0,0,0,0,0,0,0,0,0,0,0,0,0,0,0,0,0,0,0,0,0,0,0,0,0,0,0,0,0,0,0,0,0,0,0,0,0,0,0,0,0,0,0,0,0,0,0,0,0,0,0,0,0,0,0,0,0,0,0,0,0,0,0,0,0,0,0,0,0,0,0,0,0,0,0,0,0,0,0,0,0,0,0,0,0,0,0,0,0,0,0,0,0,0,0,0,0,0,0,0,0,0,0,0,0,0,0,0,0,0,0,0,0,0,0,0,0,0,0,0,0,0,0,0,0,0,0,0],"sum_hessian":[1.106E3,8.43E2,2.63E2,2.34E2,6.09E2,1.57E2,1.06E2,1.78E2,5.6E1,3.94E2,2.15E2,3.9E1,6.7E1,1.23E2,5.5E1,3.9E1,1.7E1,2.15E2,1.79E2,4.2E1,1.73E2,3.1E1,8E0,5.3E1,1.4E1,8E0,1.15E2,3.8E1,1.7E1,1.4E1,2.5E1,7E0,1E1,1.91E2,2.4E1,9E1,8.9E1,3.5E1,7E0,1.5E1,1.58E2,2E1,1.1E1,1.5E1,3.8E1,7E0,7E0,7E0,1.08E2,1.4E1,2.4E1,1E1,7E0,1E1,1.5E1,1.71E2,2E1,1E1,1.4E1,6.5E1,2.5E1,9E0,8E1,2.7E1,8E0,8E0,7E0,2.3E1,1.35E2,7E0,8E0,2.4E1,1.4E1,1.1E1,9.7E1,7E0,7E0,1.6E1,8E0,7E0,8E0,4.5E1,1.26E2,9E0,1.1E1,4.3E1,2.2E1,9E0,1.6E1,7.1E1,9E0,1.7E1,1E1,1.6E1,7E0,1.2E2,1.5E1,1.4E1,1E1,7E0,7E0,7.8E1,1.9E1,2.3E1,2.2E1,6.7E1,5.9E1,3.3E1,1E1,1.4E1,8E0,7E0,9E0,6.4E1,7E0,8E0,7E0,7E0,1.2E1,1.3E1,1E1,1.1E1,1.1E1,2.3E1,4.4E1,3E1,2.9E1,1E1,2.3E1,7E0,7E0,9E0,1.4E1,1.1E1,3.3E1,2.1E1,9E0,2.2E1,7E0,7E0,7E0,1.3E1,8E0,7E0,1.5E1],"tree_param":{"num_deleted":"0","num_feature":"20","num_nodes":"145","size_leaf_vector":"1"}},{"base_weights":[-3.7673654E-4,-2.7347198E-1,1.9580275E0,-1.8460596E0,3.4659055E-1,2E0,-3.4156296E-2,-1.9373354E0,4.052552E-2,8.727148E-1,-1.2315162E0,3.042646E-1,2E0,-1.5366787E0,-7.2551735E-2,1.1059445E-1,1.1698513E0,-1.7559395E0,-7.0986533E-1,-3.1814056E-3,3.105004E-2,2E0,-1.78505E-2,-1.9805261E0,-9.834457E-1,-6.676676E-1,4.4626483E-1,8.747756E-1,1.5338233E0,-1.927911E0,-1.1062209E-2,-1.05995156E-1,-1.0565152E0,7.2551735E-2,2.4451798E-2,-7.2551735E-2,-3.7792396E-2,-1.0772716E0,1.9905592E-4,-2.3484865E-2,-1.0529077E0,7.0586395E-1,-4.1979522E-1,4.7281614E-1,1.413105E0,1.9224148E0,9.9374163E-1,-7.2551735E-2,-9.325946E-3,-2.84127E-2,3.3751196E-1,-1.322807E0,-2.0537883E-1,3.0115075E-2,-4.202489E-2,-8.768701E-1,-6.2390957E-2,3.9087315E-3,-6.700636E-3,-4.6070628E-2,-1.9053224E-2,9.5557344E-1,-0E0,-4.3154746E-2,1.16823435E-1,6.463223E-1,-6.566943E-1,6.15211E-1,1.8363402E0,2E0,1.122008E0,1.7096391E0,5.040711E-1,-1.1286312E-3,2.9685436E-2,-7.224821E-1,-1.7849236E0,2.5249047E-2,-4.5520116E-2,-1.2087489E0,-1.7660338E-1,1.8407105E-1,1.4462978E0,-2.7361117E-2,4.343853E-1,1.8949654E-2,-7.761712E-3,1.0852103E0,7.530773E-2,2.1431888E-3,-5.026119E-2,9.0891975E-1,2.4411178E-1,2E0,2.8882632E-2,2.5754496E-2,7.2551735E-2,1.6909041E0,8.724694E-3,9.043417E-1,7.2551735E-2,7.471572E-1,-1.2911946E-2,-3.198324E-2,-1.0267709E-2,-7.2551735E-2,-2.9253768E-2,-9.642631E-3,-4.8432842E-2,6.838842E-3,-2.106074E-2,-1.841175E-1,2.9957525E-2,2.1422684E-2,6.797953E-2,3.7365697E-2,-6.0575455E-3,5.6646675E-1,1.2278465E0,3.273624E-1,-3.432601E-1,4.034943E-2,1.2596046E-2,2.4942037E-2,-1.3539086E-3,7.2551735E-2,2.680697E-2,7.2551735E-2,1.9342564E-2,6.616895E-3,4.6823665E-2,9.746904E-1,-6.422008E-4,-1.4247633E-2,-0E0,3.1443466E-2,-0E0,5.8434125E-2,8.5447073E-1,-1.117688E-2,5.446514E-1,-1.968211E-2,-0E0,6.189131E-1,4.7910556E-2,3.6231723E-2,6.8128053E-3,-0E0,2.9955389E-2,2.6993345E-2,7.988698E-3],"categories":[0,1,2,0,1,3,4,5,6,7,8,9,10,11],"categories_nodes":[41,92],"categories_segments":[0,3],"categories_sizes":[3,11],"default_left":[0,0,0,0,0,0,0,0,0,0,0,0,0,0,0,0,0,0,0,0,0,0,0,0,0,0,0,0,0,0,0,0,0,0,0,0,0,0,0,0,0,1,0,0,0,0,0,0,0,0,0,0,0,0,0,1,0,0,0,0,0,0,0,0,1,0,0,0,0,0,1,1,1,0,0,0,0,0,0,0,0,0,0,0,0,0,0,0,0,0,0,0,1,0,0,0,0,0,0,0,0,0,0,0,0,0,0,0,0,0,0,0,0,0,0,0,0,0,0,0,0,0,0,0,0,0,0,0,0,0,0,0,0,0,0,0,0,0,0,0,0,0,0,0,0,0,0,0,0,0,0],"id":2,"left_children":[1,3,5,7,9,11,-1,13,-1,15,17,19,21,23,-1,25,27,29,31,-1,-1,33,-1,35,37,39,41,43,45,47,-1,49,51,-1,-1,-1,53,55,-1,57,59,61,63,65,67,69,71,-1,-1,-1,73,75,77,-1,-1,79,-1,-1,-1,-1,-1,81,83,-1,85,87,89,91,93,95,97,99,101,-1,-1,103,105,-1,-1,107,109,111,113,-1,115,-1,-1,117,119,-1,-1,121,123,125,-1,-1,-1,127,-1,129,-1,131,-1,-1,-1,-1,-1,-1,-1,-1,-1,133,-1,-1,-1,-1,-1,135,137,139,141,-1,-1,-1,-1,-1,-1,-1,-1,-1,-1,143,-1,-1,-1,-1,-1,-1,145,-1,147,-1,-1,149,-1,-1,-1,-1,-1,-1,-1],"loss_changes":[5.9200964E2,9.500987E2,7.7368164E1,8.259454E1,5.830604E2,5.7227722E1,0E0,2.9862732E1,0E0,1.1775821E2,4.4720764E1,7.4691257E0,5.3679382E1,4.2461334E1,0E0,4.1761017E1,3.7164917E1,1.8391602E1,1.8820591E1,0E0,0E0,1.3109192E1,0E0,6.5085724E1,9.744095E0,1.0952812E1,2.6475163E1,4.492369E1,2.9558533E1,1.528241E1,0E0,1.4301911E1,1.1782677E1,0E0,0E0,0E0,2.6311165E1,7.6842957E0,0E0,1.0840276E0,1.2324562E0,1.4504982E1,1.3624983E1,2.7608652E1,2.7110123E1,1.1709412E1,2.423523E1,0E0,0E0,0E0,5.9892535E0,8.531456E0,2.2538677E1,0E0,0E0,1.5486698E1,0E0,0E0,0E0,0E0,0E0,2.2330769E1,1.1157146E1,0E0,3.9898999E0,2.7842735E1,1.2127463E1,3.249794E0,9.16008E0,3.505951E0,1.3961655E1,6.1088486E0,1.2319327E1,0E0,0E0,7.6234245E-1,8.7657166E-1,0E0,0E0,3.874588E0,5.7073307E0,9.094273E0,1.0244247E1,0E0,9.352336E0,0E0,0E0,2.5778122E0,6.953088E0,0E0,0E0,7.083435E-1,4.192383E0,7.6378326E0,0E0,0E0,0E0,6.684395E0,0E0,3.6802397E0,0E0,8.321487E0,0E0,0E0,0E0,0E0,0E0,0E0,0E0,0E0,0E0,1.2366039E0,0E0,0E0,0E0,0E0,0E0,3.6819048E0,3.1977158E0,6.556643E0,1.4620543E0,0E0,0E0,0E0,0E0,0E0,0E0,0E0,0E0,0E0,0E0,1.8941536E0,0E0,0E0,0E0,0E0,0E0,0E0,1.8647137E0,0E0,5.3568573E0,0E0,0E0,4.0598297E-1,0E0,0E0,0E0,0E0,0E0,0E0,0E0],"parents":[2147483647,0,0,1,1,2,2,3,3,4,4,5,5,7,7,9,9,10,10,11,11,12,12,13,13,15,15,16,16,17,17,18,18,21,21,23,23,24,24,25,25,26,26,27,27,28,28,29,29,31,31,32,32,36,36,37,37,39,39,40,40,41,41,42,42,43,43,44,44,45,45,46,46,50,50,51,51,52,52,55,55,61,61,62,62,64,64,65,65,66,66,67,67,68,68,69,69,70,70,71,71,72,72,75,75,76,76,79,79,80,80,81,81,82,82,84,84,87,87,88,88,91,91,92,92,93,93,97,97,99,99,101,101,111,111,117,117,118,118,119,119,120,120,131,131,138,138,140,140,143,143],"right_children":[2,4,6,8,10,12,-1,14,-1,16,18,20,22,24,-1,26,28,30,32,-1,-1,34,-1,36,38,40,42,44,46,48,-1,50,52,-1,-1,-1,54,56,-1,58,60,62,64,66,68,70,72,-1,-1,-1,74,76,78,-1,-1,80,-1,-1,-1,-1,-1,82,84,-1,86,88,90,92,94,96,98,100,102,-1,-1,104,106,-1,-1,108,110,112,114,-1,116,-1,-1,118,120,-1,-1,122,124,126,-1,-1,-1,128,-1,130,-1,132,-1,-1,-1,-1,-1,-1,-1,-1,-1,134,-1,-1,-1,-1,-1,136,138,140,142,-1,-1,-1,-1,-1,-1,-1,-1,-1,-1,144,-1,-1,-1,-1,-1,-1,146,-1,148,-1,-1,150,-1,-1,-1,-1,-1,-1,-1],"split_conditions":[4.407141E1,1.2783309E1,9.6938774E1,5.5970516E4,6E0,9.054163E0,-3.4156296E-2,5.666667E0,4.052552E-2,4.042693E1,1.5739179E1,4.775806E1,8.166667E0,1.1373363E1,-7.2551735E-2,1.388859E1,1.3199088E1,1.234627E2,9.666667E0,-3.1814056E-3,3.105004E-2,5.4144505E1,-1.78505E-2,2.205558E-2,2.2639755E1,3.743293E1,9.9750626E1,4.9032962E-1,2.966806E1,2.7174336E4,-1.1062209E-2,1.7462584E1,1.0356608E2,7.2551735E-2,2.4451798E-2,-7.2551735E-2,2.003043E1,1.121014E1,1.9905592E-4,5.169179E0,1.6521336E4,1E-45,2.0856142E1,5.875759E1,1.5371456E1,-7.2593703E0,1.083333E0,-7.2551735E-2,-9.325946E-3,-2.84127E-2,7.410926E1,6.963346E1,1.1618298E2,3.0115075E-2,-4.202489E-2,1.754461E2,-6.2390957E-2,3.9087315E-3,-6.700636E-3,-4.6070628E-2,-1.9053224E-2,9.331363E0,7.690473E0,-4.3154746E-2,1.3631184E2,1.583333E0,5.413034E1,-6.754002E0,1.7954622E1,5.7231366E2,5.2938572E1,1.5233155E1,1.5347353E1,-1.1286312E-3,2.9685436E-2,1.913468E2,3.0441307E1,2.5249047E-2,-4.5520116E-2,9E2,9.3333336E1,2.205558E-2,1.16627884E2,-2.7361117E-2,7.585513E1,1.8949654E-2,-7.761712E-3,1.7215494E1,2.212857E1,2.1431888E-3,-5.026119E-2,9.702794E0,1E-45,4.0945343E1,2.8882632E-2,2.5754496E-2,7.2551735E-2,1.0938867E3,8.724694E-3,8.9054726E1,7.2551735E-2,9.759824E2,-1.2911946E-2,-3.198324E-2,-1.0267709E-2,-7.2551735E-2,-2.9253768E-2,-9.642631E-3,-4.8432842E-2,6.838842E-3,-2.106074E-2,1.7281706E1,2.9957525E-2,2.1422684E-2,6.797953E-2,3.7365697E-2,-6.0575455E-3,1.617362E1,4.1852886E1,-1.0014042E1,2.9090527E1,4.034943E-2,1.2596046E-2,2.4942037E-2,-1.3539086E-3,7.2551735E-2,2.680697E-2,7.2551735E-2,1.9342564E-2,6.616895E-3,4.6823665E-2,2.9334753E1,-6.422008E-4,-1.4247633E-2,-0E0,3.1443466E-2,-0E0,5.8434125E-2,2.1458623E2,-1.117688E-2,7.031859E2,-1.968211E-2,-0E0,3.992285E4,4.7910556E-2,3.6231723E-2,6.8128053E-3,-0E0,2.9955389E-2,2.6993345E-2,7.988698E-3],"split_indices":[10,1,3,9,0,3,0,0,0,4,1,16,0,1,0,1,17,15,0,0,0,14,0,2,6,14,3,2,14,9,0,6,15,0,0,0,10,17,0,10,9,8,5,14,1,19,0,0,0,0,3,15,15,0,0,16,0,0,0,0,0,17,17,0,16,0,16,19,6,12,16,1,1,0,0,16,14,0,0,7,3,2,18,0,3,0,0,5,5,0,0,17,8,2,0,0,0,12,0,3,0,12,0,0,0,0,0,0,0,0,0,5,0,0,0,0,0,5,3,19,14,0,0,0,0,0,0,0,0,0,0,6,0,0,0,0,0,0,18,0,12,0,0,9,0,0,0,0,0,0,0],"split_type":[0,0,0,0,0,0,0,0,0,0,0,0,0,0,0,0,0,0,0,0,0,0,0,0,0,0,0,0,0,0,0,0,0,0,0,0,0,0,0,0,0,1,0,0,0,0,0,0,0,0,0,0,0,0,0,0,0,0,0,0,0,0,0,0,0,0,0,0,0,0,0,0,0,0,0,0,0,0,0,0,0,0,0,0,0,0,0,0,0,0,0,0,1,0,0,0,0,0,0,0,0,0,0,0,0,0,0,0,0,0,0,0,0,0,0,0,0,0,0,0,0,0,0,0,0,0,0,0,0,0,0,0,0,0,0,0,0,0,0,0,0,0,0,0,0,0,0,0,0,0,0],"sum_hessian":[1.097E3,9.65E2,1.32E2,2.72E2,6.93E2,1.25E2,7E0,2.65E2,7E0,5.21E2,1.72E2,2.2E1,1.03E2,1.9E2,7.5E1,1.48E2,3.73E2,8.2E1,9E1,1.3E1,9E0,9.6E1,7E0,1.01E2,8.9E1,4.3E1,1.05E2,2.12E2,1.61E2,7.2E1,1E1,3.5E1,5.5E1,8.4E1,1.2E1,8.3E1,1.8E1,8.2E1,7E0,1.8E1,2.5E1,8.2E1,2.3E1,1.25E2,8.7E1,8.9E1,7.2E1,6.5E1,7E0,1.4E1,2.1E1,4E1,1.5E1,1E1,8E0,6.8E1,1.4E1,7E0,1.1E1,1.4E1,1.1E1,5.9E1,2.3E1,9E0,1.4E1,1.1E2,1.5E1,3.3E1,5.4E1,6.1E1,2.8E1,2.6E1,4.6E1,1.2E1,9E0,2.1E1,1.9E1,8E0,7E0,4.4E1,2.4E1,2.5E1,3.4E1,7E0,1.6E1,7E0,7E0,6E1,5E1,8E0,7E0,1.5E1,1.8E1,4.1E1,1.3E1,7E0,5.4E1,1.5E1,1.3E1,1.4E1,1.2E1,3.7E1,9E0,1.2E1,9E0,1.2E1,7E0,7E0,3.7E1,1.2E1,1.2E1,1.6E1,9E0,1.4E1,2E1,8E0,8E0,1.7E1,4.3E1,3.3E1,1.7E1,8E0,7E0,7E0,1.1E1,3.1E1,1E1,8E0,7E0,7E0,7E0,2.9E1,8E0,7E0,9E0,1E1,7E0,1.6E1,2.7E1,7E0,2.6E1,9E0,8E0,1.9E1,1E1,2E1,7E0,9E0,1.7E1,1.1E1,8E0],"tree_param":{"num_deleted":"0","num_feature":"20","num_nodes":"151","size_leaf_vector":"1"}},{"base_weights":[-1.490655E-3,5.55428E-1,-1.5182942E0,-6.600724E-1,1.240772E0,-1.8275901E0,-8.500089E-2,-2E0,-1.4760269E-2,1.8154765E0,7.1186763E-1,-2E0,-8.937307E-1,-7.428363E-1,5.463312E-1,-7.2551735E-2,-3.8785282E-1,-6.112281E-1,5.185223E-1,3.369813E-1,2E0,-6.1466366E-1,8.4720826E-1,-2E0,-9.413947E-3,-1.2562826E0,3.5098678E-1,2.281292E-3,-4.9468677E-2,-0E0,7.513873E-1,-0E0,-2.2761699E-2,3.1523576E-1,-8.098282E-1,-5.3529274E-1,8.742439E-1,-1.8690416E-1,8.250724E-1,2E0,4.1979387E-1,-3.7245955E-2,-1.1554828E-3,1.1305627E0,3.1347647E-1,-4.1245475E-2,-7.2551735E-2,-1.4360449E0,1.3947895E-3,2.7986784E-2,-6.8471716E-3,3.3727583E-2,5.902766E-3,2.5288112E-2,-4.4901404E-3,-1.0945823E0,-0E0,-4.8264794E-2,-8.000911E-2,1.106709E0,-3.7884362E-2,1.4244633E-2,-3.3194438E-2,-1.47011895E-2,1.4324362E0,2E0,1.5415633E-2,3.7087902E-2,-2.8738482E-3,1.0119011E-1,1.586717E0,9.634742E-1,-2.0325176E-2,-9.1978747E-1,-6.6481635E-2,-8.7841976E-1,-1.4317127E0,-1.5027535E-1,8.808565E-3,-2.97383E-2,1.5783776E-2,2.4636849E-3,1.311027E0,-2.0074803E-2,1.42139215E-2,6.4928256E-2,2.48221E-2,1.0798784E0,7.2551735E-2,-6.4014786E-1,7.9206365E-1,2E0,6.6187745E-1,1.1239665E0,9.79598E-3,2.2539726E-1,-5.0621577E-2,-4.6434112E-2,-6.387077E-1,-4.877005E-2,-6.070194E-1,-2.2239376E-2,-6.236024E-2,-1.35171E-2,-0E0,9.0675503E-1,7.0818916E-2,1.2799492E0,1.1946644E-2,-0E0,-4.9199663E-2,4.909717E-2,-0E0,1.7628117E-2,7.2551735E-2,3.007105E-1,1.0917153E0,1.4111568E-2,5.4458242E-2,-3.518069E-2,6.8067783E-1,-2.7601985E-2,-9.564054E-3,-3.7852253E-3,-2.5850654E-2,-0E0,1.1514671E0,6.378799E-2,1.1626537E-2,-9.0718055E-3,8.755286E-3,-0E0,3.3121113E-2,1.9200405E-2,4.853854E-2,7.52748E-2,3.6863785E-2,8.33407E-1,5.603191E-2,3.1764098E-2,-4.2364398E-1,-7.413036E-3,1.8129572E-2,3.641314E-2,7.9356115E-3,-2.9679356E-2,5.9548824E-4],"categories":[0,1,2,4,5,6,7,8],"categories_nodes":[64],"categories_segments":[0],"categories_sizes":[8],"default_left":[0,0,0,0,0,0,0,0,0,0,0,0,0,0,0,0,0,0,0,0,0,0,0,0,0,0,0,0,0,0,0,0,0,0,1,0,0,0,0,0,1,0,0,0,0,0,0,0,0,0,0,0,0,0,0,0,0,0,0,0,0,0,0,0,1,0,0,0,0,0,0,0,1,0,0,1,0,0,0,0,0,0,0,0,0,0,0,0,0,0,1,0,0,0,0,0,0,0,0,0,0,0,0,0,0,0,0,0,0,1,0,0,0,0,0,0,0,0,0,0,0,0,0,0,0,0,0,0,0,0,0,0,0,0,0,0,0,0,0,0,0,0,0,0,0,0,0],"id":3,"left_children":[1,3,5,7,9,11,13,15,17,19,21,23,25,27,29,-1,31,33,35,37,39,41,43,45,-1,47,49,-1,-1,-1,51,-1,-1,53,55,57,59,61,63,65,67,-1,-1,69,71,-1,-1,73,-1,-1,-1,-1,-1,-1,-1,75,77,-1,79,81,83,-1,-1,-1,85,87,-1,-1,-1,89,91,93,95,97,-1,99,101,103,-1,-1,-1,-1,105,-1,-1,-1,-1,107,-1,109,111,113,115,117,-1,119,-1,-1,121,-1,123,-1,-1,-1,-1,125,-1,127,-1,129,-1,-1,-1,-1,-1,131,133,-1,-1,-1,135,-1,-1,-1,-1,-1,137,-1,-1,-1,-1,139,-1,-1,-1,141,-1,143,-1,-1,145,-1,-1,-1,-1,-1,-1],"loss_changes":[9.484201E2,6.852732E2,1.3169293E2,2.7222644E2,1.5603772E2,7.9634705E1,2.6959032E1,3.505133E1,6.8697495E1,1.0182837E2,5.2756134E1,1.5452576E1,3.9634277E1,1.7536217E1,4.274721E0,0E0,1.7979007E0,2.0398743E1,4.4219E1,1.3678289E1,3.3237915E1,6.0940228E0,3.7226196E1,1.6611328E0,0E0,1.6691826E1,6.5238295E0,0E0,0E0,0E0,1.5854273E0,0E0,0E0,4.849896E0,1.942857E1,1.0360793E1,1.9367203E1,1.3033559E1,2.262799E1,2.5506042E1,7.9955325E0,0E0,0E0,7.577608E1,2.2340622E1,0E0,0E0,7.384804E0,0E0,0E0,0E0,0E0,0E0,0E0,0E0,1.5747604E0,1.7202184E0,0E0,1.1699675E1,1.3271133E1,6.5396085E0,0E0,0E0,0E0,1.3290596E0,2.5333252E1,0E0,0E0,0E0,3.1333876E1,5.783664E1,2.3533192E0,2.6137978E1,1.1936626E0,0E0,3.9744072E0,1.276329E0,1.3494731E0,0E0,0E0,0E0,0E0,1.0344917E1,0E0,0E0,0E0,0E0,4.9641E0,0E0,1.3399401E1,1.4533012E1,8.970428E0,6.9485893E0,5.012024E0,0E0,3.370476E1,0E0,0E0,3.4219265E-1,0E0,1.2570362E0,0E0,0E0,0E0,0E0,8.393143E0,0E0,1.3048046E1,0E0,2.101845E0,0E0,0E0,0E0,0E0,0E0,6.2010617E0,8.155308E-1,0E0,0E0,0E0,7.960699E0,0E0,0E0,0E0,0E0,0E0,7.852707E-1,0E0,0E0,0E0,0E0,1.2885267E1,0E0,0E0,0E0,3.9563189E0,0E0,1.4866409E0,0E0,0E0,4.64946E0,0E0,0E0,0E0,0E0,0E0,0E0],"parents":[2147483647,0,0,1,1,2,2,3,3,4,4,5,5,6,6,7,7,8,8,9,9,10,10,11,11,12,12,13,13,14,14,16,16,17,17,18,18,19,19,20,20,21,21,22,22,23,23,25,25,26,26,30,30,33,33,34,34,35,35,36,36,37,37,38,38,39,39,40,40,43,43,44,44,47,47,55,55,56,56,58,58,59,59,60,60,64,64,65,65,69,69,70,70,71,71,72,72,73,73,75,75,76,76,77,77,82,82,87,87,89,89,90,90,91,91,92,92,93,93,95,95,98,98,100,100,105,105,107,107,109,109,115,115,116,116,120,120,126,126,131,131,135,135,137,137,140,140],"right_children":[2,4,6,8,10,12,14,16,18,20,22,24,26,28,30,-1,32,34,36,38,40,42,44,46,-1,48,50,-1,-1,-1,52,-1,-1,54,56,58,60,62,64,66,68,-1,-1,70,72,-1,-1,74,-1,-1,-1,-1,-1,-1,-1,76,78,-1,80,82,84,-1,-1,-1,86,88,-1,-1,-1,90,92,94,96,98,-1,100,102,104,-1,-1,-1,-1,106,-1,-1,-1,-1,108,-1,110,112,114,116,118,-1,120,-1,-1,122,-1,124,-1,-1,-1,-1,126,-1,128,-1,130,-1,-1,-1,-1,-1,132,134,-1,-1,-1,136,-1,-1,-1,-1,-1,138,-1,-1,-1,-1,140,-1,-1,-1,142,-1,144,-1,-1,146,-1,-1,-1,-1,-1,-1],"split_conditions":[5E0,4.042693E1,2.899656E4,1.1884335E1,-7.579957E0,1.548112E1,1.81296E1,2.205558E-2,4.7342773E2,1.4105948E1,1.1574125E1,4.1847534E1,5.2908817E1,2.3712168E1,1.1357023E1,-7.2551735E-2,8.954961E3,9.2789116E1,7.1795897E0,1.3513214E1,7.5716995E1,1.18E3,-6.2825837E0,-8.742614E0,-9.413947E-3,9.952963E1,2.3391E4,2.281292E-3,-4.9468677E-2,-0E0,5.933123E1,-0E0,-2.2761699E-2,3.0156267E1,2.9235312E2,6.3131315E-1,9.9750626E1,9.1594826E1,5.6120917E2,4.1956177E1,4.7615887E1,-3.7245955E-2,-1.1554828E-3,1.4920819E1,5.8E1,-4.1245475E-2,-7.2551735E-2,1.2114053E1,1.3947895E-3,2.7986784E-2,-6.8471716E-3,3.3727583E-2,5.902766E-3,2.5288112E-2,-4.4901404E-3,-8.656685E0,2.8233267E2,-4.8264794E-2,-6.641384E0,1.38614E1,2.6856822E4,1.4244633E-2,-3.3194438E-2,-1.47011895E-2,1E-45,1.3681706E1,1.5415633E-2,3.7087902E-2,-2.8738482E-3,2.2341184E4,1.166667E0,-4.46865E0,1.5347353E1,8.4149065E0,-6.6481635E-2,1.2136537E1,4.5310795E1,4.6216602E2,8.808565E-3,-2.97383E-2,1.5783776E-2,2.4636849E-3,7.8179245E1,-2.0074803E-2,1.42139215E-2,6.4928256E-2,2.48221E-2,8.6523485E0,7.2551735E-2,8.0717186E1,1.3631184E2,4.6191513E1,-6.7920723E0,7.103976E2,9.79598E-3,1.261968E1,-5.0621577E-2,-4.6434112E-2,1.303597E1,-4.877005E-2,1.2592688E1,-2.2239376E-2,-6.236024E-2,-1.35171E-2,-0E0,2.2191582E4,7.0818916E-2,7.6181816E1,1.1946644E-2,-1.5738986E0,-4.9199663E-2,4.909717E-2,-0E0,1.7628117E-2,7.2551735E-2,2.205558E-2,3.0116228E1,1.4111568E-2,5.4458242E-2,-3.518069E-2,1.7487178E2,-2.7601985E-2,-9.564054E-3,-3.7852253E-3,-2.5850654E-2,-0E0,4.0443316E4,6.378799E-2,1.1626537E-2,-9.0718055E-3,8.755286E-3,6.794093E2,3.3121113E-2,1.9200405E-2,4.853854E-2,2.205558E-2,3.6863785E-2,7.011173E1,5.603191E-2,3.1764098E-2,1.5033371E1,-7.413036E-3,1.8129572E-2,3.641314E-2,7.9356115E-3,-2.9679356E-2,5.9548824E-4],"split_indices":[0,4,9,1,13,1,5,2,12,1,6,10,4,6,17,0,9,18,17,6,4,7,13,13,0,15,9,0,0,0,4,0,0,4,16,3,3,3,12,14,16,0,0,1,7,0,0,6,0,0,0,0,0,0,0,13,12,0,13,1,9,0,0,0,8,6,0,0,0,9,0,13,1,6,0,1,14,16,0,0,0,0,15,0,0,0,0,17,0,3,16,15,13,12,0,1,0,0,10,0,1,0,0,0,0,9,0,3,0,11,0,0,0,0,0,2,14,0,0,0,18,0,0,0,0,0,9,0,0,0,0,12,0,0,0,2,0,3,0,0,17,0,0,0,0,0,0],"split_type":[0,0,0,0,0,0,0,0,0,0,0,0,0,0,0,0,0,0,0,0,0,0,0,0,0,0,0,0,0,0,0,0,0,0,0,0,0,0,0,0,0,0,0,0,0,0,0,0,0,0,0,0,0,0,0,0,0,0,0,0,0,0,0,0,1,0,0,0,0,0,0,0,0,0,0,0,0,0,0,0,0,0,0,0,0,0,0,0,0,0,0,0,0,0,0,0,0,0,0,0,0,0,0,0,0,0,0,0,0,0,0,0,0,0,0,0,0,0,0,0,0,0,0,0,0,0,0,0,0,0,0,0,0,0,0,0,0,0,0,0,0,0,0,0,0,0,0],"sum_hessian":[1.112E3,8.14E2,2.98E2,2.93E2,5.21E2,2.44E2,5.4E1,8.9E1,2.04E2,2.46E2,2.75E2,1.66E2,7.8E1,2.7E1,2.7E1,7.3E1,1.6E1,9.7E1,1.07E2,4.2E1,2.04E2,2.4E1,2.51E2,1.59E2,7E0,6.1E1,1.7E1,1.2E1,1.5E1,7E0,2E1,8E0,8E0,1.6E1,8.1E1,2.6E1,8.1E1,2E1,2.2E1,1.88E2,1.6E1,1.2E1,1.2E1,1.61E2,9E1,1.5E1,1.44E2,5.4E1,7E0,1E1,7E0,1.3E1,7E0,9E0,7E0,5.9E1,2.2E1,7E0,1.9E1,6.5E1,1.6E1,1.1E1,9E0,7E0,1.5E1,1.75E2,1.3E1,7E0,9E0,5.1E1,1.1E2,3E1,6E1,2.8E1,2.6E1,4.3E1,1.6E1,1.5E1,7E0,8E0,1.1E1,1.2E1,5.3E1,8E0,8E0,7E0,8E0,4.1E1,1.34E2,2.4E1,2.7E1,6.3E1,4.7E1,2.2E1,8E0,5.2E1,8E0,7E0,2.1E1,1.1E1,3.2E1,7E0,9E0,7E0,8E0,3.7E1,1.6E1,3E1,1.1E1,1.4E1,1E1,1.5E1,1.2E1,7E0,5.6E1,2.9E1,1.8E1,1E1,1.2E1,1.3E1,3.9E1,1.2E1,9E0,8E0,2.4E1,9E0,2.8E1,1.8E1,1.2E1,7E0,7E0,2.2E1,7E0,9E0,9E0,1.6E1,2.3E1,2.1E1,7E0,7E0,1.5E1,9E0,7E0,1.4E1,7E0,8E0,7E0],"tree_param":{"num_deleted":"0","num_feature":"20","num_nodes":"147","size_leaf_vector":"1"}},{"base_weights":[1.9067355E-2,-1.4702855E0,7.019565E-1,-1.8320853E0,-7.9760015E-1,1.3096938E0,-7.582152E-1,-7.822149E-1,-2E0,-1.2078034E0,-0E0,7.899014E-1,1.8827335E0,4.2258956E-2,-8.55663E-1,-1.3620595E0,1.2008024E-2,-2.953423E-3,-2E0,-2.7722487E-1,-1.8466755E0,3.4744912E-1,-7.4027914E-1,3.428713E-1,1.5264564E0,2E0,1.1944146E0,-2.7967572E-1,-1.327282E0,-8.555428E-3,-6.411795E-2,2.085675E-2,-1.6948605E-2,-7.2551735E-2,-1.1720806E0,-5.846829E-1,2.4786487E-2,-7.2551735E-2,-7.521051E-1,-0E0,3.0075576E-2,-3.3906534E-2,-9.150676E-3,-3.7877295E-2,4.3445736E-1,1.0713958E0,7.2551735E-2,7.2551735E-2,2.7359404E-2,7.629091E-1,7.2551735E-2,-9.0804774E-1,1.4916961E-1,-1.6838086E0,-8.9226276E-2,-0E0,-1.4264729E0,-2.9493082E-2,-0E0,-3.9639376E-2,-2.8518464E-3,-1.1442033E-2,1.3680791E-2,-4.6726984E-1,5.9943694E-1,1.4409087E0,4.325003E-1,9.1562635E-1,-2.2370929E-2,-1.1745611E0,3.210762E-3,8.552842E-1,-2.1778412E-1,-8.7733096E-1,-1.9448603E0,-3.356121E-2,4.0544865E-1,-9.6105105E-1,-7.2551735E-2,-9.2813534E-1,1.4717599E-2,6.9189525E-1,-9.034478E-3,9.903997E-3,1.6781383E0,-7.7434974E-3,3.213262E-2,1.1348608E0,-1.5299165E-1,-6.0494993E-2,-8.795773E-3,4.8408356E-2,8.0191195E-3,2.1050248E-2,-5.1280236E-1,-1.1599509E0,-1.9271302E-3,-2E0,-2.2158714E-2,2.4601001E-2,-0E0,-1.1986792E-2,-1.0573255E0,-4.3162964E-2,-1.4790135E-2,-9.810492E-3,7.9784685E-1,3.5424408E-2,6.948948E-2,4.0534553E-3,1.3310999E0,-1.5627036E-2,2.1500457E-3,-3.724347E-2,-0E0,-5.192663E-2,-1.4548161E-2,-1.1536665E0,-7.2551735E-2,-4.6790317E-2,-1.3537044E-2,1.4025961E0,5.5958116E-1,1.7419059E0,7.7414674E-1,1.0747797E-2,-8.153321E-3,-5.4736752E-2,-1.4762951E-2,1.8937213E-2,6.1519068E-2,4.774543E-2,3.6447665E-1,3.557643E-2,7.2551735E-2,9.126189E-1,1.1101597E-2,-1.6085661E-3,2.3028063E-2,3.8726762E-2,1.4793967E-2],"categories":[],"categories_nodes":[],"categories_segments":[],"categories_sizes":[],"default_left":[0,0,0,0,0,0,0,0,0,0,0,0,0,0,0,0,0,0,0,0,0,0,0,0,1,0,1,0,0,0,0,0,0,0,0,0,0,0,0,0,0,0,0,0,0,0,0,0,0,0,0,0,0,0,0,0,0,0,0,0,0,0,0,1,0,0,0,0,0,0,0,0,0,0,0,0,0,0,0,0,0,0,0,0,0,0,0,0,0,0,0,0,0,0,0,0,0,0,0,0,0,0,1,0,0,0,0,0,0,0,0,0,0,0,0,0,0,0,0,0,0,0,0,0,1,0,0,0,0,0,0,0,0,0,0,0,0,0,0,0,0],"id":4,"left_children":[1,3,5,7,9,11,13,15,17,19,21,23,25,-1,27,29,31,-1,33,35,37,39,41,43,45,47,49,51,53,-1,-1,-1,-1,-1,55,57,-1,-1,59,61,-1,-1,-1,-1,63,65,-1,-1,-1,67,-1,69,71,73,75,-1,77,-1,-1,-1,-1,-1,-1,79,81,83,85,87,-1,89,-1,91,93,95,97,-1,99,101,-1,103,-1,105,-1,-1,107,-1,-1,109,111,-1,-1,-1,-1,-1,113,115,-1,117,-1,-1,-1,-1,119,-1,-1,-1,121,-1,-1,-1,123,-1,-1,-1,125,-1,-1,127,-1,-1,-1,129,131,133,135,-1,-1,-1,-1,-1,-1,-1,137,-1,-1,139,-1,-1,-1,-1,-1],"loss_changes":[1.135303E3,8.122296E1,6.8305396E2,4.7852905E1,4.1422325E1,1.5744727E2,4.6812454E1,2.2978E1,3.2270996E1,4.8067574E1,1.5037943E1,9.398776E1,7.211926E1,0E0,5.779074E1,1.0345779E1,8.279922E0,0E0,2.9486755E1,1.3855055E1,1.4205048E1,6.9340816E0,7.013569E-1,2.602037E1,3.1300568E1,1.1850464E1,5.0508224E1,2.9925072E1,5.059308E1,0E0,0E0,0E0,0E0,0E0,1.9418678E1,4.8632584E0,0E0,0E0,3.4581509E0,4.0320287E0,0E0,0E0,0E0,0E0,2.7990501E1,1.6275894E1,0E0,0E0,0E0,2.3472702E1,0E0,1.3276855E1,1.8800234E1,1.440033E1,1.6010078E1,0E0,1.0366386E1,0E0,0E0,0E0,0E0,0E0,0E0,1.41455E1,1.3240978E1,1.084079E1,1.1912983E1,2.282434E1,0E0,1.4407902E1,0E0,5.946903E0,1.2116609E1,5.702135E0,5.717102E0,0E0,3.0500772E0,7.245331E-1,0E0,1.2236042E0,0E0,1.5684143E1,0E0,0E0,1.284256E0,0E0,0E0,1.3767815E1,2.0564177E0,0E0,0E0,0E0,0E0,0E0,9.777189E0,2.139925E0,0E0,4.779434E0,0E0,0E0,0E0,0E0,2.7594757E0,0E0,0E0,0E0,1.6401405E1,0E0,0E0,0E0,1.06679E1,0E0,0E0,0E0,2.425677E0,0E0,0E0,4.082962E0,0E0,0E0,0E0,5.664749E0,1.3335527E1,4.8214874E0,1.0409012E0,0E0,0E0,0E0,0E0,0E0,0E0,0E0,1.0041834E1,0E0,0E0,2.848301E-1,0E0,0E0,0E0,0E0,0E0],"parents":[2147483647,0,0,1,1,2,2,3,3,4,4,5,5,6,6,7,7,8,8,9,9,10,10,11,11,12,12,14,14,15,15,16,16,18,18,19,19,20,20,21,21,22,22,23,23,24,24,25,25,26,26,27,27,28,28,34,34,35,35,38,38,39,39,44,44,45,45,49,49,51,51,52,52,53,53,54,54,56,56,63,63,64,64,65,65,66,66,67,67,69,69,71,71,72,72,73,73,74,74,76,76,77,77,79,79,81,81,84,84,87,87,88,88,94,94,95,95,97,97,102,102,106,106,110,110,114,114,117,117,121,121,122,122,123,123,124,124,132,132,135,135],"right_children":[2,4,6,8,10,12,14,16,18,20,22,24,26,-1,28,30,32,-1,34,36,38,40,42,44,46,48,50,52,54,-1,-1,-1,-1,-1,56,58,-1,-1,60,62,-1,-1,-1,-1,64,66,-1,-1,-1,68,-1,70,72,74,76,-1,78,-1,-1,-1,-1,-1,-1,80,82,84,86,88,-1,90,-1,92,94,96,98,-1,100,102,-1,104,-1,106,-1,-1,108,-1,-1,110,112,-1,-1,-1,-1,-1,114,116,-1,118,-1,-1,-1,-1,120,-1,-1,-1,122,-1,-1,-1,124,-1,-1,-1,126,-1,-1,128,-1,-1,-1,130,132,134,136,-1,-1,-1,-1,-1,-1,-1,138,-1,-1,140,-1,-1,-1,-1,-1],"split_conditions":[1.344202E1,2.205558E-2,3.833333E0,-9.439832E0,2.3935684E4,2.021976E1,-9.29388E0,5.749829E2,-7.6452255E0,1.083333E0,3.416667E0,2.205558E-2,-7.2347484E0,4.2258956E-2,8.166667E0,2.7174336E4,2.333333E0,-2.953423E-3,1.2136537E1,3.0494992E2,1.2783309E1,1.5115484E1,1.2172657E1,5.2438667E3,-8.357771E0,3.6415596E1,1.55637455E1,1.5348355E4,2.899656E4,-8.555428E-3,-6.411795E-2,2.085675E-2,-1.6948605E-2,-7.2551735E-2,-7.4617915E0,3.9531948E1,2.4786487E-2,-7.2551735E-2,4.156552E1,3.988567E1,3.0075576E-2,-3.3906534E-2,-9.150676E-3,-3.7877295E-2,9.054325E0,7.9440865E1,7.2551735E-2,7.2551735E-2,2.7359404E-2,6.2138866E1,7.2551735E-2,-5.973251E0,6.6E2,1.85E2,2.7289984E1,-0E0,7.666667E0,-2.9493082E-2,-0E0,-3.9639376E-2,-2.8518464E-3,-1.1442033E-2,1.3680791E-2,2.6072604E2,2.5737402E1,1.6965353E1,5.6426952E1,1.1216901E3,-2.2370929E-2,1.583377E1,3.210762E-3,7.6367816E2,2.3391E4,2.180442E1,2.2776573E1,-3.356121E-2,3.5315207E4,1.69558E1,-7.2551735E-2,1.083333E0,1.4717599E-2,3.0206715E1,-9.034478E-3,9.903997E-3,7.103976E2,-7.7434974E-3,3.213262E-2,1.461242E1,8.2940285E1,-6.0494993E-2,-8.795773E-3,4.8408356E-2,8.0191195E-3,2.1050248E-2,3.253934E4,4.3174633E1,-1.9271302E-3,-8.031473E0,-2.2158714E-2,2.4601001E-2,-0E0,-1.1986792E-2,9.213285E1,-4.3162964E-2,-1.4790135E-2,-9.810492E-3,-8.609278E0,3.5424408E-2,6.948948E-2,4.0534553E-3,1.416667E0,-1.5627036E-2,2.1500457E-3,-3.724347E-2,-8.952533E0,-5.192663E-2,-1.4548161E-2,1.7562998E1,-7.2551735E-2,-4.6790317E-2,-1.3537044E-2,3.4019806E1,6.66667E-1,-4.5258493E0,-9.351368E0,1.0747797E-2,-8.153321E-3,-5.4736752E-2,-1.4762951E-2,1.8937213E-2,6.1519068E-2,4.774543E-2,1.646356E1,3.557643E-2,7.2551735E-2,2.2387007E1,1.1101597E-2,-1.6085661E-3,2.3028063E-2,3.8726762E-2,1.4793967E-2],"split_indices":[1,2,0,19,9,6,13,12,11,0,0,2,19,0,0,9,0,0,1,12,1,2,1,9,11,14,1,9,9,0,0,0,0,0,19,4,0,0,4,4,0,0,0,0,6,3,0,0,0,14,0,13,7,7,14,0,0,0,0,0,0,0,0,16,5,3,16,12,0,1,0,12,9,6,5,0,9,5,0,0,0,4,0,0,12,0,0,1,4,0,0,0,0,0,9,4,0,13,0,0,0,0,16,0,0,0,13,0,0,0,0,0,0,0,19,0,0,10,0,0,0,15,0,19,11,0,0,0,0,0,0,0,1,0,0,10,0,0,0,0,0],"split_type":[0,0,0,0,0,0,0,0,0,0,0,0,0,0,0,0,0,0,0,0,0,0,0,0,0,0,0,0,0,0,0,0,0,0,0,0,0,0,0,0,0,0,0,0,0,0,0,0,0,0,0,0,0,0,0,0,0,0,0,0,0,0,0,0,0,0,0,0,0,0,0,0,0,0,0,0,0,0,0,0,0,0,0,0,0,0,0,0,0,0,0,0,0,0,0,0,0,0,0,0,0,0,0,0,0,0,0,0,0,0,0,0,0,0,0,0,0,0,0,0,0,0,0,0,0,0,0,0,0,0,0,0,0,0,0,0,0,0,0,0,0],"sum_hessian":[1.108E3,3.47E2,7.61E2,2.22E2,1.25E2,5.38E2,2.23E2,4.2E1,1.8E2,8.1E1,4.4E1,2.86E2,2.52E2,9E0,2.14E2,2.4E1,1.8E1,1E1,1.7E2,3.5E1,4.6E1,3E1,1.4E1,1.81E2,1.05E2,1.21E2,1.31E2,9.9E1,1.15E2,8E0,1.6E1,9E0,9E0,1.13E2,5.7E1,2.8E1,7E0,3.1E1,1.5E1,1.8E1,1.2E1,7E0,7E0,9E0,1.72E2,7.4E1,3.1E1,1.08E2,1.3E1,9.4E1,3.7E1,4E1,5.9E1,8.8E1,2.7E1,1E1,4.7E1,2E1,8E0,8E0,7E0,1.1E1,7E0,2.5E1,1.47E2,4.4E1,3E1,8.6E1,8E0,3.2E1,8E0,2E1,3.9E1,2.5E1,6.3E1,1E1,1.7E1,3.2E1,1.5E1,1.7E1,8E0,1.34E2,1.3E1,9E0,3.5E1,1.2E1,1.8E1,7.2E1,1.4E1,1.9E1,1.3E1,9E0,1.1E1,9E0,3E1,1.7E1,8E0,5.6E1,7E0,1E1,7E0,7E0,2.5E1,8E0,9E0,1.2E1,1.22E2,1.3E1,2.2E1,1.3E1,5.9E1,7E0,7E0,1.4E1,1.6E1,1E1,7E0,2E1,3.6E1,1.6E1,9E0,3E1,9.2E1,3E1,2.9E1,7E0,9E0,1.1E1,9E0,1E1,2E1,1.5E1,7.7E1,1.5E1,1.5E1,1.9E1,1E1,3E1,4.7E1,1.1E1,8E0],"tree_param":{"num_deleted":"0","num_feature":"20","num_nodes":"141","size_leaf_vector":"1"}},{"base_weights":[-1.6005421E-2,4.455524E-1,-1.174158E0,9.926306E-1,-9.1989464E-1,-1.8893884E0,-4.2161745E-1,-9.986272E-2,1.4495091E0,-1.5424631E0,-1.5616079E-1,-2E0,-9.8437697E-1,-6.601986E-1,9.9069315E-1,4.8706657E-1,-5.4074985E-1,5.644871E-1,1.776364E0,-7.2551735E-2,-1.0286245E0,-1.0598581E0,3.086852E-1,-1.6159384E-2,-2E0,-2.3846442E-1,-6.5122426E-2,2.7449515E-1,-1.4863043E0,5.647734E-2,-0E0,-2.936975E-2,7.377507E-1,-7.2551735E-2,-2.651165E-1,1.284746E0,1.769393E-1,9.705288E-1,2E0,-1.2345014E0,9.163476E-3,-1.3526362E0,-4.660592E-3,-3.1834343E-1,6.630298E-1,-7.2551735E-2,-1.1618909E0,-2.8302893E-2,5.872752E-3,-2.429517E-1,1.0220004E0,-1.6993567E0,-5.0312364E-3,3.081014E-1,4.7619376E-2,6.7936474E-1,-4.808737E-1,5.417603E-1,6.6325784E-2,-8.032892E-1,5.0103116E-1,-0E0,1.0829343E0,2E0,3.9293802E-1,-1.3882068E0,-4.390028E-3,-8.966612E-1,-6.230562E-2,1.5826749E-2,-6.952901E-1,9.990401E-1,2.3888335E-1,-5.3338695E-2,-1.2830698E-2,-5.8837944E-1,2.3829825E-1,4.6029884E-1,5.4230023E-2,-1.9737352E0,-6.4522576E-1,-1.4919365E-2,3.754539E-2,-0E0,4.4381753E-2,-6.507101E-1,2.1687198E-2,2.4069754E-2,7.969413E-3,-5.888231E-2,-0E0,1.6904054E-2,1.046733E0,7.0833707E-1,1.641221E0,2E0,-8.521981E-2,9.359285E-1,-1.3954805E-2,-1.6122864E0,1.6086396E-3,-8.949741E-3,-4.5168146E-2,-3.128438E-2,-6.990856E-3,1.1711184E0,1.1638165E-2,-1.22043915E-1,3.5875656E-2,-7.509174E-1,-5.583251E-4,-2.3143548E-3,2.235611E-2,2.3308042E-2,1.3262965E-3,-2.7304716E-2,-7.2551735E-2,-4.3345094E-2,-0E0,3.757261E-2,-5.6980205E-1,1.2224667E-1,-9.616019E-1,-1.6489333E-2,1.6607247E-2,2.524999E-2,-3.607541E-1,4.3643354E-3,1.3631911E0,-0E0,1.0190415E0,7.2052054E-2,2.7574293E-2,2.6991839E-2,2E0,-4.1861713E-2,3.2673933E-2,5.8489013E-2,-0E0,-1.773226E-2,-1.8369895E0,5.310159E-2,1.965181E-2,8.783904E-3,-2.311304E-2,-3.4689117E-2,-7.456543E-3,-4.5359336E-2,-0E0,1.4364168E-2,-3.8893E-3,-6.798424E-1,-4.7459476E-2,-2.9817034E-2,-0E0,1.8960625E-2,6.011631E-2,1.8024046E-2,-1.5774058E-2,1.2976239E0,-0E0,7.2551735E-2,2.4115901E-2,-2E0,-1.080965E0,-3.050142E-2,-1.6039567E-2,5.3131774E-2,1.8753307E-2,-2.3414616E-2,-7.2551735E-2,-5.1540215E-2,-1.0455917E-2],"categories":[0,1,2],"categories_nodes":[97],"categories_segments":[0],"categories_sizes":[3],"default_left":[0,0,0,0,0,0,0,0,0,0,0,0,0,0,0,0,0,0,0,0,0,0,0,0,0,0,0,1,0,0,0,0,1,0,0,0,0,0,0,0,0,0,0,0,1,0,0,0,0,0,0,0,0,1,0,0,0,0,0,0,0,0,1,0,0,1,0,0,0,0,0,0,0,0,0,0,0,0,0,0,0,0,0,0,0,0,0,0,0,0,0,0,0,0,0,0,0,1,0,0,0,0,0,0,0,0,0,0,0,0,0,0,0,0,0,0,0,0,0,0,0,0,0,0,0,0,0,0,0,0,0,0,0,0,0,0,0,0,0,0,0,0,0,0,0,0,0,0,0,0,0,1,0,0,0,0,0,0,0,0,0,0,0,0,0,0,0,0,0,0,0,0,0],"id":5,"left_children":[1,3,5,7,9,11,13,15,17,19,21,23,25,27,29,31,33,35,37,-1,39,41,43,-1,45,47,-1,49,51,-1,-1,-1,53,-1,55,57,59,61,63,65,-1,67,-1,69,71,-1,73,-1,-1,75,77,79,-1,81,-1,83,85,87,-1,89,91,-1,93,95,97,99,-1,101,-1,-1,103,105,107,-1,-1,109,111,113,-1,115,117,119,-1,-1,-1,121,123,-1,-1,-1,-1,125,127,129,131,133,135,137,-1,139,-1,-1,-1,-1,-1,141,-1,143,-1,145,-1,-1,-1,-1,-1,-1,-1,-1,-1,-1,147,149,151,-1,-1,-1,153,-1,155,157,159,-1,-1,-1,161,-1,-1,-1,-1,-1,163,-1,-1,-1,-1,-1,-1,-1,-1,-1,-1,165,-1,-1,-1,-1,-1,-1,-1,167,-1,-1,-1,169,171,-1,-1,-1,-1,-1,-1,-1,-1],"loss_changes":[6.019024E2,6.023051E2,1.699653E2,2.8847522E2,1.083575E2,2.6241638E1,5.737233E1,4.6604168E1,1.14026794E2,5.221042E1,4.860461E1,1.9725098E1,2.226088E1,1.1120162E2,1.5475252E1,2.730752E1,4.125197E1,3.1435463E1,6.3588623E1,0E0,2.751603E1,9.153591E0,1.803237E1,0E0,2.3781128E0,7.3701515E0,0E0,2.8992918E1,1.9679962E1,0E0,0E0,0E0,1.4833675E1,0E0,2.015952E1,1.2936531E1,2.747465E1,9.147636E0,5.2838684E1,1.2755753E1,0E0,7.7305603E-1,0E0,1.0091696E1,6.0958805E0,0E0,3.096939E0,0E0,0E0,8.544656E0,5.805504E0,1.45138855E1,0E0,1.198486E1,0E0,7.571254E0,7.293915E0,2.5316238E-1,0E0,1.3860901E1,1.5975166E1,0E0,1.3158859E1,6.581012E1,1.3955513E1,2.516101E1,0E0,3.1336422E0,0E0,0E0,9.0060234E-1,1.4481754E0,9.733616E0,0E0,0E0,1.9342794E0,3.4932287E0,1.0497084E0,0E0,5.7005157E0,7.2578573E0,2.1226622E1,0E0,0E0,0E0,1.5512518E1,6.2835364E0,0E0,0E0,0E0,0E0,1.2057042E1,7.039665E0,1.1045898E1,4.1781464E0,2.7567139E0,2.3898117E1,1.1401453E1,0E0,1.2713699E1,0E0,0E0,0E0,0E0,0E0,9.711304E-1,0E0,5.699554E0,0E0,1.2544556E0,0E0,0E0,0E0,0E0,0E0,0E0,0E0,0E0,0E0,0E0,1.065109E1,2.2278092E0,1.973072E0,0E0,0E0,0E0,4.888026E0,0E0,2.1777077E0,6.3661814E0,9.278534E0,0E0,0E0,0E0,9.88031E0,0E0,0E0,0E0,0E0,0E0,3.1142578E0,0E0,0E0,0E0,0E0,0E0,0E0,0E0,0E0,0E0,0E0,1.5712547E-1,0E0,0E0,0E0,0E0,0E0,0E0,0E0,1.0217628E0,0E0,0E0,0E0,4.982666E0,3.5285034E0,0E0,0E0,0E0,0E0,0E0,0E0,0E0,0E0],"parents":[2147483647,0,0,1,1,2,2,3,3,4,4,5,5,6,6,7,7,8,8,9,9,10,10,11,11,12,12,13,13,14,14,15,15,16,16,17,17,18,18,20,20,21,21,22,22,24,24,25,25,27,27,28,28,32,32,34,34,35,35,36,36,37,37,38,38,39,39,41,41,43,43,44,44,46,46,49,49,50,50,51,51,53,53,55,55,56,56,57,57,59,59,60,60,62,62,63,63,64,64,65,65,67,67,70,70,71,71,72,72,75,75,76,76,77,77,79,79,80,80,81,81,85,85,86,86,91,91,92,92,93,93,94,94,95,95,96,96,97,97,99,99,105,105,107,107,109,109,120,120,121,121,122,122,126,126,128,128,129,129,130,130,134,134,140,140,151,151,159,159,163,163,164,164],"right_children":[2,4,6,8,10,12,14,16,18,20,22,24,26,28,30,32,34,36,38,-1,40,42,44,-1,46,48,-1,50,52,-1,-1,-1,54,-1,56,58,60,62,64,66,-1,68,-1,70,72,-1,74,-1,-1,76,78,80,-1,82,-1,84,86,88,-1,90,92,-1,94,96,98,100,-1,102,-1,-1,104,106,108,-1,-1,110,112,114,-1,116,118,120,-1,-1,-1,122,124,-1,-1,-1,-1,126,128,130,132,134,136,138,-1,140,-1,-1,-1,-1,-1,142,-1,144,-1,146,-1,-1,-1,-1,-1,-1,-1,-1,-1,-1,148,150,152,-1,-1,-1,154,-1,156,158,160,-1,-1,-1,162,-1,-1,-1,-1,-1,164,-1,-1,-1,-1,-1,-1,-1,-1,-1,-1,166,-1,-1,-1,-1,-1,-1,-1,168,-1,-1,-1,170,172,-1,-1,-1,-1,-1,-1,-1,-1],"split_conditions":[1.74E3,3.5E0,1.2788602E1,4.054808E1,1.9107916E4,7.313998E-1,4.08016E4,7.6181816E1,1.4920819E1,1.261968E1,1.4718621E1,3.0156267E1,8.083333E0,5.666667E0,-8.167772E0,4.5606024E2,1.0860081E1,-8.208538E0,5.8355373E1,-7.2551735E-2,1.2733615E2,2.9426908E1,4.5787846E1,-1.6159384E-2,1.2136537E1,3.0494992E2,-6.5122426E-2,1.419347E1,5.88E3,5.647734E-2,-0E0,-2.936975E-2,1.4014332E1,-7.2551735E-2,-3.9940147E0,5.8148834E2,1.1992134E1,8.660191E1,-6.2825837E0,1.44E3,9.163476E-3,-5.406152E0,-4.660592E-3,-1.0013173E0,-1.8290531E1,-7.2551735E-2,2.501196E1,-2.8302893E-2,5.872752E-3,7.2924243E2,1.6058008E1,2.899656E4,-5.0312364E-3,1.8709436E2,4.7619376E-2,5.1E2,1.4354261E1,6.116763E0,6.6325784E-2,5.1E2,1.8658E1,-0E0,-1.8928566E1,1.1216901E3,1.14474884E2,1.5790532E1,-4.390028E-3,5.666667E0,-6.230562E-2,1.5826749E-2,6.45E2,8.102785E2,1.8811893E1,-5.3338695E-2,-1.2830698E-2,2.0694897E2,5.34E3,1.4920819E1,5.4230023E-2,-8.742614E0,1.81296E1,-9.114351E0,3.754539E-2,-0E0,4.4381753E-2,-9.533203E0,5.500038E2,2.4069754E-2,7.969413E-3,-5.888231E-2,-0E0,2.9090527E1,-9.191837E0,1.3221561E1,1.083333E0,1.3660807E1,3.1707682E4,1E-45,-1.3954805E-2,4.75E0,1.6086396E-3,-8.949741E-3,-4.5168146E-2,-3.128438E-2,-6.990856E-3,2.5267048E1,1.1638165E-2,3.4984766E4,3.5875656E-2,1.675874E4,-5.583251E-4,-2.3143548E-3,2.235611E-2,2.3308042E-2,1.3262965E-3,-2.7304716E-2,-7.2551735E-2,-4.3345094E-2,-0E0,3.757261E-2,6.3131315E-1,2.2831863E1,9.702794E0,-1.6489333E-2,1.6607247E-2,2.524999E-2,-6.873154E0,4.3643354E-3,2.7663566E4,1.5E1,5.6988487E1,7.2052054E-2,2.7574293E-2,2.6991839E-2,9.9750626E1,-4.1861713E-2,3.2673933E-2,5.8489013E-2,-0E0,-1.773226E-2,1.3942457E4,5.310159E-2,1.965181E-2,8.783904E-3,-2.311304E-2,-3.4689117E-2,-7.456543E-3,-4.5359336E-2,-0E0,1.4364168E-2,-3.8893E-3,1.2402303E1,-4.7459476E-2,-2.9817034E-2,-0E0,1.8960625E-2,6.011631E-2,1.8024046E-2,-1.5774058E-2,-5.9691005E0,-0E0,7.2551735E-2,2.4115901E-2,1.3410159E1,8.484376E0,-3.050142E-2,-1.6039567E-2,5.3131774E-2,1.8753307E-2,-2.3414616E-2,-7.2551735E-2,-5.1540215E-2,-1.0455917E-2],"split_indices":[7,0,1,4,9,2,9,3,1,1,1,4,0,0,19,12,1,13,15,0,15,10,4,0,1,12,0,1,7,0,0,0,1,0,11,12,1,18,13,7,0,13,0,11,11,0,15,0,0,12,1,9,0,16,0,7,10,10,0,7,5,0,11,12,15,1,0,0,0,0,7,12,5,0,0,16,7,1,0,13,5,11,0,0,0,19,12,0,0,0,0,14,19,10,0,5,9,8,0,0,0,0,0,0,0,14,0,9,0,9,0,0,0,0,0,0,0,0,0,0,3,15,17,0,0,0,13,0,9,7,4,0,0,0,3,0,0,0,0,0,9,0,0,0,0,0,0,0,0,0,0,1,0,0,0,0,0,0,0,13,0,0,0,1,17,0,0,0,0,0,0,0,0],"split_type":[0,0,0,0,0,0,0,0,0,0,0,0,0,0,0,0,0,0,0,0,0,0,0,0,0,0,0,0,0,0,0,0,0,0,0,0,0,0,0,0,0,0,0,0,0,0,0,0,0,0,0,0,0,0,0,0,0,0,0,0,0,0,0,0,0,0,0,0,0,0,0,0,0,0,0,0,0,0,0,0,0,0,0,0,0,0,0,0,0,0,0,0,0,0,0,0,0,1,0,0,0,0,0,0,0,0,0,0,0,0,0,0,0,0,0,0,0,0,0,0,0,0,0,0,0,0,0,0,0,0,0,0,0,0,0,0,0,0,0,0,0,0,0,0,0,0,0,0,0,0,0,0,0,0,0,0,0,0,0,0,0,0,0,0,0,0,0,0,0,0,0,0,0],"sum_hessian":[1.114E3,7.97E2,3.17E2,5.7E2,2.27E2,1.6E2,1.57E2,1.68E2,4.02E2,1.23E2,1.04E2,1.24E2,3.6E1,1.36E2,2.1E1,7.1E1,9.7E1,1.11E2,2.91E2,3.1E1,9.2E1,3.5E1,6.9E1,1.1E1,1.13E2,2.1E1,1.5E1,6.4E1,7.2E1,1.3E1,8E0,1E1,6.1E1,1.2E1,8.5E1,3.6E1,7.5E1,8.2E1,2.09E2,8E1,1.2E1,2.5E1,1E1,2.4E1,4.5E1,9.6E1,1.7E1,9E0,1.2E1,3.8E1,2.6E1,6.1E1,1.1E1,3.8E1,2.3E1,1.4E1,7.1E1,1.8E1,1.8E1,1.7E1,5.8E1,9E0,7.3E1,1.86E2,2.3E1,6.9E1,1.1E1,1.6E1,9E0,7E0,1.7E1,2.2E1,2.3E1,1E1,7E0,2.3E1,1.5E1,1.5E1,1.1E1,4.6E1,1.5E1,2.7E1,1.1E1,7E0,7E0,5.4E1,1.7E1,9E0,9E0,7E0,1E1,3.3E1,2.5E1,4.8E1,2.5E1,1.72E2,1.4E1,1.4E1,9E0,6E1,9E0,8E0,8E0,1E1,7E0,1.5E1,7E0,1.6E1,7E0,1.6E1,7E0,8E0,7E0,8E0,7E0,9E0,3.7E1,7E0,8E0,8E0,1.9E1,1.5E1,3.9E1,7E0,1E1,1.2E1,2.1E1,8E0,1.7E1,1.6E1,3.2E1,1.5E1,1E1,7E0,1.65E2,7E0,7E0,7E0,7E0,1.2E1,4.8E1,7E0,8E0,9E0,7E0,9E0,7E0,8E0,1.1E1,8E0,7E0,2.7E1,1.2E1,8E0,1.3E1,7E0,1E1,8E0,8E0,2.4E1,8E0,1.55E2,1E1,3.2E1,1.6E1,1E1,1.7E1,1.7E1,7E0,7E0,2.5E1,9E0,7E0],"tree_param":{"num_deleted":"0","num_feature":"20","num_nodes":"173","size_leaf_vector":"1"}},{"base_weights":[-2.6766893E-3,-1.5581897E0,5.7321584E-1,-1.6325548E0,3.8599905E-2,2.9587156E-1,1.9116281E0,-1.259912E0,-2E0,8.596519E-1,-8.2205826E-1,2E0,1.4128599E-1,-2.2659667E-1,-1.5225974E0,-3.22454E-2,-7.2551735E-2,6.9250476E-1,1.8408408E0,-1.4382813E0,-3.5458937E-1,7.237615E-1,7.2551735E-2,6.691436E-1,-3.5488777E-2,-7.9626995E-1,2.360689E-1,-2E0,-8.04669E-1,1.1265406E-1,1.0262903E0,2E0,3.1833626E-2,-4.3136725E-1,-1.5848604E0,-1.2743165E-1,-1.6229663E0,-0E0,5.0977223E-2,1.0183454E0,-0E0,-4.8076104E-2,-0E0,-9.704058E-3,2.6612159E-2,-7.2551735E-2,-9.665619E-1,-9.411092E-1,-0E0,-4.7735617E-1,3.9548838E-1,8.1338674E-1,2E0,1.0994571E0,7.2551735E-2,-0E0,-2.873201E-2,-1.7577629E0,-1.795025E-2,-6.8895113E-1,4.6141735E-1,-2.266433E-2,-7.2051845E-2,1.4888855E-2,4.811282E-2,-3.8669016E-3,-5.683013E-2,-4.6006385E-2,-7.536324E-1,-9.0272975E-1,2.573832E-1,-1.553303E-2,5.2854365E-1,4.1285178E-1,9.7661966E-1,3.0052131E-2,2E0,1.6099505E-2,5.3320628E-2,-2E0,-1.279858E0,-0E0,-1.327775E0,7.266601E-1,-2.4807712E-1,-2.718531E-1,-9.559298E-1,-8.210891E-3,-1.0687339E0,2.1626566E-2,-4.1575017E-3,6.3894975E-1,-1.7035466E-2,2.0404205E-2,8.8498324E-1,1.326757E0,4.4697908E-1,7.2551735E-2,3.0169876E-2,-3.1185798E-2,-7.2551735E-2,-1.4647361E0,-1.337031E-2,-1.5408176E-2,2.7969334E-1,-6.465371E-2,-1.4303649E-2,3.0736518E-1,1.2028143E0,5.055831E-3,-2.4550684E-2,-0E0,-2.1093246E-2,-2.0080624E-2,-4.3803737E-2,-4.5243453E-2,-1.929998E-2,1.1497309E-1,8.999244E-1,2.9524124E-1,-2.9327828E-1,4.2851787E-2,-0E0,1.680363E0,7.293476E-1,8.8020223E-1,-7.6321775E-1,-3.332977E-2,-7.243222E-2,1.8850343E-2,-0E0,-0E0,2.8489038E-2,5.5518083E-2,2.1517757E-2,-9.92675E-3,3.4432876E-1,1.0436524E-1,1.1512954E0,-7.540141E-4,2.482651E-2,-1.8388387E-2,-0E0,1.7875025E0,2.7240284E-2,-2.0916807E-3,9.474603E-1,4.8383698E-1,5.3075545E-2,-4.2985592E-2,-4.0389854E-3,5.662813E-3,-6.489503E-3,2.814918E-2,-4.061968E-4,9.800122E-3,-0E0,2.5911925E-2,5.1731274E-2,3.8217813E-2,7.2551735E-2,1.147497E-2,4.58659E-2,2.8226482E-2,-0E0],"categories":[0,1,2,4,6,8,9,10,11,0,1,3,4,5,6,7],"categories_nodes":[74,84],"categories_segments":[0,9],"categories_sizes":[9,7],"default_left":[0,0,1,0,0,0,0,0,0,0,0,0,0,0,0,0,0,0,0,0,0,0,0,0,0,0,0,0,1,0,1,0,0,0,0,0,1,0,0,0,0,0,0,0,0,0,0,0,0,0,0,0,0,0,0,0,0,0,0,0,0,0,0,0,0,0,0,0,0,0,1,0,1,0,1,0,0,0,0,0,1,0,0,0,1,0,0,0,0,0,0,0,0,0,0,0,0,0,0,0,0,0,0,0,0,0,0,0,0,0,0,0,0,0,0,0,0,0,0,0,0,0,0,0,0,0,0,0,0,0,0,0,0,0,0,0,0,0,0,0,0,0,0,0,0,0,0,1,0,0,0,0,0,0,0,0,0,0,0,0,0,0,0,0,0],"id":6,"left_children":[1,3,5,7,-1,9,11,13,15,17,19,21,23,25,27,-1,-1,29,31,33,35,37,-1,39,-1,41,43,45,47,49,51,53,-1,55,57,59,61,-1,-1,63,-1,-1,-1,-1,-1,-1,65,67,-1,69,71,73,75,77,-1,-1,-1,79,-1,81,83,-1,-1,-1,-1,-1,-1,-1,85,87,89,-1,91,93,95,-1,97,-1,-1,99,101,103,105,107,109,111,113,-1,115,-1,-1,117,-1,119,121,123,125,-1,-1,-1,-1,127,-1,-1,129,-1,-1,131,133,-1,-1,-1,-1,-1,-1,-1,-1,135,137,139,141,-1,-1,143,145,147,149,-1,-1,-1,-1,151,-1,-1,-1,-1,153,155,157,-1,-1,-1,-1,159,-1,-1,161,163,-1,-1,-1,-1,-1,-1,-1,-1,-1,-1,-1,-1,-1,-1,-1,-1,-1],"loss_changes":[1.00289996E3,6.574158E1,3.0124963E2,6.0230286E1,0E0,4.3077112E2,1.0468338E2,5.3081604E1,2.288208E0,7.1771515E1,6.442816E1,2.1116882E1,2.4559118E1,1.4288966E1,6.0390717E1,0E0,0E0,7.504091E1,5.0415955E0,1.1741104E1,3.896285E1,1.119204E1,0E0,7.3582067E0,0E0,1.1007775E1,8.797728E0,6.9500732E0,9.371353E0,2.6298107E1,5.5435944E1,4.3611755E0,0E0,3.5546114E0,1.2540466E1,4.14861E1,3.431549E0,0E0,0E0,1.6559868E0,0E0,0E0,0E0,0E0,0E0,0E0,8.3225E0,1.8540688E0,0E0,1.7349268E1,1.2858528E1,1.268573E1,2.3701172E0,2.8652554E0,0E0,0E0,0E0,1.6710663E0,0E0,2.9233625E1,1.2714733E1,0E0,0E0,0E0,0E0,0E0,0E0,0E0,3.9161186E0,2.443245E0,3.8479753E0,0E0,1.18794E1,1.2523396E1,2.573497E1,0E0,9.325409E-1,0E0,0E0,2.9804688E0,3.280178E0,5.2965384E0,1.1588619E1,7.833338E0,4.5959682E0,2.3533661E0,1.5273018E0,0E0,2.9646492E-1,0E0,0E0,1.0760857E1,0E0,4.809915E0,7.41868E0,1.5070419E1,3.7320107E1,0E0,0E0,0E0,0E0,2.669342E0,0E0,0E0,2.146113E0,0E0,0E0,4.765868E0,1.2188969E0,0E0,0E0,0E0,0E0,0E0,0E0,0E0,0E0,4.083568E0,9.855553E0,4.4934263E0,1.7667632E0,0E0,0E0,1.0880737E0,7.9683056E0,9.666824E0,4.2408466E0,0E0,0E0,0E0,0E0,1.2617708E0,0E0,0E0,0E0,0E0,5.081232E0,8.3345664E-1,2.1261406E0,0E0,0E0,0E0,0E0,5.2703705E0,0E0,0E0,4.8113728E0,5.7165184E0,0E0,0E0,0E0,0E0,0E0,0E0,0E0,0E0,0E0,0E0,0E0,0E0,0E0,0E0,0E0,0E0,0E0],"parents":[2147483647,0,0,1,1,2,2,3,3,5,5,6,6,7,7,8,8,9,9,10,10,11,11,12,12,13,13,14,14,17,17,18,18,19,19,20,20,21,21,23,23,25,25,26,26,27,27,28,28,29,29,30,30,31,31,33,33,34,34,35,35,36,36,39,39,46,46,47,47,49,49,50,50,51,51,52,52,53,53,57,57,59,59,60,60,68,68,69,69,70,70,72,72,73,73,74,74,76,76,79,79,80,80,81,81,82,82,83,83,84,84,85,85,86,86,88,88,91,91,93,93,94,94,95,95,96,96,101,101,104,104,107,107,108,108,117,117,118,118,119,119,120,120,123,123,124,124,125,125,126,126,131,131,136,136,137,137,138,138,143,143,146,146,147,147],"right_children":[2,4,6,8,-1,10,12,14,16,18,20,22,24,26,28,-1,-1,30,32,34,36,38,-1,40,-1,42,44,46,48,50,52,54,-1,56,58,60,62,-1,-1,64,-1,-1,-1,-1,-1,-1,66,68,-1,70,72,74,76,78,-1,-1,-1,80,-1,82,84,-1,-1,-1,-1,-1,-1,-1,86,88,90,-1,92,94,96,-1,98,-1,-1,100,102,104,106,108,110,112,114,-1,116,-1,-1,118,-1,120,122,124,126,-1,-1,-1,-1,128,-1,-1,130,-1,-1,132,134,-1,-1,-1,-1,-1,-1,-1,-1,136,138,140,142,-1,-1,144,146,148,150,-1,-1,-1,-1,152,-1,-1,-1,-1,154,156,158,-1,-1,-1,-1,160,-1,-1,162,164,-1,-1,-1,-1,-1,-1,-1,-1,-1,-1,-1,-1,-1,-1,-1,-1,-1],"split_conditions":[1.296772E1,5.5970516E4,1.6084368E1,4.666667E0,3.8599905E-2,3.75E0,2.666667E0,6.16003E1,-8.726544E0,5.568845E4,8.324328E0,1.451849E2,1.2391238E1,2.205558E-2,1.1412603E1,-3.22454E-2,-7.2551735E-2,4.042693E1,2.333333E0,5.666667E0,9.776119E1,-7.5620728E0,7.2551735E-2,7.666667E0,-3.5488777E-2,6.3131315E-1,-8.140749E0,3.9996384E1,-2.1738611E1,1.6904637E4,-3.5543945E-1,6.3131315E-1,3.1833626E-2,6.2E2,1.9107916E4,1.9022728E1,-5.240665E0,-0E0,5.0977223E-2,6.0482986E1,-0E0,-4.8076104E-2,-0E0,-9.704058E-3,2.6612159E-2,-7.2551735E-2,1.3178685E1,5.972224E3,-0E0,1.7150995E1,1.822524E1,4.3709564E1,1.4920819E1,6.627999E1,7.2551735E-2,-0E0,-2.873201E-2,8.403492E3,-1.795025E-2,8.25E0,-3.5267756E0,-2.266433E-2,-7.2051845E-2,1.4888855E-2,4.811282E-2,-3.8669016E-3,-5.683013E-2,-4.6006385E-2,3.4178787E1,2.2831863E1,5.413034E1,-1.553303E-2,-4.626953E0,2.758514E2,1E-45,3.0052131E-2,1.2835266E1,1.6099505E-2,5.3320628E-2,1.5439552E1,1.3360946E1,-7.2809067E0,2.589029E4,5.268562E1,1E-45,4.32E3,-9.020497E0,-8.210891E-3,3.6054966E1,2.1626566E-2,-4.1575017E-3,4.774895E2,-1.7035466E-2,2.0752666E1,2.9564472E1,3.9869152E1,1.290296E2,7.2551735E-2,3.0169876E-2,-3.1185798E-2,-7.2551735E-2,-6.0918336E0,-1.337031E-2,-1.5408176E-2,-6.1536193E0,-6.465371E-2,-1.4303649E-2,2.2749723E1,7.8359265E2,5.055831E-3,-2.4550684E-2,-0E0,-2.1093246E-2,-2.0080624E-2,-4.3803737E-2,-4.5243453E-2,-1.929998E-2,1.8475674E1,2.5873594E1,-7.043509E0,1.0958576E1,4.2851787E-2,-0E0,2.416667E0,1.6113422E1,2.6713102E1,1.0323574E3,-3.332977E-2,-7.243222E-2,1.8850343E-2,-0E0,1.5233026E2,2.8489038E-2,5.5518083E-2,2.1517757E-2,-9.92675E-3,-9.623278E0,2.4984044E2,1.8479778E2,-7.540141E-4,2.482651E-2,-1.8388387E-2,-0E0,2.0872997E1,2.7240284E-2,-2.0916807E-3,-6.0645304E0,1.3930313E1,5.3075545E-2,-4.2985592E-2,-4.0389854E-3,5.662813E-3,-6.489503E-3,2.814918E-2,-4.061968E-4,9.800122E-3,-0E0,2.5911925E-2,5.1731274E-2,3.8217813E-2,7.2551735E-2,1.147497E-2,4.58659E-2,2.8226482E-2,-0E0],"split_indices":[1,9,1,0,0,0,0,3,13,9,17,18,17,2,1,0,0,4,0,0,3,19,0,0,0,3,19,4,11,9,11,3,0,7,9,5,11,0,0,3,0,0,0,0,0,0,6,9,0,6,15,15,1,15,0,0,0,9,0,0,19,0,0,0,0,0,0,0,4,15,16,0,11,16,8,0,11,0,0,16,1,13,9,4,8,7,13,0,4,0,0,12,0,5,14,14,15,0,0,0,0,13,0,0,13,0,0,6,12,0,0,0,0,0,0,0,0,5,14,13,17,0,0,0,5,6,12,0,0,0,0,16,0,0,0,0,19,18,18,0,0,0,0,6,0,0,19,1,0,0,0,0,0,0,0,0,0,0,0,0,0,0,0,0,0],"split_type":[0,0,0,0,0,0,0,0,0,0,0,0,0,0,0,0,0,0,0,0,0,0,0,0,0,0,0,0,0,0,0,0,0,0,0,0,0,0,0,0,0,0,0,0,0,0,0,0,0,0,0,0,0,0,0,0,0,0,0,0,0,0,0,0,0,0,0,0,0,0,0,0,0,0,1,0,0,0,0,0,0,0,0,0,1,0,0,0,0,0,0,0,0,0,0,0,0,0,0,0,0,0,0,0,0,0,0,0,0,0,0,0,0,0,0,0,0,0,0,0,0,0,0,0,0,0,0,0,0,0,0,0,0,0,0,0,0,0,0,0,0,0,0,0,0,0,0,0,0,0,0,0,0,0,0,0,0,0,0,0,0,0,0,0,0],"sum_hessian":[1.109E3,2.99E2,8.1E2,2.92E2,7E0,6.74E2,1.36E2,1.99E2,9.3E1,4.49E2,2.25E2,1.04E2,3.2E1,4.2E1,1.57E2,9E0,8.4E1,3.88E2,6.1E1,9.4E1,1.31E2,1.8E1,8.6E1,2.3E1,9E0,1.9E1,2.3E1,8.4E1,7.3E1,1.44E2,2.44E2,4.9E1,1.2E1,1.4E1,8E1,1.14E2,1.7E1,1E1,8E0,1.5E1,8E0,1.1E1,8E0,1.1E1,1.2E1,6.9E1,1.5E1,6.3E1,1E1,4.5E1,9.9E1,2.1E2,3.4E1,1.7E1,3.2E1,7E0,7E0,6.7E1,1.3E1,5.9E1,5.5E1,7E0,1E1,8E0,7E0,8E0,7E0,1.6E1,4.7E1,2.9E1,1.6E1,1.2E1,8.7E1,6.5E1,1.45E2,8E0,2.6E1,9E0,8E0,3.8E1,2.9E1,2.9E1,3E1,4.1E1,1.4E1,1.7E1,3E1,8E0,2.1E1,9E0,7E0,8E1,7E0,3.8E1,2.7E1,8.4E1,6.1E1,1.9E1,7E0,9E0,2.9E1,2.2E1,7E0,1E1,1.9E1,1.8E1,1.2E1,2.5E1,1.6E1,7E0,7E0,1E1,7E0,1.6E1,1.4E1,1.2E1,9E0,2.9E1,5.1E1,2.2E1,1.6E1,1.9E1,8E0,4.9E1,3.5E1,4.6E1,1.5E1,1.5E1,7E0,1E1,9E0,1.7E1,8E0,7E0,9E0,9E0,2E1,1.4E1,3.7E1,1.2E1,1E1,9E0,7E0,4.1E1,8E0,7E0,2.8E1,3.1E1,1.5E1,7E0,8E0,1E1,7E0,9E0,1.1E1,7E0,7E0,1.9E1,1.8E1,1.8E1,2.3E1,1.2E1,1.6E1,1.9E1,1.2E1],"tree_param":{"num_deleted":"0","num_feature":"20","num_nodes":"165","size_leaf_vector":"1"}},{"base_weights":[2.7443863E-2,-9.04813E-1,5.7002443E-1,-1.7992665E0,-2.5124392E-1,1.1234003E0,-8.980964E-1,-2E0,-7.764056E-1,2.3424114E-1,-1.4627365E0,6.3269955E-1,1.5998055E0,-1.9191635E0,-4.93152E-1,-2E0,-1.3236185E0,1.1398528E-2,-1.1329782E0,-1.1463045E-1,8.694025E-1,-1.6466835E0,-1.8037913E-2,1.1446319E0,-1.4681262E-1,2E0,9.660066E-1,-7.2551735E-2,-1.119197E0,8.87611E-2,-9.972927E-1,-3.7892587E-2,-7.2551735E-2,-6.251951E-1,-6.1654273E-2,-6.464101E-2,-7.046235E-1,-5.4686666E-1,2.6294538E-1,2.547105E-2,1.1144348E0,-7.2551735E-2,-1.0902252E0,8.614989E-1,2E0,-1.3648732E0,2.1055947E-1,4.1979688E-1,2E0,1.3121303E0,3.0925176E-1,-1.241685E-2,-4.8636854E-2,-3.6474034E-2,2.9331267E-1,-1.5691751E0,-2.226592E-1,-0E0,-3.8454976E-2,-5.726318E-3,-4.07703E-2,-7.755779E-1,3.6623396E-2,-2.0931108E-1,6.891861E-1,-5.047412E-3,1.1088989E-2,7.1935738E-3,1.2911519E0,-5.475024E-2,-2.138072E-2,9.536415E-1,-6.9144904E-3,2.2376167E-2,7.2551735E-2,-7.2551735E-2,-1.1983581E-3,5.800749E-1,-9.1440296E-1,-4.01038E-3,3.2532416E-2,7.2551735E-2,9.4371957E-1,1.7963295E0,6.446534E-1,9.4198596E-1,-1.2159513E-1,-2.5918764E-1,9.971507E-1,-5.835708E-1,-7.2551735E-2,-8.009587E-1,5.398451E-1,-1.2713606E-3,-3.812204E-2,-9.810108E-3,1.5922269E-2,7.7452282E-3,-5.433676E-1,9.7262275E-1,6.7339896E-4,1.5010916E0,1.4207206E-2,-1.7461957E-2,1.1205287E0,9.31162E-1,1.1979017E-1,-5.431608E-2,-0E0,5.263442E-2,-8.5750694E-4,2E0,1.7836398E-2,-0E0,5.2819464E-2,1.0736178E-2,4.182856E-2,-6.937506E-1,1.8926803E-2,8.968939E-3,-2.7366674E-2,4.976244E-2,1.0399123E-2,-3.50274E-3,-3.2800194E-2,-4.2547423E-2,-3.950395E-3,2.919143E-2,1.180511E-3,-3.4640204E-2,-0E0,1.6157353E-2,4.720606E-2,3.0085696E-2,6.9600254E-2,1.3673524E0,6.8951064E-1,5.109674E-2,4.3722662E-1,-2.6176253E-2,7.8018224E-1,1.343107E-2,7.2551735E-2,1.1154734E-2,-1.0293996E-2,-4.9738046E-2,4.6508936E-3,-7.889645E-3,8.138521E-3,6.6933436E-3,1.5098447E0,1.044977E-1,1.2350948E0,2.8815497E-2,-1.061821E-3,-0E0,5.1351216E-2,5.8184758E-2,1.905096E-2,-2.7960974E-1,2.9657464E-2,5.2727178E-2,2.2929126E-2,1.0077272E-3,-2.3684468E-2],"categories":[],"categories_nodes":[],"categories_segments":[],"categories_sizes":[],"default_left":[0,0,0,0,0,0,0,0,0,1,0,0,0,0,0,1,0,0,0,0,0,0,0,0,0,0,0,0,0,0,0,0,0,0,0,0,0,0,0,0,0,0,0,0,0,0,0,0,0,0,0,0,0,0,0,1,0,0,0,0,0,0,0,0,0,0,0,0,0,0,0,0,0,0,0,0,0,0,0,0,0,0,0,0,0,0,0,1,0,0,0,0,0,0,0,0,0,0,1,0,0,0,0,0,1,0,0,0,0,0,0,0,0,0,0,0,0,0,0,0,0,0,0,0,0,0,0,0,0,0,0,0,0,0,0,0,0,0,0,0,0,0,0,0,0,0,0,0,0,0,0,0,0,0,0,0,0,0,0,0,0,0,0,0,0],"id":7,"left_children":[1,3,5,7,9,11,13,15,17,19,21,23,25,27,29,31,33,-1,35,37,39,41,-1,43,45,47,49,-1,51,53,55,-1,-1,57,-1,-1,59,61,63,65,67,-1,69,71,73,75,77,79,81,83,85,-1,-1,-1,87,89,91,-1,-1,-1,-1,93,95,97,99,-1,-1,-1,101,-1,-1,103,-1,-1,-1,-1,-1,105,107,-1,-1,-1,109,111,113,115,117,119,121,123,-1,125,127,-1,-1,-1,-1,-1,129,131,-1,133,-1,-1,135,137,139,-1,-1,-1,-1,141,-1,143,-1,-1,-1,145,-1,147,-1,-1,-1,-1,-1,-1,-1,-1,-1,-1,-1,-1,-1,-1,-1,149,151,-1,153,-1,155,-1,-1,-1,-1,-1,-1,-1,-1,-1,157,159,161,-1,-1,-1,-1,-1,-1,163,-1,-1,-1,-1,-1],"loss_changes":[5.649169E2,2.3789734E2,5.7695593E2,4.3464844E1,1.4567932E2,1.1734125E2,7.830031E1,4.349182E0,1.9078636E1,4.0657906E1,9.591705E0,1.0539735E2,8.199933E1,6.631073E0,4.4047108E1,1.6652832E0,5.9030647E0,0E0,6.2097816E0,2.0335308E1,1.2246799E1,6.5983124E0,0E0,4.054538E1,4.9644333E1,3.0740662E1,2.7226395E1,0E0,2.3802013E0,1.7473003E1,3.325029E1,0E0,0E0,5.0083723E0,0E0,0E0,5.0424433E0,8.576273E0,1.4226143E1,1.8930962E0,6.3323517E0,0E0,3.9547386E0,1.4093262E1,5.6630707E0,2.2044285E1,3.7306587E1,6.5684085E0,1.3314331E1,2.3024948E1,1.5486792E1,0E0,0E0,0E0,2.633873E1,2.3339943E1,1.9544313E1,0E0,0E0,0E0,0E0,7.6909504E0,3.7993553E0,5.8322296E0,5.9246635E0,0E0,0E0,0E0,5.162506E0,0E0,0E0,3.1552864E1,0E0,0E0,0E0,0E0,0E0,9.870386E0,1.1889437E1,0E0,0E0,0E0,1.352083E1,9.652252E0,2.2527285E1,1.5351105E0,1.4011043E1,6.308846E0,6.0189075E0,2.9683676E0,0E0,5.144388E0,1.9023905E0,0E0,0E0,0E0,0E0,0E0,5.7720275E0,2.2953053E0,0E0,4.176819E0,0E0,0E0,8.981735E0,6.617216E0,2.1573767E1,0E0,0E0,0E0,0E0,1.2162033E1,0E0,3.400242E0,0E0,0E0,0E0,1.2915864E1,0E0,2.1164455E0,0E0,0E0,0E0,0E0,0E0,0E0,0E0,0E0,0E0,0E0,0E0,0E0,0E0,0E0,0E0,9.162804E0,1.4142021E1,0E0,5.1330276E0,0E0,1.0281472E1,0E0,0E0,0E0,0E0,0E0,0E0,0E0,0E0,0E0,2.3288727E0,9.986546E0,3.668785E-1,0E0,0E0,0E0,0E0,0E0,0E0,3.4434543E0,0E0,0E0,0E0,0E0,0E0],"parents":[2147483647,0,0,1,1,2,2,3,3,4,4,5,5,6,6,7,7,8,8,9,9,10,10,11,11,12,12,13,13,14,14,15,15,16,16,18,18,19,19,20,20,21,21,23,23,24,24,25,25,26,26,28,28,29,29,30,30,33,33,36,36,37,37,38,38,39,39,40,40,42,42,43,43,44,44,45,45,46,46,47,47,48,48,49,49,50,50,54,54,55,55,56,56,61,61,62,62,63,63,64,64,68,68,71,71,77,77,78,78,82,82,83,83,84,84,85,85,86,86,87,87,88,88,89,89,91,91,92,92,98,98,99,99,101,101,104,104,105,105,106,106,111,111,113,113,117,117,119,119,135,135,136,136,138,138,140,140,150,150,151,151,152,152,159,159],"right_children":[2,4,6,8,10,12,14,16,18,20,22,24,26,28,30,32,34,-1,36,38,40,42,-1,44,46,48,50,-1,52,54,56,-1,-1,58,-1,-1,60,62,64,66,68,-1,70,72,74,76,78,80,82,84,86,-1,-1,-1,88,90,92,-1,-1,-1,-1,94,96,98,100,-1,-1,-1,102,-1,-1,104,-1,-1,-1,-1,-1,106,108,-1,-1,-1,110,112,114,116,118,120,122,124,-1,126,128,-1,-1,-1,-1,-1,130,132,-1,134,-1,-1,136,138,140,-1,-1,-1,-1,142,-1,144,-1,-1,-1,146,-1,148,-1,-1,-1,-1,-1,-1,-1,-1,-1,-1,-1,-1,-1,-1,-1,150,152,-1,154,-1,156,-1,-1,-1,-1,-1,-1,-1,-1,-1,158,160,162,-1,-1,-1,-1,-1,-1,164,-1,-1,-1,-1,-1],"split_conditions":[1.3581678E1,1.2783309E1,3.833333E0,7.313998E-1,7.25E0,2.1068943E1,1.3180303E1,1.2102775E1,3.0612245E0,1.4105948E1,5.0470333E1,7.981145E1,3.1187937E1,1.2172657E1,8.166667E0,5.8998995E0,1.083333E0,1.1398528E-2,6.4046875E3,2.2704086E4,2.5873594E1,8.403492E3,-1.8037913E-2,4.3774345E1,8.590389E3,1.3930313E1,1.583333E0,-7.2551735E-2,1.2571083E1,9.684794E0,1.9356E1,-3.7892587E-2,-7.2551735E-2,1.8728086E1,-6.1654273E-2,-6.464101E-2,1.7793657E1,3.753284E1,4.042693E1,1.1589474E1,3.1516497E1,-7.2551735E-2,2.8581148E1,6.485116E1,1.2466125E1,1.887303E1,2.76E3,2.4692423E1,7.1677864E1,3.231144E1,1E2,-1.241685E-2,-4.8636854E-2,-3.6474034E-2,5.4726955E1,-5.6309505E0,2.899656E4,-0E0,-3.8454976E-2,-5.726318E-3,-4.07703E-2,1.7749489E1,2.205558E-2,-9.26685E0,2.166667E0,-5.047412E-3,1.1088989E-2,7.1935738E-3,1.5873015E1,-5.475024E-2,-2.138072E-2,1.227095E1,-6.9144904E-3,2.2376167E-2,7.2551735E-2,-7.2551735E-2,-1.1983581E-3,3.09571E1,1.1527598E1,-4.01038E-3,3.2532416E-2,7.2551735E-2,1.7553937E0,-6.563238E0,1.8658E1,4.3236355E1,1.6393358E1,1.4218234E1,-4.182796E0,-6.403689E0,-7.2551735E-2,1.0123127E2,-4.19759E0,-1.2713606E-3,-3.812204E-2,-9.810108E-3,1.5922269E-2,7.7452282E-3,1.2826429E1,-8.726544E0,6.7339896E-4,1.5359152E1,1.4207206E-2,-1.7461957E-2,1.5844447E2,-8.283078E0,1.5395191E1,-5.431608E-2,-0E0,5.263442E-2,-8.5750694E-4,1.2774459E4,1.7836398E-2,3.482635E1,5.2819464E-2,1.0736178E-2,4.182856E-2,1.9759814E4,1.8926803E-2,2.012659E1,-2.7366674E-2,4.976244E-2,1.0399123E-2,-3.50274E-3,-3.2800194E-2,-4.2547423E-2,-3.950395E-3,2.919143E-2,1.180511E-3,-3.4640204E-2,-0E0,1.6157353E-2,4.720606E-2,3.0085696E-2,6.9600254E-2,1.4818827E1,2.205558E-2,5.109674E-2,-9.112601E0,-2.6176253E-2,3E1,1.343107E-2,7.2551735E-2,1.1154734E-2,-1.0293996E-2,-4.9738046E-2,4.6508936E-3,-7.889645E-3,8.138521E-3,6.6933436E-3,-5.688497E0,2.0508415E1,2.8625088E1,2.8815497E-2,-1.061821E-3,-0E0,5.1351216E-2,5.8184758E-2,1.905096E-2,1.5983016E1,2.9657464E-2,5.2727178E-2,2.2929126E-2,1.0077272E-3,-2.3684468E-2],"split_indices":[6,1,0,2,0,6,1,1,2,1,4,3,14,1,0,16,0,0,9,9,14,9,0,10,9,1,0,0,1,10,5,0,0,10,0,0,5,15,4,10,4,0,14,14,3,5,7,6,4,6,7,0,0,0,4,11,9,0,0,0,0,15,2,19,0,0,0,0,2,0,0,1,0,0,0,0,0,14,1,0,0,0,11,13,5,16,1,1,19,13,0,16,11,0,0,0,0,0,1,13,0,1,0,0,16,13,1,0,0,0,0,9,0,6,0,0,0,9,0,6,0,0,0,0,0,0,0,0,0,0,0,0,0,0,0,5,2,0,19,0,7,0,0,0,0,0,0,0,0,0,13,10,14,0,0,0,0,0,0,6,0,0,0,0,0],"split_type":[0,0,0,0,0,0,0,0,0,0,0,0,0,0,0,0,0,0,0,0,0,0,0,0,0,0,0,0,0,0,0,0,0,0,0,0,0,0,0,0,0,0,0,0,0,0,0,0,0,0,0,0,0,0,0,0,0,0,0,0,0,0,0,0,0,0,0,0,0,0,0,0,0,0,0,0,0,0,0,0,0,0,0,0,0,0,0,0,0,0,0,0,0,0,0,0,0,0,0,0,0,0,0,0,0,0,0,0,0,0,0,0,0,0,0,0,0,0,0,0,0,0,0,0,0,0,0,0,0,0,0,0,0,0,0,0,0,0,0,0,0,0,0,0,0,0,0,0,0,0,0,0,0,0,0,0,0,0,0,0,0,0,0,0,0],"sum_hessian":[1.107E3,4.06E2,7.01E2,1.69E2,2.37E2,5.1E2,1.91E2,1.3E2,3.9E1,1.7E2,6.7E1,2.55E2,2.55E2,5.1E1,1.4E2,9.9E1,3.1E1,9E0,3E1,1.1E2,6E1,5.4E1,1.3E1,1.54E2,1.01E2,1.32E2,1.23E2,3E1,2.1E1,6.5E1,7.5E1,1.2E1,8.7E1,1.4E1,1.7E1,8E0,2.2E1,5.2E1,5.8E1,1.5E1,4.5E1,2.7E1,2.7E1,1.25E2,2.9E1,2.2E1,7.9E1,1.5E1,1.17E2,7.8E1,4.5E1,7E0,1.4E1,8E0,5.7E1,4.1E1,3.4E1,7E0,7E0,1.2E1,1E1,3.8E1,1.4E1,2.7E1,3.1E1,8E0,7E0,9E0,3.6E1,1.1E1,1.6E1,1.16E2,9E0,7E0,2.2E1,1.3E1,9E0,6.1E1,1.8E1,7E0,8E0,9.7E1,2E1,4.2E1,3.6E1,1.8E1,2.7E1,3.2E1,2.5E1,1.9E1,2.2E1,2E1,1.4E1,1.2E1,2.6E1,7E0,7E0,1.1E1,1.6E1,2E1,1.1E1,2.7E1,9E0,1.1E1,1.05E2,3.2E1,2.9E1,1E1,8E0,1.3E1,7E0,3.4E1,8E0,2.1E1,1.5E1,7E0,1.1E1,1.5E1,1.2E1,2.1E1,1.1E1,1.4E1,1.1E1,1E1,9E0,1.1E1,9E0,7E0,7E0,9E0,7E0,1.1E1,9E0,1.4E1,1.3E1,6.2E1,4.3E1,1.3E1,1.9E1,1.2E1,1.7E1,7E0,2.7E1,9E0,1.2E1,8E0,7E0,8E0,1.3E1,8E0,5.4E1,2.3E1,2E1,1.1E1,8E0,9E0,8E0,4.7E1,7E0,1.5E1,8E0,1.1E1,9E0,8E0,7E0],"tree_param":{"num_deleted":"0","num_feature":"20","num_nodes":"165","size_leaf_vector":"1"}},{"base_weights":[-1.2286525E-3,4.4551763E-1,-1.4405075E0,-6.8625844E-1,9.659011E-1,-1.9344265E0,-1.0610379E0,-1.0435605E0,3.755023E-1,-2.517617E-1,1.1195886E0,-2E0,-6.6197286E-3,-7.536391E-1,-7.2551735E-2,6.0462767E-1,-1.2087106E0,6.765748E-1,-2.5474476E-2,2.685264E-1,-8.835348E-1,7.570802E-1,1.7325882E0,-2E0,-1.8610632E-2,2.4856823E-3,-1.0305827E0,1.9340655E-3,3.2431792E-2,-8.9719903E-1,-1.6911439E0,-1.4837303E-2,8.7417895E-1,-0E0,4.1319676E-2,-5.541987E-2,-5.3894024E-2,1.1145216E0,-3.289547E-2,2E0,1.6237397E-1,-2E0,-2.36278E-2,-3.6390874E-1,3.1246271E-2,-1.3739742E0,-1.4424233E-1,-1.4816569E0,-4.6315795E-1,-7.009706E-2,-9.87097E-1,1.1580827E0,7.792542E-4,2.9633757E-2,-4.0893844E-1,2.1143805E-3,-9.416152E-3,8.551239E-1,7.2551735E-2,-7.475945E-1,1.9053641E-1,1.8747728E-2,2E0,5.5124426E-1,-2.7293017E-2,-7.2551735E-2,-3.8050767E-2,-3.1180384E-2,4.143682E-3,-2E0,-6.5913326E-1,-6.5905005E-1,3.317241E-1,-1.778047E-2,-1.8223933E0,-2.1957877E-1,-4.858581E-2,-4.758316E-2,-6.677787E-3,1.045948E-2,1.4345442E0,-3.622756E-2,6.1181316E-4,-3.1572244E-1,1.0244565E0,-0E0,-5.187225E-2,3.868369E-1,-1.6695692E-1,9.5758724E-1,7.2551735E-2,3.991773E-2,1.9235125E-1,-5.9953495E-3,1.0051903E-2,-7.2551735E-2,-3.658479E-2,-1.1046778E0,3.1080155E-3,-5.4266125E-2,8.761219E-3,-0E0,2.2576276E-2,-7.2551735E-2,-3.522542E-2,1.4527714E-1,-3.694628E-1,6.132214E-2,3.0080702E-2,2.2342753E-2,-3.018082E-2,1.3021648E0,5.135674E-1,-2.5110003E-3,4.9023774E-1,-5.076144E-1,1.3119469E-2,4.8008226E-2,1.0019866E-2,3.288953E-2,-1.26579655E-2,-1.3082963E0,-1.5747437E-2,1.5379388E-2,-1.6540572E-3,-5.560516E-1,-0E0,6.2438947E-1,1.647664E0,1.1075717E0,1.9073617E-1,4.2144593E-2,7.360552E-1,-3.8515453E-3,-2.9128043E-2,-2.0104466E-2,-5.8901973E-2,-3.1565227E-2,-3.4005117E-1,-1.776896E-2,2.041804E-2,-8.123747E-3,1.0065131E0,1.7392714E0,2.0068869E-2,4.7235608E-2,1.606408E-2,7.954591E-1,-3.4288698E-1,5.655158E-3,-9.493953E-4,1.2761533E-3,3.320766E-2,-2.4288844E-2,-0E0,4.4851642E-2,4.4093993E-3,3.6551204E-2,7.019912E-2,3.4866724E-2,7.8462325E-3,1.4148612E-3,-2.899493E-2],"categories":[6,7,2],"categories_nodes":[6,40],"categories_segments":[0,2],"categories_sizes":[2,1],"default_left":[0,0,0,0,0,0,1,0,0,0,0,1,0,0,0,0,0,0,0,0,0,0,0,0,0,0,0,0,0,0,0,0,0,0,0,0,0,0,0,0,1,0,0,0,0,0,0,0,0,0,0,0,0,0,0,0,0,0,0,0,0,0,0,0,0,0,0,0,0,0,0,0,0,0,0,0,0,0,0,0,0,0,0,1,0,0,0,0,0,0,0,0,0,0,0,0,0,0,0,0,0,0,0,0,0,0,0,0,0,0,0,0,0,0,0,0,0,0,0,0,0,0,0,0,0,0,0,0,0,0,0,0,0,0,0,0,0,0,0,0,0,0,0,0,0,0,0,0,0,0,0,0,0,0,0,0,0,0,0,0,0,0,0],"id":8,"left_children":[1,3,5,7,9,11,13,15,17,19,21,23,-1,25,-1,27,29,31,-1,33,35,37,39,41,-1,43,45,-1,-1,47,49,-1,51,53,-1,55,-1,57,59,61,63,65,-1,67,-1,69,71,73,75,-1,77,79,-1,-1,81,-1,-1,83,-1,85,87,-1,89,91,-1,-1,-1,-1,93,95,97,99,101,-1,103,105,-1,-1,-1,-1,107,-1,-1,109,111,-1,-1,113,115,117,-1,-1,119,-1,-1,-1,-1,121,-1,-1,-1,-1,-1,-1,-1,123,125,-1,-1,-1,-1,127,129,-1,131,133,-1,-1,-1,-1,-1,135,-1,-1,-1,137,139,141,143,145,147,149,151,-1,-1,-1,-1,-1,153,-1,-1,-1,155,157,-1,-1,-1,159,161,-1,-1,-1,-1,-1,-1,-1,-1,-1,-1,-1,-1,-1,-1],"loss_changes":[7.182752E2,5.0273267E2,4.455426E1,1.04481926E2,1.1113013E2,1.7531616E1,5.5351532E1,5.8682693E1,2.5282663E1,2.4770617E1,1.1207318E2,8.259552E0,0E0,2.8872826E1,0E0,2.7234306E0,2.4238434E1,1.4392767E1,0E0,1.1211088E1,1.5237572E1,9.5214264E1,1.3383179E2,6.6637573E0,0E0,1.5100593E1,2.8331009E1,0E0,0E0,2.8536354E1,6.581543E0,0E0,1.1097969E1,1.3096959E1,0E0,1.130999E0,0E0,5.2507538E1,1.9341057E1,1.6960876E1,1.9903105E1,6.496582E-1,0E0,6.6482234E0,0E0,2.9429352E1,9.960286E0,1.3567848E1,1.536779E1,0E0,5.0496216E0,6.935932E0,0E0,0E0,7.823537E0,0E0,0E0,3.898674E1,0E0,1.6031351E1,6.727725E0,0E0,8.343201E0,6.6559105E0,0E0,0E0,0E0,0E0,1.8400079E0,6.3912964E-1,1.4684864E1,1.6581535E1,2.4077137E0,0E0,7.684021E-1,4.232736E0,0E0,0E0,0E0,0E0,2.2631073E-1,0E0,0E0,1.5404451E1,2.1206573E1,0E0,0E0,3.400198E0,7.0794687E0,3.3989658E0,0E0,0E0,1.3219336E1,0E0,0E0,0E0,0E0,1.5093193E0,0E0,0E0,0E0,0E0,0E0,0E0,0E0,1.9816575E0,3.8784194E0,0E0,0E0,0E0,0E0,2.118306E1,1.1725636E1,0E0,4.8376064E0,1.9912152E0,0E0,0E0,0E0,0E0,0E0,1.3096733E0,0E0,0E0,0E0,1.5165415E0,7.3035545E0,1.5274605E1,3.2613373E0,7.919159E-1,1.7290821E1,5.710146E-1,2.980215E0,0E0,0E0,0E0,0E0,0E0,3.3856115E0,0E0,0E0,0E0,4.773079E0,3.1628418E0,0E0,0E0,0E0,1.244113E0,6.049424E0,0E0,0E0,0E0,0E0,0E0,0E0,0E0,0E0,0E0,0E0,0E0,0E0,0E0,0E0],"parents":[2147483647,0,0,1,1,2,2,3,3,4,4,5,5,6,6,7,7,8,8,9,9,10,10,11,11,13,13,15,15,16,16,17,17,19,19,20,20,21,21,22,22,23,23,25,25,26,26,29,29,30,30,32,32,33,33,35,35,37,37,38,38,39,39,40,40,41,41,43,43,45,45,46,46,47,47,48,48,50,50,51,51,54,54,57,57,59,59,60,60,62,62,63,63,68,68,69,69,70,70,71,71,72,72,74,74,75,75,80,80,83,83,84,84,87,87,88,88,89,89,92,92,97,97,105,105,106,106,111,111,112,112,114,114,115,115,121,121,125,125,126,126,127,127,128,128,129,129,130,130,131,131,132,132,138,138,142,142,143,143,147,147,148,148],"right_children":[2,4,6,8,10,12,14,16,18,20,22,24,-1,26,-1,28,30,32,-1,34,36,38,40,42,-1,44,46,-1,-1,48,50,-1,52,54,-1,56,-1,58,60,62,64,66,-1,68,-1,70,72,74,76,-1,78,80,-1,-1,82,-1,-1,84,-1,86,88,-1,90,92,-1,-1,-1,-1,94,96,98,100,102,-1,104,106,-1,-1,-1,-1,108,-1,-1,110,112,-1,-1,114,116,118,-1,-1,120,-1,-1,-1,-1,122,-1,-1,-1,-1,-1,-1,-1,124,126,-1,-1,-1,-1,128,130,-1,132,134,-1,-1,-1,-1,-1,136,-1,-1,-1,138,140,142,144,146,148,150,152,-1,-1,-1,-1,-1,154,-1,-1,-1,156,158,-1,-1,-1,160,162,-1,-1,-1,-1,-1,-1,-1,-1,-1,-1,-1,-1,-1,-1],"split_conditions":[6E0,5.749829E2,4.523635E1,4.054808E1,3.6667618E1,1.2249774E2,1E-45,6E1,4.0266293E1,7.865586E1,2.205558E-2,2.5240932E1,-6.6197286E-3,4.8E2,-7.2551735E-2,1.4636334E1,9.9750626E1,2.8302626E1,-2.5474476E-2,1.9779059E2,3.2130096E1,2.333333E0,-6.403689E0,2.2547213E4,-1.8610632E-2,4.941757E1,2.899656E4,1.9340655E-3,3.2431792E-2,1.568223E4,1.3792529E1,-1.4837303E-2,1.897688E1,-4.6147156E0,4.1319676E-2,-7.862289E0,-5.3894024E-2,5.568845E4,1.7098825E1,-1.2096462E1,1E-45,2.687858E2,-2.36278E-2,-8.634789E0,3.1246271E-2,2.205558E-2,1.7026728E1,-9.020497E0,1.1802865E1,-7.009706E-2,3.8387024E1,-9.262917E0,7.792542E-4,2.9633757E-2,1.7141832E1,2.1143805E-3,-9.416152E-3,1.5878784E1,7.2551735E-2,4.945055E1,1.665E3,1.8747728E-2,3.5084305E1,1.0508521E1,-2.7293017E-2,-7.2551735E-2,-3.8050767E-2,-3.1180384E-2,2.5614035E1,3.63E3,5.4738014E1,7.3728754E2,2.72E3,-1.778047E-2,1.8123224E2,3.0156267E1,-4.858581E-2,-4.758316E-2,-6.677787E-3,1.045948E-2,3.0383987E1,-3.622756E-2,6.1181316E-4,3.7917446E1,1.166667E0,-0E0,-5.187225E-2,-1.0034808E1,6.18E3,2.7174356E1,7.2551735E-2,3.991773E-2,2.416667E0,-5.9953495E-3,1.0051903E-2,-7.2551735E-2,-3.658479E-2,2.743626E2,3.1080155E-3,-5.4266125E-2,8.761219E-3,-0E0,2.2576276E-2,-7.2551735E-2,-3.522542E-2,-8.807628E0,3.3459625E4,6.132214E-2,3.0080702E-2,2.2342753E-2,-3.018082E-2,1.0151448E1,-7.594675E0,-2.5110003E-3,9.9866135E1,-7.304662E0,1.3119469E-2,4.8008226E-2,1.0019866E-2,3.288953E-2,-1.26579655E-2,1.7927973E4,-1.5747437E-2,1.5379388E-2,-1.6540572E-3,1.8171759E1,-9.1674E0,1.3240714E2,-5.4821396E0,2.0336646E2,1.3798322E2,2.4648235E1,2.0035425E1,-3.8515453E-3,-2.9128043E-2,-2.0104466E-2,-5.8901973E-2,-3.1565227E-2,9.1898735E1,-1.776896E-2,2.041804E-2,-8.123747E-3,7.981145E1,1.852329E1,2.0068869E-2,4.7235608E-2,1.606408E-2,1.75E0,2.8080527E4,5.655158E-3,-9.493953E-4,1.2761533E-3,3.320766E-2,-2.4288844E-2,-0E0,4.4851642E-2,4.4093993E-3,3.6551204E-2,7.019912E-2,3.4866724E-2,7.8462325E-3,1.4148612E-3,-2.899493E-2],"split_indices":[0,12,4,4,4,15,8,7,14,3,2,11,0,7,0,10,3,3,0,16,14,0,13,9,0,14,9,0,0,9,6,0,5,11,0,13,0,9,5,11,8,16,0,13,0,2,10,13,17,0,14,13,0,0,5,0,0,5,0,3,7,0,15,17,0,0,0,0,3,7,3,12,7,0,18,4,0,0,0,0,14,0,0,16,0,0,0,19,7,15,0,0,0,0,0,0,0,18,0,0,0,0,0,0,0,19,9,0,0,0,0,17,13,0,16,13,0,0,0,0,0,9,0,0,0,5,13,18,13,18,16,10,14,0,0,0,0,0,3,0,0,0,3,5,0,0,0,0,9,0,0,0,0,0,0,0,0,0,0,0,0,0,0],"split_type":[0,0,0,0,0,0,1,0,0,0,0,0,0,0,0,0,0,0,0,0,0,0,0,0,0,0,0,0,0,0,0,0,0,0,0,0,0,0,0,0,1,0,0,0,0,0,0,0,0,0,0,0,0,0,0,0,0,0,0,0,0,0,0,0,0,0,0,0,0,0,0,0,0,0,0,0,0,0,0,0,0,0,0,0,0,0,0,0,0,0,0,0,0,0,0,0,0,0,0,0,0,0,0,0,0,0,0,0,0,0,0,0,0,0,0,0,0,0,0,0,0,0,0,0,0,0,0,0,0,0,0,0,0,0,0,0,0,0,0,0,0,0,0,0,0,0,0,0,0,0,0,0,0,0,0,0,0,0,0,0,0,0,0],"sum_hessian":[1.105E3,8.44E2,2.61E2,2.65E2,5.79E2,1.08E2,1.53E2,1.99E2,6.6E1,6.4E1,5.15E2,1.01E2,7E0,1.28E2,2.5E1,1.7E1,1.82E2,5.3E1,1.3E1,3.5E1,2.9E1,3.28E2,1.87E2,9.4E1,7E0,3.4E1,9.4E1,8E0,9E0,1.16E2,6.6E1,7E0,4.6E1,2.8E1,7E0,1.4E1,1.5E1,2.26E2,1.02E2,1.42E2,4.5E1,8.6E1,8E0,2.4E1,1E1,6.6E1,2.8E1,4.6E1,7E1,4.5E1,2.1E1,3.3E1,1.3E1,8E0,2E1,7E0,7E0,1.82E2,4.4E1,2.4E1,7.8E1,1.1E1,1.31E2,3.3E1,1.2E1,7.5E1,1.1E1,1E1,1.4E1,3.1E1,3.5E1,1.4E1,1.4E1,1.4E1,3.2E1,5.8E1,1.2E1,1.3E1,8E0,1E1,2.3E1,8E0,1.2E1,2.2E1,1.6E2,1.2E1,1.2E1,5.2E1,2.6E1,1.6E1,1.15E2,1E1,2.3E1,7E0,7E0,2.1E1,1E1,2.2E1,1.3E1,7E0,7E0,7E0,7E0,2.2E1,1E1,1.5E1,4.3E1,1.2E1,1.1E1,7E0,1.5E1,1E2,6E1,8E0,4.4E1,1.7E1,9E0,8E0,8E0,1E1,1.3E1,1.4E1,8E0,7E0,8E0,2.9E1,1.4E1,3.7E1,6.3E1,1.8E1,4.2E1,1.8E1,2.6E1,1E1,7E0,7E0,7E0,7E0,2.2E1,7E0,7E0,1.1E1,2.6E1,5.6E1,7E0,1.1E1,7E0,2E1,2.2E1,1.1E1,7E0,7E0,1.9E1,1E1,1.2E1,1.9E1,7E0,1.6E1,4E1,1.3E1,7E0,1.2E1,1E1],"tree_param":{"num_deleted":"0","num_feature":"20","num_nodes":"163","size_leaf_vector":"1"}},{"base_weights":[-0E0,-1.4802066E0,5.079886E-1,-1.8139316E0,-7.086811E-1,1.0519307E0,-7.0988303E-1,-2E0,-7.848005E-1,-2.4141276E-3,-1.6393214E0,7.090258E-1,1.6880053E0,-2.4391672E-1,-1.2112887E0,-9.9138397E-1,-2E0,1.4916188E-1,-1.41392E0,-4.989306E-1,7.7324784E-1,-7.152252E-2,-3.0654544E-2,1.548494E-1,1.1259692E0,8.03148E-1,2E0,-7.535531E-2,-5.4149464E-2,-1.6601855E0,-8.500476E-1,-3.1500843E-3,-5.7336725E-2,-3.7876647E-2,-7.2551735E-2,2.3771483E-2,-1.2490061E-2,-9.126474E-1,-6.4698815E-2,1.2406664E-2,-7.6972806E-1,4.1612532E-2,9.838094E-3,-1.847501E-1,4.8968017E-1,1.7016984E0,8.511111E-1,-0E0,1.1351877E0,2E0,7.224408E-1,-4.0058097E-1,4.829204E-1,-7.2551735E-2,-7.3449355E-1,-1.1450747E0,-1.04643635E-1,-4.0856216E-2,-1.311001E-2,-1.0402856E0,-2.2128597E-3,-5.734033E-1,4.2715067E-1,-3.4031394E-1,6.92094E-1,1.017793E0,7.2551735E-2,9.2982566E-1,-1.6773911E-2,1.7148923E-2,-2.4281526E-1,5.9586066E-1,1.5709981E0,3.249943E-2,2E0,1.090456E0,-5.662339E-3,-5.444896E-1,2.614731E-2,8.579391E-1,-1.7881444E-2,-6.2443637E-3,-4.3674182E-2,-7.421064E-1,-1.3740784E0,2.8994614E-1,-3.311697E-2,-4.6355277E-2,-2.1023156E-2,-1.7542852E-1,-1.0066012E0,-7.020359E-2,4.094861E-2,-2.4357809E-2,3.0328045E-4,9.018445E-2,9.588481E-1,6.454573E-4,1.359654E0,1.8900706E-1,1.1050599E0,-1.9956911E-2,7.950752E-4,1.3858695E-3,2.939086E-2,1.8164054E-2,7.028425E-2,7.2551735E-2,2.3540214E-2,5.1652778E-2,1.8879214E-2,-8.450579E-1,-9.436348E-2,2.3790342E-1,4.560694E-2,-3.524531E-2,-1.2209821E-2,-5.940566E-2,-1.6160844E-2,-9.498671E-3,3.3772744E-2,-1.9852718E-2,7.160295E-2,-4.6467192E-2,-6.0345368E-3,9.59802E-3,-2.3003245E-2,1.7028041E-2,-9.435887E-3,5.2894775E-2,5.006842E-1,5.9708536E-2,1.812887E-2,-1.445055E-2,4.7268984E-1,1.2565582E0,9.729428E-2,-1.0624123E0,-1.2433135E-3,-2.2282997E-2,8.872084E-2,1.668014E-2,-0E0,1.298724E-2,-7.977043E-3,-0E0,3.3242192E-2,-4.7114706E-3,3.1552553E-2,1.5070606E0,3.9911354E-1,2.3128904E-2,-1.0246077E-2,-4.4772528E-2,-8.06379E-3,-6.534239E-2,1.3709385E-2,-1.0823846E-2,1.3169607E-2,8.379076E-1,1.7141337E0,-3.4801818E-3,6.402881E-1,6.6594677E-3,-1.4589226E-2,5.240204E-2,1.1158904E-2,2.1051737E-2,6.857741E-2,3.1169003E-2,7.962646E-3],"categories":[3],"categories_nodes":[37],"categories_segments":[0],"categories_sizes":[1],"default_left":[0,0,0,0,0,0,0,0,0,0,0,0,0,0,0,0,0,0,0,0,0,0,0,0,0,0,0,0,0,0,0,0,0,0,0,0,0,1,0,0,0,0,0,0,0,0,0,0,0,0,0,1,0,0,0,0,0,0,0,0,0,0,0,0,0,0,0,0,0,0,0,0,0,0,0,0,0,0,0,0,0,0,0,0,0,0,0,0,0,0,0,0,0,0,0,0,0,0,0,0,0,0,0,0,0,0,0,0,0,0,0,0,0,0,0,0,0,0,0,0,0,0,0,0,0,0,0,0,0,0,0,0,0,0,0,0,0,0,0,0,0,0,0,0,0,0,0,0,0,0,0,0,0,0,0,0,0,0,0,0,0,0,0,0,0,0,0,0,0,0,0],"id":9,"left_children":[1,3,5,7,9,11,13,15,17,19,21,23,25,27,29,31,33,35,37,39,41,-1,-1,43,45,47,49,51,-1,53,55,-1,-1,-1,-1,-1,-1,57,-1,-1,59,-1,-1,61,63,65,67,69,71,73,75,77,79,-1,81,83,85,-1,-1,87,-1,89,91,93,95,97,-1,99,-1,-1,101,