{"learner":{"attributes":{"scikit_learn":"{\"_estimator_type\": \"regressor\"}"},"feature_names":["duration_p","ros_p_lg1_log","3_8y_fir_p","8_ny_fir_p","FWI_12h_av","f_load_av","wv100_k_av","f_start","landform","HDW_av","wv_850_av","gT_s_9_av","DC_12h_av","gT_8_7_av","rh_950_av","wSv_1_av","BLH_m_rt","wv10_kh_av","aspect_av","gT_9_8_av"],"feature_types":["float","float","float","float","float","float","float","float","c","float","float","float","float","float","float","float","float","float","float","float"],"gradient_booster":{"model":{"cats":{"enc":[{"offsets":[],"values":[]},{"offsets":[],"values":[]},{"offsets":[],"values":[]},{"offsets":[],"values":[]},{"offsets":[],"values":[]},{"offsets":[],"values":[]},{"offsets":[],"values":[]},{"offsets":[],"values":[]},{"offsets":[0,4,8,12,16,20,24,28,32,36,40,44,47],"values":[49,49,46,48,49,50,46,48,50,49,46,48,50,50,46,48,50,51,46,48,50,52,46,48,51,49,46,48,51,50,46,48,51,52,46,48,52,49,46,48,52,50,46,48,110,97,110]},{"offsets":[],"values":[]},{"offsets":[],"values":[]},{"offsets":[],"values":[]},{"offsets":[],"values":[]},{"offsets":[],"values":[]},{"offsets":[],"values":[]},{"offsets":[],"values":[]},{"offsets":[],"values":[]},{"offsets":[],"values":[]},{"offsets":[],"values":[]},{"offsets":[],"values":[]}],"feature_segments":[0,0,0,0,0,0,0,0,0,12,12,12,12,12,12,12,12,12,12,12,12],"sorted_idx":[0,1,2,3,4,5,6,7,8,9,10,11]},"gbtree_model_param":{"num_parallel_tree":"1","num_trees":"900"},"iteration_indptr":[0,1,2,3,4,5,6,7,8,9,10,11,12,13,14,15,16,17,18,19,20,21,22,23,24,25,26,27,28,29,30,31,32,33,34,35,36,37,38,39,40,41,42,43,44,45,46,47,48,49,50,51,52,53,54,55,56,57,58,59,60,61,62,63,64,65,66,67,68,69,70,71,72,73,74,75,76,77,78,79,80,81,82,83,84,85,86,87,88,89,90,91,92,93,94,95,96,97,98,99,100,101,102,103,104,105,106,107,108,109,110,111,112,113,114,115,116,117,118,119,120,121,122,123,124,125,126,127,128,129,130,131,132,133,134,135,136,137,138,139,140,141,142,143,144,145,146,147,148,149,150,151,152,153,154,155,156,157,158,159,160,161,162,163,164,165,166,167,168,169,170,171,172,173,174,175,176,177,178,179,180,181,182,183,184,185,186,187,188,189,190,191,192,193,194,195,196,197,198,199,200,201,202,203,204,205,206,207,208,209,210,211,212,213,214,215,216,217,218,219,220,221,222,223,224,225,226,227,228,229,230,231,232,233,234,235,236,237,238,239,240,241,242,243,244,245,246,247,248,249,250,251,252,253,254,255,256,257,258,259,260,261,262,263,264,265,266,267,268,269,270,271,272,273,274,275,276,277,278,279,280,281,282,283,284,285,286,287,288,289,290,291,292,293,294,295,296,297,298,299,300,301,302,303,304,305,306,307,308,309,310,311,312,313,314,315,316,317,318,319,320,321,322,323,324,325,326,327,328,329,330,331,332,333,334,335,336,337,338,339,340,341,342,343,344,345,346,347,348,349,350,351,352,353,354,355,356,357,358,359,360,361,362,363,364,365,366,367,368,369,370,371,372,373,374,375,376,377,378,379,380,381,382,383,384,385,386,387,388,389,390,391,392,393,394,395,396,397,398,399,400,401,402,403,404,405,406,407,408,409,410,411,412,413,414,415,416,417,418,419,420,421,422,423,424,425,426,427,428,429,430,431,432,433,434,435,436,437,438,439,440,441,442,443,444,445,446,447,448,449,450,451,452,453,454,455,456,457,458,459,460,461,462,463,464,465,466,467,468,469,470,471,472,473,474,475,476,477,478,479,480,481,482,483,484,485,486,487,488,489,490,491,492,493,494,495,496,497,498,499,500,501,502,503,504,505,506,507,508,509,510,511,512,513,514,515,516,517,518,519,520,521,522,523,524,525,526,527,528,529,530,531,532,533,534,535,536,537,538,539,540,541,542,543,544,545,546,547,548,549,550,551,552,553,554,555,556,557,558,559,560,561,562,563,564,565,566,567,568,569,570,571,572,573,574,575,576,577,578,579,580,581,582,583,584,585,586,587,588,589,590,591,592,593,594,595,596,597,598,599,600,601,602,603,604,605,606,607,608,609,610,611,612,613,614,615,616,617,618,619,620,621,622,623,624,625,626,627,628,629,630,631,632,633,634,635,636,637,638,639,640,641,642,643,644,645,646,647,648,649,650,651,652,653,654,655,656,657,658,659,660,661,662,663,664,665,666,667,668,669,670,671,672,673,674,675,676,677,678,679,680,681,682,683,684,685,686,687,688,689,690,691,692,693,694,695,696,697,698,699,700,701,702,703,704,705,706,707,708,709,710,711,712,713,714,715,716,717,718,719,720,721,722,723,724,725,726,727,728,729,730,731,732,733,734,735,736,737,738,739,740,741,742,743,744,745,746,747,748,749,750,751,752,753,754,755,756,757,758,759,760,761,762,763,764,765,766,767,768,769,770,771,772,773,774,775,776,777,778,779,780,781,782,783,784,785,786,787,788,789,790,791,792,793,794,795,796,797,798,799,800,801,802,803,804,805,806,807,808,809,810,811,812,813,814,815,816,817,818,819,820,821,822,823,824,825,826,827,828,829,830,831,832,833,834,835,836,837,838,839,840,841,842,843,844,845,846,847,848,849,850,851,852,853,854,855,856,857,858,859,860,861,862,863,864,865,866,867,868,869,870,871,872,873,874,875,876,877,878,879,880,881,882,883,884,885,886,887,888,889,890,891,892,893,894,895,896,897,898,899,900],"tree_info":[0,0,0,0,0,0,0,0,0,0,0,0,0,0,0,0,0,0,0,0,0,0,0,0,0,0,0,0,0,0,0,0,0,0,0,0,0,0,0,0,0,0,0,0,0,0,0,0,0,0,0,0,0,0,0,0,0,0,0,0,0,0,0,0,0,0,0,0,0,0,0,0,0,0,0,0,0,0,0,0,0,0,0,0,0,0,0,0,0,0,0,0,0,0,0,0,0,0,0,0,0,0,0,0,0,0,0,0,0,0,0,0,0,0,0,0,0,0,0,0,0,0,0,0,0,0,0,0,0,0,0,0,0,0,0,0,0,0,0,0,0,0,0,0,0,0,0,0,0,0,0,0,0,0,0,0,0,0,0,0,0,0,0,0,0,0,0,0,0,0,0,0,0,0,0,0,0,0,0,0,0,0,0,0,0,0,0,0,0,0,0,0,0,0,0,0,0,0,0,0,0,0,0,0,0,0,0,0,0,0,0,0,0,0,0,0,0,0,0,0,0,0,0,0,0,0,0,0,0,0,0,0,0,0,0,0,0,0,0,0,0,0,0,0,0,0,0,0,0,0,0,0,0,0,0,0,0,0,0,0,0,0,0,0,0,0,0,0,0,0,0,0,0,0,0,0,0,0,0,0,0,0,0,0,0,0,0,0,0,0,0,0,0,0,0,0,0,0,0,0,0,0,0,0,0,0,0,0,0,0,0,0,0,0,0,0,0,0,0,0,0,0,0,0,0,0,0,0,0,0,0,0,0,0,0,0,0,0,0,0,0,0,0,0,0,0,0,0,0,0,0,0,0,0,0,0,0,0,0,0,0,0,0,0,0,0,0,0,0,0,0,0,0,0,0,0,0,0,0,0,0,0,0,0,0,0,0,0,0,0,0,0,0,0,0,0,0,0,0,0,0,0,0,0,0,0,0,0,0,0,0,0,0,0,0,0,0,0,0,0,0,0,0,0,0,0,0,0,0,0,0,0,0,0,0,0,0,0,0,0,0,0,0,0,0,0,0,0,0,0,0,0,0,0,0,0,0,0,0,0,0,0,0,0,0,0,0,0,0,0,0,0,0,0,0,0,0,0,0,0,0,0,0,0,0,0,0,0,0,0,0,0,0,0,0,0,0,0,0,0,0,0,0,0,0,0,0,0,0,0,0,0,0,0,0,0,0,0,0,0,0,0,0,0,0,0,0,0,0,0,0,0,0,0,0,0,0,0,0,0,0,0,0,0,0,0,0,0,0,0,0,0,0,0,0,0,0,0,0,0,0,0,0,0,0,0,0,0,0,0,0,0,0,0,0,0,0,0,0,0,0,0,0,0,0,0,0,0,0,0,0,0,0,0,0,0,0,0,0,0,0,0,0,0,0,0,0,0,0,0,0,0,0,0,0,0,0,0,0,0,0,0,0,0,0,0,0,0,0,0,0,0,0,0,0,0,0,0,0,0,0,0,0,0,0,0,0,0,0,0,0,0,0,0,0,0,0,0,0,0,0,0,0,0,0,0,0,0,0,0,0,0,0,0,0,0,0,0,0,0,0,0,0,0,0,0,0,0,0,0,0,0,0,0,0,0,0,0,0,0,0,0,0,0,0,0,0,0,0,0,0,0,0,0,0,0,0,0,0,0,0,0,0,0,0,0,0,0,0,0,0,0,0,0,0,0,0,0,0,0,0,0,0,0,0,0,0,0,0,0,0,0,0,0,0,0,0,0,0,0,0,0,0,0,0,0,0,0,0,0,0,0,0,0,0,0,0,0,0,0,0,0,0,0,0,0,0,0,0,0,0,0,0,0,0,0,0,0,0,0,0,0,0,0,0,0,0,0,0,0,0,0,0,0,0,0,0,0,0,0,0,0,0,0,0,0,0,0,0,0,0,0,0,0,0,0,0,0,0,0,0,0,0,0,0,0,0,0,0,0,0,0,0,0,0,0,0,0,0,0,0,0,0,0,0,0,0,0,0,0,0,0,0,0,0,0,0,0,0,0,0,0,0,0,0,0,0,0,0,0,0,0,0,0,0,0,0,0,0,0],"trees":[{"base_weights":[2.8427389E-2,6.6552454E-1,-1.1587896E0,-1.136826E0,1.0877293E0,-2.1803277E0,-3.0712378E-1,-3.6241665E-1,-1.7129768E0,6.575713E-1,2.327105E0,-2.3948882E0,-1.0071089E0,-6.501465E-1,1.480371E0,-7.346389E-1,4.6734607E-1,-2.352371E0,-1.2105336E0,9.230573E-1,-1.3100895E0,1.5352619E0,1.8854539E-1,-4.2584416E-2,-2.4870188E0,-1.0074679E-1,-1.1346287E-2,3.7683862E-1,-1.078863E0,1.1730034E-1,1.3290131E-2,-1.230411E0,1.6926182E-2,-9.114276E-3,6.023721E-2,-1.8392223E-1,-7.958205E-2,-1.6850976E0,-4.8577243E-1,1.5080394E-1,1.1685127E0,-4.5685465E-3,-1.7757744E0,1.0853182E0,1.5577357E-1,-1.6695167E-1,-1.6616632E0,-1.1198682E-1,9.00727E-1,-1.5874075E0,-4.7555855E-1,-1.4088504E-2,-1.0317307E-1,-1.7869165E-2,2.116796E-2,-4.7674466E-2,-1.4160986E-1,6.6362876E-3,-7.252709E-2,3.768692E-1,-6.829294E-2,8.9962876E-1,2.0432932E0,-1.417767E-1,-9.877392E-1,1.3845736E0,-2.252551E-2,-3.0080538E-2,-1.9967242E0,1.4861053E-1,-3.5905093E-2,2.126016E-2,7.6440565E-2,-3.0213693E-2,-1.8947555E0,4.5813877E-2,-7.6463497E-1,5.448725E-3,6.678644E-2,6.6350214E-2,-2.3683416E-2,1.5130028E-1,4.7522165E-2,-1.0030642E-1,-3.066931E-3,9.996211E-2,1.1338818E-2,-5.4388434E-2,-1.5039313E-1,2.3772636E-2,-4.8603807E-3,-1.6751431E-1,-9.002797E-2,-1.0820707E-1,-1.7484762E-2],"categories":[],"categories_nodes":[],"categories_segments":[],"categories_sizes":[],"default_left":[0,0,0,0,1,0,1,0,0,0,0,0,0,0,0,0,0,0,0,0,0,0,0,0,0,0,0,0,0,0,0,0,0,0,0,0,0,0,0,1,0,0,0,0,0,0,0,0,0,0,0,0,0,0,0,0,0,0,0,0,0,1,0,0,0,0,0,0,0,0,0,0,0,0,0,0,0,0,0,0,0,0,0,0,0,0,0,0,0,0,0,0,0,0,0],"id":0,"left_children":[1,3,5,7,9,11,13,15,17,19,21,23,25,27,29,31,33,35,37,39,41,43,-1,-1,45,-1,-1,47,49,-1,-1,51,53,-1,-1,-1,-1,55,57,59,61,-1,63,65,-1,-1,67,69,71,73,75,-1,-1,-1,-1,-1,-1,-1,-1,77,-1,79,81,-1,83,85,-1,-1,87,89,-1,-1,-1,-1,91,-1,93,-1,-1,-1,-1,-1,-1,-1,-1,-1,-1,-1,-1,-1,-1,-1,-1,-1,-1],"loss_changes":[5.5465643E2,3.6673315E2,2.2068918E2,3.9196434E1,2.0272711E2,2.2406555E1,9.068589E1,1.4521916E1,8.941162E0,1.5622533E2,5.659619E1,1.0248779E1,1.0352358E1,5.516407E1,1.0360172E1,1.1961983E1,5.231172E0,2.1618881E0,9.671276E0,4.845227E1,2.006408E1,1.7746536E1,0E0,0E0,4.736328E-1,0E0,0E0,1.0356509E1,2.454084E1,0E0,0E0,6.620386E0,1.9378989E0,0E0,0E0,0E0,0E0,5.6763306E0,7.864862E0,1.9885122E1,4.11893E1,0E0,3.6368408E0,2.1141968E1,0E0,0E0,6.2397156E0,3.1679614E0,2.155861E0,1.2916679E1,1.7154774E1,0E0,0E0,0E0,0E0,0E0,0E0,0E0,0E0,1.1316003E1,0E0,3.22614E1,1.536853E1,0E0,8.118015E0,8.367111E0,0E0,0E0,1.736824E0,1.0840944E0,0E0,0E0,0E0,0E0,2.106575E0,0E0,1.5890306E1,0E0,0E0,0E0,0E0,0E0,0E0,0E0,0E0,0E0,0E0,0E0,0E0,0E0,0E0,0E0,0E0,0E0,0E0],"parents":[2147483647,0,0,1,1,2,2,3,3,4,4,5,5,6,6,7,7,8,8,9,9,10,10,11,11,12,12,13,13,14,14,15,15,16,16,17,17,18,18,19,19,20,20,21,21,24,24,27,27,28,28,31,31,32,32,37,37,38,38,39,39,40,40,42,42,43,43,46,46,47,47,48,48,49,49,50,50,59,59,61,61,62,62,64,64,65,65,68,68,69,69,74,74,76,76],"right_children":[2,4,6,8,10,12,14,16,18,20,22,24,26,28,30,32,34,36,38,40,42,44,-1,-1,46,-1,-1,48,50,-1,-1,52,54,-1,-1,-1,-1,56,58,60,62,-1,64,66,-1,-1,68,70,72,74,76,-1,-1,-1,-1,-1,-1,-1,-1,78,-1,80,82,-1,84,86,-1,-1,88,90,-1,-1,-1,-1,92,-1,94,-1,-1,-1,-1,-1,-1,-1,-1,-1,-1,-1,-1,-1,-1,-1,-1,-1,-1],"split_conditions":[1.48E3,1.344202E1,1.2701138E1,3.4156067E1,1.55637455E1,4.853528E1,1.55637455E1,2.1458623E2,-6.641384E0,5.875759E1,4.407141E1,1.56E3,2.88E3,-8.549845E0,2.637795E2,1.2379557E1,7.497991E0,5.7560916E0,2.4648235E1,8.890054E0,3E1,1.725649E1,1.8854539E-1,-4.2584416E-2,1.2102775E1,-1.0074679E-1,-1.1346287E-2,1.0118087E1,1.9220617E1,1.1730034E-1,1.3290131E-2,6.4859595E0,3.988567E1,-9.114276E-3,6.023721E-2,-1.8392223E-1,-7.958205E-2,-5.57583E0,3.8930946E1,1.2835266E1,5.9371483E1,-4.5685465E-3,3.3822163E1,5.875759E1,1.5577357E-1,-1.6695167E-1,-8.67851E0,-7.304662E0,2.205558E-2,-2.5743053E0,2.0169912E1,-1.4088504E-2,-1.0317307E-1,-1.7869165E-2,2.116796E-2,-4.7674466E-2,-1.4160986E-1,6.6362876E-3,-7.252709E-2,3.8930946E1,-6.829294E-2,4.785331E-2,-6.835544E0,-1.417767E-1,1.767483E1,3.04E1,-2.252551E-2,-3.0080538E-2,-4.550615E0,1.485828E1,-3.5905093E-2,2.126016E-2,7.6440565E-2,-3.0213693E-2,1.0071869E1,4.5813877E-2,2.1030703E1,5.448725E-3,6.678644E-2,6.6350214E-2,-2.3683416E-2,1.5130028E-1,4.7522165E-2,-1.0030642E-1,-3.066931E-3,9.996211E-2,1.1338818E-2,-5.4388434E-2,-1.5039313E-1,2.3772636E-2,-4.8603807E-3,-1.6751431E-1,-9.002797E-2,-1.0820707E-1,-1.7484762E-2],"split_indices":[7,1,1,14,1,4,1,18,13,14,10,7,7,19,18,1,17,17,10,17,7,17,0,0,1,0,0,17,5,0,0,10,4,0,0,0,0,13,10,11,4,0,10,14,0,0,13,13,2,11,5,0,0,0,0,0,0,0,0,10,0,11,19,0,5,2,0,0,19,1,0,0,0,0,11,0,5,0,0,0,0,0,0,0,0,0,0,0,0,0,0,0,0,0,0],"split_type":[0,0,0,0,0,0,0,0,0,0,0,0,0,0,0,0,0,0,0,0,0,0,0,0,0,0,0,0,0,0,0,0,0,0,0,0,0,0,0,0,0,0,0,0,0,0,0,0,0,0,0,0,0,0,0,0,0,0,0,0,0,0,0,0,0,0,0,0,0,0,0,0,0,0,0,0,0,0,0,0,0,0,0,0,0,0,0,0,0,0,0,0,0,0,0],"sum_hessian":[7.27E2,4.74E2,2.53E2,8.9E1,3.85E2,1.13E2,1.4E2,4E1,4.9E1,2.89E2,9.6E1,9.3E1,2E1,1.19E2,2.1E1,2.8E1,1.2E1,1.7E1,3.2E1,2.56E2,3.3E1,5.6E1,4E1,6E0,8.7E1,1E1,1E1,3.5E1,8.4E1,1.5E1,6E0,1.6E1,1.2E1,6E0,6E0,8E0,9E0,1.7E1,1.5E1,6.3E1,1.93E2,1E1,2.3E1,4.2E1,1.4E1,6.7E1,2E1,1.9E1,1.6E1,4.3E1,4.1E1,6E0,1E1,6E0,6E0,9E0,8E0,9E0,6E0,5.5E1,8E0,1.52E2,4.1E1,1.1E1,1.2E1,3.5E1,7E0,6E0,1.4E1,1.3E1,6E0,8E0,8E0,1.1E1,3.2E1,7E0,3.4E1,4.1E1,1.4E1,1.36E2,1.6E1,3E1,1.1E1,6E0,6E0,2.9E1,6E0,6E0,8E0,6E0,7E0,7E0,2.5E1,9E0,2.5E1],"tree_param":{"num_deleted":"0","num_feature":"20","num_nodes":"95","size_leaf_vector":"1"}},{"base_weights":[1.5475198E-2,4.9857438E-1,-1.2731698E0,-7.9067075E-1,8.952236E-1,-1.427059E0,1.04971334E-1,-2.2295926E0,-4.106321E-1,5.5246115E-1,2.2199318E0,-8.5737604E-1,-1.8715158E0,-5.3655446E-2,-1.5941316E-1,-9.7397155E-1,3.6669973E-1,8.938443E-1,-1.466544E-1,2.4721441E0,3.1570993E-2,-1.3821211E0,-2.3662513E-1,-2.1537657E0,-7.0023334E-1,-4.956164E-1,-1.7181739E0,-7.4305654E-1,9.0877295E-1,9.9785316E-1,-6.946074E-2,6.469094E-1,-8.940956E-1,2.7404797E0,3.2333586E-2,-1.7757275E0,-5.46148E-1,-6.472555E-1,6.502153E-1,-2.2381241E0,-6.443577E-2,-1.7590253E0,1.0351542E-1,2.7642034E-2,-9.027719E-1,-1.3449399E-1,-5.3151783E-2,-6.323824E-2,-1.225521E-2,2.544654E-1,1.2869664E-1,-0E0,1.2491289E0,-5.354433E-2,1.013032E0,-1.2758952E-1,-4.5184413E-1,6.504911E-2,2.983926E0,-1.1655572E-2,-2.1483533E0,-5.9015073E-2,1.0873116E-2,-1.20978266E-1,-1.1788141E-1,-0E0,6.901592E-2,-6.513045E-2,-1.5571086E-1,-1.4903586E-1,-2.2964628E-2,-8.347498E-2,2.9129906E-2,-2.3511618E-2,3.477067E-2,-3.700115E-2,3.871021E-2,8.8467926E-2,-5.6924347E-2,7.433602E-2,-8.2295376E-4,-8.838708E-2,-1.0090984E-2,1.8854539E-1,1.18660845E-1,-6.0400587E-2,-1.503504E-1,-4.1268542E-2,2.23186E-2],"categories":[2,6,7],"categories_nodes":[5],"categories_segments":[0],"categories_sizes":[3],"default_left":[0,0,0,0,0,1,0,0,0,0,0,0,0,0,0,0,0,1,0,0,0,0,0,0,0,0,0,0,1,0,0,0,0,0,0,0,0,0,0,0,0,0,0,0,0,0,0,0,0,0,0,0,0,0,0,0,0,0,0,0,0,0,0,0,0,0,0,0,0,0,0,0,0,0,0,0,0,0,0,0,0,0,0,0,0,0,0,0,0],"id":1,"left_children":[1,3,5,7,9,11,-1,13,15,17,19,21,23,-1,-1,25,27,29,31,33,-1,35,37,39,41,43,45,47,49,51,-1,53,55,57,-1,59,61,63,65,67,-1,69,-1,-1,71,-1,-1,-1,-1,73,-1,75,77,-1,79,-1,81,-1,83,-1,85,-1,-1,-1,87,-1,-1,-1,-1,-1,-1,-1,-1,-1,-1,-1,-1,-1,-1,-1,-1,-1,-1,-1,-1,-1,-1,-1,-1],"loss_changes":[4.3850323E2,2.641026E2,9.398425E1,6.4298225E1,1.7519986E2,4.2150116E1,0E0,4.354431E0,4.513864E1,7.606038E1,3.0865723E1,2.7012577E1,2.9030365E1,0E0,0E0,1.8651337E1,2.868468E1,4.7686737E1,6.489174E1,3.1928345E1,0E0,1.2324875E1,1.7129105E1,1.1679077E0,6.7889404E1,1.6643446E1,3.001007E0,1.6750832E0,2.1573061E1,5.1144485E1,0E0,3.1794872E1,2.5650272E1,1.6135773E1,0E0,1.627118E1,6.1178355E0,2.0308659E1,4.465122E0,1.3492676E1,0E0,1.2602383E1,0E0,0E0,1.8896955E1,0E0,0E0,0E0,0E0,5.1402683E0,0E0,1.7329584E1,5.9567444E1,0E0,7.973549E0,0E0,1.1678425E1,0E0,8.013916E-1,0E0,4.535904E-1,0E0,0E0,0E0,7.3598585E0,0E0,0E0,0E0,0E0,0E0,0E0,0E0,0E0,0E0,0E0,0E0,0E0,0E0,0E0,0E0,0E0,0E0,0E0,0E0,0E0,0E0,0E0,0E0,0E0],"parents":[2147483647,0,0,1,1,2,2,3,3,4,4,5,5,7,7,8,8,9,9,10,10,11,11,12,12,15,15,16,16,17,17,18,18,19,19,21,21,22,22,23,23,24,24,25,25,26,26,27,27,28,28,29,29,31,31,32,32,33,33,35,35,36,36,37,37,38,38,39,39,41,41,44,44,49,49,51,51,52,52,54,54,56,56,58,58,60,60,64,64],"right_children":[2,4,6,8,10,12,-1,14,16,18,20,22,24,-1,-1,26,28,30,32,34,-1,36,38,40,42,44,46,48,50,52,-1,54,56,58,-1,60,62,64,66,68,-1,70,-1,-1,72,-1,-1,-1,-1,74,-1,76,78,-1,80,-1,82,-1,84,-1,86,-1,-1,-1,88,-1,-1,-1,-1,-1,-1,-1,-1,-1,-1,-1,-1,-1,-1,-1,-1,-1,-1,-1,-1,-1,-1,-1,-1],"split_conditions":[1.8E3,1.2114053E1,5.5970516E4,3.6727576E0,5.9694897E1,1E-45,1.04971334E-1,4.294762E3,1.2495406E0,-6.1867995E0,-7.397505E0,2.205558E-2,4.9696533E1,-5.3655446E-2,-1.5941316E-1,-7.157757E0,3.9717648E1,1.7373722E1,2.65E2,7.5716995E1,3.1570993E-2,7.6367816E2,2.2442686E1,5.34238E2,5.19E3,3.800702E1,1.6521336E4,1.6784486E2,-2.1311525E1,5.6120917E2,-6.946074E-2,1.8487705E4,3.9125343E1,7.831321E2,3.2333586E-2,3.6796257E1,2.2704086E4,1.3048922E1,5.578807E1,3.0206715E1,-6.443577E-2,2.6366607E4,1.0351542E-1,2.7642034E-2,1.0909551E1,-1.3449399E-1,-5.3151783E-2,-6.323824E-2,-1.225521E-2,1.7321817E1,1.2869664E-1,3.3065016E4,1.0995071E3,-5.354433E-2,3.8619106E1,-1.2758952E-1,-5.688497E0,6.504911E-2,7.1351875E1,-1.1655572E-2,2.16E3,-5.9015073E-2,1.0873116E-2,-1.20978266E-1,3E3,-0E0,6.901592E-2,-6.513045E-2,-1.5571086E-1,-1.4903586E-1,-2.2964628E-2,-8.347498E-2,2.9129906E-2,-2.3511618E-2,3.477067E-2,-3.700115E-2,3.871021E-2,8.8467926E-2,-5.6924347E-2,7.433602E-2,-8.2295376E-4,-8.838708E-2,-1.0090984E-2,1.8854539E-1,1.18660845E-1,-6.0400587E-2,-1.503504E-1,-4.1268542E-2,2.23186E-2],"split_indices":[7,6,9,17,4,8,0,9,2,13,13,2,4,0,0,13,4,11,7,4,0,12,10,16,7,4,9,16,11,12,0,9,4,12,0,4,9,5,4,4,0,9,0,0,6,0,0,0,0,5,0,9,12,0,6,0,13,0,4,0,7,0,0,0,7,0,0,0,0,0,0,0,0,0,0,0,0,0,0,0,0,0,0,0,0,0,0,0,0],"split_type":[0,0,0,0,0,1,0,0,0,0,0,0,0,0,0,0,0,0,0,0,0,0,0,0,0,0,0,0,0,0,0,0,0,0,0,0,0,0,0,0,0,0,0,0,0,0,0,0,0,0,0,0,0,0,0,0,0,0,0,0,0,0,0,0,0,0,0,0,0,0,0,0,0,0,0,0,0,0,0,0,0,0,0,0,0,0,0,0,0],"sum_hessian":[6.98E2,5.09E2,1.89E2,1.19E2,3.9E2,1.81E2,8E0,2.2E1,9.7E1,3.13E2,7.7E1,8.3E1,9.8E1,6E0,1.6E1,5.6E1,4.1E1,2.1E2,1.03E2,6.6E1,1.1E1,4.3E1,4E1,7.7E1,2.1E1,3.7E1,1.9E1,1.3E1,2.8E1,2.01E2,9E0,5E1,5.3E1,5.7E1,9E0,2.7E1,1.6E1,2.8E1,1.2E1,6.9E1,8E0,1.5E1,6E0,1.1E1,2.6E1,1E1,9E0,7E0,6E0,2E1,8E0,4.1E1,1.6E2,9E0,4.1E1,1.2E1,4.1E1,9E0,4.8E1,6E0,2.1E1,1E1,6E0,6E0,2.2E1,6E0,6E0,1.4E1,5.5E1,9E0,6E0,2E1,6E0,6E0,1.4E1,2.1E1,2E1,1.5E2,1E1,3.5E1,6E0,7E0,3.4E1,3E1,1.8E1,6E0,1.5E1,1E1,1.2E1],"tree_param":{"num_deleted":"0","num_feature":"20","num_nodes":"89","size_leaf_vector":"1"}},{"base_weights":[4.104029E-2,-1.0002478E0,6.8763894E-1,-2.0449543E-1,-1.6153882E0,4.4147092E-1,2.459326E0,2.5698787E-1,-1.1803446E0,-1.1455138E0,-2.2548082E0,9.902321E-1,-7.496205E-1,9.063262E-3,2.8602645E0,7.168281E-1,-7.515854E-1,-1.6583659E-1,-1.7698011E0,-1.62823E0,9.3721054E-2,-1.7698765E-1,-8.599901E-1,5.023591E-1,1.6849506E0,-1.2642705E0,3.3928677E-1,1.8854539E-1,1.6698037E0,-5.2063476E-2,1.3203291E0,-1.0503105E0,-0E0,1.1650103E-2,-2.5546456E-2,-1.3100687E-1,-3.267857E-2,-1.8051221E0,6.769881E-3,-2.2871315E-1,3.9763324E-2,-7.3221564E-2,-1.4631344E-2,8.174115E-2,1.2875217E0,1.481918E-1,9.264803E-1,5.839442E-2,-1.5091753E0,-3.5556E-2,7.201119E-1,4.609579E-2,1.2190286E-1,4.7237813E-2,-4.707957E-1,1.6667789E-2,1.5154667E0,-2.224543E-2,-7.983132E-2,-1.1874163E-1,-4.2837482E-2,1.691351E-2,-3.2363955E-2,1.0372524E0,-2.8650263E-1,1.6079379E0,4.1014E-1,1.4029945E0,-5.2237418E-2,-3.3552792E-2,4.5531504E-2,-2.1472197E0,-9.893167E-1,9.3526137E-1,-0E0,-5.0477903E-2,1.338986E-2,1.3417679E-1,5.641962E-2,8.077421E-2,4.2817835E-2,1.046483E-2,-5.4251947E-2,3.15037E-2,1.2116546E-1,6.016393E-2,-7.5710053E-3,6.456811E-2,1.3020232E-1,4.646698E-2,-7.397425E-2,-1.6671519E-1,-2.1683473E-2,-9.785187E-2,-7.4138166E-3,1.2653842E-2,7.174256E-2],"categories":[0,1,2,4,5,6,7,8,9,2,0,2,7],"categories_nodes":[17,46,64],"categories_segments":[0,9,10],"categories_sizes":[9,1,3],"default_left":[0,0,0,0,0,0,0,0,0,0,0,0,0,0,0,0,0,1,0,0,0,0,0,0,0,0,0,0,0,0,0,0,0,0,0,0,0,0,0,0,0,0,0,0,0,0,1,0,0,0,0,0,0,0,0,0,0,0,0,0,0,0,0,0,1,0,0,0,0,0,0,0,0,0,0,0,0,0,0,0,0,0,0,0,0,0,0,0,0,0,0,0,0,0,0,0,0],"id":2,"left_children":[1,3,5,7,9,11,13,15,17,19,21,23,25,-1,27,29,31,33,35,37,39,-1,41,43,45,47,49,-1,51,53,55,57,-1,-1,-1,-1,-1,59,-1,61,-1,-1,-1,63,65,-1,67,69,71,-1,73,-1,-1,-1,75,-1,77,-1,-1,-1,-1,-1,-1,79,81,83,85,87,89,-1,-1,91,93,95,-1,-1,-1,-1,-1,-1,-1,-1,-1,-1,-1,-1,-1,-1,-1,-1,-1,-1,-1,-1,-1,-1,-1],"loss_changes":[4.7829916E2,1.3206796E2,1.8827904E2,5.6332207E1,3.8932617E1,2.5600885E2,4.7407074E1,4.1236717E1,2.2861042E1,5.7024384E1,4.1587738E1,8.814981E1,7.103097E1,0E0,7.397827E0,2.8426022E1,6.2108097E0,1.9229814E0,6.591751E0,2.178688E1,5.7824583E0,0E0,3.3522968E0,5.286408E1,4.9562317E1,2.8103653E1,1.590029E1,0E0,7.413826E-1,1.104418E1,5.6740456E0,1.7028465E0,0E0,0E0,0E0,0E0,0E0,2.1407776E0,0E0,3.4643364E0,0E0,0E0,0E0,3.9372467E1,1.3761208E1,0E0,2.6677307E1,7.7788363E0,1.8065842E1,0E0,4.901474E0,0E0,0E0,0E0,5.517726E0,0E0,5.421051E0,0E0,0E0,0E0,0E0,0E0,0E0,3.2081223E-1,2.1665636E1,1.1282715E1,6.193222E0,3.778099E0,2.1651974E1,0E0,0E0,2.4312927E1,2.1550922E1,2.8570747E0,0E0,0E0,0E0,0E0,0E0,0E0,0E0,0E0,0E0,0E0,0E0,0E0,0E0,0E0,0E0,0E0,0E0,0E0,0E0,0E0,0E0,0E0,0E0],"parents":[2147483647,0,0,1,1,2,2,3,3,4,4,5,5,6,6,7,7,8,8,9,9,10,10,11,11,12,12,14,14,15,15,16,16,17,17,18,18,19,19,20,20,22,22,23,23,24,24,25,25,26,26,28,28,29,29,30,30,31,31,37,37,39,39,43,43,44,44,46,46,47,47,48,48,50,50,54,54,56,56,63,63,64,64,65,65,66,66,67,67,68,68,71,71,72,72,73,73],"right_children":[2,4,6,8,10,12,14,16,18,20,22,24,26,-1,28,30,32,34,36,38,40,-1,42,44,46,48,50,-1,52,54,56,58,-1,-1,-1,-1,-1,60,-1,62,-1,-1,-1,64,66,-1,68,70,72,-1,74,-1,-1,-1,76,-1,78,-1,-1,-1,-1,-1,-1,80,82,84,86,88,90,-1,-1,92,94,96,-1,-1,-1,-1,-1,-1,-1,-1,-1,-1,-1,-1,-1,-1,-1,-1,-1,-1,-1,-1,-1,-1,-1],"split_conditions":[1.3792529E1,3.243843E1,5.0547466E1,9.703704E1,7E0,3.833333E0,9.910582E0,2.833333E0,1.405E3,2.205558E-2,8.403492E3,2.1943699E1,2.9591166E4,9.063262E-3,-7.8366556E0,9.440951E0,1.0642653E0,1E-45,-8.2175045E0,3.4086094E1,4.0980896E1,-1.7698765E-1,4.7522E1,2.205558E-2,3.09571E1,1.3E2,7.207457E1,1.8854539E-1,2.65E2,1.7755867E1,1.347448E2,5.1E2,-0E0,1.1650103E-2,-2.5546456E-2,-1.3100687E-1,-3.267857E-2,5.574112E1,6.769881E-3,1.7004092E2,3.9763324E-2,-7.3221564E-2,-1.4631344E-2,5.8E1,1.776742E1,1.481918E-1,1E-45,2.2749723E1,1.7396639E1,-3.5556E-2,9.462687E1,4.609579E-2,1.2190286E-1,4.7237813E-2,8.860588E0,1.6667789E-2,1.1589474E1,-2.224543E-2,-7.983132E-2,-1.1874163E-1,-4.2837482E-2,1.691351E-2,-3.2363955E-2,1.23803825E2,1E-45,1.4986216E1,3.9E2,2.2316751E1,1.10721436E2,-3.3552792E-2,4.5531504E-2,2.7614862E1,7.9744816E-2,1.5725584E1,-0E0,-5.0477903E-2,1.338986E-2,1.3417679E-1,5.641962E-2,8.077421E-2,4.2817835E-2,1.046483E-2,-5.4251947E-2,3.15037E-2,1.2116546E-1,6.016393E-2,-7.5710053E-3,6.456811E-2,1.3020232E-1,4.646698E-2,-7.397425E-2,-1.6671519E-1,-2.1683473E-2,-9.785187E-2,-7.4138166E-3,1.2653842E-2,7.174256E-2],"split_indices":[6,14,10,3,0,0,3,0,7,2,9,6,9,0,19,10,2,8,19,10,15,0,14,2,14,7,15,0,7,5,18,7,0,0,0,0,0,15,0,18,0,0,0,7,6,0,8,6,5,0,3,0,0,0,6,0,10,0,0,0,0,0,0,18,8,10,7,5,15,0,0,6,2,10,0,0,0,0,0,0,0,0,0,0,0,0,0,0,0,0,0,0,0,0,0,0,0],"split_type":[0,0,0,0,0,0,0,0,0,0,0,0,0,0,0,0,0,1,0,0,0,0,0,0,0,0,0,0,0,0,0,0,0,0,0,0,0,0,0,0,0,0,0,0,0,0,1,0,0,0,0,0,0,0,0,0,0,0,0,0,0,0,0,0,1,0,0,0,0,0,0,0,0,0,0,0,0,0,0,0,0,0,0,0,0,0,0,0,0,0,0,0,0,0,0,0,0],"sum_hessian":[7.04E2,2.69E2,4.35E2,1.19E2,1.5E2,3.85E2,5E1,8.2E1,3.7E1,9.1E1,5.9E1,2.64E2,1.21E2,8E0,4.2E1,5.7E1,2.5E1,1.5E1,2.2E1,6.5E1,2.6E1,4E1,1.9E1,1.58E2,1.06E2,8.2E1,3.9E1,2.6E1,1.6E1,2.6E1,3.1E1,1.7E1,8E0,6E0,9E0,1.6E1,6E0,5.9E1,6E0,1.7E1,9E0,1.1E1,8E0,1.05E2,5.3E1,5.3E1,5.3E1,1.3E1,6.9E1,1.1E1,2.8E1,6E0,1E1,8E0,1.8E1,6E0,2.5E1,6E0,1.1E1,5.3E1,6E0,6E0,1.1E1,2.8E1,7.7E1,3.7E1,1.6E1,3.5E1,1.8E1,7E0,6E0,2.7E1,4.2E1,2.1E1,7E0,1.2E1,6E0,9E0,1.6E1,1.2E1,1.6E1,4.4E1,3.3E1,1E1,2.7E1,7E0,9E0,2.7E1,8E0,1.1E1,7E0,2E1,7E0,2.4E1,1.8E1,6E0,1.5E1],"tree_param":{"num_deleted":"0","num_feature":"20","num_nodes":"97","size_leaf_vector":"1"}},{"base_weights":[1.9496938E-2,5.4014724E-1,-1.4812726E0,-7.844747E-1,1.1408794E0,-2.314221E0,-1.1061734E0,1.8997338E-1,-1.4239343E0,2.0929275E0,6.263769E-1,-7.851945E-2,-1.7212823E-1,-1.5458908E0,-5.910118E-1,5.1957506E-1,-4.8625025E-1,-1.1677079E-1,-1.0829191E0,7.452338E-1,2.4156082E0,9.8569494E-1,-2.1457763E-1,-1.7247906E0,-2.2610525E-2,-1.2064507E0,8.3919026E-2,1.2021416E0,-1.3111593E-1,-1.08175E0,4.1032758E-2,-1.4322822E0,-3.6621925E-1,9.757311E-1,-3.9981846E-3,2.6355472E0,1.8696828E-2,4.049929E-1,1.4062401E0,-8.780046E-2,4.5616727E-2,-1.8872455E0,-5.445691E-2,-1.6998713E0,-3.0358085E-1,8.832432E-1,-6.7367816E-1,1.00544356E-1,2.5587402E-2,1.08087845E-1,-3.7818857E-2,-1.6968606E-2,-9.107961E-2,-1.0209624E-1,-1.1002506E-2,6.4223036E-2,-9.703279E-1,1.19434325E-2,8.0447145E-2,7.732985E-2,2.7642744E0,-0E0,9.38018E-1,1.5161467E0,-1.0351052E-2,4.591862E-1,-4.0441835E-1,-2.0690165E0,-2.5528487E-2,-3.824735E-2,-1.3837755E-1,-4.239783E-2,1.1342268E-2,6.739015E-2,2.0793179E-2,1.43063245E-2,-8.064248E-2,3.528978E-2,-1.1691915E-2,-1.5839512E-3,-9.502992E-2,1.0876568E-1,1.8854539E-1,3.1430252E-2,-3.2801002E-2,7.680351E-2,-1.2625103E-2,1.2144928E-1,4.2480092E-2,-1.1002252E-2,4.0476575E-2,2.2053815E-2,-3.9326206E-2,-6.392984E-2,-1.5673143E-1],"categories":[],"categories_nodes":[],"categories_segments":[],"categories_sizes":[],"default_left":[0,0,0,0,0,0,0,0,0,0,0,0,0,0,0,0,0,0,0,0,0,0,0,0,0,0,0,0,0,0,0,0,0,0,0,0,0,0,0,0,0,0,0,0,0,0,0,0,0,0,0,0,0,0,0,0,0,0,0,0,0,0,0,0,0,0,0,0,0,0,0,0,0,0,0,0,0,0,0,0,0,0,0,0,0,0,0,0,0,0,0,0,0,0,0],"id":3,"left_children":[1,3,5,7,9,11,13,15,17,19,21,-1,-1,23,25,27,29,-1,31,33,35,37,39,41,-1,43,45,47,49,51,-1,53,55,57,-1,59,-1,61,63,-1,65,67,-1,69,71,73,75,-1,-1,77,-1,-1,-1,-1,-1,-1,79,-1,-1,-1,81,83,85,87,-1,89,91,93,-1,-1,-1,-1,-1,-1,-1,-1,-1,-1,-1,-1,-1,-1,-1,-1,-1,-1,-1,-1,-1,-1,-1,-1,-1,-1,-1],"loss_changes":[5.612516E2,4.2696417E2,5.088376E1,1.05831924E2,1.7665976E2,1.5349243E1,2.7575272E1,1.6342001E1,9.634125E0,5.0455566E1,7.430837E1,0E0,0E0,1.2904114E1,2.8089615E1,2.2174025E1,1.8596544E1,0E0,1.4456291E1,5.831112E0,4.486493E1,4.011487E1,2.3947487E1,3.7598114E0,0E0,1.397998E1,2.2674023E1,5.6501884E0,3.525292E0,3.8320847E0,0E0,9.086845E0,2.4060732E1,4.6701546E0,0E0,7.1279297E0,0E0,1.6579643E1,1.7939255E1,0E0,1.2710021E1,1.03003845E1,0E0,8.142727E0,3.4813852E0,8.13961E-1,1.1630769E1,0E0,0E0,3.2539794E0,0E0,0E0,0E0,0E0,0E0,0E0,9.388975E0,0E0,0E0,0E0,1.5342224E1,1.305957E1,1.165624E1,2.845549E1,0E0,4.6205273E0,6.188207E0,1.1645218E1,0E0,0E0,0E0,0E0,0E0,0E0,0E0,0E0,0E0,0E0,0E0,0E0,0E0,0E0,0E0,0E0,0E0,0E0,0E0,0E0,0E0,0E0,0E0,0E0,0E0,0E0,0E0],"parents":[2147483647,0,0,1,1,2,2,3,3,4,4,5,5,6,6,7,7,8,8,9,9,10,10,13,13,14,14,15,15,16,16,18,18,19,19,20,20,21,21,22,22,23,23,25,25,26,26,27,27,28,28,29,29,31,31,32,32,33,33,35,35,37,37,38,38,40,40,41,41,43,43,44,44,45,45,46,46,49,49,56,56,60,60,61,61,62,62,63,63,65,65,66,66,67,67],"right_children":[2,4,6,8,10,12,14,16,18,20,22,-1,-1,24,26,28,30,-1,32,34,36,38,40,42,-1,44,46,48,50,52,-1,54,56,58,-1,60,-1,62,64,-1,66,68,-1,70,72,74,76,-1,-1,78,-1,-1,-1,-1,-1,-1,80,-1,-1,-1,82,84,86,88,-1,90,92,94,-1,-1,-1,-1,-1,-1,-1,-1,-1,-1,-1,-1,-1,-1,-1,-1,-1,-1,-1,-1,-1,-1,-1,-1,-1,-1,-1],"split_conditions":[5.083333E0,5.749829E2,5.857431E0,1.365E3,-7.95971E0,-8.45543E0,1.9022728E1,-7.1708217E0,8.745972E0,1.3311829E1,2.833333E0,-7.851945E-2,-1.7212823E-1,2.0750677E2,1.9344286E1,5.2E2,1.3417175E1,-1.1677079E-1,2.881941E2,3.666667E0,1.1148341E3,1.776742E1,1.5516666E1,1.2E1,-2.2610525E-2,-3.9314966E0,-4.88761E0,4.4537122E2,6.4859595E0,3.807103E1,4.1032758E-2,4.32E3,2.175E3,1.9910856E1,-3.9981846E-3,7.226756E2,1.8696828E-2,6.2E2,1.0995071E3,-8.780046E-2,8.057737E2,3.912776E1,-5.445691E-2,6.3289E1,6.5569763E0,7.798265E2,9.166667E0,1.00544356E-1,2.5587402E-2,3.2245052E1,-3.7818857E-2,-1.6968606E-2,-9.107961E-2,-1.0209624E-1,-1.1002506E-2,6.4223036E-2,1.9457577E1,1.19434325E-2,8.0447145E-2,7.732985E-2,-1.1504186E0,1.45E2,1.0723653E1,-6.403689E0,-1.0351052E-2,1.342137E1,1.6E2,1.7026728E1,-2.5528487E-2,-3.824735E-2,-1.3837755E-1,-4.239783E-2,1.1342268E-2,6.739015E-2,2.0793179E-2,1.43063245E-2,-8.064248E-2,3.528978E-2,-1.1691915E-2,-1.5839512E-3,-9.502992E-2,1.0876568E-1,1.8854539E-1,3.1430252E-2,-3.2801002E-2,7.680351E-2,-1.2625103E-2,1.2144928E-1,4.2480092E-2,-1.1002252E-2,4.0476575E-2,2.2053815E-2,-3.9326206E-2,-6.392984E-2,-1.5673143E-1],"split_indices":[0,12,17,7,13,13,5,13,6,6,0,0,0,16,6,7,17,0,12,0,12,6,5,0,0,19,19,12,10,15,0,7,7,15,0,12,0,7,12,0,12,10,0,15,17,12,0,0,0,11,0,0,0,0,0,0,10,0,0,0,11,7,17,13,0,10,7,10,0,0,0,0,0,0,0,0,0,0,0,0,0,0,0,0,0,0,0,0,0,0,0,0,0,0,0],"split_type":[0,0,0,0,0,0,0,0,0,0,0,0,0,0,0,0,0,0,0,0,0,0,0,0,0,0,0,0,0,0,0,0,0,0,0,0,0,0,0,0,0,0,0,0,0,0,0,0,0,0,0,0,0,0,0,0,0,0,0,0,0,0,0,0,0,0,0,0,0,0,0,0,0,0,0,0,0,0,0,0,0,0,0,0,0,0,0,0,0,0,0,0,0,0,0],"sum_hessian":[7.12E2,5.3E2,1.82E2,1.65E2,3.65E2,5.2E1,1.3E2,6.6E1,9.9E1,1.25E2,2.4E2,1.8E1,3.4E1,6.7E1,6.3E1,4.5E1,2.1E1,3.8E1,6.1E1,2.6E1,9.9E1,1.68E2,7.2E1,5.7E1,1E1,3.2E1,3.1E1,2.1E1,2.4E1,1.4E1,7E0,3.9E1,2.2E1,2E1,6E0,8.9E1,1E1,7.3E1,9.5E1,1.1E1,6.1E1,4.5E1,1.2E1,1.9E1,1.3E1,1.5E1,1.6E1,1.2E1,9E0,1.7E1,7E0,6E0,8E0,3.3E1,6E0,6E0,1.6E1,7E0,1.3E1,1E1,7.9E1,4.3E1,3E1,8.9E1,6E0,3.2E1,2.9E1,3.9E1,6E0,8E0,1.1E1,7E0,6E0,9E0,6E0,7E0,9E0,6E0,1.1E1,7E0,9E0,2.5E1,5.4E1,2.2E1,2.1E1,2.4E1,6E0,5.7E1,3.2E1,7E0,2.5E1,6E0,2.3E1,1.4E1,2.5E1],"tree_param":{"num_deleted":"0","num_feature":"20","num_nodes":"95","size_leaf_vector":"1"}},{"base_weights":[2.403462E-2,-2.5829673E-1,1.9677296E0,5.3143865E-1,-6.498976E-1,4.1201624E-1,2.2996244E0,-3.1031898E-1,9.6961886E-1,-4.2524946E-1,-1.9359446E0,8.116888E-2,-5.233625E-2,2.5705004E0,1.2998191E-2,-1.1604055E0,-4.0719353E-2,6.511521E-1,1.3569016E0,4.376953E-1,-7.8009135E-1,-3.2792255E-2,-2.0570445E0,1.8854539E-1,1.336676E0,-2.8870225E-2,-9.986624E-2,1.6319802E-1,-7.280355E-2,1.0624213E-2,1.0934501E0,1.7429239E0,4.941085E-1,7.387755E-1,-3.1670222E-1,-1.453221E0,-4.4430587E-1,-1.1864598E0,-2.2882912E0,1.003306E-1,2.7795732E-2,7.808645E-1,-3.4135935E-1,4.4665387E-1,-6.3238956E-2,-1.0073965E-2,1.3192703E0,1.1755726E-1,4.2048357E-2,8.931568E-2,-1.5051854E-1,1.491928E-1,1.247211E0,5.0885115E-2,-6.5953135E-1,-2.5908408E-1,-1.7797474E0,-1.035862E-1,-9.578587E-1,-2.6425691E-2,-9.815756E-2,-5.5510454E-2,-1.5408672E-1,1.8816555E-2,5.9741504E-2,-8.135693E-2,2.8039671E-2,5.627278E-2,1.0557772E-2,9.1268666E-2,2.1386858E-2,-5.427678E-2,3.2026708E-2,-1.12546515E-2,4.741416E-2,9.394119E-2,8.383678E-3,-7.9551354E-2,-4.9835127E-3,-3.479676E-2,1.4960071E-2,-7.8865744E-2,-1.3923293E-1,-1.8869814E-2,9.1826156E-2,-9.872005E-2,-3.1534337E-2],"categories":[],"categories_nodes":[],"categories_segments":[],"categories_sizes":[],"default_left":[0,0,0,0,0,0,0,0,0,0,0,0,0,0,0,0,0,0,0,0,0,0,0,0,0,0,0,0,0,0,0,0,0,0,0,0,0,0,0,0,0,0,0,0,0,0,0,0,0,0,1,0,1,0,0,0,0,0,0,0,0,0,0,0,0,0,0,0,0,0,0,0,0,0,0,0,0,0,0,0,0,0,0,0,0,0,0],"id":4,"left_children":[1,3,5,7,9,11,13,15,17,19,21,-1,-1,23,-1,25,27,29,31,33,35,-1,37,-1,39,-1,-1,41,-1,43,45,47,49,51,53,55,57,59,61,-1,-1,63,65,67,-1,-1,69,-1,-1,-1,71,73,75,-1,77,79,81,83,85,-1,-1,-1,-1,-1,-1,-1,-1,-1,-1,-1,-1,-1,-1,-1,-1,-1,-1,-1,-1,-1,-1,-1,-1,-1,-1,-1,-1],"loss_changes":[4.019838E2,1.9855884E2,4.505005E1,7.9715454E1,1.2156224E2,2.5284428E1,4.109961E1,1.7113665E1,1.4979828E1,1.13917725E2,7.568222E0,0E0,0E0,3.3965576E1,0E0,3.2894154E0,1.4857838E1,2.3357517E1,1.7790573E1,2.5667326E1,5.7476807E1,0E0,3.9436798E0,0E0,3.9301338E0,0E0,0E0,1.7635584E1,0E0,1.7971401E1,1.4761993E1,1.9963074E0,1.4857508E1,2.307256E1,1.4519662E1,3.1990326E1,3.1036755E1,3.233633E0,3.4643402E0,0E0,0E0,1.1842518E0,2.5365215E1,3.0928512E0,0E0,0E0,3.9154053E0,0E0,0E0,0E0,9.163427E0,8.699108E0,1.077784E1,0E0,9.127156E0,3.8215728E0,7.719055E0,3.5697266E1,1.7667252E1,0E0,0E0,0E0,0E0,0E0,0E0,0E0,0E0,0E0,0E0,0E0,0E0,0E0,0E0,0E0,0E0,0E0,0E0,0E0,0E0,0E0,0E0,0E0,0E0,0E0,0E0,0E0,0E0],"parents":[2147483647,0,0,1,1,2,2,3,3,4,4,5,5,6,6,7,7,8,8,9,9,10,10,13,13,15,15,16,16,17,17,18,18,19,19,20,20,22,22,24,24,27,27,29,29,30,30,31,31,32,32,33,33,34,34,35,35,36,36,37,37,38,38,41,41,42,42,43,43,46,46,50,50,51,51,52,52,54,54,55,55,56,56,57,57,58,58],"right_children":[2,4,6,8,10,12,14,16,18,20,22,-1,-1,24,-1,26,28,30,32,34,36,-1,38,-1,40,-1,-1,42,-1,44,46,48,50,52,54,56,58,60,62,-1,-1,64,66,68,-1,-1,70,-1,-1,-1,72,74,76,-1,78,80,82,84,86,-1,-1,-1,-1,-1,-1,-1,-1,-1,-1,-1,-1,-1,-1,-1,-1,-1,-1,-1,-1,-1,-1,-1,-1,-1,-1,-1,-1],"split_conditions":[4.53941E1,3.3E2,7.501215E1,4.3517094E1,9.94898E1,1.0501313E3,-6.403689E0,8.866144E0,2.180442E1,-8.528081E0,-3.9940147E0,8.116888E-2,-5.233625E-2,-7.3590565E0,1.2998191E-2,2.8489172E1,4.1896873E1,2.6072604E2,1.1802326E2,-6.245823E0,9.962445E0,-3.2792255E-2,3.6363647E1,1.8854539E-1,6.381707E1,-2.8870225E-2,-9.986624E-2,-8.700009E0,-7.280355E-2,-6.7277217E0,5.6120917E2,-5.8177543E0,8.2842834E2,1.3178685E1,1.0229379E2,-9.022354E0,1.92E3,-7.777069E0,-9.67881E0,1.003306E-1,2.7795732E-2,1.1575171E2,1.6155771E1,6.023906E2,-6.3238956E-2,-1.0073965E-2,-5.7993636E0,1.1755726E-1,4.2048357E-2,8.931568E-2,-1.8954703E0,1.9263963E2,-1.9645405E1,5.0885115E-2,1.6784486E2,4.1162617E1,-8.329688E0,2.4762825E2,4.6440678E1,-2.6425691E-2,-9.815756E-2,-5.5510454E-2,-1.5408672E-1,1.8816555E-2,5.9741504E-2,-8.135693E-2,2.8039671E-2,5.627278E-2,1.0557772E-2,9.1268666E-2,2.1386858E-2,-5.427678E-2,3.2026708E-2,-1.12546515E-2,4.741416E-2,9.394119E-2,8.383678E-3,-7.9551354E-2,-4.9835127E-3,-3.479676E-2,1.4960071E-2,-7.8865744E-2,-1.3923293E-1,-1.8869814E-2,9.1826156E-2,-9.872005E-2,-3.1534337E-2],"split_indices":[10,7,18,4,3,12,13,10,6,19,11,0,0,19,0,15,4,16,15,13,6,0,4,0,4,0,0,19,0,19,12,13,12,6,18,13,7,13,19,0,0,16,6,12,0,0,13,0,0,0,11,18,11,0,16,4,13,16,3,0,0,0,0,0,0,0,0,0,0,0,0,0,0,0,0,0,0,0,0,0,0,0,0,0,0,0,0],"split_type":[0,0,0,0,0,0,0,0,0,0,0,0,0,0,0,0,0,0,0,0,0,0,0,0,0,0,0,0,0,0,0,0,0,0,0,0,0,0,0,0,0,0,0,0,0,0,0,0,0,0,0,0,0,0,0,0,0,0,0,0,0,0,0,0,0,0,0,0,0,0,0,0,0,0,0,0,0,0,0,0,0,0,0,0,0,0,0],"sum_hessian":[7.25E2,6.35E2,9E1,2.1E2,4.25E2,1.7E1,7.3E1,7.2E1,1.38E2,3.65E2,6E1,1E1,7E0,6.4E1,9E0,1.5E1,5.7E1,8E1,5.8E1,1.06E2,2.59E2,6E0,5.4E1,4.1E1,2.3E1,8E0,7E0,5E1,7E0,3.4E1,4.6E1,3.8E1,2E1,7.6E1,3E1,8.3E1,1.76E2,1.5E1,3.9E1,1.6E1,7E0,2.2E1,2.8E1,2.5E1,9E0,7E0,3.9E1,3.2E1,6E0,7E0,1.3E1,3.7E1,3.9E1,6E0,2.4E1,1.9E1,6.4E1,1.08E2,6.8E1,7E0,8E0,6E0,3.3E1,8E0,1.4E1,1.2E1,1.6E1,7E0,1.8E1,3.3E1,6E0,6E0,7E0,2.5E1,1.2E1,3.1E1,8E0,1E1,1.4E1,1.2E1,7E0,3.4E1,3E1,9.8E1,1E1,2.6E1,4.2E1],"tree_param":{"num_deleted":"0","num_feature":"20","num_nodes":"87","size_leaf_vector":"1"}},{"base_weights":[-4.6178404E-2,4.424599E-1,-1.6195631E0,-6.985176E-1,9.126689E-1,-2.6174712E0,-1.3915045E0,-1.2672334E0,3.3652475E-1,1.1478847E0,-2.188395E-1,-6.8841845E-2,-1.810136E-1,-1.659819E0,-3.6056638E-1,-1.2873225E-1,-1.6130269E0,1.0890094E0,-3.2514614E-1,9.1412216E-1,1.8844694E0,7.312787E-1,-4.9685484E-1,-1.784045E0,-0E0,4.7367513E-1,-8.162393E-2,-7.2319575E-2,4.335261E-1,-1.1926105E-1,-9.447328E-1,8.749933E-2,2.4792075E-2,4.824905E-2,-6.4425224E-1,2.7165312E-1,1.1698662E0,9.901419E-1,2.057945E0,6.541331E-2,6.259393E-3,-7.048435E-1,4.1737266E-2,-2.2471159E0,-1.3994662E0,-0E0,6.03468E-2,-9.485147E-3,5.0534405E-2,-4.072471E-4,-8.8584006E-2,-8.409751E-1,-1.483598E-3,4.7091725E-1,-6.523562E-2,-2.334161E-1,1.4344013E0,7.970614E-2,1.7897835E-2,2.2195482E0,2.3827214E-2,-9.986238E-1,-7.8170344E-2,-4.882645E-2,-2.4646344E0,-0E0,-1.5395964E0,-2.0142177E-2,-6.161104E-2,-5.3527164E-3,6.784227E-2,1.3924351E-2,-4.9234986E-2,1.06986865E-1,3.122436E-2,5.1488716E-2,1.4721115E-1,-1.4650875E-2,-1.0569448E-1,-3.1423546E-2,2.708391E-2,-1.7498718E-1,-8.570854E-2,-7.348142E-2,-1.1931958E-1],"categories":[],"categories_nodes":[],"categories_segments":[],"categories_sizes":[],"default_left":[0,0,0,0,0,0,0,0,0,0,0,0,0,0,0,0,0,0,0,0,0,0,0,0,0,0,0,0,0,0,0,0,0,0,0,0,0,0,0,0,0,0,0,0,0,0,0,0,0,0,0,0,0,0,0,0,0,0,0,0,0,0,0,0,0,0,0,0,0,0,0,0,0,0,0,0,0,0,0,0,0,0,0,0,0],"id":5,"left_children":[1,3,5,7,9,11,13,15,17,19,21,-1,-1,23,25,27,29,31,33,35,37,39,41,43,-1,45,-1,-1,47,-1,49,-1,-1,-1,51,53,55,57,59,-1,-1,61,-1,63,65,-1,-1,-1,-1,-1,-1,67,-1,69,-1,71,73,-1,-1,75,-1,77,79,-1,81,-1,83,-1,-1,-1,-1,-1,-1,-1,-1,-1,-1,-1,-1,-1,-1,-1,-1,-1,-1],"loss_changes":[5.578772E2,2.987779E2,2.9391144E1,9.74971E1,1.0557849E2,2.6870117E0,3.8527435E1,4.088774E1,3.1290152E1,5.152957E1,1.976504E1,0E0,0E0,2.3661102E1,2.8799864E1,1.8021347E1,1.0422134E1,4.478836E0,1.351672E1,4.058159E1,6.087036E0,2.9186974E0,1.5086733E1,1.0518158E1,0E0,4.727604E0,0E0,0E0,4.947646E0,0E0,1.2829056E1,0E0,0E0,0E0,3.2406054E0,2.1473665E1,6.8070755E1,2.407381E0,1.3878845E1,0E0,0E0,8.686209E0,0E0,8.540024E0,1.2896072E1,0E0,0E0,0E0,0E0,0E0,0E0,5.729294E-1,0E0,2.3654556E1,0E0,8.589474E0,3.567874E1,0E0,0E0,3.9515076E0,0E0,1.6024529E1,4.9679627E0,0E0,2.4893188E0,0E0,1.9351654E0,0E0,0E0,0E0,0E0,0E0,0E0,0E0,0E0,0E0,0E0,0E0,0E0,0E0,0E0,0E0,0E0,0E0,0E0],"parents":[2147483647,0,0,1,1,2,2,3,3,4,4,5,5,6,6,7,7,8,8,9,9,10,10,13,13,14,14,15,15,16,16,17,17,18,18,19,19,20,20,21,21,22,22,23,23,25,25,28,28,30,30,34,34,35,35,36,36,37,37,38,38,41,41,43,43,44,44,51,51,53,53,55,55,56,56,59,59,61,61,62,62,64,64,66,66],"right_children":[2,4,6,8,10,12,14,16,18,20,22,-1,-1,24,26,28,30,32,34,36,38,40,42,44,-1,46,-1,-1,48,-1,50,-1,-1,-1,52,54,56,58,60,-1,-1,62,-1,64,66,-1,-1,-1,-1,-1,-1,68,-1,70,-1,72,74,-1,-1,76,-1,78,80,-1,82,-1,84,-1,-1,-1,-1,-1,-1,-1,-1,-1,-1,-1,-1,-1,-1,-1,-1,-1,-1],"split_conditions":[6E0,5.500038E2,2.571196E1,2.205558E-2,3.5E0,4.216638E1,2.899656E4,1.33E3,3.329488E1,4.977233E4,1.8E2,-6.8841845E-2,-1.810136E-1,4.0738197E1,1.1618298E2,2.0673932E4,3.44E3,6.7075663E0,9.9346405E-1,1.451849E2,1.3745765E1,7.831321E2,5.083333E0,2.5240932E1,-0E0,2.205558E-2,-8.162393E-2,-7.2319575E-2,8E1,-1.1926105E-1,3.0156267E1,8.749933E-2,2.4792075E-2,4.824905E-2,4.054808E1,1.0995071E3,3.6667618E1,5.658646E1,2.666667E0,6.541331E-2,6.259393E-3,2.9462463E1,4.1737266E-2,3.3E2,2.3180075E1,-0E0,6.03468E-2,-9.485147E-3,5.0534405E-2,-4.072471E-4,-8.8584006E-2,5.1904664E0,-1.483598E-3,6.963346E1,-6.523562E-2,8.132114E1,1.7E0,7.970614E-2,1.7897835E-2,5.8148834E2,2.3827214E-2,7.5555414E2,4.25E0,-4.882645E-2,5.8764095E1,-0E0,6.4927574E1,-2.0142177E-2,-6.161104E-2,-5.3527164E-3,6.784227E-2,1.3924351E-2,-4.9234986E-2,1.06986865E-1,3.122436E-2,5.1488716E-2,1.4721115E-1,-1.4650875E-2,-1.0569448E-1,-3.1423546E-2,2.708391E-2,-1.7498718E-1,-8.570854E-2,-7.348142E-2,-1.1931958E-1],"split_indices":[0,12,15,2,0,14,9,7,11,9,7,0,0,10,15,9,7,2,2,18,17,12,0,11,0,2,0,0,7,0,4,0,0,0,4,12,4,4,0,0,0,10,0,7,16,0,0,0,0,0,0,10,0,15,0,15,0,0,0,12,0,12,0,0,4,0,15,0,0,0,0,0,0,0,0,0,0,0,0,0,0,0,0,0,0],"split_type":[0,0,0,0,0,0,0,0,0,0,0,0,0,0,0,0,0,0,0,0,0,0,0,0,0,0,0,0,0,0,0,0,0,0,0,0,0,0,0,0,0,0,0,0,0,0,0,0,0,0,0,0,0,0,0,0,0,0,0,0,0,0,0,0,0,0,0,0,0,0,0,0,0,0,0,0,0,0,0,0,0,0,0,0,0],"sum_hessian":[7.19E2,5.5E2,1.69E2,1.6E2,3.9E2,2.6E1,1.43E2,1.03E2,5.7E1,3.23E2,6.7E1,6E0,2E1,1.12E2,3.1E1,2.5E1,7.8E1,2.6E1,3.1E1,2.5E2,7.3E1,1.4E1,5.3E1,1.04E2,8E0,1.7E1,1.4E1,8E0,1.7E1,5.1E1,2.7E1,1.6E1,1E1,6E0,2.5E1,7.3E1,1.77E2,1.5E1,5.8E1,8E0,6E0,4.6E1,7E0,4.1E1,6.3E1,1E1,7E0,7E0,1E1,1E1,1.7E1,1.8E1,7E0,6.5E1,8E0,2.8E1,1.49E2,9E0,6E0,5.2E1,6E0,3E1,1.6E1,7E0,3.4E1,6E0,5.7E1,6E0,1.2E1,3.5E1,3E1,1.6E1,1.2E1,1.14E2,3.5E1,6E0,4.6E1,1.6E1,1.4E1,9E0,7E0,2.3E1,1.1E1,3.4E1,2.3E1],"tree_param":{"num_deleted":"0","num_feature":"20","num_nodes":"85","size_leaf_vector":"1"}},{"base_weights":[-3.7140816E-2,-1.2356769E0,5.374723E-1,-9.2245746E-1,-2.0028422E0,9.4090694E-1,-8.775394E-1,-1.1594915E0,4.409383E-1,-2.2105951E0,-6.3523956E-2,6.836513E-1,2.441904E0,-9.9741226E-1,4.0160578E-2,-1.8048964E0,-6.7109084E-1,8.3368313E-1,-4.0946778E-2,-1.6372402E-1,-1.0212017E0,5.2519094E-2,9.3129104E-1,9.541763E-2,1.7399739E-1,-1.3051571E0,-3.2546467E-1,-4.0651103E-3,-2.016711E0,3.8586874E-2,-9.3507403E-1,7.132936E-2,2.2774413E-2,-2.2653734E-2,-8.439813E-2,2.1880914E-1,-6.252496E-1,6.5673333E-1,1.42258E0,-1.600717E0,-7.813501E-2,3.570811E-2,-8.559004E-2,-1.1549977E0,-1.383332E-1,4.9989563E-1,-3.518396E-2,-1.1410552E-1,-7.243482E-1,-0E0,8.912903E-1,-6.1685736E-3,-7.7748746E-2,3.560065E-1,1.1153969E0,1.8989736E0,6.3251E-1,-1.7982378E0,-1.7486272E-2,1.9693913E-2,-3.514587E-2,-4.4845238E-1,5.577961E-1,-1.0117124E-1,-1.6677037E-2,4.709777E-2,5.6383363E-3,-8.1916596E-4,-5.041647E-2,-5.9233613E-2,1.0244073E-2,1.7455995E-2,6.8502985E-2,8.912494E-3,6.2286433E-2,-2.2684187E-2,8.948546E-2,2.058061E-2,1.4192495E-1,6.711985E-2,9.3892706E-4,-1.1921709E-1,-4.598878E-2,3.3137903E-3,-4.7899984E-2,1.0350199E-2,5.0211985E-2],"categories":[],"categories_nodes":[],"categories_segments":[],"categories_sizes":[],"default_left":[0,0,0,1,0,1,1,0,0,0,0,0,0,0,0,0,0,0,0,0,0,0,0,0,0,0,0,0,0,0,0,0,0,0,0,0,0,0,0,0,0,0,0,0,0,0,0,0,0,0,0,0,0,1,0,0,0,0,0,0,0,0,0,0,0,0,0,0,0,0,0,0,0,0,0,0,0,0,0,0,0,0,0,0,0,0,0],"id":6,"left_children":[1,3,5,7,9,11,13,15,17,19,-1,21,23,25,-1,27,29,31,-1,-1,33,35,37,-1,-1,39,41,-1,43,45,47,-1,-1,-1,-1,49,51,53,55,57,59,61,-1,63,-1,65,-1,-1,67,69,71,-1,-1,73,75,77,79,81,-1,-1,-1,83,85,-1,-1,-1,-1,-1,-1,-1,-1,-1,-1,-1,-1,-1,-1,-1,-1,-1,-1,-1,-1,-1,-1,-1,-1],"loss_changes":[5.0795972E2,5.2458527E1,2.86899E2,5.827237E1,7.5454407E0,1.4583978E2,2.241977E1,4.3947342E1,1.3826556E1,1.7370544E1,0E0,5.2256256E1,5.319336E0,2.042743E1,0E0,2.2442108E1,1.7215023E1,1.9344988E0,0E0,0E0,2.3838978E0,1.1626229E1,2.9987442E1,0E0,0E0,2.5109322E1,1.4591536E1,0E0,1.836029E0,8.540105E0,8.775131E0,0E0,0E0,0E0,0E0,1.2067928E1,6.0436006E0,2.0987709E1,2.819255E1,1.322554E1,4.001031E0,8.61072E0,0E0,5.108099E0,0E0,1.4941955E0,0E0,0E0,3.0350685E0,1.0585244E1,1.4971924E0,0E0,0E0,1.3405873E1,2.9984932E1,2.6373001E1,9.520388E0,1.1712952E0,0E0,0E0,0E0,3.034577E0,1.1013236E0,0E0,0E0,0E0,0E0,0E0,0E0,0E0,0E0,0E0,0E0,0E0,0E0,0E0,0E0,0E0,0E0,0E0,0E0,0E0,0E0,0E0,0E0,0E0,0E0],"parents":[2147483647,0,0,1,1,2,2,3,3,4,4,5,5,6,6,7,7,8,8,9,9,11,11,12,12,13,13,15,15,16,16,17,17,20,20,21,21,22,22,25,25,26,26,28,28,29,29,30,30,35,35,36,36,37,37,38,38,39,39,40,40,41,41,43,43,45,45,48,48,49,49,50,50,53,53,54,54,55,55,56,56,57,57,61,61,62,62],"right_children":[2,4,6,8,10,12,14,16,18,20,-1,22,24,26,-1,28,30,32,-1,-1,34,36,38,-1,-1,40,42,-1,44,46,48,-1,-1,-1,-1,50,52,54,56,58,60,62,-1,64,-1,66,-1,-1,68,70,72,-1,-1,74,76,78,80,82,-1,-1,-1,84,86,-1,-1,-1,-1,-1,-1,-1,-1,-1,-1,-1,-1,-1,-1,-1,-1,-1,-1,-1,-1,-1,-1,-1,-1],"split_conditions":[1.3535374E1,5.666667E0,6E0,-1.7000952E1,1.2859373E1,1.6609413E1,1.6652327E1,1.1373363E1,1.4961782E1,5.264993E0,-6.3523956E-2,4.0854702E1,1.7251776E1,5.2908817E1,4.0160578E-2,2.5378822E1,-9.140763E0,-7.4935193E0,-4.0946778E-2,-1.6372402E-1,5.1610092E1,3.8763638E1,2.205558E-2,9.541763E-2,1.7399739E-1,9.879641E1,6.2125473E1,-4.0651103E-3,2.1E3,8.092486E1,6E2,7.132936E-2,2.2774413E-2,-2.2653734E-2,-8.439813E-2,3.6667618E1,4.4915758E4,4.2903242E4,1.7E0,2.3287588E4,2.6841698E1,7.442177E1,-8.559004E-2,3.9125343E1,-1.383332E-1,4.447601E1,-3.518396E-2,-1.1410552E-1,1.08E3,6.3131315E-1,2.1088482E4,-6.1685736E-3,-7.7748746E-2,-1.4859427E0,4.1662888E1,-9.85745E0,3.0643694E1,4.26E3,-1.7486272E-2,1.9693913E-2,-3.514587E-2,1.85E2,2.28E3,-1.0117124E-1,-1.6677037E-2,4.709777E-2,5.6383363E-3,-8.1916596E-4,-5.041647E-2,-5.9233613E-2,1.0244073E-2,1.7455995E-2,6.8502985E-2,8.912494E-3,6.2286433E-2,-2.2684187E-2,8.948546E-2,2.058061E-2,1.4192495E-1,6.711985E-2,9.3892706E-4,-1.1921709E-1,-4.598878E-2,3.3137903E-3,-4.7899984E-2,1.0350199E-2,5.0211985E-2],"split_indices":[1,0,0,11,1,1,1,1,11,2,0,4,1,4,0,14,19,11,0,0,15,4,2,0,0,15,4,0,7,3,7,0,0,0,0,4,9,9,0,9,6,3,0,4,0,4,0,0,7,3,9,0,0,11,15,11,14,7,0,0,0,7,7,0,0,0,0,0,0,0,0,0,0,0,0,0,0,0,0,0,0,0,0,0,0,0,0],"split_type":[0,0,0,0,0,0,0,0,0,0,0,0,0,0,0,0,0,0,0,0,0,0,0,0,0,0,0,0,0,0,0,0,0,0,0,0,0,0,0,0,0,0,0,0,0,0,0,0,0,0,0,0,0,0,0,0,0,0,0,0,0,0,0,0,0,0,0,0,0,0,0,0,0,0,0,0,0,0,0,0,0,0,0,0,0,0,0],"sum_hessian":[7.31E2,2.36E2,4.95E2,1.72E2,6.4E1,3.86E2,1.09E2,1.47E2,2.5E1,5E1,1.4E1,3.33E2,5.3E1,1.02E2,7E0,6E1,8.7E1,1.9E1,6E0,3.5E1,1.5E1,9.5E1,2.38E2,1.8E1,3.5E1,6.8E1,3.4E1,7E0,5.3E1,2.4E1,6.3E1,9E0,1E1,7E0,8E0,7.8E1,1.7E1,1.57E2,8.1E1,5.4E1,1.4E1,2.7E1,7E0,1.3E1,4E1,1.4E1,1E1,8E0,5.5E1,6.1E1,1.7E1,1.1E1,6E0,9.8E1,5.9E1,4.8E1,3.3E1,4.6E1,8E0,8E0,6E0,1.4E1,1.3E1,7E0,6E0,7E0,7E0,6E0,4.9E1,7E0,5.4E1,6E0,1.1E1,7.6E1,2.2E1,1E1,4.9E1,1E1,3.8E1,1.8E1,1.5E1,4E1,6E0,6E0,8E0,7E0,6E0],"tree_param":{"num_deleted":"0","num_feature":"20","num_nodes":"87","size_leaf_vector":"1"}},{"base_weights":[1.12368455E-2,-6.520229E-1,5.0457305E-1,-1.475919E0,-1.3588336E-1,-1.3176725E0,8.8136536E-1,-1.7484498E0,-5.8099616E-1,3.467483E-1,-1.1712828E0,-1.7524388E0,-3.4719777E-1,1.306164E0,5.520862E-2,-2.0562825E0,-8.624813E-1,4.715823E-2,-8.991095E-2,1.3896298E-1,1.0455251E-1,-9.6574867E-1,-1.3192494E-1,-3.8064335E-2,-1.9659232E0,-8.408608E-2,2.9304862E-1,9.285748E-1,2.0685904E0,3.3803552E-1,-6.8742085E-1,-4.6221383E-2,-2.1555688E0,-1.1324661E0,3.4422711E-3,-2.6535684E-2,2.4221346E-2,-1.389443E-1,5.309147E-1,-9.5868215E-2,-4.3971622E-1,-1.3807337E-1,-2.7456537E-2,4.3617148E-2,-1.9686943E-2,2.5985724E-1,1.1898203E0,2.2434251E0,1.0345448E0,4.3320006E-1,-3.3687975E-2,9.7468786E-2,-1.14312E0,-2.349549E0,-7.6615684E-2,-2.6174385E-2,-8.302972E-2,-3.9153525E-1,3.363684E-1,-5.870678E-3,6.9976014E-1,2.0413627E-1,-9.030862E-1,-6.3515764E-1,6.5060127E-1,6.0375965E-1,1.4788918E0,5.3412538E-2,1.5972732E-1,9.177942E-2,1.3488845E-2,1.0034553E0,9.835115E-2,-1.4926331E-2,2.677688E-2,-1.0626877E-1,-8.403419E-3,-1.5771793E-1,-5.5597037E-2,-3.43264E-2,1.6438888E-2,3.889754E-2,-2.4125153E-2,5.4131117E-2,9.853178E-3,-3.912215E-3,2.9012043E-2,-7.008826E-2,-1.6638326E-2,1.5646132E-2,-7.998327E-2,-4.2200495E-2,6.6473775E-2,9.174184E-3,6.814866E-2,6.861472E-2,1.2530237E-1,1.878972E-2,7.64438E-2,-2.126724E-2,2.993515E-2],"categories":[],"categories_nodes":[],"categories_segments":[],"categories_sizes":[],"default_left":[0,0,0,0,0,0,0,0,0,1,0,0,0,0,1,0,0,0,0,0,0,0,0,0,0,0,0,0,0,0,0,0,0,0,0,0,0,1,0,0,0,0,0,0,0,0,0,0,0,0,0,0,0,0,0,0,0,0,0,0,0,0,0,0,0,0,1,0,0,0,0,0,0,0,0,0,0,0,0,0,0,0,0,0,0,0,0,0,0,0,0,0,0,0,0,0,0,0,0,0,0],"id":7,"left_children":[1,3,5,7,9,11,13,15,17,19,21,23,25,27,29,31,33,35,-1,37,-1,39,-1,-1,41,-1,43,45,47,49,51,-1,53,55,-1,-1,-1,57,59,-1,61,-1,-1,-1,-1,63,65,67,69,71,-1,73,75,77,-1,-1,-1,79,81,-1,83,85,87,89,91,93,95,-1,-1,-1,-1,97,99,-1,-1,-1,-1,-1,-1,-1,-1,-1,-1,-1,-1,-1,-1,-1,-1,-1,-1,-1,-1,-1,-1,-1,-1,-1,-1,-1,-1],"loss_changes":[2.3584746E2,1.299459E2,2.871185E2,2.5831726E1,9.764132E1,2.8497612E1,1.2034436E2,1.9277802E1,1.7762352E1,3.591531E1,6.437065E0,8.510941E0,1.8114594E1,6.0151947E1,2.6100899E1,3.8149414E0,7.3873386E0,4.0352507E0,0E0,1.3322655E1,0E0,1.4592239E1,0E0,0E0,1.1159454E1,0E0,5.2674093E0,2.6455444E1,6.6914062E0,8.247024E0,1.2803371E1,0E0,2.5859375E0,1.3344917E0,0E0,0E0,0E0,9.101001E0,5.6512604E0,0E0,1.06779785E1,0E0,0E0,0E0,0E0,1.8229692E1,1.644867E1,1.8730927E1,4.5529194E0,1.5383333E1,0E0,2.1664495E0,1.1292686E1,4.2022705E0,0E0,0E0,0E0,5.436291E0,6.1986694E0,0E0,3.038084E0,1.3707573E0,1.7810993E0,1.0288196E1,2.1125427E1,8.751566E0,8.633545E0,0E0,0E0,0E0,0E0,3.3690872E0,9.79203E0,0E0,0E0,0E0,0E0,0E0,0E0,0E0,0E0,0E0,0E0,0E0,0E0,0E0,0E0,0E0,0E0,0E0,0E0,0E0,0E0,0E0,0E0,0E0,0E0,0E0,0E0,0E0,0E0],"parents":[2147483647,0,0,1,1,2,2,3,3,4,4,5,5,6,6,7,7,8,8,9,9,10,10,11,11,12,12,13,13,14,14,15,15,16,16,17,17,19,19,21,21,24,24,26,26,27,27,28,28,29,29,30,30,32,32,33,33,37,37,38,38,40,40,45,45,46,46,47,47,48,48,49,49,51,51,52,52,53,53,57,57,58,58,60,60,61,61,62,62,63,63,64,64,65,65,66,66,71,71,72,72],"right_children":[2,4,6,8,10,12,14,16,18,20,22,24,26,28,30,32,34,36,-1,38,-1,40,-1,-1,42,-1,44,46,48,50,52,-1,54,56,-1,-1,-1,58,60,-1,62,-1,-1,-1,-1,64,66,68,70,72,-1,74,76,78,-1,-1,-1,80,82,-1,84,86,88,90,92,94,96,-1,-1,-1,-1,98,100,-1,-1,-1,-1,-1,-1,-1,-1,-1,-1,-1,-1,-1,-1,-1,-1,-1,-1,-1,-1,-1,-1,-1,-1,-1,-1,-1,-1],"split_conditions":[1.4764254E1,1.2783309E1,1.3180303E1,7.313998E-1,5.666667E0,2.9462463E1,2.333333E0,1.2035935E1,5.666667E0,1.5395191E1,6.4927574E1,5.370983E1,-1.936316E0,2.205558E-2,1.5389911E0,5.8998995E0,1.0909551E1,9.186169E0,-8.991095E-2,3.0237416E4,1.0455251E-1,8.0800566E3,-1.3192494E-1,-3.8064335E-2,2.9883774E2,-8.408608E-2,3.666667E0,2.3935684E4,1.583333E0,1.2E1,6E0,-4.6221383E-2,4.017116E2,1.4350396E1,3.4422711E-3,-2.6535684E-2,2.4221346E-2,1.4105948E1,1.1575171E2,-9.5868215E-2,1.7487178E2,-1.3807337E-1,-2.7456537E-2,4.3617148E-2,-1.9686943E-2,1.3937291E2,6.44756E1,4.1162617E1,2.144522E1,1E2,-3.3687975E-2,4.3236355E1,2.616954E4,1.2301954E1,-7.6615684E-2,-2.6174385E-2,-8.302972E-2,3.7771933E0,1.5015426E1,-5.870678E-3,4.4399773E4,4.697719E1,2.0694897E2,2.1376703E1,1.465348E1,1.9148228E1,1.485828E1,5.3412538E-2,1.5972732E-1,9.177942E-2,1.3488845E-2,2.1943699E1,1.056492E2,-1.4926331E-2,2.677688E-2,-1.0626877E-1,-8.403419E-3,-1.5771793E-1,-5.5597037E-2,-3.43264E-2,1.6438888E-2,3.889754E-2,-2.4125153E-2,5.4131117E-2,9.853178E-3,-3.912215E-3,2.9012043E-2,-7.008826E-2,-1.6638326E-2,1.5646132E-2,-7.998327E-2,-4.2200495E-2,6.6473775E-2,9.174184E-3,6.814866E-2,6.861472E-2,1.2530237E-1,1.878972E-2,7.64438E-2,-2.126724E-2,2.993515E-2],"split_indices":[6,1,1,2,0,10,0,1,0,1,15,15,11,2,11,16,6,6,0,9,0,9,0,0,18,0,0,9,0,0,0,0,16,15,0,0,0,1,16,0,18,0,0,0,0,18,15,4,2,7,0,16,9,6,0,0,0,2,1,0,9,4,16,6,1,10,1,0,0,0,0,6,16,0,0,0,0,0,0,0,0,0,0,0,0,0,0,0,0,0,0,0,0,0,0,0,0,0,0,0,0],"split_type":[0,0,0,0,0,0,0,0,0,0,0,0,0,0,0,0,0,0,0,0,0,0,0,0,0,0,0,0,0,0,0,0,0,0,0,0,0,0,0,0,0,0,0,0,0,0,0,0,0,0,0,0,0,0,0,0,0,0,0,0,0,0,0,0,0,0,0,0,0,0,0,0,0,0,0,0,0,0,0,0,0,0,0,0,0,0,0,0,0,0,0,0,0,0,0,0,0,0,0,0,0],"sum_hessian":[7.14E2,3.04E2,4.1E2,1.15E2,1.89E2,6.9E1,3.41E2,8.6E1,2.9E1,1.3E2,5.9E1,4.6E1,2.3E1,2.24E2,1.17E2,6.1E1,2.5E1,1.8E1,1.1E1,1.15E2,1.5E1,5.3E1,6E0,9E0,3.7E1,8E0,1.5E1,1.54E2,7E1,8.6E1,3.1E1,6E0,5.5E1,1.9E1,6E0,7E0,1.1E1,6.8E1,4.7E1,2.3E1,3E1,3.1E1,6E0,9E0,6E0,4.5E1,1.09E2,5.7E1,1.3E1,7.9E1,7E0,1.2E1,1.9E1,4.2E1,1.3E1,6E0,1.3E1,4.5E1,2.3E1,1E1,3.7E1,1.3E1,1.7E1,1.3E1,3.2E1,3.9E1,7E1,1.2E1,4.5E1,7E0,6E0,2.7E1,5.2E1,6E0,6E0,1.1E1,8E0,3.6E1,6E0,3.7E1,8E0,1.7E1,6E0,2.7E1,1E1,7E0,6E0,1.1E1,6E0,6E0,7E0,7E0,2.5E1,2.2E1,1.7E1,4.5E1,2.5E1,8E0,1.9E1,2.4E1,2.8E1],"tree_param":{"num_deleted":"0","num_feature":"20","num_nodes":"101","size_leaf_vector":"1"}},{"base_weights":[-4.735556E-2,3.897152E-1,-8.4388137E-1,8.1000066E-1,-7.4511105E-1,-3.4527576E-1,-1.6261108E0,-1.4092092E-1,1.2005225E0,-9.854318E-1,3.271371E-1,-9.724468E-1,6.083291E-1,-1.849353E0,-3.357684E-1,2.6400107E-1,-6.3951623E-1,1.2887322E0,-6.1361734E-2,-7.0086414E-1,-1.5260465E-1,-2.9216584E-2,6.5952075E-1,-7.8380924E-1,-1.1648438E-1,1.1747053E0,3.7979728E-3,-1.3470451E0,-1.466545E-1,-5.869284E-2,1.0609214E-2,4.7248515E-1,-2.9428506E-2,4.994009E-3,-8.2733494E-1,1.631293E0,6.814431E-1,-1.4986423E0,-4.4119713E-1,5.9725877E-2,3.9852393E-4,-1.2148815E0,-1.9237998E-1,1.0167442E-1,4.033252E-1,-3.262536E-1,5.121355E-2,-4.2420796E-1,-1.7409478E0,5.7373222E-2,7.2909856E-1,-9.618449E-1,-4.521992E-3,7.5839174E-1,1.8996065E0,2.0350754E-1,9.8445565E-1,-4.4079434E-2,-1.2142386E-1,-8.731849E-1,-1.0566242E-1,-1.3164115E-2,-9.396585E-2,1.1935275E-1,-5.1991653E-1,-8.1510255E-3,4.9680617E-2,1.0595393E-2,-6.836382E-1,-5.6080103E-2,1.9678403E-2,-1.20132364E-1,-5.0304793E-2,2.8604204E-2,-1.7195268E-2,5.3221423E-2,1.1638713E-2,-5.040964E-3,-7.282795E-2,6.6713944E-2,-1.05789825E-2,1.8364701E-2,1.24678575E-1,6.5656595E-2,-2.1686167E-2,3.8718714E-3,7.6605715E-2,-1.6482301E-2,-7.06411E-2,5.136612E-2,-1.9901106E-2,3.3292957E-2,-2.6193345E-2,-3.861091E-2,-1.1680854E-2,-1.5304827E-2,-5.8958326E-2],"categories":[2,7],"categories_nodes":[13],"categories_segments":[0],"categories_sizes":[2],"default_left":[0,0,0,0,0,0,0,0,0,1,0,0,0,1,0,0,0,0,0,0,0,0,0,0,0,0,0,0,0,0,0,0,0,0,0,0,0,0,0,0,0,0,0,0,0,0,0,0,0,0,0,0,0,0,0,0,0,0,0,0,0,0,0,0,0,0,0,0,0,0,0,0,0,0,0,0,0,0,0,0,0,0,0,0,0,0,0,0,0,0,0,0,0,0,0,0,0],"id":8,"left_children":[1,3,5,7,9,11,13,15,17,19,21,23,25,27,29,31,33,35,-1,37,-1,-1,39,41,-1,43,45,47,-1,-1,-1,49,-1,-1,51,53,55,57,59,-1,-1,61,63,-1,65,67,-1,69,71,73,75,77,-1,79,81,83,85,-1,-1,87,89,-1,-1,91,93,-1,-1,-1,95,-1,-1,-1,-1,-1,-1,-1,-1,-1,-1,-1,-1,-1,-1,-1,-1,-1,-1,-1,-1,-1,-1,-1,-1,-1,-1,-1,-1],"loss_changes":[2.4681078E2,2.1995464E2,9.632155E1,1.25192505E2,3.3378227E1,9.5908554E1,2.595578E1,2.0980888E1,4.9552826E1,3.780516E1,7.7039204E0,1.2121422E1,2.179144E1,1.1367493E1,6.246809E0,9.536747E0,6.616003E0,4.4725983E1,0E0,1.6907215E1,0E0,0E0,3.460847E0,2.06749E1,0E0,9.344994E0,1.0315447E1,1.4870659E1,0E0,0E0,0E0,4.722414E0,0E0,0E0,3.4131088E0,2.9871094E1,1.2123276E1,3.4147835E0,1.0163802E1,0E0,0E0,1.2443314E1,4.388621E0,0E0,3.8700016E0,5.1829286E0,0E0,7.310541E0,7.885666E-1,3.379038E0,1.2613277E0,4.9373913E0,0E0,1.1736471E1,1.2826874E1,1.9010778E1,1.1056335E1,0E0,0E0,3.8328037E0,9.53367E0,0E0,0E0,5.7392693E0,2.6308393E-1,0E0,0E0,0E0,1.1025443E0,0E0,0E0,0E0,0E0,0E0,0E0,0E0,0E0,0E0,0E0,0E0,0E0,0E0,0E0,0E0,0E0,0E0,0E0,0E0,0E0,0E0,0E0,0E0,0E0,0E0,0E0,0E0,0E0],"parents":[2147483647,0,0,1,1,2,2,3,3,4,4,5,5,6,6,7,7,8,8,9,9,10,10,11,11,12,12,13,13,14,14,15,15,16,16,17,17,19,19,22,22,23,23,25,25,26,26,27,27,31,31,34,34,35,35,36,36,37,37,38,38,41,41,42,42,44,44,45,45,47,47,48,48,49,49,50,50,51,51,53,53,54,54,55,55,56,56,59,59,60,60,63,63,64,64,68,68],"right_children":[2,4,6,8,10,12,14,16,18,20,22,24,26,28,30,32,34,36,-1,38,-1,-1,40,42,-1,44,46,48,-1,-1,-1,50,-1,-1,52,54,56,58,60,-1,-1,62,64,-1,66,68,-1,70,72,74,76,78,-1,80,82,84,86,-1,-1,88,90,-1,-1,92,94,-1,-1,-1,96,-1,-1,-1,-1,-1,-1,-1,-1,-1,-1,-1,-1,-1,-1,-1,-1,-1,-1,-1,-1,-1,-1,-1,-1,-1,-1,-1,-1],"split_conditions":[1.56E3,3.25E0,5.666667E0,4.042693E1,1.2249774E2,4.9312717E2,2.899656E4,4.8E2,1.1271461E3,4.9361894E-1,4.25E0,5.1E3,-7.2809067E0,1E-45,1.7017784E1,-6.201933E0,4.994724E0,-7.348002E0,-6.1361734E-2,4.00928E1,-1.5260465E-1,-2.9216584E-2,7.666667E0,3.44E3,-1.1648438E-1,2.666667E0,6.18E3,-7.935887E0,-1.466545E-1,-5.869284E-2,1.0609214E-2,3.5909897E1,-2.9428506E-2,4.994009E-3,1.48E3,5.8148834E2,1.3E2,5.084013E1,1.617989E1,5.9725877E-2,3.9852393E-4,1.8E3,4.41E3,1.0167442E-1,1.815937E1,2.666667E0,5.121355E-2,2.46E3,2.04E1,1.9759814E4,1.8427849E1,2.6001045E1,-4.521992E-3,5.409398E1,1.2518541E1,-1.1684248E1,6.5447975E1,-4.4079434E-2,-1.2142386E-1,6.3E2,2.5267048E1,-1.3164115E-2,-9.396585E-2,3.0156267E1,3.6738033E1,-8.1510255E-3,4.9680617E-2,1.0595393E-2,1.7722818E1,-5.6080103E-2,1.9678403E-2,-1.20132364E-1,-5.0304793E-2,2.8604204E-2,-1.7195268E-2,5.3221423E-2,1.1638713E-2,-5.040964E-3,-7.282795E-2,6.6713944E-2,-1.05789825E-2,1.8364701E-2,1.24678575E-1,6.5656595E-2,-2.1686167E-2,3.8718714E-3,7.6605715E-2,-1.6482301E-2,-7.06411E-2,5.136612E-2,-1.9901106E-2,3.3292957E-2,-2.6193345E-2,-3.861091E-2,-1.1680854E-2,-1.5304827E-2,-5.8958326E-2],"split_indices":[7,0,0,4,15,12,9,7,12,11,0,7,13,8,5,13,10,13,0,4,0,0,0,7,0,0,7,13,0,0,0,4,0,0,7,12,7,15,10,0,0,7,7,0,10,0,0,7,5,9,6,14,0,4,14,11,15,0,0,7,14,0,0,4,15,0,0,0,6,0,0,0,0,0,0,0,0,0,0,0,0,0,0,0,0,0,0,0,0,0,0,0,0,0,0,0,0],"split_type":[0,0,0,0,0,0,0,0,0,0,0,0,0,1,0,0,0,0,0,0,0,0,0,0,0,0,0,0,0,0,0,0,0,0,0,0,0,0,0,0,0,0,0,0,0,0,0,0,0,0,0,0,0,0,0,0,0,0,0,0,0,0,0,0,0,0,0,0,0,0,0,0,0,0,0,0,0,0,0,0,0,0,0,0,0,0,0,0,0,0,0,0,0,0,0,0,0],"sum_hessian":[7.02E2,4.54E2,2.48E2,3.32E2,1.22E2,1.54E2,9.4E1,9.7E1,2.35E2,1E2,2.2E1,9.3E1,6.1E1,7.9E1,1.5E1,5.4E1,4.3E1,2.27E2,8E0,8.7E1,1.3E1,6E0,1.6E1,8.1E1,1.2E1,3E1,3.1E1,4.4E1,3.5E1,6E0,9E0,4.3E1,1.1E1,9E0,3.4E1,1.42E2,8.5E1,1.8E1,6.9E1,1E1,6E0,4.5E1,3.6E1,1.7E1,1.3E1,2.3E1,8E0,1.5E1,2.9E1,1.8E1,2.5E1,2.8E1,6E0,3.6E1,1.06E2,3.5E1,5E1,9E0,9E0,2.8E1,4.1E1,1.1E1,3.4E1,1.9E1,1.7E1,6E0,7E0,1E1,1.3E1,9E0,6E0,2.2E1,7E0,8E0,1E1,1.9E1,6E0,6E0,2.2E1,2.7E1,9E0,6E0,1E2,1.3E1,2.2E1,1.1E1,3.9E1,1E1,1.8E1,6E0,3.5E1,1.1E1,8E0,1.1E1,6E0,7E0,6E0],"tree_param":{"num_deleted":"0","num_feature":"20","num_nodes":"97","size_leaf_vector":"1"}},{"base_weights":[-3.6842275E-2,-2.655868E-1,1.1517856E0,-1.2075351E0,2.3250762E-1,-4.7119383E-2,1.3528174E0,-9.371591E-1,-1.5424043E0,7.7303386E-1,-6.038984E-1,1.9626958E0,7.905734E-1,-1.3592278E0,-5.554721E-2,-1.9227366E0,-9.3687034E-1,3.3384702E-1,1.5315522E0,-1.2633608E-1,-9.7335356E-1,6.381063E-2,1.3217594E-1,-1.9031467E-2,9.318467E-1,-1.6474563E0,-6.5458167E-1,-3.7617934E-1,5.4230995E-2,-5.1160283E-2,-1.2667707E-1,-3.1539395E-3,-1.0845283E0,-3.959814E-1,6.210946E-1,1.1627197E0,1.6110101E-1,4.5378894E-1,-4.6759188E-1,-1.5198714E0,-6.447474E-1,1.1985481E0,1.9474493E-1,-8.1211734E-1,-1.1570082E-1,-5.2238744E-2,-3.194703E-1,-1.3853784E-1,-3.6651697E-2,-2.753032E-2,-1.2315872E0,-1.0264565E0,4.893233E-1,4.3500075E-1,1.0174863E-1,1.6188195E0,2.5660536E-1,-1.608652E-2,7.876344E-1,2.7696496E-2,-7.215146E-1,-2.4537612E-2,-1.8001227E0,-8.901695E-1,6.1682835E-2,5.58423E-1,1.4554902E0,-9.4710775E-3,3.9133806E-2,-7.434105E-2,-7.708036E-3,-2.9003257E-2,-3.4154472E-3,-2.2729734E-2,7.60404E-3,-1.08617395E-1,-5.2333355E-2,-1.09403454E-1,-3.4417026E-2,-1.5018689E-2,7.0538655E-2,-8.481287E-5,4.593541E-2,1.18890375E-1,2.3338573E-2,4.8740957E-2,-3.5815258E-2,1.8368881E-2,6.982028E-2,-6.0906887E-2,8.069319E-3,-5.3482387E-2,-1.2869677E-1,-6.8792075E-2,-1.6198432E-2,3.1823706E-2,-2.6683677E-2,4.6364937E-2,1.0130183E-2,1.0476616E-1,3.1472974E-2],"categories":[],"categories_nodes":[],"categories_segments":[],"categories_sizes":[],"default_left":[0,0,0,0,0,0,0,0,0,0,0,0,0,0,0,0,0,0,1,0,0,0,0,0,0,0,0,1,0,0,0,0,0,0,1,0,0,0,0,0,0,0,0,0,0,0,0,0,0,0,0,0,0,0,0,0,0,0,0,0,0,0,0,0,0,0,0,0,0,0,0,0,0,0,0,0,0,0,0,0,0,0,0,0,0,0,0,0,0,0,0,0,0,0,0,0,0,0,0,0,0],"id":9,"left_children":[1,3,5,7,9,-1,11,13,15,17,19,21,23,25,27,29,31,33,35,37,39,-1,-1,-1,41,43,45,47,-1,-1,-1,-1,49,51,53,55,-1,57,59,61,63,65,67,69,-1,-1,71,73,-1,-1,75,77,79,81,-1,83,85,-1,87,-1,89,-1,91,93,95,97,99,-1,-1,-1,-1,-1,-1,-1,-1,-1,-1,-1,-1,-1,-1,-1,-1,-1,-1,-1,-1,-1,-1,-1,-1,-1,-1,-1,-1,-1,-1,-1,-1,-1,-1],"loss_changes":[1.9553883E2,2.837567E2,4.749173E1,1.5002197E1,1.8067018E2,0E0,3.2061264E1,4.535827E1,1.551265E1,7.920314E1,2.729348E1,5.381317E-1,1.0300377E1,1.3795303E1,1.3843584E1,6.76651E-1,4.8973923E0,3.384722E1,2.5457E1,1.510222E1,1.314698E1,0E0,0E0,0E0,9.828526E0,4.99028E0,9.479685E-1,1.433126E0,0E0,0E0,0E0,0E0,1.6420555E0,2.7444843E1,1.9379257E1,2.7590347E1,0E0,7.4649205E0,1.1978012E1,7.6420593E0,1.079936E1,4.0890007E0,3.2093515E0,3.5555782E0,0E0,0E0,4.6018422E-1,1.4523683E0,0E0,0E0,1.2224617E0,6.947485E0,1.0816189E1,1.3150858E1,0E0,1.3456276E1,1.3142584E1,0E0,2.2419605E0,0E0,8.601416E0,0E0,7.144394E-1,4.9271774E0,4.7874775E0,7.517266E-1,2.7783737E0,0E0,0E0,0E0,0E0,0E0,0E0,0E0,0E0,0E0,0E0,0E0,0E0,0E0,0E0,0E0,0E0,0E0,0E0,0E0,0E0,0E0,0E0,0E0,0E0,0E0,0E0,0E0,0E0,0E0,0E0,0E0,0E0,0E0,0E0],"parents":[2147483647,0,0,1,1,2,2,3,3,4,4,6,6,7,7,8,8,9,9,10,10,11,11,12,12,13,13,14,14,15,15,16,16,17,17,18,18,19,19,20,20,24,24,25,25,26,26,27,27,32,32,33,33,34,34,35,35,37,37,38,38,39,39,40,40,41,41,42,42,43,43,46,46,47,47,50,50,51,51,52,52,53,53,55,55,56,56,58,58,60,60,62,62,63,63,64,64,65,65,66,66],"right_children":[2,4,6,8,10,-1,12,14,16,18,20,22,24,26,28,30,32,34,36,38,40,-1,-1,-1,42,44,46,48,-1,-1,-1,-1,50,52,54,56,-1,58,60,62,64,66,68,70,-1,-1,72,74,-1,-1,76,78,80,82,-1,84,86,-1,88,-1,90,-1,92,94,96,98,100,-1,-1,-1,-1,-1,-1,-1,-1,-1,-1,-1,-1,-1,-1,-1,-1,-1,-1,-1,-1,-1,-1,-1,-1,-1,-1,-1,-1,-1,-1,-1,-1,-1,-1],"split_conditions":[4.712863E4,1.344202E1,2.7886346E2,3.416667E0,3.75E0,-4.7119383E-2,-8.66981E0,2.205558E-2,1.227766E1,2.205558E-2,8.166667E0,6.3131315E-1,1.6745617E1,1.16335125E1,8.474011E2,-8.552339E0,5.4E2,1.9840812E4,1.6906273E1,3.9E2,1.0331227E2,6.381063E-2,1.3217594E-1,-1.9031467E-2,2.666667E0,1.4240743E1,1.1119222E1,1.4648773E2,5.4230995E-2,-5.1160283E-2,-1.2667707E-1,-3.1539395E-3,7.200347E0,5.1E2,1.6140783E1,7.6181816E1,1.6110101E-1,2.012659E1,1.4531325E1,-8.67851E0,2.8524445E4,2.1376703E1,-7.1930027E0,2.8035245E2,-1.1570082E-1,-5.2238744E-2,2.0464218E1,9.414602E3,-3.6651697E-2,-2.753032E-2,7.226756E2,1.7215494E1,5.857431E0,1.808E1,1.0174863E-1,6.807692E1,8.2872925E0,-1.608652E-2,2.1412008E4,2.7696496E-2,8.5483734E2,-2.4537612E-2,1.85E2,2.275E1,3.5315207E4,1.4386782E1,2.1265562E1,-9.4710775E-3,3.9133806E-2,-7.434105E-2,-7.708036E-3,-2.9003257E-2,-3.4154472E-3,-2.2729734E-2,7.60404E-3,-1.08617395E-1,-5.2333355E-2,-1.09403454E-1,-3.4417026E-2,-1.5018689E-2,7.0538655E-2,-8.481287E-5,4.593541E-2,1.18890375E-1,2.3338573E-2,4.8740957E-2,-3.5815258E-2,1.8368881E-2,6.982028E-2,-6.0906887E-2,8.069319E-3,-5.3482387E-2,-1.2869677E-1,-6.8792075E-2,-1.6198432E-2,3.1823706E-2,-2.6683677E-2,4.6364937E-2,1.0130183E-2,1.0476616E-1,3.1472974E-2],"split_indices":[9,1,12,0,0,0,13,2,1,2,0,3,6,1,12,13,7,9,1,7,16,0,0,0,0,16,6,16,0,0,0,0,6,7,1,3,0,6,1,13,9,6,13,12,0,0,5,9,0,0,12,5,17,5,0,2,2,0,9,0,12,0,7,5,9,17,5,0,0,0,0,0,0,0,0,0,0,0,0,0,0,0,0,0,0,0,0,0,0,0,0,0,0,0,0,0,0,0,0,0,0],"split_type":[0,0,0,0,0,0,0,0,0,0,0,0,0,0,0,0,0,0,0,0,0,0,0,0,0,0,0,0,0,0,0,0,0,0,0,0,0,0,0,0,0,0,0,0,0,0,0,0,0,0,0,0,0,0,0,0,0,0,0,0,0,0,0,0,0,0,0,0,0,0,0,0,0,0,0,0,0,0,0,0,0,0,0,0,0,0,0,0,0,0,0,0,0,0,0,0,0,0,0,0,0],"sum_hessian":[7.12E2,5.99E2,1.13E2,2.06E2,3.93E2,1E1,1.03E2,1.2E2,8.6E1,2.39E2,1.54E2,4.6E1,5.7E1,8E1,4E1,4.9E1,3.7E1,1.54E2,8.5E1,6.9E1,8.5E1,9E0,3.7E1,6E0,5.1E1,5.4E1,2.6E1,3.1E1,9E0,6E0,4.3E1,6E0,3.1E1,4.3E1,1.11E2,6.7E1,1.8E1,2.5E1,4.4E1,2.8E1,5.7E1,3.6E1,1.5E1,1.3E1,4.1E1,1.4E1,1.2E1,1.7E1,1.4E1,8E0,2.3E1,2.5E1,1.8E1,9.7E1,1.4E1,4.3E1,2.4E1,8E0,1.7E1,9E0,3.5E1,7E0,2.1E1,4.2E1,1.5E1,1.3E1,2.3E1,9E0,6E0,7E0,6E0,6E0,6E0,9E0,8E0,6E0,1.7E1,7E0,1.8E1,9E0,9E0,4E1,5.7E1,3.4E1,9E0,1.5E1,9E0,9E0,8E0,2.7E1,8E0,7E0,1.4E1,3E1,1.2E1,8E0,7E0,7E0,6E0,1.7E1,6E0],"tree_param":{"num_deleted":"0","num_feature":"20","num_nodes":"101","size_leaf_vector":"1"}},{"base_weights":[1.887897E-2,9.47119E-1,-1.9387195E-1,5.765927E-1,1.5577151E-1,-7.465154E-1,1.2070674E-1,-4.2127255E-1,8.73012E-1,-8.757221E-1,-1.0564101E-1,-1.0848861E0,2.5147063E-1,2.2887155E-2,-8.006954E-1,1.4280793E-1,1.4085569E0,-1.2504845E0,-5.794154E-1,-6.750714E-2,3.1116307E-1,-1.6387393E0,6.863686E-2,-2.782162E-2,5.919149E-1,-1.5109216E-2,-7.489562E-2,5.457312E-1,-6.0580086E-2,9.5323676E-1,1.0436176E-1,-7.40837E-1,-1.6937592E0,-2.749443E-2,-1.0164965E0,7.086999E-1,-2.8042512E-2,-2.1540565E-2,-1.9758239E0,4.166325E-2,-3.2873984E-2,6.383876E-1,-2.6217467E-1,-2.6605082E-1,8.743827E-1,8.131195E-1,-2.448325E-2,8.384399E-2,6.271394E-1,-9.542238E-1,-0E0,-1.9718244E0,-5.425187E-2,3.3902714E-1,-3.591483E-1,-5.070591E-1,-1.4607301E0,2.5565699E-3,6.940814E-2,-6.53682E-2,-1.4816333E-1,1.9066079E-1,9.563558E-1,-7.0514596E-1,4.6195113E-3,-8.9659125E-1,2.3203571E-1,4.9678433E-1,2.1172438E0,7.311188E-2,2.6630325E-2,4.6244852E-2,1.5702011E-2,-3.3328373E-2,-7.09626E-2,-6.502161E-2,-1.4320591E-1,4.4016015E-2,4.86901E-3,-4.4283353E-2,2.1875752E-2,-5.366346E-2,1.1121998E-2,-3.9412703E-2,-1.026903E-1,-3.133728E-2,3.1107735E-2,8.0718234E-2,1.0402855E-2,2.539002E-2,-6.581903E-2,1.0951442E-2,-6.237884E-2,-1.9446338E-2,-6.861285E-2,-3.428601E-3,4.472933E-2,5.599411E-2,4.4489386E-3,5.3600855E-2,1.4846566E-1],"categories":[],"categories_nodes":[],"categories_segments":[],"categories_sizes":[],"default_left":[0,0,0,0,0,0,0,0,0,0,0,0,0,0,0,1,0,0,0,0,0,0,0,0,0,0,0,0,0,0,0,0,0,0,0,0,0,0,0,0,0,0,0,0,0,0,0,0,0,0,0,0,0,0,0,0,0,0,0,0,0,0,0,0,0,0,0,0,0,0,0,0,0,0,0,0,0,0,0,0,0,0,0,0,0,0,0,0,0,0,0,0,0,0,0,0,0,0,0,0,0],"id":10,"left_children":[1,3,5,7,-1,9,11,13,15,17,19,21,23,-1,25,27,29,31,33,-1,35,37,39,41,43,-1,-1,45,-1,47,-1,49,51,53,55,57,-1,-1,59,-1,-1,61,63,65,67,69,-1,-1,71,73,-1,75,-1,77,79,81,83,-1,-1,-1,-1,85,87,89,91,93,95,97,99,-1,-1,-1,-1,-1,-1,-1,-1,-1,-1,-1,-1,-1,-1,-1,-1,-1,-1,-1,-1,-1,-1,-1,-1,-1,-1,-1,-1,-1,-1,-1,-1],"loss_changes":[1.4522429E2,7.394735E1,1.0421663E2,3.5018375E1,0E0,1.7587715E1,6.1244442E1,9.444076E0,3.4103767E1,1.8012817E1,1.762117E1,2.4977264E1,3.328071E1,0E0,3.506691E0,2.0053785E1,1.4961243E0,1.392263E1,2.539978E1,0E0,1.0203157E1,9.1987915E0,6.601227E0,3.0823523E1,3.896006E1,0E0,0E0,9.146019E0,0E0,8.176575E-1,0E0,6.6163197E0,4.2224426E0,6.6540656E0,1.1269379E1,5.294135E0,0E0,0E0,2.9315948E-1,0E0,0E0,6.6983776E0,1.744194E1,1.3842642E1,5.3044403E1,2.1643314E0,0E0,0E0,2.1410513E-1,6.800804E-1,0E0,1.1742249E0,0E0,2.2086768E0,7.7937617E0,8.287527E0,1.3816986E0,0E0,0E0,0E0,0E0,6.181739E0,6.773941E0,2.2345139E1,1.6461224E1,1.1482706E0,3.8596306E0,1.5724314E1,2.6152954E0,0E0,0E0,0E0,0E0,0E0,0E0,0E0,0E0,0E0,0E0,0E0,0E0,0E0,0E0,0E0,0E0,0E0,0E0,0E0,0E0,0E0,0E0,0E0,0E0,0E0,0E0,0E0,0E0,0E0,0E0,0E0,0E0],"parents":[2147483647,0,0,1,1,2,2,3,3,5,5,6,6,7,7,8,8,9,9,10,10,11,11,12,12,14,14,15,15,16,16,17,17,18,18,20,20,21,21,22,22,23,23,24,24,27,27,29,29,31,31,32,32,33,33,34,34,35,35,38,38,41,41,42,42,43,43,44,44,45,45,48,48,49,49,51,51,53,53,54,54,55,55,56,56,61,61,62,62,63,63,64,64,65,65,66,66,67,67,68,68],"right_children":[2,4,6,8,-1,10,12,14,16,18,20,22,24,-1,26,28,30,32,34,-1,36,38,40,42,44,-1,-1,46,-1,48,-1,50,52,54,56,58,-1,-1,60,-1,-1,62,64,66,68,70,-1,-1,72,74,-1,76,-1,78,80,82,84,-1,-1,-1,-1,86,88,90,92,94,96,98,100,-1,-1,-1,-1,-1,-1,-1,-1,-1,-1,-1,-1,-1,-1,-1,-1,-1,-1,-1,-1,-1,-1,-1,-1,-1,-1,-1,-1,-1,-1,-1,-1],"split_conditions":[2.3687393E1,4.697849E1,4.0312485E1,8.9812975E0,1.5577151E-1,8.661735E1,3.9877355E0,1.6569317E1,1.8585648E2,1.8738611E1,3.8296463E1,5.084013E1,2.205558E-2,2.2887155E-2,-8.807628E0,9.741605E0,7.668667E2,3.774985E1,1.8123224E2,-6.750714E-2,6.036356E1,-8.726544E0,-4.5258493E0,-7.0836573E0,1.6069439E1,-1.5109216E-2,-7.489562E-2,1.658716E2,-6.0580086E-2,1.6753948E1,1.0436176E-1,2.3854079E2,1.9713841E2,3.7600544E1,2.187093E1,5.3696686E1,-2.8042512E-2,-2.1540565E-2,1.3747364E1,4.166325E-2,-3.2873984E-2,1.913E1,1.4931828E2,5.0470333E1,3.8189957E1,4.8769485E1,-2.448325E-2,8.384399E-2,4.5690567E1,-9.066694E0,-0E0,1.4350396E1,-5.425187E-2,2.6753853E1,8.006038E0,3.0494992E2,2.6899168E1,2.5565699E-3,6.940814E-2,-6.53682E-2,-1.4816333E-1,1.5265294E1,-6.3362894E0,-9.590843E0,-2.8210342E0,4.2445698E1,7.954953E1,1.2361624E1,9.2381665E2,7.311188E-2,2.6630325E-2,4.6244852E-2,1.5702011E-2,-3.3328373E-2,-7.09626E-2,-6.502161E-2,-1.4320591E-1,4.4016015E-2,4.86901E-3,-4.4283353E-2,2.1875752E-2,-5.366346E-2,1.1121998E-2,-3.9412703E-2,-1.026903E-1,-3.133728E-2,3.1107735E-2,8.0718234E-2,1.0402855E-2,2.539002E-2,-6.581903E-2,1.0951442E-2,-6.237884E-2,-1.9446338E-2,-6.861285E-2,-3.428601E-3,4.472933E-2,5.599411E-2,4.4489386E-3,5.3600855E-2,1.4846566E-1],"split_indices":[14,10,4,17,0,15,17,15,18,5,14,15,2,0,19,11,12,14,18,0,14,13,19,11,5,0,0,18,0,14,0,18,18,14,5,14,0,0,10,0,0,5,18,4,10,15,0,0,15,13,0,15,0,15,17,12,15,0,0,0,0,17,13,19,19,4,2,2,12,0,0,0,0,0,0,0,0,0,0,0,0,0,0,0,0,0,0,0,0,0,0,0,0,0,0,0,0,0,0,0,0],"split_type":[0,0,0,0,0,0,0,0,0,0,0,0,0,0,0,0,0,0,0,0,0,0,0,0,0,0,0,0,0,0,0,0,0,0,0,0,0,0,0,0,0,0,0,0,0,0,0,0,0,0,0,0,0,0,0,0,0,0,0,0,0,0,0,0,0,0,0,0,0,0,0,0,0,0,0,0,0,0,0,0,0,0,0,0,0,0,0,0,0,0,0,0,0,0,0,0,0,0,0,0,0],"sum_hessian":[7.27E2,1.34E2,5.93E2,1.11E2,2.3E1,2.14E2,3.79E2,2.5E1,8.6E1,1.77E2,3.7E1,3.5E1,3.44E2,8E0,1.7E1,3.8E1,4.8E1,7.4E1,1.03E2,1E1,2.7E1,2.3E1,1.2E1,1.9E2,1.54E2,9E0,8E0,2.9E1,9E0,2.2E1,2.6E1,3.8E1,3.6E1,4.7E1,5.6E1,1.8E1,9E0,6E0,1.7E1,6E0,6E0,4.8E1,1.42E2,3.8E1,1.16E2,2.3E1,6E0,6E0,1.6E1,2.9E1,9E0,2.4E1,1.2E1,2.2E1,2.5E1,2.9E1,2.7E1,8E0,1E1,8E0,9E0,2.2E1,2.6E1,5.2E1,9E1,1.6E1,2.2E1,9.2E1,2.4E1,9E0,1.4E1,1E1,6E0,1.2E1,1.7E1,9E0,1.5E1,7E0,1.5E1,1.7E1,8E0,1.9E1,1E1,7E0,2E1,6E0,1.6E1,1.7E1,9E0,1.2E1,4E1,7.9E1,1.1E1,6E0,1E1,1.5E1,7E0,4.6E1,4.6E1,6E0,1.8E1],"tree_param":{"num_deleted":"0","num_feature":"20","num_nodes":"101","size_leaf_vector":"1"}},{"base_weights":[-3.591236E-2,3.4400675E-1,-9.023154E-1,-6.978556E-1,6.818318E-1,4.9177177E-2,-1.0326648E0,2.28501E-1,-1.0162258E0,3.529192E-1,1.1142299E0,-7.778201E-1,8.311537E-1,-1.2731966E0,-3.7749997E-1,4.1132722E-2,-9.8587066E-2,-1.2675197E0,-9.9580444E-2,5.736655E-1,-2.728581E-1,3.1697366E-1,1.3395983E0,-6.6278644E-2,-1.2807591E-2,2.3721248E-2,6.95793E-2,-1.359168E0,-1.0560553E-2,-1.13410845E-1,-8.6071754E-1,-3.0125106E-2,2.4783952E-2,-3.60894E-2,-1.4264978E0,3.1352904E-1,-3.854842E-2,3.0087405E-1,1.1712189E0,4.7675672E-1,-5.9869576E-1,-2.8747725E-1,1.011204E0,1.6680499E0,7.528621E-1,-1.4614626E0,-4.539825E-1,-6.268712E-1,1.8119657E-1,-7.791813E-2,-1.3162748E-2,-3.689224E-2,-9.817047E-2,3.036228E-2,1.4256014E-3,-1.573772E-1,7.4188787E-1,7.7780235E-1,1.3157922E-1,-7.896505E-3,6.5014325E-2,-1.3322878E0,-3.7504997E-2,-9.574588E-1,3.78901E-2,8.276216E-2,3.7862048E-2,2.0941074E0,5.866915E-1,9.1124E-1,-1.8149136E-2,-2.0921156E-2,-1.5664423E0,-7.43421E-3,-4.2508967E-2,-1.377242E-2,-5.422953E-2,4.442105E-1,-2.0696849E-2,1.3001402E-2,-3.890064E-2,6.441594E-2,-1.0942348E-2,5.8302283E-2,-2.3536186E-3,-3.203879E-2,-1.1305783E-1,3.534558E-2,-4.3079615E-2,-8.121467E-2,-1.894361E-2,3.4692064E-2,1.4097321E-1,9.081744E-2,-3.6808508E-3,6.721898E-2,1.9823398E-2,-7.878585E-2,-1.2207092E-1,-0E0,4.604548E-2],"categories":[2,2,7],"categories_nodes":[9,72],"categories_segments":[0,1],"categories_sizes":[1,2],"default_left":[0,0,0,0,0,0,0,0,0,1,0,0,0,0,0,0,0,0,0,0,0,0,0,0,0,0,0,0,0,0,0,0,0,0,0,0,0,0,1,1,0,0,0,0,0,0,0,0,1,0,0,0,0,0,0,0,1,0,0,0,0,0,0,1,0,0,0,0,0,0,0,0,1,0,0,0,0,0,0,0,0,0,0,0,0,0,0,0,0,0,0,0,0,0,0,0,0,0,0,0,0],"id":11,"left_children":[1,3,5,7,9,11,13,15,17,19,21,23,25,27,29,-1,31,33,35,37,39,41,43,-1,-1,-1,-1,45,-1,47,49,-1,-1,-1,51,53,-1,55,57,59,61,63,65,67,69,71,73,75,77,-1,-1,-1,-1,-1,-1,79,81,83,-1,-1,-1,85,87,89,-1,-1,-1,91,93,95,-1,-1,97,-1,-1,-1,-1,99,-1,-1,-1,-1,-1,-1,-1,-1,-1,-1,-1,-1,-1,-1,-1,-1,-1,-1,-1,-1,-1,-1,-1],"loss_changes":[2.4527065E2,1.8357614E2,2.853363E1,3.868167E1,5.4667038E1,2.161608E1,3.0085403E1,5.3433733E0,2.1565414E1,3.2007263E1,2.886557E1,1.852004E0,9.247513E-1,1.2919357E1,7.145343E0,0E0,4.924195E0,5.908333E0,5.9570956E0,2.661485E1,1.5957591E1,1.8424725E1,2.1547379E1,0E0,0E0,0E0,0E0,1.0419891E1,0E0,6.8457346E0,4.1057196E0,0E0,0E0,0E0,4.0536957E0,6.703162E-1,0E0,2.4877419E1,1.4470169E1,7.4439898E0,1.7892694E1,1.630286E1,2.9584503E-1,3.372429E1,9.55629E0,1.244133E1,1.0817993E0,9.6414614E-1,4.3853836E0,0E0,0E0,0E0,0E0,0E0,0E0,1.0915789E1,1.684748E1,5.3298283E0,0E0,0E0,0E0,4.6251984E0,1.2339249E1,2.1094856E0,0E0,0E0,0E0,9.388687E0,1.5687779E1,3.3078156E0,0E0,0E0,6.096466E0,0E0,0E0,0E0,0E0,2.5139012E0,0E0,0E0,0E0,0E0,0E0,0E0,0E0,0E0,0E0,0E0,0E0,0E0,0E0,0E0,0E0,0E0,0E0,0E0,0E0,0E0,0E0,0E0,0E0],"parents":[2147483647,0,0,1,1,2,2,3,3,4,4,5,5,6,6,7,7,8,8,9,9,10,10,11,11,12,12,13,13,14,14,16,16,17,17,18,18,19,19,20,20,21,21,22,22,27,27,29,29,30,30,34,34,35,35,37,37,38,38,39,39,40,40,41,41,42,42,43,43,44,44,45,45,46,46,47,47,48,48,55,55,56,56,57,57,61,61,62,62,63,63,67,67,68,68,69,69,72,72,77,77],"right_children":[2,4,6,8,10,12,14,16,18,20,22,24,26,28,30,-1,32,34,36,38,40,42,44,-1,-1,-1,-1,46,-1,48,50,-1,-1,-1,52,54,-1,56,58,60,62,64,66,68,70,72,74,76,78,-1,-1,-1,-1,-1,-1,80,82,84,-1,-1,-1,86,88,90,-1,-1,-1,92,94,96,-1,-1,98,-1,-1,-1,-1,100,-1,-1,-1,-1,-1,-1,-1,-1,-1,-1,-1,-1,-1,-1,-1,-1,-1,-1,-1,-1,-1,-1,-1],"split_conditions":[3.833333E0,3.0494992E2,1.5E1,1.365E3,5.2007187E1,2.012659E1,2.6366607E4,1.1684518E0,2.205558E-2,1E-45,5.6852325E1,1.3942457E4,1.3227766E2,1.3070024E2,6.0177418E1,4.1132722E-2,-9.262917E0,3.0206715E1,5.058366E0,4.472757E-1,-7.318807E0,2.6072604E2,-7.6325135E0,-6.6278644E-2,-1.2807591E-2,2.3721248E-2,6.95793E-2,2.657518E2,-1.0560553E-2,4.8708317E1,6.6016E1,-3.0125106E-2,2.4783952E-2,-3.60894E-2,1.2859547E1,2.3065945E1,-3.854842E-2,2.2946734E4,-6.4040236E0,2.0694897E2,1.9840812E4,5.225194E4,5.578807E1,7.1351875E1,1.4291446E2,4.666667E0,4.1331558E2,1.6546423E1,-3.8696587E0,-7.791813E-2,-1.3162748E-2,-3.689224E-2,-9.817047E-2,3.036228E-2,1.4256014E-3,9.543156E1,3.2720395E2,3.166667E0,1.3157922E-1,-7.896505E-3,6.5014325E-2,8.985083E1,1.4128714E1,-2.5732824E1,3.78901E-2,8.276216E-2,3.7862048E-2,9.16667E-1,9.265923E1,5.8764095E1,-1.8149136E-2,-2.0921156E-2,1E-45,-7.43421E-3,-4.2508967E-2,-1.377242E-2,-5.422953E-2,2.0684847E1,-2.0696849E-2,1.3001402E-2,-3.890064E-2,6.441594E-2,-1.0942348E-2,5.8302283E-2,-2.3536186E-3,-3.203879E-2,-1.1305783E-1,3.534558E-2,-4.3079615E-2,-8.121467E-2,-1.894361E-2,3.4692064E-2,1.4097321E-1,9.081744E-2,-3.6808508E-3,6.721898E-2,1.9823398E-2,-7.878585E-2,-1.2207092E-1,-0E0,4.604548E-2],"split_indices":[0,12,7,7,4,6,9,2,2,8,15,9,15,15,4,0,13,4,2,2,13,16,13,0,0,0,0,16,0,4,4,0,0,0,15,15,0,9,11,16,9,9,4,4,15,0,16,6,11,0,0,0,0,0,0,16,16,0,0,0,0,15,11,11,0,0,0,0,15,4,0,0,8,0,0,0,0,6,0,0,0,0,0,0,0,0,0,0,0,0,0,0,0,0,0,0,0,0,0,0,0],"split_type":[0,0,0,0,0,0,0,0,0,1,0,0,0,0,0,0,0,0,0,0,0,0,0,0,0,0,0,0,0,0,0,0,0,0,0,0,0,0,0,0,0,0,0,0,0,0,0,0,0,0,0,0,0,0,0,0,0,0,0,0,0,0,0,0,0,0,0,0,0,0,0,0,1,0,0,0,0,0,0,0,0,0,0,0,0,0,0,0,0,0,0,0,0,0,0,0,0,0,0,0,0],"sum_hessian":[7.38E2,5.14E2,2.24E2,1.25E2,3.89E2,2.7E1,1.97E2,3.2E1,9.3E1,2.24E2,1.65E2,1.3E1,1.4E1,1.42E2,5.5E1,1.3E1,1.9E1,7.2E1,2.1E1,1.66E2,5.8E1,3.8E1,1.27E2,7E0,6E0,8E0,6E0,1.31E2,1.1E1,3.8E1,1.7E1,1.1E1,8E0,1.6E1,5.6E1,1.2E1,9E0,1.17E2,4.9E1,1.7E1,4.1E1,2.1E1,1.7E1,7.8E1,4.9E1,1.16E2,1.5E1,1.3E1,2.5E1,9E0,8E0,1E1,4.6E1,6E0,6E0,5.8E1,5.9E1,3.8E1,1.1E1,9E0,8E0,1.6E1,2.5E1,1.2E1,9E0,6E0,1.1E1,5.4E1,2.4E1,4.3E1,6E0,1.1E1,1.05E2,8E0,7E0,7E0,6E0,1.7E1,8E0,3.3E1,2.5E1,4.5E1,1.4E1,3.2E1,6E0,8E0,8E0,1.3E1,1.2E1,6E0,6E0,6E0,4.8E1,9E0,1.5E1,3.2E1,1.1E1,6.4E1,4.1E1,8E0,9E0],"tree_param":{"num_deleted":"0","num_feature":"20","num_nodes":"101","size_leaf_vector":"1"}},{"base_weights":[-3.1603895E-2,-1.1496036E0,3.4456867E-1,-9.096177E-1,-1.6719471E0,1.6444208E-1,1.3180724E0,-1.07029E0,4.3804374E-1,-1.8525991E0,-1.0099626E0,4.653882E-1,-7.7983207E-1,7.36777E-1,1.6018425E0,-1.2086197E0,-2.5797375E-2,6.357633E-2,-1.1123262E-2,-1.4304447E-1,-5.200013E-2,-8.124895E-2,-2.4838727E-2,7.43296E-1,1.2474931E-1,1.1577393E-1,-9.03068E-1,7.237175E-2,-2.43304E-2,1.1718789E-1,5.4790777E-1,-1.4967908E0,-7.958465E-1,-5.1695187E-2,4.755734E-2,8.222964E-1,-2.7020637E-2,-3.7229845E-1,3.536565E-1,-1.2045767E-2,2.3926727E-2,-1.3423327E0,-6.0150236E-1,-1.0677384E-2,7.035409E-2,-3.2360774E-2,-1.5797948E0,7.167593E-5,-9.57675E-1,5.6299514E-1,1.3450462E0,-5.414699E-1,3.8200606E-2,5.703781E-3,6.2200564E-1,-1.9736554E-2,-1.5036098E0,-8.407437E-2,-2.0304413E-1,-1.0505653E-1,-3.6653902E-2,-3.614319E-2,-8.8106416E-2,5.4769893E-3,4.5728635E-2,9.965529E-2,3.79015E-2,-1.6792543E-2,-6.639905E-2,-1.8241942E-2,4.6973065E-2,4.928091E-2,-2.8942807E-2,-3.850819E-2,-1.0301168E-1,3.1365063E-2,-3.0066203E-2],"categories":[],"categories_nodes":[],"categories_segments":[],"categories_sizes":[],"default_left":[0,0,1,0,0,0,0,1,0,0,0,0,0,0,0,0,0,0,0,0,0,0,0,0,0,0,0,0,0,0,0,0,0,0,0,0,0,0,0,0,0,0,0,0,0,0,0,0,0,0,0,0,0,0,0,0,0,0,0,0,0,0,0,0,0,0,0,0,0,0,0,0,0,0,0,0,0],"id":12,"left_children":[1,3,5,7,9,11,13,15,17,19,21,23,25,27,29,31,33,-1,-1,-1,-1,-1,-1,35,37,39,41,-1,-1,-1,43,45,47,-1,-1,49,-1,51,53,-1,-1,55,57,-1,-1,-1,59,-1,61,63,65,67,-1,69,71,-1,73,-1,75,-1,-1,-1,-1,-1,-1,-1,-1,-1,-1,-1,-1,-1,-1,-1,-1,-1,-1],"loss_changes":[3.041048E2,1.8725159E1,9.421813E1,2.9949142E1,1.2645264E0,1.3171736E2,1.055513E1,1.6733536E1,6.508775E0,1.1585434E1,1.6277237E0,3.2841362E1,1.2874481E1,1.6941687E1,1.1946442E1,9.089554E0,1.2755655E1,0E0,0E0,0E0,0E0,0E0,0E0,1.9016998E1,1.8886505E1,1.7054521E0,1.0921028E1,0E0,0E0,0E0,7.051571E0,2.317093E0,6.5511284E0,0E0,0E0,2.2502098E1,0E0,9.771772E0,1.04038925E1,0E0,0E0,4.796074E0,1.8023743E1,0E0,0E0,0E0,1.90625E0,0E0,4.751091E0,9.609932E0,7.6120605E0,5.7430515E0,0E0,1.2460003E1,1.230644E1,0E0,9.536133E-1,0E0,9.605234E0,0E0,0E0,0E0,0E0,0E0,0E0,0E0,0E0,0E0,0E0,0E0,0E0,0E0,0E0,0E0,0E0,0E0,0E0],"parents":[2147483647,0,0,1,1,2,2,3,3,4,4,5,5,6,6,7,7,8,8,9,9,10,10,11,11,12,12,13,13,14,14,15,15,16,16,23,23,24,24,25,25,26,26,30,30,31,31,32,32,35,35,37,37,38,38,41,41,42,42,46,46,48,48,49,49,50,50,51,51,53,53,54,54,56,56,58,58],"right_children":[2,4,6,8,10,12,14,16,18,20,22,24,26,28,30,32,34,-1,-1,-1,-1,-1,-1,36,38,40,42,-1,-1,-1,44,46,48,-1,-1,50,-1,52,54,-1,-1,56,58,-1,-1,-1,60,-1,62,64,66,68,-1,70,72,-1,74,-1,76,-1,-1,-1,-1,-1,-1,-1,-1,-1,-1,-1,-1,-1,-1,-1,-1,-1,-1],"split_conditions":[1.2783309E1,5.666667E0,1.6084368E1,5.3852577E1,1.2149445E1,6E0,2.1286322E2,-1.3961505E1,2.166667E0,5.3994317E0,1.4859265E2,3.181692E1,-5.240665E0,2.666667E0,1.583333E0,1.13277445E1,2.205558E-2,6.357633E-2,-1.1123262E-2,-1.4304447E-1,-5.200013E-2,-8.124895E-2,-2.4838727E-2,2.5863333E1,1.4531325E1,1.808E1,1.81296E1,7.237175E-2,-2.43304E-2,1.1718789E-1,1.6996712E1,9.335996E0,1.110271E2,-5.1695187E-2,4.755734E-2,2.5115002E1,-2.7020637E-2,-3.7131839E0,1.8269016E2,-1.2045767E-2,2.3926727E-2,1.4061163E1,1.48587265E1,-1.0677384E-2,7.035409E-2,-3.2360774E-2,2.4384722E1,7.167593E-5,3.996899E1,8.520121E0,1.583333E0,5.1942772E1,3.8200606E-2,2.1664167E1,7.064706E1,-1.9736554E-2,1.4105948E1,-8.407437E-2,2.817891E1,-1.0505653E-1,-3.6653902E-2,-3.614319E-2,-8.8106416E-2,5.4769893E-3,4.5728635E-2,9.965529E-2,3.79015E-2,-1.6792543E-2,-6.639905E-2,-1.8241942E-2,4.6973065E-2,4.928091E-2,-2.8942807E-2,-3.850819E-2,-1.0301168E-1,3.1365063E-2,-3.0066203E-2],"split_indices":[1,0,1,4,1,0,18,11,0,2,18,14,11,0,0,1,2,0,0,0,0,0,0,5,1,5,5,0,0,0,1,16,18,0,0,10,0,19,18,0,0,10,10,0,0,0,5,0,4,10,0,14,0,5,4,0,1,0,14,0,0,0,0,0,0,0,0,0,0,0,0,0,0,0,0,0,0],"split_type":[0,0,0,0,0,0,0,0,0,0,0,0,0,0,0,0,0,0,0,0,0,0,0,0,0,0,0,0,0,0,0,0,0,0,0,0,0,0,0,0,0,0,0,0,0,0,0,0,0,0,0,0,0,0,0,0,0,0,0,0,0,0,0,0,0,0,0,0,0,0,0,0,0,0,0,0,0],"sum_hessian":[7.16E2,1.79E2,5.37E2,1.28E2,5.1E1,4.56E2,8.1E1,1.15E2,1.3E1,3.6E1,1.5E1,3.47E2,1.09E2,3E1,5.1E1,1.01E2,1.4E1,6E0,7E0,2.3E1,1.3E1,8E0,7E0,1.89E2,1.58E2,1.3E1,9.6E1,2.2E1,8E0,3.9E1,1.2E1,5.5E1,4.6E1,7E0,7E0,1.78E2,1.1E1,4.9E1,1.09E2,6E0,7E0,3.5E1,6.1E1,6E0,6E0,6E0,4.9E1,8E0,3.8E1,1.23E2,5.5E1,4.3E1,6E0,4.9E1,6E1,6E0,2.9E1,1.9E1,4.2E1,4.3E1,6E0,2.4E1,1.4E1,3.3E1,9E1,3.9E1,1.6E1,3.1E1,1.2E1,3.6E1,1.3E1,5.3E1,7E0,6E0,2.3E1,1.1E1,3.1E1],"tree_param":{"num_deleted":"0","num_feature":"20","num_nodes":"77","size_leaf_vector":"1"}},{"base_weights":[4.988383E-3,-4.0637562E-1,4.191724E-1,-6.9660795E-1,4.695818E-1,1.0798413E-1,9.8303527E-1,-8.1980276E-1,2.0969819E-1,-3.0884743E-1,1.1782686E0,3.0952364E-3,1.0369823E0,1.4037758E0,1.9353233E-1,-7.276182E-1,-1.17110625E-1,6.770008E-2,-3.0695564E-1,3.5122442E-1,-6.6902E-1,1.5767947E0,-8.515983E-3,-1.4879738E-1,5.625466E-1,8.444414E-2,1.9218022E-2,1.9945343E0,8.529539E-1,-3.9388936E-2,4.3342015E-1,-1.1771432E0,-3.8958794E-1,4.131171E-2,-8.158955E-2,5.5296276E-2,-2.795467E-2,-8.451082E-2,-9.194124E-2,1.3273372E-1,7.875865E-1,2.013805E-2,-9.595636E-1,7.174728E-1,-0E0,5.4990113E-2,1.4491515E-1,1.4330204E-1,1.1602482E0,6.5846965E-2,7.2613075E-2,-1.3132154E0,5.3468985E-3,-6.023619E-1,6.5776193E-1,2.9528568E-2,-4.6541195E-2,6.842569E-2,2.822317E-3,2.1403265E-1,-2.928308E-1,-8.752108E-2,-2.4764918E-1,8.417367E-2,4.7126746E-1,4.3064017E-2,-1.7284479E-2,8.641783E-2,7.3550087E-3,4.081452E-2,-1.9367519E-1,-3.4307804E-2,-9.114659E-2,-1.8488053E-2,-5.3996343E-2,6.7993835E-2,-5.7943875E-4,2.408197E-2,-5.591682E-2,-3.159914E-2,2.731885E-2,-4.787413E-2,2.007791E-2,4.5347594E-2,-2.2725182E-2,7.531022E-3,-2.6114406E-2],"categories":[0,1,2,4,5,6,7],"categories_nodes":[47],"categories_segments":[0],"categories_sizes":[7],"default_left":[0,0,0,1,0,0,0,1,0,0,0,0,0,0,0,0,0,0,0,0,0,0,0,0,0,0,0,0,0,0,0,1,0,0,0,0,0,0,0,0,0,0,0,0,0,0,0,1,0,0,0,0,0,0,0,0,0,0,0,0,1,0,0,0,0,0,0,0,0,0,0,0,0,0,0,0,0,0,0,0,0,0,0,0,0,0,0],"id":13,"left_children":[1,3,5,7,9,11,13,15,17,19,21,23,25,27,29,31,-1,-1,33,35,37,39,-1,41,43,-1,-1,45,47,-1,49,51,53,-1,-1,-1,-1,55,-1,-1,57,59,61,63,-1,-1,-1,65,67,69,-1,71,-1,73,75,-1,-1,-1,-1,77,79,-1,81,-1,83,-1,-1,-1,-1,-1,85,-1,-1,-1,-1,-1,-1,-1,-1,-1,-1,-1,-1,-1,-1,-1,-1],"loss_changes":[1.23598045E2,9.3457855E1,6.3057274E1,3.1289566E1,5.2176804E1,2.3129976E1,4.160885E1,1.9785187E1,1.7096169E1,1.1862553E1,2.6598862E1,1.8851574E1,4.115593E0,2.2321457E1,1.0441045E1,3.3231743E1,0E0,0E0,2.5781656E1,9.002317E0,1.39565735E1,1.1375259E1,0E0,2.3973856E1,4.178381E0,0E0,0E0,7.516861E0,9.86961E0,0E0,1.0138626E1,1.708664E1,3.1217085E1,0E0,0E0,0E0,0E0,8.993959E0,0E0,0E0,4.182849E0,9.075783E0,8.166233E0,3.991228E0,0E0,0E0,0E0,4.947511E0,6.71999E0,5.1050153E0,0E0,6.8465576E0,0E0,8.225552E0,7.1351643E0,0E0,0E0,0E0,0E0,1.8189878E1,9.381223E0,0E0,5.3830843E0,0E0,7.434282E0,0E0,0E0,0E0,0E0,0E0,1.8475564E0,0E0,0E0,0E0,0E0,0E0,0E0,0E0,0E0,0E0,0E0,0E0,0E0,0E0,0E0,0E0,0E0],"parents":[2147483647,0,0,1,1,2,2,3,3,4,4,5,5,6,6,7,7,8,8,9,9,10,10,11,11,12,12,13,13,14,14,15,15,18,18,19,19,20,20,21,21,23,23,24,24,27,27,28,28,30,30,31,31,32,32,37,37,40,40,41,41,42,42,43,43,47,47,48,48,49,49,51,51,53,53,54,54,59,59,60,60,62,62,64,64,70,70],"right_children":[2,4,6,8,10,12,14,16,18,20,22,24,26,28,30,32,-1,-1,34,36,38,40,-1,42,44,-1,-1,46,48,-1,50,52,54,-1,-1,-1,-1,56,-1,-1,58,60,62,64,-1,-1,-1,66,68,70,-1,72,-1,74,76,-1,-1,-1,-1,78,80,-1,82,-1,84,-1,-1,-1,-1,-1,86,-1,-1,-1,-1,-1,-1,-1,-1,-1,-1,-1,-1,-1,-1,-1,-1],"split_conditions":[2.2704086E4,3.756425E1,2.2714773E1,8.80998E0,2.205558E-2,5.7403805E4,-7.5620728E0,-2.0864668E0,1.4310623E1,-6.707126E0,-4.9625134E0,-5.7758923E0,-7.839233E0,2.2419739E1,-6.7277217E0,3.4557327E1,-1.17110625E-1,6.770008E-2,-8.742614E0,5.9414867E1,8.6499214E1,1.2603646E1,-8.515983E-3,1.2830916E1,-6.4712143E0,8.444414E-2,1.9218022E-2,2.8846154E0,6.5447975E1,-3.9388936E-2,2.205558E-2,3.5963306E2,-1.9277855E0,4.131171E-2,-8.158955E-2,5.5296276E-2,-2.795467E-2,-6.487839E0,-9.194124E-2,1.3273372E-1,-6.493507E0,-9.23759E0,1.38935795E1,4.4257843E1,-0E0,5.4990113E-2,1.4491515E-1,1E-45,2.6650831E1,2.5682661E1,7.2613075E-2,3.0643694E1,5.3468985E-3,7.9440865E1,1.8033596E1,2.9528568E-2,-4.6541195E-2,6.842569E-2,2.822317E-3,3.243843E1,-1.8390732E1,-8.752108E-2,4.08016E4,8.417367E-2,-2.0026753E0,4.3064017E-2,-1.7284479E-2,8.641783E-2,7.3550087E-3,4.081452E-2,4.4565216E1,-3.4307804E-2,-9.114659E-2,-1.8488053E-2,-5.3996343E-2,6.7993835E-2,-5.7943875E-4,2.408197E-2,-5.591682E-2,-3.159914E-2,2.731885E-2,-4.787413E-2,2.007791E-2,4.5347594E-2,-2.2725182E-2,7.531022E-3,-2.6114406E-2],"split_indices":[9,10,10,11,2,9,19,11,11,19,19,19,13,14,19,15,0,0,13,16,3,11,0,17,13,0,0,3,15,0,2,16,19,0,0,0,0,13,0,0,19,19,17,16,0,0,0,8,2,10,0,14,0,3,10,0,0,0,0,14,11,0,9,0,19,0,0,0,0,0,3,0,0,0,0,0,0,0,0,0,0,0,0,0,0,0,0],"split_type":[0,0,0,0,0,0,0,0,0,0,0,0,0,0,0,0,0,0,0,0,0,0,0,0,0,0,0,0,0,0,0,0,0,0,0,0,0,0,0,0,0,0,0,0,0,0,0,1,0,0,0,0,0,0,0,0,0,0,0,0,0,0,0,0,0,0,0,0,0,0,0,0,0,0,0,0,0,0,0,0,0,0,0,0,0,0,0],"sum_hessian":[7.18E2,3.6E2,3.58E2,2.71E2,8.9E1,2.33E2,1.25E2,2.39E2,3.2E1,4.3E1,4.6E1,2.12E2,2.1E1,8E1,4.5E1,2.24E2,1.5E1,1.1E1,2.1E1,1.5E1,2.8E1,3.5E1,1.1E1,1.68E2,4.4E1,1.3E1,8E0,3.5E1,4.5E1,9E0,3.6E1,9.3E1,1.31E2,1.1E1,1E1,9E0,6E0,1.8E1,1E1,1.8E1,1.7E1,1.41E2,2.7E1,3.4E1,1E1,1E1,2.5E1,1.5E1,3E1,2.6E1,1E1,8.4E1,9E0,1.1E2,2.1E1,1E1,8E0,1.1E1,6E0,8.8E1,5.3E1,1.5E1,1.2E1,6E0,2.8E1,6E0,9E0,2.4E1,6E0,7E0,1.9E1,1.5E1,6.9E1,5.3E1,5.7E1,1.2E1,9E0,7.8E1,1E1,4.2E1,1.1E1,6E0,6E0,2.2E1,6E0,8E0,1.1E1],"tree_param":{"num_deleted":"0","num_feature":"20","num_nodes":"87","size_leaf_vector":"1"}},{"base_weights":[-1.2223787E-2,-1.0092005E0,3.1266633E-1,-1.0747677E0,3.5596926E-2,7.498655E-1,-1.5770651E-2,-7.538961E-1,-1.5184609E0,2.6257068E-1,1.2605672E0,3.0131185E-1,-9.5156306E-1,-2.8361747E-1,-1.2546846E0,-1.21176206E-1,-1.2389739E0,3.6406603E-1,-6.281147E-2,4.8159474E-1,1.6849301E0,-6.0810363E-1,4.3852296E-1,-1.1403013E0,-4.270151E-2,2.2863488E-1,-6.22398E-1,-2.0477105E-2,-1.3814532E0,-1.1751273E-1,-9.634441E-1,4.91876E-1,-4.0681735E-1,8.2696396E-1,-4.8561633E-2,1.7727144E0,4.509313E-2,-2.9051667E-1,-5.458038E-2,-4.425005E-1,5.4096895E-1,-1.0655951E-1,-8.6518353E-1,3.2994226E-2,-4.7228668E-2,-6.807379E-3,3.3665266E-2,-8.131579E-1,5.725982E-4,-9.511923E-2,-3.0758953E-2,-5.885382E-1,-1.1914985E0,1.3942266E-1,7.7756435E-1,-0E0,-5.15205E-2,3.2441327E-1,9.2447415E-2,5.7272837E-2,1.1725067E-1,-3.481627E-3,-2.9647885E-2,1.0564919E-2,-5.6052655E-2,3.319592E-1,1.0612868E0,-5.534174E-1,-9.3734786E-2,-6.1417397E-2,-1.3520178E-2,-5.8290683E-2,-1.1435928E-3,-9.042941E-2,-2.2074979E-2,3.502604E-2,-7.894871E-3,1.8438563E-2,6.596281E-2,-2.7287321E-2,5.020711E-2,3.959755E-2,-2.0601576E-4,8.484829E-2,-0E0,-7.780979E-2,-1.7695377E-2],"categories":[],"categories_nodes":[],"categories_segments":[],"categories_sizes":[],"default_left":[0,0,0,0,0,0,0,0,0,0,0,0,0,0,0,0,0,0,0,0,0,0,1,0,0,0,0,0,0,0,0,0,0,0,0,0,0,0,0,1,1,0,0,0,0,0,0,0,0,0,0,0,0,0,0,0,0,0,0,0,0,0,0,0,0,0,0,0,0,0,0,0,0,0,0,0,0,0,0,0,0,0,0,0,0,0,0],"id":14,"left_children":[1,3,5,7,-1,9,11,13,15,17,19,21,23,25,27,-1,29,31,-1,33,35,37,39,41,43,45,47,-1,49,-1,51,53,55,57,-1,59,-1,61,-1,63,65,-1,67,-1,-1,-1,-1,69,-1,-1,-1,71,73,75,77,-1,-1,79,-1,-1,-1,-1,-1,-1,-1,81,83,85,-1,-1,-1,-1,-1,-1,-1,-1,-1,-1,-1,-1,-1,-1,-1,-1,-1,-1,-1],"loss_changes":[2.333643E2,2.0268723E1,7.815741E1,2.1233871E1,0E0,5.7021194E1,9.391433E1,2.3703072E1,1.4349518E0,1.702573E1,3.4988754E1,3.0282236E1,1.3390678E1,1.0716376E1,4.4691467E0,0E0,3.6693115E0,1.2180761E1,0E0,2.1135113E1,2.4684753E0,1.9273453E0,1.946038E1,6.128807E0,8.347152E0,2.973988E0,4.571371E0,0E0,2.8686142E0,0E0,1.4685173E0,9.833054E0,3.09037E0,1.0294426E1,0E0,3.4228516E-1,0E0,7.150576E-1,0E0,7.0419674E0,1.9307919E1,0E0,7.538616E0,0E0,0E0,0E0,0E0,2.0597515E0,0E0,0E0,0E0,3.9084358E0,3.0213203E0,5.899239E0,6.3275185E0,0E0,0E0,9.922262E0,0E0,0E0,0E0,0E0,0E0,0E0,0E0,1.3922049E1,1.6071754E1,6.161113E0,0E0,0E0,0E0,0E0,0E0,0E0,0E0,0E0,0E0,0E0,0E0,0E0,0E0,0E0,0E0,0E0,0E0,0E0,0E0],"parents":[2147483647,0,0,1,1,2,2,3,3,5,5,6,6,7,7,8,8,9,9,10,10,11,11,12,12,13,13,14,14,16,16,17,17,19,19,20,20,21,21,22,22,23,23,24,24,25,25,26,26,28,28,30,30,31,31,32,32,33,33,35,35,37,37,39,39,40,40,42,42,47,47,51,51,52,52,53,53,54,54,57,57,65,65,66,66,67,67],"right_children":[2,4,6,8,-1,10,12,14,16,18,20,22,24,26,28,-1,30,32,-1,34,36,38,40,42,44,46,48,-1,50,-1,52,54,56,58,-1,60,-1,62,-1,64,66,-1,68,-1,-1,-1,-1,70,-1,-1,-1,72,74,76,78,-1,-1,80,-1,-1,-1,-1,-1,-1,-1,82,84,86,-1,-1,-1,-1,-1,-1,-1,-1,-1,-1,-1,-1,-1,-1,-1,-1,-1,-1,-1],"split_conditions":[1.2701138E1,5.464872E4,-7.8366556E0,3.25E0,3.5596926E-2,1.8977257E1,8.166667E0,9.6326065E1,4.3629223E1,9.666667E0,1.7668736E2,6.3131315E-1,2.8524445E4,3.2130096E1,2.250498E1,-1.21176206E-1,3.0284274E0,3.243843E1,-6.281147E-2,3.2844982E1,4.166667E0,2.3679256E2,4.969347E0,1.5150105E1,1.2083333E1,1.913468E2,1.9667699E2,-2.0477105E-2,1.1884335E1,-1.1751273E-1,6.25E1,2.4896414E1,2.910151E4,-9.402757E0,-4.8561633E-2,2.5E1,4.509313E-2,4.760083E1,-5.458038E-2,1.3271834E1,1.5739179E1,-1.0655951E-1,8.287373E1,3.2994226E-2,-4.7228668E-2,-6.807379E-3,3.3665266E-2,8.452902E1,5.725982E-4,-9.511923E-2,-3.0758953E-2,4.876541E1,9.8305084E1,3.9868176E1,1.2538733E2,-0E0,-5.15205E-2,4.4024902E2,9.2447415E-2,5.7272837E-2,1.1725067E-1,-3.481627E-3,-2.9647885E-2,1.0564919E-2,-5.6052655E-2,9.272493E0,2.666667E0,3.499969E0,-9.3734786E-2,-6.1417397E-2,-1.3520178E-2,-5.8290683E-2,-1.1435928E-3,-9.042941E-2,-2.2074979E-2,3.502604E-2,-7.894871E-3,1.8438563E-2,6.596281E-2,-2.7287321E-2,5.020711E-2,3.959755E-2,-2.0601576E-4,8.484829E-2,-0E0,-7.780979E-2,-1.7695377E-2],"split_indices":[1,9,19,0,0,10,0,3,11,0,18,3,9,14,16,0,17,14,0,10,0,18,16,11,0,16,18,0,1,0,3,14,9,19,0,7,0,4,0,1,1,0,3,0,0,0,0,3,0,0,0,4,3,3,18,0,0,16,0,0,0,0,0,0,0,11,0,17,0,0,0,0,0,0,0,0,0,0,0,0,0,0,0,0,0,0,0],"split_type":[0,0,0,0,0,0,0,0,0,0,0,0,0,0,0,0,0,0,0,0,0,0,0,0,0,0,0,0,0,0,0,0,0,0,0,0,0,0,0,0,0,0,0,0,0,0,0,0,0,0,0,0,0,0,0,0,0,0,0,0,0,0,0,0,0,0,0,0,0,0,0,0,0,0,0,0,0,0,0,0,0,0,0,0,0,0,0],"sum_hessian":[7.13E2,1.74E2,5.39E2,1.68E2,6E0,2.3E2,3.09E2,1.02E2,6.6E1,1.2E2,1.1E2,2.32E2,7.7E1,5.5E1,4.7E1,2E1,4.6E1,1.13E2,7E0,4.1E1,6.9E1,2.9E1,2.03E2,6.3E1,1.4E1,2.2E1,3.3E1,7E0,4E1,9E0,3.7E1,9.8E1,1.5E1,3.3E1,8E0,6.1E1,8E0,1.6E1,1.3E1,2E1,1.83E2,1.6E1,4.7E1,8E0,6E0,1.1E1,1.1E1,2.5E1,8E0,3.3E1,7E0,1.8E1,1.9E1,4.6E1,5.2E1,9E0,6E0,2.1E1,1.2E1,9E0,5.2E1,9E0,7E0,9E0,1.1E1,1.34E2,4.9E1,3.5E1,1.2E1,1.8E1,7E0,1E1,8E0,1.3E1,6E0,1.7E1,2.9E1,2.1E1,3.1E1,8E0,1.3E1,7E1,6.4E1,3.8E1,1.1E1,7E0,2.8E1],"tree_param":{"num_deleted":"0","num_feature":"20","num_nodes":"87","size_leaf_vector":"1"}},{"base_weights":[5.125296E-2,-4.4815624E-1,2.791553E-1,-2.1808451E-1,-1.5332345E0,7.514317E-1,-4.5926288E-1,2.9394673E-2,-8.1413984E-1,-2.1128925E-2,-1.08018205E-1,4.4703683E-1,1.1663551E0,-1.5312119E0,-2.965993E-1,-3.2531932E-1,3.911418E-1,9.518509E-3,-9.655978E-1,2.9149157E-1,8.910148E-1,6.933848E-1,1.8713715E0,-1.8679498E0,-2.946608E-2,-4.3330374E-1,8.732121E-1,1.2048646E-2,-8.775897E-1,5.3963524E-1,-2.758855E-2,1.7391774E-5,-1.106195E0,4.2796835E-1,-2.1058923E-1,6.259192E-1,9.2775874E-2,9.106614E-1,1.3304442E-1,5.7949577E-2,1.2864347E-1,-5.4673903E-2,-1.5253429E-1,-6.4905506E-1,4.3992776E-2,1.1328887E-2,7.201089E-2,3.8574117E-1,-1.7930333E-1,-6.932777E-2,-1.9860435E-2,8.726368E-2,1.120764E0,-2.7289012E-2,-7.8224204E-2,2.628334E-1,1.2249402E0,-8.8978976E-1,3.4266964E-1,5.7477552E-2,1.8106782E-1,5.0961065E-1,1.1986405E0,6.176297E-2,-5.639716E-1,-4.5794975E-2,-7.913422E-1,5.3270757E-2,-2.0462121E-1,4.8444033E-2,-5.3643943E-3,-1.9794492E-2,1.5908204E-2,2.093985E-2,-2.7142668E-2,9.046386E-2,4.422568E-2,-2.8596407E-2,2.2379188E-2,3.3763014E-2,9.023013E-2,-1.6696678E-2,-7.627671E-2,5.3916454E-2,-2.2170858E-2,3.1996857E-2,-5.4639135E-3,5.3253967E-2,-9.987905E-3,1.3985346E-2,8.8173665E-2,6.126018E-3,-7.228488E-2,2.3280295E-2,-2.1044321E-2,-5.9102576E-2,1.9631027E-3,-2.5098786E-2,3.84334E-2],"categories":[],"categories_nodes":[],"categories_segments":[],"categories_sizes":[],"default_left":[0,0,0,0,0,0,0,0,0,0,0,0,0,0,0,0,0,0,0,0,0,0,0,0,0,0,0,0,0,0,0,0,0,0,0,0,0,0,0,0,0,0,0,0,0,0,0,0,0,0,0,0,0,0,0,0,0,0,0,0,0,0,0,0,0,0,0,0,0,0,0,0,0,0,0,0,0,0,0,0,0,0,0,0,0,0,0,0,0,0,0,0,0,0,0,0,0,0,0],"id":15,"left_children":[1,3,5,7,9,11,13,15,17,-1,-1,19,21,23,25,27,29,-1,31,33,35,37,39,41,-1,43,45,47,49,51,-1,-1,53,55,57,59,-1,61,63,-1,-1,-1,-1,65,67,-1,-1,69,71,-1,-1,73,75,-1,-1,77,79,81,83,-1,85,87,89,-1,91,93,95,-1,97,-1,-1,-1,-1,-1,-1,-1,-1,-1,-1,-1,-1,-1,-1,-1,-1,-1,-1,-1,-1,-1,-1,-1,-1,-1,-1,-1,-1,-1,-1],"loss_changes":[8.1929214E1,5.5370132E1,1.7320505E2,2.832382E1,6.8206787E0,3.671884E1,3.2736893E1,1.8056368E1,8.836964E0,0E0,0E0,1.1698917E1,3.8456665E1,6.319092E0,2.8809778E1,1.3430219E1,9.374333E0,0E0,6.9032288E0,9.80038E0,4.5035667E0,9.304924E0,2.8522034E0,4.0791473E0,0E0,1.634492E1,2.8869677E0,3.7279503E0,2.3695354E0,1.5457521E1,0E0,0E0,2.401268E0,1.3567293E1,1.29003525E1,4.1039696E0,0E0,4.8742027E0,1.7395624E1,0E0,0E0,0E0,0E0,9.050999E0,1.1151783E1,0E0,0E0,3.5460052E0,2.24972E0,0E0,0E0,5.336001E0,6.573868E-1,0E0,0E0,6.917621E0,3.8171768E-1,2.0380297E0,7.9853063E0,0E0,1.9364259E0,7.1943426E0,5.1189384E0,0E0,6.8946795E0,3.4537516E0,1.097411E1,0E0,7.420289E0,0E0,0E0,0E0,0E0,0E0,0E0,0E0,0E0,0E0,0E0,0E0,0E0,0E0,0E0,0E0,0E0,0E0,0E0,0E0,0E0,0E0,0E0,0E0,0E0,0E0,0E0,0E0,0E0,0E0,0E0],"parents":[2147483647,0,0,1,1,2,2,3,3,4,4,5,5,6,6,7,7,8,8,11,11,12,12,13,13,14,14,15,15,16,16,18,18,19,19,20,20,21,21,22,22,23,23,25,25,26,26,27,27,28,28,29,29,32,32,33,33,34,34,35,35,37,37,38,38,43,43,44,44,47,47,48,48,51,51,52,52,55,55,56,56,57,57,58,58,60,60,61,61,62,62,64,64,65,65,66,66,68,68],"right_children":[2,4,6,8,10,12,14,16,18,-1,-1,20,22,24,26,28,30,-1,32,34,36,38,40,42,-1,44,46,48,50,52,-1,-1,54,56,58,60,-1,62,64,-1,-1,-1,-1,66,68,-1,-1,70,72,-1,-1,74,76,-1,-1,78,80,82,84,-1,86,88,90,-1,92,94,96,-1,98,-1,-1,-1,-1,-1,-1,-1,-1,-1,-1,-1,-1,-1,-1,-1,-1,-1,-1,-1,-1,-1,-1,-1,-1,-1,-1,-1,-1,-1,-1],"split_conditions":[4.0312485E1,4.916667E0,3.416667E0,9.9750626E1,3.4156067E1,2.205558E-2,2.6196598E1,-8.374462E0,5.8E1,-2.1128925E-2,-1.08018205E-1,5.933123E1,3.8189957E1,2.702428E2,5.34E3,1.5026927E1,6.036356E1,9.518509E-3,7.501215E1,3.442967E1,4.8E2,3.123359E1,2.25E2,1.7316696E2,-2.946608E-2,2.7663566E4,4.7175266E1,3.679006E1,1.7582587E2,7.132499E1,-2.758855E-2,1.7391774E-5,7.5046562E3,2.5966946E2,1.9088518E2,7.0847626E1,9.2775874E-2,5.526602E1,5.687651E1,5.7949577E-2,1.2864347E-1,-5.4673903E-2,-1.5253429E-1,5E0,-8.416039E0,1.1328887E-2,7.201089E-2,8.823529E1,9.6326065E1,-6.932777E-2,-1.9860435E-2,-6.245823E0,2.2234222E2,-2.7289012E-2,-7.8224204E-2,4.152315E1,2.0743813E1,1.0614101E1,2.702428E2,5.7477552E-2,2.0455236E1,5.207034E1,4.1162617E1,6.176297E-2,7.162445E1,-7.043509E0,-5.7433724E0,5.3270757E-2,2.7729767E2,4.8444033E-2,-5.3643943E-3,-1.9794492E-2,1.5908204E-2,2.093985E-2,-2.7142668E-2,9.046386E-2,4.422568E-2,-2.8596407E-2,2.2379188E-2,3.3763014E-2,9.023013E-2,-1.6696678E-2,-7.627671E-2,5.3916454E-2,-2.2170858E-2,3.1996857E-2,-5.4639135E-3,5.3253967E-2,-9.987905E-3,1.3985346E-2,8.8173665E-2,6.126018E-3,-7.228488E-2,2.3280295E-2,-2.1044321E-2,-5.9102576E-2,1.9631027E-3,-2.5098786E-2,3.84334E-2],"split_indices":[4,0,0,3,14,2,15,13,7,0,0,4,10,18,7,10,14,0,18,10,7,14,7,18,0,9,4,4,18,15,0,0,9,18,18,4,0,15,16,0,0,0,0,0,13,0,0,3,3,0,0,13,18,0,0,4,14,3,18,0,14,4,4,0,15,13,13,0,18,0,0,0,0,0,0,0,0,0,0,0,0,0,0,0,0,0,0,0,0,0,0,0,0,0,0,0,0,0,0],"split_type":[0,0,0,0,0,0,0,0,0,0,0,0,0,0,0,0,0,0,0,0,0,0,0,0,0,0,0,0,0,0,0,0,0,0,0,0,0,0,0,0,0,0,0,0,0,0,0,0,0,0,0,0,0,0,0,0,0,0,0,0,0,0,0,0,0,0,0,0,0,0,0,0,0,0,0,0,0,0,0,0,0,0,0,0,0,0,0,0,0,0,0,0,0,0,0,0,0,0,0],"sum_hessian":[7.12E2,2.22E2,4.9E2,1.86E2,3.6E1,2.99E2,1.91E2,1.33E2,5.3E1,6E0,3E1,1.76E2,1.23E2,2.2E1,1.69E2,6.7E1,6.6E1,7E0,4.6E1,1.34E2,4.2E1,7.7E1,4.6E1,1.5E1,7E0,1.53E2,1.6E1,4.3E1,2.4E1,5.7E1,9E0,6E0,4E1,1.06E2,2.8E1,3.3E1,9E0,5.4E1,2.3E1,1E1,3.6E1,8E0,7E0,1.05E2,4.8E1,6E0,1E1,1.4E1,2.9E1,1.5E1,9E0,3.4E1,2.3E1,9E0,3.1E1,9.1E1,1.5E1,1.2E1,1.6E1,1.8E1,1.5E1,2.6E1,2.8E1,1E1,1.3E1,2.1E1,8.4E1,1E1,3.8E1,7E0,7E0,2.3E1,6E0,2.4E1,1E1,9E0,1.4E1,9E0,8.2E1,6E0,9E0,6E0,6E0,9E0,7E0,6E0,9E0,1.7E1,9E0,6E0,2.2E1,7E0,6E0,8E0,1.3E1,7.1E1,1.3E1,3.2E1,6E0],"tree_param":{"num_deleted":"0","num_feature":"20","num_nodes":"99","size_leaf_vector":"1"}},{"base_weights":[1.9741861E-2,-6.2030977E-1,3.9590725E-1,-9.964558E-1,-3.328148E-1,7.606809E-1,-4.5999637E-1,-1.3996023E-1,-1.1232476E0,-7.1801186E-1,7.144383E-2,6.364412E-1,1.7692417E0,-2.0644657E-1,-8.781945E-1,-6.2415995E-2,3.199343E-2,-5.0716937E-1,-1.3160299E0,-2.8553405E-1,-1.0782226E0,2.9610193E-1,-6.569178E-1,2.7583438E-1,7.637988E-1,1.1137817E0,1.3467224E-1,-9.5021594E-1,-1.48039665E-2,-1.4822415E0,-2.8942272E-1,-5.71224E-2,-8.307435E-2,-1.3919815E0,-1.9483153E-2,-5.274125E-1,-3.2461848E-2,-9.9649474E-2,-5.03371E-1,-1.7664728E-1,4.3930387E-1,-5.426801E-2,-8.013295E-3,1.0475736E-1,8.3757704E-1,1.024728E0,4.0126282E-1,8.046338E-3,9.87867E-2,-7.667309E-2,-1.6872218E-2,2.7368096E-1,-5.791919E-1,-1.113064E-1,-4.178003E-2,1.5770876E-1,-6.486268E-1,8.995884E-3,-1.6683893E-2,-9.228035E-2,-2.5907002E-2,1.8898235E-3,-4.9814712E-2,1.4533506E-2,-2.0306417E-1,-0E0,-6.748745E-1,-3.934978E-2,1.598049E-2,2.1596618E-1,8.867213E-1,-3.7555877E-2,2.093814E-1,1.7781619E-2,6.528824E-2,8.6460114E-1,1.5591307E0,-4.769989E-2,5.548431E-1,-5.4174453E-2,7.129883E-1,-7.336254E-1,-6.2052207E-3,-7.4236775E-3,2.5670314E-2,-4.9530584E-2,-1.5822586E-2,2.926033E-3,-2.4625285E-2,-5.3126615E-2,-1.3335357E-2,-3.8592264E-3,4.6985865E-2,7.289544E-2,1.9752162E-2,3.143603E-3,3.6453016E-2,4.4063315E-2,1.126903E-1,1.153742E-1,3.0689334E-2,5.8039587E-2,1.2033434E-3,-3.1393502E-2,2.4352524E-2,1.1150793E-2,6.987911E-2,-5.7041977E-2,-1.8727142E-2],"categories":[0,1,2,4,6,8,9,10,11],"categories_nodes":[24],"categories_segments":[0],"categories_sizes":[9],"default_left":[0,0,0,0,0,1,0,0,0,0,0,0,0,0,0,0,0,0,0,0,0,0,0,1,1,0,0,0,0,0,0,0,0,0,0,0,0,0,0,0,0,0,0,0,0,0,0,0,0,0,0,0,0,0,0,0,0,0,0,0,0,0,0,0,0,0,0,0,0,0,0,0,0,0,0,1,0,0,0,0,0,0,0,0,0,0,0,0,0,0,0,0,0,0,0,0,0,0,0,0,0,0,0,0,0,0,0,0,0],"id":16,"left_children":[1,3,5,7,9,11,13,15,17,19,21,23,25,27,29,-1,-1,31,33,35,37,39,41,43,45,47,-1,49,51,53,55,-1,57,59,-1,61,63,-1,65,67,69,-1,-1,71,73,75,77,-1,-1,-1,-1,79,81,-1,-1,83,85,-1,-1,-1,-1,-1,-1,-1,87,-1,89,-1,-1,91,93,-1,95,-1,-1,97,99,-1,101,103,105,107,-1,-1,-1,-1,-1,-1,-1,-1,-1,-1,-1,-1,-1,-1,-1,-1,-1,-1,-1,-1,-1,-1,-1,-1,-1,-1,-1],"loss_changes":[1.7069962E2,2.7422585E1,1.4050485E2,1.1553871E1,2.4241833E1,3.644818E1,1.3827284E1,1.1836203E1,9.59314E0,1.1413387E1,1.3368505E1,1.2411369E1,1.4977341E0,1.2577805E1,1.6520252E1,0E0,0E0,4.5109735E0,4.118965E0,2.3817277E0,9.990814E0,4.5069175E0,1.6805277E0,7.407527E0,1.851532E1,7.339552E0,0E0,2.2847214E0,1.2677877E1,2.303299E0,5.2036166E0,0E0,9.5266414E-1,3.0889206E0,0E0,3.2588196E0,1.3095908E0,0E0,2.1283526E0,3.8416913E0,4.2956886E0,0E0,0E0,5.23039E0,1.1080418E0,6.591667E0,1.7815796E1,0E0,0E0,0E0,0E0,7.605338E0,1.6435547E0,0E0,0E0,1.3610698E0,3.3468437E-1,0E0,0E0,0E0,0E0,0E0,0E0,0E0,9.5885694E-1,0E0,8.504715E-1,0E0,0E0,5.7782536E0,1.2513275E0,0E0,3.3737473E0,0E0,0E0,1.1592125E1,4.432934E0,0E0,1.624967E1,6.9316735E0,4.074662E0,6.321974E-1,0E0,0E0,0E0,0E0,0E0,0E0,0E0,0E0,0E0,0E0,0E0,0E0,0E0,0E0,0E0,0E0,0E0,0E0,0E0,0E0,0E0,0E0,0E0,0E0,0E0,0E0,0E0],"parents":[2147483647,0,0,1,1,2,2,3,3,4,4,5,5,6,6,7,7,8,8,9,9,10,10,11,11,12,12,13,13,14,14,17,17,18,18,19,19,20,20,21,21,22,22,23,23,24,24,25,25,27,27,28,28,29,29,30,30,32,32,33,33,35,35,36,36,38,38,39,39,40,40,43,43,44,44,45,45,46,46,51,51,52,52,55,55,56,56,64,64,66,66,69,69,70,70,72,72,75,75,76,76,78,78,79,79,80,80,81,81],"right_children":[2,4,6,8,10,12,14,16,18,20,22,24,26,28,30,-1,-1,32,34,36,38,40,42,44,46,48,-1,50,52,54,56,-1,58,60,-1,62,64,-1,66,68,70,-1,-1,72,74,76,78,-1,-1,-1,-1,80,82,-1,-1,84,86,-1,-1,-1,-1,-1,-1,-1,88,-1,90,-1,-1,92,94,-1,96,-1,-1,98,100,-1,102,104,106,108,-1,-1,-1,-1,-1,-1,-1,-1,-1,-1,-1,-1,-1,-1,-1,-1,-1,-1,-1,-1,-1,-1,-1,-1,-1,-1,-1],"split_conditions":[1.4290421E1,1.1992134E1,3.833333E0,2.818262E0,1.9267043E4,1.7251776E1,9.666667E0,3.8734615E1,-9.1648035E0,5.9414867E1,4.333333E0,1.4764254E1,2.0249205E4,6.9439346E3,1.0331227E2,-6.2415995E-2,3.199343E-2,1.8171759E1,3.6623516E1,1.2783309E1,1.0469522E4,1.6597725E1,1.9022728E1,-1.8138329E1,1E-45,1.706613E1,1.3467224E-1,-4.0078287E0,1.5551425E1,1.8829006E1,8.064516E-1,-5.71224E-2,2.0286E1,2.4721298E1,-1.9483153E-2,1.2350677E1,1.3511942E1,-9.9649474E-2,1.3183116E4,1.612245E1,2.021976E1,-5.426801E-2,-8.013295E-3,1.1947853E4,1.9840812E4,2.3064167E1,3.6054966E1,8.046338E-3,9.87867E-2,-7.667309E-2,-1.6872218E-2,2.205558E-2,5.3953487E1,-1.113064E-1,-4.178003E-2,8.790509E0,1.8487705E4,8.995884E-3,-1.6683893E-2,-9.228035E-2,-2.5907002E-2,1.8898235E-3,-4.9814712E-2,1.4533506E-2,-4.5258493E0,-0E0,1.3084776E1,-3.934978E-2,1.598049E-2,1.083333E0,2.4692423E1,-3.7555877E-2,2.416667E0,1.7781619E-2,6.528824E-2,4.785331E-2,1.583333E0,-4.769989E-2,1.416667E0,1.8145964E1,5.128528E1,8.083333E0,-6.2052207E-3,-7.4236775E-3,2.5670314E-2,-4.9530584E-2,-1.5822586E-2,2.926033E-3,-2.4625285E-2,-5.3126615E-2,-1.3335357E-2,-3.8592264E-3,4.6985865E-2,7.289544E-2,1.9752162E-2,3.143603E-3,3.6453016E-2,4.4063315E-2,1.126903E-1,1.153742E-1,3.0689334E-2,5.8039587E-2,1.2033434E-3,-3.1393502E-2,2.4352524E-2,1.1150793E-2,6.987911E-2,-5.7041977E-2,-1.8727142E-2],"split_indices":[1,1,0,11,9,1,0,4,19,16,0,6,9,9,16,0,0,5,2,1,9,5,5,11,8,5,0,19,2,5,2,0,5,5,0,1,16,0,9,2,6,0,0,9,9,5,4,0,0,0,0,2,2,0,0,17,9,0,0,0,0,0,0,0,19,0,1,0,0,0,6,0,0,0,0,11,0,0,0,1,4,0,0,0,0,0,0,0,0,0,0,0,0,0,0,0,0,0,0,0,0,0,0,0,0,0,0,0,0],"split_type":[0,0,0,0,0,0,0,0,0,0,0,0,0,0,0,0,0,0,0,0,0,0,0,0,1,0,0,0,0,0,0,0,0,0,0,0,0,0,0,0,0,0,0,0,0,0,0,0,0,0,0,0,0,0,0,0,0,0,0,0,0,0,0,0,0,0,0,0,0,0,0,0,0,0,0,0,0,0,0,0,0,0,0,0,0,0,0,0,0,0,0,0,0,0,0,0,0,0,0,0,0,0,0,0,0,0,0,0,0],"sum_hessian":[7.02E2,2.59E2,4.43E2,1.09E2,1.5E2,3.11E2,1.32E2,1.5E1,9.4E1,7.6E1,7.4E1,2.81E2,3E1,8.5E1,4.7E1,6E0,9E0,2.5E1,6.9E1,3.7E1,3.9E1,5.8E1,1.6E1,7.6E1,2.05E2,1.5E1,1.5E1,1.5E1,7E1,2.1E1,2.6E1,1.1E1,1.4E1,6.3E1,6E0,1.7E1,2E1,1.8E1,2.1E1,1.3E1,4.5E1,1E1,6E0,6.1E1,1.5E1,1.16E2,8.9E1,6E0,9E0,9E0,6E0,4.7E1,2.3E1,1.3E1,8E0,1.2E1,1.4E1,6E0,8E0,5.7E1,6E0,6E0,1.1E1,7E0,1.3E1,6E0,1.5E1,6E0,7E0,3.3E1,1.2E1,6E0,5.5E1,6E0,9E0,9.5E1,2.1E1,9E0,8E1,2.8E1,1.9E1,1.6E1,7E0,6E0,6E0,8E0,6E0,6E0,7E0,9E0,6E0,2.3E1,1E1,6E0,6E0,4.1E1,1.4E1,8.5E1,1E1,1.5E1,6E0,4.6E1,3.4E1,1.4E1,1.4E1,1E1,9E0,9E0,7E0],"tree_param":{"num_deleted":"0","num_feature":"20","num_nodes":"109","size_leaf_vector":"1"}},{"base_weights":[-6.322281E-2,2.2646397E-1,-7.4580485E-1,-4.789187E-1,5.703114E-1,-5.8273065E-1,-1.0589833E-1,6.189503E-1,-6.795531E-1,-1.879281E-2,7.28703E-1,-3.893264E-1,-1.511755E0,8.104412E-1,2.2783123E-3,-2.1737772E-1,-8.2506067E-1,2.3536095E-1,-5.262618E-1,1.1209142E0,4.0792546E-1,-2.3687293E-1,-8.483486E-2,-1.0813311E-1,-2.6755434E-2,1.643161E-2,6.542267E-2,3.2215533E-1,-5.5799946E-2,-9.2631537E-1,-3.6036408E-1,-1.4432156E-1,7.299704E-1,-0E0,-6.878493E-1,1.2516055E0,-1.0580073E-2,1.2630749E-1,8.052254E-1,6.2407516E-2,-3.142729E-1,5.226244E-2,-9.3751214E-2,-5.057205E-1,-1.0760549E0,-5.4950364E-2,-4.0920135E-2,2.1324661E-1,-4.512031E-1,9.008065E-1,1.4374062E-2,-5.6436703E-2,-7.5081033E-3,1.3465157E0,-2.5827563E-3,-1.3954472E-2,1.1329487E-2,5.775095E-1,-2.9984224E-1,1.1115781E0,3.9127424E-1,-6.6240805E-1,-1.0652126E-1,-1.4595989E-2,3.140159E-3,-1.22652445E-2,-5.451903E-2,-2.2666333E-2,-7.738052E-2,2.481968E-2,-3.3416595E-2,2.0783503E-2,-0E0,1.4797258E-2,-5.501663E-2,7.560509E-2,2.2462158E-2,6.047176E-2,1.1098561E-1,-9.411244E-3,5.564229E-2,1.5028263E-2,-1.1906548E-1,7.9285555E-2,3.638081E-2,4.7703207E-2,-8.441044E-3,-6.649643E-2,-1.39248995E-2,-2.7814327E-2,8.108673E-3],"categories":[6,7,0,1,2,4,5,6,7,8,9,10,11],"categories_nodes":[5,27],"categories_segments":[0,2],"categories_sizes":[2,11],"default_left":[0,0,0,0,0,1,0,0,0,1,0,0,0,0,0,0,0,0,0,0,0,0,0,0,0,0,0,1,0,0,0,0,0,0,0,0,0,0,0,0,0,0,0,0,0,0,0,0,0,0,0,0,0,0,0,0,0,0,0,0,0,0,0,0,0,0,0,0,0,0,0,0,0,0,0,0,0,0,0,0,0,0,0,0,0,0,0,0,0,0,0],"id":17,"left_children":[1,3,5,7,9,11,-1,13,15,17,19,21,23,25,-1,27,29,31,33,35,37,39,-1,-1,-1,-1,-1,41,-1,43,45,47,49,-1,51,53,55,57,59,-1,61,-1,63,65,67,-1,69,71,73,75,-1,-1,-1,77,-1,-1,-1,79,81,83,85,87,89,-1,-1,-1,-1,-1,-1,-1,-1,-1,-1,-1,-1,-1,-1,-1,-1,-1,-1,-1,-1,-1,-1,-1,-1,-1,-1,-1,-1],"loss_changes":[1.4088025E2,1.2205696E2,2.9930641E1,3.77696E1,3.167582E1,3.1748959E1,0E0,2.8188133E0,8.911644E0,1.02101E1,3.220764E1,2.2250149E1,4.7994843E0,1.6915855E0,0E0,1.4942378E1,3.9957047E0,1.0194041E1,2.270949E0,