{"learner":{"attributes":{"scikit_learn":"{\"_estimator_type\": \"regressor\"}"},"feature_names":["duration_p","3_8y_fir_p","wv100_k_av","f_load_av","FWI_12h_av","rh_2m_av","8_ny_fir_p","f_start","wdi_950_av"],"feature_types":["float","float","float","float","float","float","float","float","float"],"gradient_booster":{"model":{"cats":{"enc":[],"feature_segments":[],"sorted_idx":[]},"gbtree_model_param":{"num_parallel_tree":"1","num_trees":"225"},"iteration_indptr":[0,1,2,3,4,5,6,7,8,9,10,11,12,13,14,15,16,17,18,19,20,21,22,23,24,25,26,27,28,29,30,31,32,33,34,35,36,37,38,39,40,41,42,43,44,45,46,47,48,49,50,51,52,53,54,55,56,57,58,59,60,61,62,63,64,65,66,67,68,69,70,71,72,73,74,75,76,77,78,79,80,81,82,83,84,85,86,87,88,89,90,91,92,93,94,95,96,97,98,99,100,101,102,103,104,105,106,107,108,109,110,111,112,113,114,115,116,117,118,119,120,121,122,123,124,125,126,127,128,129,130,131,132,133,134,135,136,137,138,139,140,141,142,143,144,145,146,147,148,149,150,151,152,153,154,155,156,157,158,159,160,161,162,163,164,165,166,167,168,169,170,171,172,173,174,175,176,177,178,179,180,181,182,183,184,185,186,187,188,189,190,191,192,193,194,195,196,197,198,199,200,201,202,203,204,205,206,207,208,209,210,211,212,213,214,215,216,217,218,219,220,221,222,223,224,225],"tree_info":[0,0,0,0,0,0,0,0,0,0,0,0,0,0,0,0,0,0,0,0,0,0,0,0,0,0,0,0,0,0,0,0,0,0,0,0,0,0,0,0,0,0,0,0,0,0,0,0,0,0,0,0,0,0,0,0,0,0,0,0,0,0,0,0,0,0,0,0,0,0,0,0,0,0,0,0,0,0,0,0,0,0,0,0,0,0,0,0,0,0,0,0,0,0,0,0,0,0,0,0,0,0,0,0,0,0,0,0,0,0,0,0,0,0,0,0,0,0,0,0,0,0,0,0,0,0,0,0,0,0,0,0,0,0,0,0,0,0,0,0,0,0,0,0,0,0,0,0,0,0,0,0,0,0,0,0,0,0,0,0,0,0,0,0,0,0,0,0,0,0,0,0,0,0,0,0,0,0,0,0,0,0,0,0,0,0,0,0,0,0,0,0,0,0,0,0,0,0,0,0,0,0,0,0,0,0,0,0,0,0,0,0,0,0,0,0,0,0,0,0,0,0,0,0,0],"trees":[{"base_weights":[-9.5037915E-2,-9.711854E-1,6.754355E-1,-1.7746575E-1,-1.588905E0,1.383552E0,-1.9187853E-1,-5.353472E-1,7.5755894E-2,-2.4654473E-1,-9.2138153E-1,1.0464709E-2,1.6239865E0,-4.7961074E-1,1.3945457E-1,3.1370245E-2,-1.5496372E-1,-2.0352818E-2,-1.7261721E-1,1.8838191E0,9.608923E-2,-0E0,-1.4159974E-1,8.25529E-2,-3.7580788E-2,1.5009138E-1,2.4654473E-1],"categories":[],"categories_nodes":[],"categories_segments":[],"categories_sizes":[],"default_left":[0,0,0,0,0,0,0,0,0,0,0,0,0,0,0,0,0,0,0,0,0,0,0,0,0,0,0],"id":0,"left_children":[1,3,5,7,9,11,13,15,-1,-1,17,-1,19,21,23,-1,-1,-1,-1,25,-1,-1,-1,-1,-1,-1,-1],"loss_changes":[4.4360162E2,1.457651E2,2.1958505E2,4.764542E1,3.981009E1,5.5117096E1,1.8990963E1,6.969406E1,0E0,0E0,2.7402092E1,0E0,2.4365845E1,3.3347992E1,2.4474478E1,0E0,0E0,0E0,0E0,1.4067139E1,0E0,0E0,0E0,0E0,0E0,0E0,0E0],"parents":[2147483647,0,0,1,1,2,2,3,3,4,4,5,5,6,6,7,7,10,10,12,12,13,13,14,14,19,19],"right_children":[2,4,6,8,10,12,14,16,-1,-1,18,-1,20,22,24,-1,-1,-1,-1,26,-1,-1,-1,-1,-1,-1,-1],"split_conditions":[1.5216398E1,3.69972E1,3.8162422E1,3.5735556E-1,9.562058E-2,4.622504E1,2.31107E-2,1.345E3,7.5755894E-2,-2.4654473E-1,1.14E3,1.0464709E-2,7.9E2,1.065E3,7.9E2,3.1370245E-2,-1.5496372E-1,-2.0352818E-2,-1.7261721E-1,5.9258442E1,9.608923E-2,-0E0,-1.4159974E-1,8.25529E-2,-3.7580788E-2,1.5009138E-1,2.4654473E-1],"split_indices":[2,5,5,1,1,4,1,7,0,0,7,0,7,7,7,0,0,0,0,4,0,0,0,0,0,0,0],"split_type":[0,0,0,0,0,0,0,0,0,0,0,0,0,0,0,0,0,0,0,0,0,0,0,0,0,0,0],"sum_hessian":[6.3E2,2.96E2,3.34E2,1.35E2,1.61E2,1.84E2,1.5E2,9.7E1,3.8E1,8.5E1,7.6E1,3.2E1,1.52E2,8.4E1,6.6E1,4.6E1,5.1E1,3.5E1,4.1E1,1.08E2,4.4E1,5.2E1,3.2E1,3.2E1,3.4E1,6.4E1,4.4E1],"tree_param":{"num_deleted":"0","num_feature":"9","num_nodes":"27","size_leaf_vector":"1"}},{"base_weights":[-6.5380804E-2,-7.2008944E-1,6.282531E-1,-2.71773E-1,-2.4654473E-1,1.5631174E0,-9.4351137E-1,-7.048449E-1,5.569641E-1,1.048955E0,2.4654473E-1,-4.8010923E-2,-1.6127332E-1,-1.0787945E0,3.683629E-2,-1.265614E-2,1.2567037E-1,1.7753088E-1,7.0281886E-2,-0E0,-1.769217E-1],"categories":[],"categories_nodes":[],"categories_segments":[],"categories_sizes":[],"default_left":[0,0,0,0,0,0,0,0,0,0,0,0,0,0,0,0,0,0,0,0,0],"id":1,"left_children":[1,3,5,7,-1,9,11,13,15,17,-1,-1,-1,19,-1,-1,-1,-1,-1,-1,-1],"loss_changes":[2.896679E2,1.8878053E2,4.6115955E2,9.785655E1,0E0,4.937799E1,1.9470581E1,7.148854E1,3.3198067E1,1.8200989E1,0E0,0E0,0E0,4.8980804E1,0E0,0E0,0E0,0E0,0E0,0E0,0E0],"parents":[2147483647,0,0,1,1,2,2,3,3,5,5,6,6,7,7,8,8,9,9,13,13],"right_children":[2,4,6,8,-1,10,12,14,16,18,-1,-1,-1,20,-1,-1,-1,-1,-1,-1,-1],"split_conditions":[4.5604206E1,6.166667E0,4.166667E0,4.0343082E1,-2.4654473E-1,5.9051147E1,8.166667E0,1.25E0,1.9015288E2,1.166667E0,2.4654473E-1,-4.8010923E-2,-1.6127332E-1,7.3964836E1,3.683629E-2,-1.265614E-2,1.2567037E-1,1.7753088E-1,7.0281886E-2,-0E0,-1.769217E-1],"split_indices":[4,0,0,4,0,4,0,0,8,0,0,0,0,6,0,0,0,0,0,0,0],"split_type":[0,0,0,0,0,0,0,0,0,0,0,0,0,0,0,0,0,0,0,0,0],"sum_hessian":[6.08E2,3.15E2,2.93E2,2.42E2,7.3E1,1.85E2,1.08E2,1.62E2,8E1,1.18E2,6.7E1,5.1E1,5.7E1,1.2E2,4.2E1,3.2E1,4.8E1,5.5E1,6.3E1,3.2E1,8.8E1],"tree_param":{"num_deleted":"0","num_feature":"9","num_nodes":"21","size_leaf_vector":"1"}},{"base_weights":[-2.8992288E-3,-7.9159844E-1,3.9314306E-1,-1.3380376E0,-3.3595964E-2,-2.3236491E-1,7.5839216E-1,-7.7711545E-2,-1.9429675E-1,1.3028102E-1,-1.0652717E0,2.8030616E-1,1.3847381E0,-1.6978358E-1,-7.0820175E-2,9.696076E-2,7.2843775E-2,2.4654473E-1,1.9495446E-2,-3.0569326E-2,6.986295E-2],"categories":[],"categories_nodes":[],"categories_segments":[],"categories_sizes":[],"default_left":[0,0,0,0,0,0,0,0,0,0,0,0,0,0,0,0,0,0,0,0,0],"id":2,"left_children":[1,3,5,7,-1,9,11,-1,-1,-1,13,15,17,-1,-1,-1,19,-1,-1,-1,-1],"loss_changes":[2.0405588E2,5.8051865E1,1.00951225E2,9.471085E0,0E0,1.8343849E2,7.781581E1,0E0,0E0,0E0,9.874657E0,1.7493574E1,9.275728E1,0E0,0E0,0E0,2.62442E1,0E0,0E0,0E0,0E0],"parents":[2147483647,0,0,1,1,2,2,3,3,5,5,6,6,10,10,11,11,12,12,16,16],"right_children":[2,4,6,8,-1,10,12,-1,-1,-1,14,16,18,-1,-1,-1,20,-1,-1,-1,-1],"split_conditions":[4.0343082E1,2.1197704E2,1.6099829E2,3.3171356E1,-3.3595964E-2,2.5E0,2.31107E-2,-7.7711545E-2,-1.9429675E-1,1.3028102E-1,2.31107E-2,2.0050305E2,2.193928E2,-1.6978358E-1,-7.0820175E-2,9.696076E-2,3.1214453E2,2.4654473E-1,1.9495446E-2,-3.0569326E-2,6.986295E-2],"split_indices":[4,8,8,4,0,0,1,0,0,0,1,8,8,0,0,0,8,0,0,0,0],"split_type":[0,0,0,0,0,0,0,0,0,0,0,0,0,0,0,0,0,0,0,0,0],"sum_hessian":[6.14E2,2.06E2,4.08E2,9.3E1,1.13E2,1.48E2,2.6E2,3.2E1,6.1E1,5.6E1,9.2E1,1.55E2,1.05E2,4.6E1,4.6E1,3.6E1,1.19E2,6.2E1,4.3E1,7E1,4.9E1],"tree_param":{"num_deleted":"0","num_feature":"9","num_nodes":"21","size_leaf_vector":"1"}},{"base_weights":[-2.9545192E-2,5.034317E-1,-8.931996E-1,6.1979103E-1,-5.4919504E-2,-5.8306E-1,-1.795987E-1,1.3150066E0,-4.7419652E-1,-0E0,-1.7788054E-1,2.4562161E-2,1.5808638E0,-1.3065606E-1,-1.8772382E-1,4.434084E-2,-5.2316E-2,2.1072984E-1,1.1164579E-1,1.5946688E-2,-5.1000763E-2],"categories":[],"categories_nodes":[],"categories_segments":[],"categories_sizes":[],"default_left":[0,0,0,0,0,0,0,0,0,0,0,0,0,0,0,0,0,0,0,0,0],"id":3,"left_children":[1,3,5,7,-1,9,-1,11,13,15,-1,-1,17,-1,19,-1,-1,-1,-1,-1,-1],"loss_changes":[2.9997665E2,4.848002E1,3.8374603E1,2.803265E2,0E0,9.4975784E1,0E0,6.010376E1,2.3079853E1,2.1598928E1,0E0,0E0,4.417816E0,0E0,1.0873381E1,0E0,0E0,0E0,0E0,0E0,0E0],"parents":[2147483647,0,0,1,1,2,2,3,3,5,5,7,7,8,8,9,9,12,12,14,14],"right_children":[2,4,6,8,-1,10,-1,12,14,16,-1,-1,18,-1,20,-1,-1,-1,-1,-1,-1],"split_conditions":[1.38E3,9.98087E1,9.538461E1,2.333333E0,-5.4919504E-2,5.666667E0,-1.795987E-1,7.6687703E0,1.1196872E1,7.7697845E1,-1.7788054E-1,2.4562161E-2,1.416667E0,-1.3065606E-1,2E1,4.434084E-2,-5.2316E-2,2.1072984E-1,1.1164579E-1,1.5946688E-2,-5.1000763E-2],"split_indices":[7,6,6,0,0,0,0,6,2,6,0,0,0,0,7,0,0,0,0,0,0],"split_type":[0,0,0,0,0,0,0,0,0,0,0,0,0,0,0,0,0,0,0,0,0],"sum_hessian":[6.19E2,3.82E2,2.37E2,3.45E2,3.7E1,1.64E2,7.3E1,2.12E2,1.33E2,9.9E1,6.5E1,4.5E1,1.67E2,3.5E1,9.8E1,5.8E1,4.1E1,1.29E2,3.8E1,3.6E1,6.2E1],"tree_param":{"num_deleted":"0","num_feature":"9","num_nodes":"21","size_leaf_vector":"1"}},{"base_weights":[2.5125353E-2,-6.051151E-1,5.765583E-1,-1.1930864E0,-3.1501964E-1,2.5043353E-1,9.7288024E-1,-5.6555174E-2,-2.3635375E-1,-1.6546693E-2,-1.1565325E-1,7.951089E-1,-1.5265065E-1,1.1539792E0,2.1775007E-2,5.240867E-2,-4.0243384E-1,1.1688441E0,-5.400158E-2,2.081063E-1,5.6924E-2,-7.4417606E-2,-0E0,1.6411641E-1,7.214199E-2],"categories":[],"categories_nodes":[],"categories_segments":[],"categories_sizes":[],"default_left":[0,0,0,0,0,0,0,0,0,0,0,0,0,0,0,0,0,0,0,0,0,0,0,0,0],"id":4,"left_children":[1,3,5,7,9,11,13,-1,-1,15,-1,17,-1,19,-1,-1,21,23,-1,-1,-1,-1,-1,-1,-1],"loss_changes":[2.3082268E2,4.9569626E1,4.3511795E1,4.4246216E1,4.012816E1,1.7904263E2,1.8485687E1,0E0,0E0,3.1876453E1,0E0,8.073177E1,0E0,3.8573044E1,0E0,0E0,6.6389923E0,5.6640472E0,0E0,0E0,0E0,0E0,0E0,0E0,0E0],"parents":[2147483647,0,0,1,1,2,2,3,3,4,4,5,5,6,6,9,9,11,11,13,13,16,16,17,17],"right_children":[2,4,6,8,10,12,14,-1,-1,16,-1,18,-1,20,-1,-1,22,24,-1,-1,-1,-1,-1,-1,-1],"split_conditions":[1.5438682E1,7.794903E0,1.898868E1,5.666667E0,3.75E0,3.666667E0,9.786996E1,-5.6555174E-2,-2.3635375E-1,8.236659E1,-1.1565325E-1,7.966102E1,-1.5265065E-1,2.333333E0,2.1775007E-2,5.240867E-2,2.0386393E1,1.583333E0,-5.400158E-2,2.081063E-1,5.6924E-2,-7.4417606E-2,-0E0,1.6411641E-1,7.214199E-2],"split_indices":[2,2,3,0,0,0,6,0,0,6,0,6,0,0,0,0,3,0,0,0,0,0,0,0,0],"split_type":[0,0,0,0,0,0,0,0,0,0,0,0,0,0,0,0,0,0,0,0,0,0,0,0,0],"sum_hessian":[6.32E2,2.92E2,3.4E2,8.7E1,2.05E2,1.96E2,1.44E2,5E1,3.7E1,1.46E2,5.9E1,1.47E2,4.9E1,1.12E2,3.2E1,6.4E1,8.2E1,1.15E2,3.2E1,5.6E1,5.6E1,4.8E1,3.4E1,8E1,3.5E1],"tree_param":{"num_deleted":"0","num_feature":"9","num_nodes":"25","size_leaf_vector":"1"}},{"base_weights":[-0E0,3.827857E-1,-1.1698414E0,-1.446638E-1,5.706393E-1,-1.392558E0,-2.1266658E-2,-6.8758756E-2,4.4014115E-2,3.3497076E-2,1.3884708E0,-1.2028605E-1,-2.2539859E-1,2.652781E-1,-6.0405217E-2,1.6827897E0,5.021394E-2,-0E0,7.201728E-2,2.4654473E-1,8.111188E-2],"categories":[],"categories_nodes":[],"categories_segments":[],"categories_sizes":[],"default_left":[0,0,0,0,0,0,0,0,0,0,0,0,0,0,0,0,0,0,0,0,0],"id":5,"left_children":[1,3,5,7,9,11,-1,-1,-1,13,15,-1,-1,17,-1,19,-1,-1,-1,-1,-1],"loss_changes":[2.9542883E2,5.2035652E1,3.0996689E1,3.309558E1,1.6039777E2,1.251152E1,0E0,0E0,0E0,3.2214607E1,3.483905E1,0E0,0E0,1.6532278E1,0E0,2.8057495E1,0E0,0E0,0E0,0E0,0E0],"parents":[2147483647,0,0,1,1,2,2,3,3,4,4,5,5,9,9,10,10,13,13,15,15],"right_children":[2,4,6,8,10,12,-1,-1,-1,14,16,-1,-1,18,-1,20,-1,-1,-1,-1,-1],"split_conditions":[6E0,1.3908318E2,3.042018E2,2.1331198E1,1.8620226E1,5.3045628E1,-2.1266658E-2,-6.8758756E-2,4.4014115E-2,3.1138977E2,4.553363E1,-1.2028605E-1,-2.2539859E-1,1.5E0,-6.0405217E-2,2.769679E2,5.021394E-2,-0E0,7.201728E-2,2.4654473E-1,8.111188E-2],"split_indices":[0,8,8,2,2,5,0,0,0,8,5,0,0,0,0,8,0,0,0,0,0],"split_type":[0,0,0,0,0,0,0,0,0,0,0,0,0,0,0,0,0,0,0,0,0],"sum_hessian":[6.31E2,4.8E2,1.51E2,1.22E2,3.58E2,1.19E2,3.2E1,7E1,5.2E1,2.22E2,1.36E2,7.4E1,4.5E1,1.6E2,6.2E1,9.9E1,3.7E1,8.9E1,7.1E1,6.7E1,3.2E1],"tree_param":{"num_deleted":"0","num_feature":"9","num_nodes":"21","size_leaf_vector":"1"}},{"base_weights":[-3.0080732E-2,3.4921968E-1,-8.9663833E-1,-2.244284E-1,6.9601154E-1,-1.6398503E-3,-1.0450535E0,2.1925414E-1,-8.829039E-1,1.0051432E0,-1.8000843E-1,-8.0347484E-1,-2.0693126E-1,7.749279E-2,-4.0780716E-2,-1.4675216E-1,-4.1106537E-2,1.3622764E0,5.984437E-1,-3.9815575E-2,-0E0,-1.3321951E-1,-8.593513E-3,6.775598E-2,2.1485598E-1,2.0805905E-2,1.1405519E-1],"categories":[],"categories_nodes":[],"categories_segments":[],"categories_sizes":[],"default_left":[0,0,0,0,0,0,0,0,0,0,0,0,0,0,0,0,0,0,0,0,0,0,0,0,0,0,0],"id":6,"left_children":[1,3,5,7,9,-1,11,13,15,17,19,21,-1,-1,-1,-1,-1,23,25,-1,-1,-1,-1,-1,-1,-1,-1],"loss_changes":[2.2341405E2,9.564252E1,2.3920227E1,5.860425E1,8.4090515E1,0E0,1.9343338E1,3.0147501E1,9.256142E0,2.636705E1,3.0801258E0,2.5941704E1,0E0,0E0,0E0,0E0,0E0,2.5861938E1,1.48902855E1,0E0,0E0,0E0,0E0,0E0,0E0,0E0,0E0],"parents":[2147483647,0,0,1,1,2,2,3,3,4,4,6,6,7,7,8,8,9,9,10,10,11,11,17,17,18,18],"right_children":[2,4,6,8,10,-1,12,14,16,18,20,22,-1,-1,-1,-1,-1,24,26,-1,-1,-1,-1,-1,-1,-1,-1],"split_conditions":[1.74E3,1.5216398E1,3.4785297E1,3.5E0,2.75E0,-1.6398503E-3,1.0333333E1,2.8329858E2,2.1100008E2,2.1070638E2,8.59617E1,3.69E3,-2.0693126E-1,7.749279E-2,-4.0780716E-2,-1.4675216E-1,-4.1106537E-2,1.17697876E2,2.1331198E1,-3.9815575E-2,-0E0,-1.3321951E-1,-8.593513E-3,6.775598E-2,2.1485598E-1,2.0805905E-2,1.1405519E-1],"split_indices":[7,2,4,0,0,0,0,8,8,8,8,7,0,0,0,0,0,8,2,0,0,0,0,0,0,0,0],"split_type":[0,0,0,0,0,0,0,0,0,0,0,0,0,0,0,0,0,0,0,0,0,0,0,0,0,0,0],"sum_hessian":[6.4E2,4.45E2,1.95E2,1.65E2,2.8E2,3.2E1,1.63E2,9.8E1,6.7E1,2.09E2,7.1E1,1.31E2,3.2E1,5.9E1,3.9E1,3.5E1,3.2E1,1E2,1.09E2,3.9E1,3.2E1,9E1,4.1E1,3.9E1,6.1E1,5.5E1,5.4E1],"tree_param":{"num_deleted":"0","num_feature":"9","num_nodes":"27","size_leaf_vector":"1"}},{"base_weights":[-0E0,-2.9479578E-1,4.5229545E-1,-6.463823E-1,1.5736887E-1,-3.4398526E-2,6.7603827E-1,-8.0321693E-1,-3.8623905E-1,-1.123674E-2,3.62301E-2,1.2033632E0,-0E0,-1.292304E-1,-3.69643E-2,-9.638362E-2,5.6044827E-3,1.8686643E-1,7.472716E-2,-4.8472628E-2,6.3081145E-2],"categories":[],"categories_nodes":[],"categories_segments":[],"categories_sizes":[],"default_left":[0,0,0,0,0,0,0,0,0,0,0,0,0,0,0,0,0,0,0,0,0],"id":7,"left_children":[1,3,5,7,9,-1,11,13,15,-1,-1,17,19,-1,-1,-1,-1,-1,-1,-1,-1],"loss_changes":[8.9983E1,6.71255E1,4.668685E1,7.0273743E0,8.019145E0,0E0,7.618761E1,1.3023064E1,2.2846289E1,0E0,0E0,1.4882782E1,2.4872356E1,0E0,0E0,0E0,0E0,0E0,0E0,0E0,0E0],"parents":[2147483647,0,0,1,1,2,2,3,3,4,4,6,6,7,7,8,8,11,11,12,12],"right_children":[2,4,6,8,10,-1,12,14,16,-1,-1,18,20,-1,-1,-1,-1,-1,-1,-1,-1],"split_conditions":[2.31107E-2,2.193928E2,7.860551E1,1.6099829E2,1.835923E1,-3.4398526E-2,2.193928E2,5.154009E1,1.8569475E1,-1.123674E-2,3.62301E-2,2E1,4.503923E1,-1.292304E-1,-3.69643E-2,-9.638362E-2,5.6044827E-3,1.8686643E-1,7.472716E-2,-4.8472628E-2,6.3081145E-2],"split_indices":[1,8,8,8,3,0,8,4,3,0,0,1,4,0,0,0,0,0,0,0,0],"split_type":[0,0,0,0,0,0,0,0,0,0,0,0,0,0,0,0,0,0,0,0,0],"sum_hessian":[6.29E2,3.83E2,2.46E2,2.18E2,1.65E2,5.4E1,1.92E2,1.21E2,9.7E1,5.1E1,1.14E2,1.07E2,8.5E1,7.3E1,4.8E1,5.2E1,4.5E1,6.1E1,4.6E1,5.1E1,3.4E1],"tree_param":{"num_deleted":"0","num_feature":"9","num_nodes":"21","size_leaf_vector":"1"}},{"base_weights":[-4.993765E-2,-6.4472324E-1,2.5177047E-1,-3.9053962E-1,-1.2841141E-1,-1.1232291E-1,4.263725E-1,-1.4357007E-2,-1.7158075E-1,-4.0447783E-1,2.4665419E-2,1.0439065E0,-2.8984988E-1,1.5336987E-1,-4.3831397E-2,2.4700271E-2,-1.215978E-1,1.5535532E-1,6.846187E-2,-0E0,-8.457834E-2,-7.0163966E-3,5.4071676E-2,1.6777493E-2,-1.5471719E-2],"categories":[],"categories_nodes":[],"categories_segments":[],"categories_sizes":[],"default_left":[0,0,0,0,0,0,0,0,0,0,0,0,0,0,0,0,0,0,0,0,0,0,0,0,0],"id":8,"left_children":[1,3,5,7,-1,9,11,13,-1,15,-1,17,19,21,-1,-1,-1,-1,-1,23,-1,-1,-1,-1,-1],"loss_changes":[1.2086286E2,2.0090752E1,2.975304E1,5.712298E1,0E0,1.6504171E1,1.384061E2,1.0630054E1,0E0,3.5539734E1,0E0,1.2020279E1,1.9594255E1,7.9832187E0,0E0,0E0,0E0,0E0,0E0,3.1632705E0,0E0,0E0,0E0,0E0,0E0],"parents":[2147483647,0,0,1,1,2,2,3,3,5,5,6,6,7,7,9,9,11,11,12,12,13,13,19,19],"right_children":[2,4,6,8,-1,10,12,14,-1,16,-1,18,20,22,-1,-1,-1,-1,-1,24,-1,-1,-1,-1,-1],"split_conditions":[4.0721577E1,3.883547E1,1.7081867E1,6.166667E0,-1.2841141E-1,5.6346054E1,2.833333E0,9.7560974E1,-1.7158075E-1,1.75E0,2.4665419E-2,1.083333E0,8.166667E0,3.5573643E1,-4.3831397E-2,2.4700271E-2,-1.215978E-1,1.5535532E-1,6.846187E-2,1.56E3,-8.457834E-2,-7.0163966E-3,5.4071676E-2,1.6777493E-2,-1.5471719E-2],"split_indices":[4,4,3,0,0,4,0,6,0,0,0,0,0,4,0,0,0,0,0,7,0,0,0,0,0],"split_type":[0,0,0,0,0,0,0,0,0,0,0,0,0,0,0,0,0,0,0,0,0,0,0,0,0],"sum_hessian":[6.26E2,2.12E2,4.14E2,1.41E2,7.1E1,1.29E2,2.85E2,1.09E2,3.2E1,7.1E1,5.8E1,1.54E2,1.31E2,6.9E1,4E1,3.4E1,3.7E1,9.6E1,5.8E1,7.6E1,5.5E1,3.6E1,3.3E1,4.4E1,3.2E1],"tree_param":{"num_deleted":"0","num_feature":"9","num_nodes":"25","size_leaf_vector":"1"}},{"base_weights":[3.644919E-2,-6.4790225E-1,3.4648117E-1,-1.19515486E-1,-5.1610935E-1,-5.0087616E-2,4.202948E-1,-0E0,-6.2168956E-1,7.270745E-1,-3.0787975E-1,-1.08643174E-1,-3.525955E-1,8.9468193E-1,1.0401346E-1,-5.956859E-2,-3.8750647E-3,-6.441267E-2,-7.2507435E-3,1.5974608E-1,8.643898E-2,-0E0,3.2549087E-2],"categories":[],"categories_nodes":[],"categories_segments":[],"categories_sizes":[],"default_left":[0,0,0,0,0,0,0,0,0,0,0,0,0,0,0,0,0,0,0,0,0,0,0],"id":9,"left_children":[1,3,5,-1,7,-1,9,-1,11,13,15,-1,17,19,21,-1,-1,-1,-1,-1,-1,-1,-1],"loss_changes":[1.4103896E2,6.0736313E0,2.8701859E1,0E0,7.3642235E0,0E0,9.822396E1,0E0,7.0459175E0,2.8706192E1,5.543438E0,0E0,3.31396E0,1.3054352E1,2.990669E0,0E0,0E0,0E0,0E0,0E0,0E0,0E0,0E0],"parents":[2147483647,0,0,1,1,2,2,4,4,6,6,8,8,9,9,10,10,12,12,13,13,14,14],"right_children":[2,4,6,-1,8,-1,10,-1,12,14,16,-1,18,20,22,-1,-1,-1,-1,-1,-1,-1,-1],"split_conditions":[1.1574125E1,1.676743E1,1.4444665E1,-1.19515486E-1,1.7766834E1,-5.0087616E-2,3.5E0,-0E0,7.0653048E0,4.825067E1,1.9622543E1,-1.08643174E-1,1.583333E0,2.205761E1,5.477347E1,-5.956859E-2,-3.8750647E-3,-6.441267E-2,-7.2507435E-3,1.5974608E-1,8.643898E-2,-0E0,3.2549087E-2],"split_indices":[2,3,3,0,3,0,0,0,2,5,3,0,0,5,5,0,0,0,0,0,0,0,0],"split_type":[0,0,0,0,0,0,0,0,0,0,0,0,0,0,0,0,0,0,0,0,0,0,0],"sum_hessian":[6.29E2,1.91E2,4.38E2,3.8E1,1.53E2,3.3E1,4.05E2,3.2E1,1.21E2,2.88E2,1.17E2,4.9E1,7.2E1,2.21E2,6.7E1,6.2E1,5.5E1,3.6E1,3.6E1,5.6E1,1.65E2,3.3E1,3.4E1],"tree_param":{"num_deleted":"0","num_feature":"9","num_nodes":"23","size_leaf_vector":"1"}},{"base_weights":[3.5738687E-3,-3.128455E-1,1.670369E-1,-5.7800025E-1,2.107176E-1,-4.478504E-1,5.221738E-1,-1.8254856E-2,-1.1986191E-1,-1.3849963E-2,6.8753056E-2,-5.6733E-1,-1.3568553E-2,8.742042E-1,-2.3108116E-1,-3.791812E-2,-1.13014534E-1,4.877673E-1,1.7421658E-1,-7.009506E-2,-0E0,-0E0,1.0717876E-1],"categories":[],"categories_nodes":[],"categories_segments":[],"categories_sizes":[],"default_left":[0,0,0,0,0,0,0,0,0,0,0,0,0,0,0,0,0,0,0,0,0,0,0],"id":10,"left_children":[1,3,5,7,9,11,13,-1,-1,-1,-1,15,-1,17,19,-1,-1,21,-1,-1,-1,-1,-1],"loss_changes":[3.6290573E1,3.479911E1,1.019971E2,2.4276825E1,1.2808069E1,5.4011307E0,8.1823715E1,0E0,0E0,0E0,0E0,8.628162E0,0E0,3.7516495E1,1.1041586E1,0E0,0E0,2.6472118E1,0E0,0E0,0E0,0E0,0E0],"parents":[2147483647,0,0,1,1,2,2,3,3,4,4,5,5,6,6,11,11,13,13,14,14,17,17],"right_children":[2,4,6,8,10,12,14,-1,-1,-1,-1,16,-1,18,20,-1,-1,22,-1,-1,-1,-1,-1],"split_conditions":[1.5947464E2,5.4726955E1,4.0343082E1,3.5E0,2.3809524E0,7.313998E-1,3.666667E0,-1.8254856E-2,-1.1986191E-1,-1.3849963E-2,6.8753056E-2,3.8763947E1,-1.3568553E-2,2.31107E-2,4.7461937E1,-3.791812E-2,-1.13014534E-1,1.8152922E1,1.7421658E-1,-7.009506E-2,-0E0,-0E0,1.0717876E-1],"split_indices":[8,4,4,0,1,1,0,0,0,0,0,4,0,1,4,0,0,3,0,0,0,0,0],"split_type":[0,0,0,0,0,0,0,0,0,0,0,0,0,0,0,0,0,0,0,0,0,0,0],"sum_hessian":[6.41E2,2.1E2,4.31E2,1.43E2,6.7E1,1.54E2,2.77E2,7.6E1,6.7E1,3.2E1,3.5E1,1.04E2,5E1,1.91E2,8.6E1,7.1E1,3.3E1,1.21E2,7E1,3.7E1,4.9E1,5.5E1,6.6E1],"tree_param":{"num_deleted":"0","num_feature":"9","num_nodes":"23","size_leaf_vector":"1"}},{"base_weights":[6.0275556E-3,1.8075953E-1,-9.212366E-1,4.0585402E-1,-3.8716337E-1,-3.4843339E-3,-1.6023922E-1,7.025358E-1,-1.6671751E-1,1.641044E-2,-1.4412999E-1,4.8560527E-1,9.121915E-1,8.197774E-3,-5.4913722E-2,-3.2385346E-2,7.7431984E-2,3.6550675E-2,1.0426297E-1,4.436455E-2,1.406157E-1],"categories":[],"categories_nodes":[],"categories_segments":[],"categories_sizes":[],"default_left":[0,0,0,0,0,0,0,0,0,0,0,0,0,0,0,0,0,0,0,0,0],"id":11,"left_children":[1,3,5,7,9,-1,-1,11,13,15,-1,17,19,-1,-1,-1,-1,-1,-1,-1,-1],"loss_changes":[1.0836383E2,7.406655E1,3.1549072E1,7.232905E1,5.69711E1,0E0,0E0,9.482483E0,1.23613205E1,2.5314037E1,0E0,9.301979E0,1.1866463E1,0E0,0E0,0E0,0E0,0E0,0E0,0E0,0E0],"parents":[2147483647,0,0,1,1,2,2,3,3,4,4,7,7,8,8,9,9,11,11,12,12],"right_children":[2,4,6,8,10,-1,-1,12,14,16,-1,18,20,-1,-1,-1,-1,-1,-1,-1,-1],"split_conditions":[9.98087E1,1.77E3,4.15E2,4.6633392E1,5.3270348E1,-3.4843339E-3,-1.6023922E-1,2.31107E-2,5.5699867E1,4.41E3,-1.4412999E-1,9.023735E1,4.8253433E1,8.197774E-3,-5.4913722E-2,-3.2385346E-2,7.7431984E-2,3.6550675E-2,1.0426297E-1,4.436455E-2,1.406157E-1],"split_indices":[6,7,7,5,5,0,0,1,5,7,0,6,4,0,0,0,0,0,0,0,0],"split_type":[0,0,0,0,0,0,0,0,0,0,0,0,0,0,0,0,0,0,0,0,0],"sum_hessian":[6.29E2,5.36E2,9.3E1,3.89E2,1.47E2,3.2E1,6.1E1,2.59E2,1.3E2,9.8E1,4.9E1,1.44E2,1.15E2,6.7E1,6.3E1,6.6E1,3.2E1,1.07E2,3.7E1,4.2E1,7.3E1],"tree_param":{"num_deleted":"0","num_feature":"9","num_nodes":"21","size_leaf_vector":"1"}},{"base_weights":[-3.3286836E-2,2.331071E-1,-8.707531E-1,-3.2860094E-1,5.469377E-1,-1.5720627E-1,-5.729777E-1,-4.4351807E-1,-0E0,6.7254674E-1,-0E0,-0E0,-8.4230185E-1,-8.478586E-2,1.0684806E-2,-1.85663E-2,8.4142786E-1,-1.4718077E-1,-3.3293046E-2,4.910123E-2,1.188393E-1],"categories":[],"categories_nodes":[],"categories_segments":[],"categories_sizes":[],"default_left":[0,0,0,0,0,0,0,0,0,0,0,0,0,0,0,0,0,0,0,0,0],"id":12,"left_children":[1,3,5,7,9,-1,11,13,-1,15,-1,-1,17,-1,-1,-1,19,-1,-1,-1,-1],"loss_changes":[1.5196399E2,9.121031E1,1.515432E1,6.1060543E0,2.3071632E1,0E0,1.716277E1,2.0213404E1,0E0,4.088009E1,0E0,0E0,1.1690922E1,0E0,0E0,0E0,8.676743E0,0E0,0E0,0E0,0E0],"parents":[2147483647,0,0,1,1,2,2,3,3,4,4,6,6,7,7,9,9,12,12,16,16],"right_children":[2,4,6,8,10,-1,12,14,-1,16,-1,-1,18,-1,-1,-1,20,-1,-1,-1,-1],"split_conditions":[6E0,1.3579024E1,9.862662E0,1.5E0,2.75E0,-1.5720627E-1,9.166667E0,4.0343082E1,-0E0,3.721555E1,-0E0,-0E0,1.8545713E1,-8.478586E-2,1.0684806E-2,-1.85663E-2,4.407235E1,-1.4718077E-1,-3.3293046E-2,4.910123E-2,1.188393E-1],"split_indices":[0,2,2,0,0,0,0,4,0,4,0,0,3,0,0,0,4,0,0,0,0],"split_type":[0,0,0,0,0,0,0,0,0,0,0,0,0,0,0,0,0,0,0,0,0],"sum_hessian":[6.31E2,4.79E2,1.52E2,1.68E2,3.11E2,5.2E1,1E2,1.17E2,5.1E1,2.53E2,5.8E1,3.5E1,6.5E1,8.3E1,3.4E1,4E1,2.13E2,3.3E1,3.2E1,5.7E1,1.56E2],"tree_param":{"num_deleted":"0","num_feature":"9","num_nodes":"21","size_leaf_vector":"1"}},{"base_weights":[3.1872634E-2,-9.913257E-2,1.7118919E-1,2.7305478E-1,-5.9508123E-2,-3.2721087E-1,4.2571113E-1,-6.089422E-2,-1.8128406E-2,2.1859774E-1,6.721453E-1,3.6584713E-2,-0E0,1.0710887E-1,3.1904995E-2],"categories":[],"categories_nodes":[],"categories_segments":[],"categories_sizes":[],"default_left":[0,0,0,0,0,0,0,0,0,0,0,0,0,0,0],"id":13,"left_children":[1,-1,3,5,-1,7,9,-1,-1,11,13,-1,-1,-1,-1],"loss_changes":[7.808448E1,0E0,4.026162E1,4.8272438E1,0E0,2.4481134E0,1.9225578E1,0E0,0E0,4.823821E0,1.1750893E1,0E0,0E0,0E0,0E0],"parents":[2147483647,0,0,2,2,3,3,5,5,6,6,9,9,10,10],"right_children":[2,-1,4,6,-1,8,10,-1,-1,12,14,-1,-1,-1,-1],"split_conditions":[7.8257113E0,-9.913257E-2,9.98087E1,1.0022523E1,-5.9508123E-2,4.3507023E1,2.1142168E1,-6.089422E-2,-1.8128406E-2,1.785E3,6.6E2,3.6584713E-2,-0E0,1.0710887E-1,3.1904995E-2],"split_indices":[2,0,6,6,0,4,2,0,0,7,7,0,0,0,0],"split_type":[0,0,0,0,0,0,0,0,0,0,0,0,0,0,0],"sum_hessian":[6.24E2,8.2E1,5.42E2,4.76E2,6.6E1,9.1E1,3.85E2,3.3E1,5.8E1,2.22E2,1.63E2,1.67E2,5.5E1,1.01E2,6.2E1],"tree_param":{"num_deleted":"0","num_feature":"9","num_nodes":"15","size_leaf_vector":"1"}},{"base_weights":[-1.3281184E-2,3.8434136E-1,-2.3110518E-1,6.0313012E-2,6.419744E-1,-9.0637214E-2,-1.1707731E-1,4.7738552E-2,-8.823547E-3,9.7136736E-2,4.313752E-2,1.388142E-1,-7.2094434E-1,4.6897495E-1,-4.7108084E-1,-1.8422624E-2,-1.323343E-1,8.67596E-2,1.4922154E-2,-7.651804E-2,-1.1964761E-2],"categories":[],"categories_nodes":[],"categories_segments":[],"categories_sizes":[],"default_left":[0,0,0,0,0,0,0,0,0,0,0,0,0,0,0,0,0,0,0,0,0],"id":14,"left_children":[1,3,5,7,9,11,-1,-1,-1,-1,-1,13,15,17,19,-1,-1,-1,-1,-1,-1],"loss_changes":[5.7580708E1,1.7661324E1,4.2688316E1,8.30862E0,2.8542023E0,5.8263687E1,0E0,0E0,0E0,0E0,0E0,5.8603256E1,1.8283993E1,1.3431572E1,4.0261745E0,0E0,0E0,0E0,0E0,0E0,0E0],"parents":[2147483647,0,0,1,1,2,2,3,3,4,4,5,5,11,11,12,12,13,13,14,14],"right_children":[2,4,6,8,10,12,-1,-1,-1,-1,-1,14,16,18,20,-1,-1,-1,-1,-1,-1],"split_conditions":[3.4E2,2.0456335E1,9.9750626E1,1.2099499E1,3.5320114E1,5.645726E1,-1.1707731E-1,4.7738552E-2,-8.823547E-3,9.7136736E-2,4.313752E-2,4.166667E0,4.166667E0,3.6513973E1,2.7E3,-1.8422624E-2,-1.323343E-1,8.67596E-2,1.4922154E-2,-7.651804E-2,-1.1964761E-2],"split_indices":[7,2,6,2,5,5,0,0,0,0,0,0,0,5,7,0,0,0,0,0,0],"split_type":[0,0,0,0,0,0,0,0,0,0,0,0,0,0,0,0,0,0,0,0,0],"sum_hessian":[6.15E2,2.11E2,4.04E2,1.02E2,1.09E2,3.47E2,5.7E1,3.3E1,6.9E1,5.9E1,5E1,2.54E2,9.3E1,1.69E2,8.5E1,4.2E1,5.1E1,9.2E1,7.7E1,5.2E1,3.3E1],"tree_param":{"num_deleted":"0","num_feature":"9","num_nodes":"21","size_leaf_vector":"1"}},{"base_weights":[5.0746858E-2,1.6047591E-1,-5.1951635E-1,-2.2716546E-1,2.5564176E-1,-8.876202E-2,-3.5505343E-2,-5.598482E-2,-3.9046623E-3,-2.0376597E-2,3.885784E-1,-2.6360723E-1,6.0127985E-2,3.4068987E-2,5.72683E-1,1.3409806E-3,-8.447618E-2,3.2946967E-2,-1.2135491E-2,8.779433E-2,4.005367E-2],"categories":[],"categories_nodes":[],"categories_segments":[],"categories_sizes":[],"default_left":[0,0,0,0,0,0,0,0,0,0,0,0,0,0,0,0,0,0,0,0,0],"id":15,"left_children":[1,3,5,7,9,-1,-1,-1,-1,11,13,15,-1,17,19,-1,-1,-1,-1,-1,-1],"loss_changes":[4.2088818E1,2.1957176E1,3.205902E0,4.486358E0,1.808542E1,0E0,0E0,0E0,0E0,2.1779963E1,1.8978733E1,1.6665407E1,0E0,6.3167167E0,4.962265E0,0E0,0E0,0E0,0E0,0E0,0E0],"parents":[2147483647,0,0,1,1,2,2,3,3,4,4,9,9,10,10,11,11,13,13,14,14],"right_children":[2,4,6,8,10,-1,-1,-1,-1,12,14,16,-1,18,20,-1,-1,-1,-1,-1,-1],"split_conditions":[9.98087E1,7.6687703E0,1.2520296E1,4.5225338E1,1.3288158E2,-8.876202E-2,-3.5505343E-2,-5.598482E-2,-3.9046623E-3,2.7433752E1,4.097079E1,7.751831E1,6.0127985E-2,2.620397E2,7.350007E1,1.3409806E-3,-8.447618E-2,3.2946967E-2,-1.2135491E-2,8.779433E-2,4.005367E-2],"split_indices":[6,6,2,4,8,0,0,0,0,2,4,8,0,8,6,0,0,0,0,0,0],"split_type":[0,0,0,0,0,0,0,0,0,0,0,0,0,0,0,0,0,0,0,0,0],"sum_hessian":[6.14E2,5.23E2,9.1E1,9.5E1,4.28E2,3.5E1,5.6E1,3.3E1,6.2E1,1.33E2,2.95E2,9.6E1,3.7E1,1.09E2,1.86E2,5.7E1,3.9E1,4.6E1,6.3E1,1.04E2,8.2E1],"tree_param":{"num_deleted":"0","num_feature":"9","num_nodes":"21","size_leaf_vector":"1"}},{"base_weights":[2.88634E-2,-3.5795933E-1,2.6884514E-1,-1.8400306E-1,-1.1133841E-1,4.4232622E-1,-8.931808E-2,1.02930225E-1,-5.70199E-1,-0E0,5.614643E-1,-6.65464E-2,2.1540233E-1,3.3878144E-2,-1.1328975E-2,-9.170944E-2,-1.9397907E-2,7.4479467E-1,1.9046392E-1,-0E0,5.065631E-2,1.7935118E-2,1.1004816E-1,4.49184E-2,-0E0],"categories":[],"categories_nodes":[],"categories_segments":[],"categories_sizes":[],"default_left":[0,0,0,0,0,0,0,0,0,0,0,0,0,0,0,0,0,0,0,0,0,0,0,0,0],"id":16,"left_children":[1,3,5,7,-1,9,11,13,15,-1,17,-1,19,-1,-1,-1,-1,21,23,-1,-1,-1,-1,-1,-1],"loss_changes":[6.035891E1,2.200687E1,2.677372E1,2.5469185E1,0E0,1.6015862E1,2.286681E1,5.956639E0,4.6546154E0,0E0,1.3065643E1,0E0,4.180973E0,0E0,0E0,0E0,0E0,9.778763E0,4.261949E0,0E0,0E0,0E0,0E0,0E0,0E0],"parents":[2147483647,0,0,1,1,2,2,3,3,5,5,6,6,7,7,8,8,10,10,12,12,17,17,18,18],"right_children":[2,4,6,8,-1,10,12,14,16,-1,18,-1,20,-1,-1,-1,-1,22,24,-1,-1,-1,-1,-1,-1],"split_conditions":[1.3592238E1,9.98087E1,4.6633392E1,4.5157047E1,-1.1133841E-1,7.6687703E0,1.8502285E1,1.1287464E1,8.983312E0,-0E0,7.9E2,-6.65464E-2,2.2006712E1,3.3878144E-2,-1.1328975E-2,-9.170944E-2,-1.9397907E-2,3.544304E1,2.9628262E1,-0E0,5.065631E-2,1.7935118E-2,1.1004816E-1,4.49184E-2,-0E0],"split_indices":[2,6,5,5,0,6,3,2,2,0,7,0,2,0,0,0,0,6,5,0,0,0,0,0,0],"split_type":[0,0,0,0,0,0,0,0,0,0,0,0,0,0,0,0,0,0,0,0,0,0,0,0,0],"sum_hessian":[6.01E2,2.24E2,3.77E2,1.8E2,4.4E1,2.59E2,1.18E2,1.01E2,7.9E1,5.2E1,2.07E2,5E1,6.8E1,6.1E1,4E1,4.7E1,3.2E1,1.29E2,7.8E1,3.6E1,3.2E1,3.2E1,9.7E1,4.1E1,3.7E1],"tree_param":{"num_deleted":"0","num_feature":"9","num_nodes":"25","size_leaf_vector":"1"}},{"base_weights":[-1.0210748E-2,-3.1537643E-1,1.233628E-1,-2.005792E-1,-7.93856E-2,4.0230983E-1,-2.7386498E-1,-4.2255078E-2,-7.149339E-2,8.122828E-2,2.9699278E-1,-3.8382575E-2,-1.09908655E-1,5.2594915E-2,-2.6438338E-1,5.6581616E-2,2.008652E-1,2.8202995E-3,-1.881372E-2,-5.064516E-2,-0E0,-0E0,6.297976E-2],"categories":[],"categories_nodes":[],"categories_segments":[],"categories_sizes":[],"default_left":[0,0,0,0,0,0,0,0,0,0,0,0,0,0,0,0,0,0,0,0,0,0,0],"id":17,"left_children":[1,3,5,7,-1,9,11,13,-1,-1,15,17,-1,-1,19,-1,21,-1,-1,-1,-1,-1,-1],"loss_changes":[2.8421259E1,7.280012E0,5.124652E1,1.0149849E1,0E0,6.241276E0,2.6132915E1,1.7212143E1,0E0,0E0,2.7902927E0,2.2352397E0,0E0,0E0,4.690632E0,0E0,1.1842378E1,0E0,0E0,0E0,0E0,0E0,0E0],"parents":[2147483647,0,0,1,1,2,2,3,3,5,5,6,6,7,7,10,10,11,11,14,14,16,16],"right_children":[2,4,6,8,-1,10,12,14,-1,-1,16,18,-1,-1,20,-1,22,-1,-1,-1,-1,-1,-1],"split_conditions":[1.6099829E2,1.1496838E2,4.5041733E1,5.3769024E1,-7.93856E-2,1.9430215E2,8.083333E0,1.7E0,-7.149339E-2,8.122828E-2,2.5490965E1,2.870153E2,-1.09908655E-1,5.2594915E-2,3.9373325E1,5.6581616E-2,2.31107E-2,2.8202995E-3,-1.881372E-2,-5.064516E-2,-0E0,-0E0,6.297976E-2],"split_indices":[8,8,5,5,0,8,0,0,0,0,5,8,0,0,5,0,1,0,0,0,0,0,0],"split_type":[0,0,0,0,0,0,0,0,0,0,0,0,0,0,0,0,0,0,0,0,0,0,0],"sum_hessian":[6.05E2,1.89E2,4.16E2,1.54E2,3.5E1,2.49E2,1.67E2,1.19E2,3.5E1,5.5E1,1.94E2,1.29E2,3.8E1,3.2E1,8.7E1,5.2E1,1.42E2,6.9E1,6E1,5.5E1,3.2E1,8.7E1,5.5E1],"tree_param":{"num_deleted":"0","num_feature":"9","num_nodes":"23","size_leaf_vector":"1"}},{"base_weights":[1.5854215E-2,1.7774071E-1,-4.7588527E-1,-1.6216844E-1,3.724573E-1,-2.453726E-2,-5.984936E-1,-3.631575E-1,3.1970866E-2,4.9375108E-1,-3.3535596E-3,-1.339212E-1,1.0241032E-2,-2.4740067E-3,-8.915789E-2,3.6661565E-1,9.2981786E-2,1.9192448E-2,6.6883124E-2],"categories":[],"categories_nodes":[],"categories_segments":[],"categories_sizes":[],"default_left":[0,0,0,0,0,0,0,0,0,0,0,0,0,0,0,0,0,0,0],"id":18,"left_children":[1,3,5,7,9,-1,11,13,-1,15,-1,-1,-1,-1,-1,17,-1,-1,-1],"loss_changes":[5.3055313E1,3.4808464E1,3.9484863E0,1.8314215E1,1.7544567E1,0E0,3.8438847E1,1.5255888E1,0E0,6.943817E0,0E0,0E0,0E0,0E0,0E0,6.224764E0,0E0,0E0,0E0],"parents":[2147483647,0,0,1,1,2,2,3,3,4,4,6,6,7,7,9,9,15,15],"right_children":[2,4,6,8,10,-1,12,14,-1,16,-1,-1,-1,-1,-1,18,-1,-1,-1],"split_conditions":[6E0,4.0343082E1,8.75E0,1.083333E0,2.833333E0,-2.453726E-2,2.1100008E2,3.8763947E1,3.1970866E-2,5.9670235E1,-3.3535596E-3,-1.339212E-1,1.0241032E-2,-2.4740067E-3,-8.915789E-2,4.5E2,9.2981786E-2,1.9192448E-2,6.6883124E-2],"split_indices":[0,4,0,0,0,0,8,4,0,4,0,0,0,0,0,7,0,0,0],"split_type":[0,0,0,0,0,0,0,0,0,0,0,0,0,0,0,0,0,0,0],"sum_hessian":[6.16E2,4.71E2,1.45E2,1.66E2,3.05E2,5.7E1,8.8E1,1.18E2,4.8E1,2.39E2,6.6E1,5.2E1,3.6E1,6.8E1,5E1,1.78E2,6.1E1,9.4E1,8.4E1],"tree_param":{"num_deleted":"0","num_feature":"9","num_nodes":"19","size_leaf_vector":"1"}},{"base_weights":[1.6509281E-2,1.5027714E-1,-2.9946274E-1,-0E0,4.1304255E-1,-5.726591E-1,2.0859703E-2,1.7060399E-1,-2.029134E-1,1.0085691E-1,-7.75081E-3,-1.0170091E-1,-2.0371798E-2,-5.7579342E-2,6.544593E-2,-5.623989E-3,-6.2711924E-2,-3.2421168E-2,2.4313048E-2,7.324121E-3,-2.3787698E-2],"categories":[],"categories_nodes":[],"categories_segments":[],"categories_sizes":[],"default_left":[0,0,0,0,0,0,0,0,0,0,0,0,0,0,0,0,0,0,0,0,0],"id":19,"left_children":[1,3,5,7,9,11,-1,13,15,-1,-1,-1,-1,17,-1,19,-1,-1,-1,-1,-1],"loss_changes":[2.8921808E1,1.857769E1,2.7752062E1,1.2757551E1,3.6223717E1,1.1039864E1,0E0,1.8251904E1,8.333028E0,0E0,0E0,0E0,0E0,8.469772E0,0E0,3.1705434E0,0E0,0E0,0E0,0E0,0E0],"parents":[2147483647,0,0,1,1,2,2,3,3,4,4,5,5,7,7,8,8,13,13,15,15],"right_children":[2,4,6,8,10,12,-1,14,16,-1,-1,-1,-1,18,-1,20,-1,-1,-1,-1,-1],"split_conditions":[2.01E3,2.14871E1,2.31107E-2,1.7E0,1.583333E0,1.2852228E1,2.0859703E-2,7.313998E-1,4.733297E0,1.0085691E-1,-7.75081E-3,-1.0170091E-1,-2.0371798E-2,2.0323862E1,6.544593E-2,2.191E1,-6.2711924E-2,-3.2421168E-2,2.4313048E-2,7.324121E-3,-2.3787698E-2],"split_indices":[7,2,1,0,0,2,0,1,1,0,0,0,0,3,0,3,0,0,0,0,0],"split_type":[0,0,0,0,0,0,0,0,0,0,0,0,0,0,0,0,0,0,0,0,0],"sum_hessian":[6.19E2,4.44E2,1.75E2,2.91E2,1.53E2,1.14E2,6.1E1,1.64E2,1.27E2,8.4E1,6.9E1,6.2E1,5.2E1,9.8E1,6.6E1,8.7E1,4E1,6.1E1,3.7E1,5.5E1,3.2E1],"tree_param":{"num_deleted":"0","num_feature":"9","num_nodes":"21","size_leaf_vector":"1"}},{"base_weights":[2.4955373E-2,2.7537066E-1,-1.0016578E-1,6.5440782E-3,3.9232758E-1,-1.5475681E-1,4.176451E-2,-0E0,5.618164E-1,-2.4379499E-3,-1.059962E-1,9.531461E-2,4.0661234E-2,-5.395949E-2,1.9580372E-2,-5.6461655E-2,3.0322308E-3],"categories":[],"categories_nodes":[],"categories_segments":[],"categories_sizes":[],"default_left":[0,0,0,0,0,0,0,0,0,0,0,0,0,0,0,0,0],"id":20,"left_children":[1,3,5,-1,7,9,-1,-1,11,13,-1,-1,-1,15,-1,-1,-1],"loss_changes":[2.3212795E1,5.417309E0,1.2448214E1,0E0,1.0082771E1,4.369246E1,0E0,0E0,3.1697197E0,3.7919164E0,0E0,0E0,0E0,1.26916685E1,0E0,0E0,0E0],"parents":[2147483647,0,0,1,1,2,2,4,4,5,5,8,8,9,9,13,13],"right_children":[2,4,6,-1,8,10,-1,-1,12,14,-1,-1,-1,16,-1,-1,-1],"split_conditions":[3.4E2,4.2857143E1,6.369064E1,6.5440782E-3,4.3793003E1,9.98087E1,4.176451E-2,-0E0,7.377049E1,4.14E3,-1.059962E-1,9.531461E-2,4.0661234E-2,1.3283602E1,1.9580372E-2,-5.6461655E-2,3.0322308E-3],"split_indices":[7,6,4,0,4,6,0,0,6,7,0,0,0,6,0,0,0],"split_type":[0,0,0,0,0,0,0,0,0,0,0,0,0,0,0,0,0],"sum_hessian":[6.42E2,2.2E2,4.22E2,8.8E1,1.32E2,3.85E2,3.7E1,4.2E1,9E1,3.25E2,6E1,3.3E1,5.7E1,2.64E2,6.1E1,4.5E1,2.19E2],"tree_param":{"num_deleted":"0","num_feature":"9","num_nodes":"17","size_leaf_vector":"1"}},{"base_weights":[-2.1023555E-3,1.3257135E-1,-1.9553532E-1,-5.63267E-2,2.147096E-1,-9.6056774E-2,9.436283E-2,2.967695E-1,-2.9446753E-2,5.358823E-2,-1.3019744E-1,3.9018595E-1,8.0624886E-2,-3.8458154E-2,-0E0,5.947489E-2,-0E0,-1.6081005E-2,3.894408E-2],"categories":[],"categories_nodes":[],"categories_segments":[],"categories_sizes":[],"default_left":[0,0,0,0,0,0,0,0,0,0,0,0,0,0,0,0,0,0,0],"id":21,"left_children":[1,3,5,-1,7,-1,9,11,-1,-1,13,15,17,-1,-1,-1,-1,-1,-1],"loss_changes":[1.9143469E1,2.1241652E1,5.3504265E1,0E0,1.5105671E1,0E0,1.8441868E1,5.343912E0,0E0,0E0,4.496953E0,8.652325E0,8.374701E0,0E0,0E0,0E0,0E0,0E0,0E0],"parents":[2147483647,0,0,1,1,2,2,4,4,6,6,7,7,10,10,11,11,12,12],"right_children":[2,4,6,-1,8,-1,10,12,-1,-1,14,16,18,-1,-1,-1,-1,-1,-1],"split_conditions":[7.97619E1,1.4022145E1,1.89015E1,-5.63267E-2,6.0859043E1,-9.6056774E-2,3.513036E1,5.5851276E1,-2.9446753E-2,5.358823E-2,5.175216E1,2.1265562E1,2.31107E-2,-3.8458154E-2,-0E0,5.947489E-2,-0E0,-1.6081005E-2,3.894408E-2],"split_indices":[6,3,3,0,5,0,5,4,0,0,5,3,1,0,0,0,0,0,0],"split_type":[0,0,0,0,0,0,0,0,0,0,0,0,0,0,0,0,0,0,0],"sum_hessian":[6.37E2,3.67E2,2.7E2,3.7E1,3.3E2,9E1,1.8E2,2.87E2,4.3E1,7.5E1,1.05E2,1.87E2,1E2,4.8E1,5.7E1,1.55E2,3.2E1,4.7E1,5.3E1],"tree_param":{"num_deleted":"0","num_feature":"9","num_nodes":"19","size_leaf_vector":"1"}},{"base_weights":[-2.8951183E-2,2.9715168E-1,-2.1087061E-1,5.4409616E-3,3.764516E-1,-1.5246603E-1,-5.7155117E-2,-0E0,5.3071773E-1,-2.4119678E-1,4.8967604E-2,2.559712E-1,1.09083384E-1,-3.6652476E-1,6.378354E-2,5.2281905E-2,-0E0,-7.273213E-2,8.9009653E-4,-1.7391922E-2,4.062607E-2],"categories":[],"categories_nodes":[],"categories_segments":[],"categories_sizes":[],"default_left":[0,0,0,0,0,0,0,0,0,0,0,0,0,0,0,0,0,0,0,0,0],"id":22,"left_children":[1,3,5,-1,7,9,-1,-1,11,13,-1,15,-1,17,19,-1,-1,-1,-1,-1,-1],"loss_changes":[3.897948E1,3.625803E0,6.0795364E0,0E0,9.811441E0,1.9785551E1,0E0,0E0,9.436604E0,1.384947E1,0E0,3.5537028E0,0E0,2.1916733E1,8.09035E0,0E0,0E0,0E0,0E0,0E0,0E0],"parents":[2147483647,0,0,1,1,2,2,4,4,5,5,8,8,9,9,11,11,13,13,14,14],"right_children":[2,4,6,-1,8,10,-1,-1,12,14,-1,16,-1,18,20,-1,-1,-1,-1,-1,-1],"split_conditions":[2.9822535E1,4.0343082E1,5.650158E1,5.4409616E-3,8.6695015E1,5.2496532E1,-5.7155117E-2,-0E0,2.1914398E1,3.144276E2,4.8967604E-2,2.2819473E1,1.09083384E-1,1.679609E1,1.6155771E1,5.2281905E-2,-0E0,-7.273213E-2,8.9009653E-4,-1.7391922E-2,4.062607E-2],"split_indices":[5,4,4,0,8,4,0,0,2,8,0,5,0,2,2,0,0,0,0,0,0],"split_type":[0,0,0,0,0,0,0,0,0,0,0,0,0,0,0,0,0,0,0,0,0],"sum_hessian":[5.99E2,2.07E2,3.92E2,6.1E1,1.46E2,3.36E2,5.6E1,4.4E1,1.02E2,2.97E2,3.9E1,6.8E1,3.4E1,2.17E2,8E1,3.5E1,3.3E1,1.39E2,7.8E1,4E1,4E1],"tree_param":{"num_deleted":"0","num_feature":"9","num_nodes":"21","size_leaf_vector":"1"}},{"base_weights":[3.1567328E-2,1.8593918E-1,-5.256283E-1,-3.851038E-1,3.2185367E-1,-0E0,-8.621004E-2,-0E0,-7.467762E-2,4.183059E-1,-0E0,1.9862449E-2,7.123295E-1,-2.5116934E-2,3.9217025E-2,1.2817946E-1,3.727846E-2],"categories":[],"categories_nodes":[],"categories_segments":[],"categories_sizes":[],"default_left":[0,0,0,0,0,0,0,0,0,0,0,0,0,0,0,0,0],"id":23,"left_children":[1,3,5,7,9,-1,-1,-1,-1,11,13,-1,15,-1,-1,-1,-1],"loss_changes":[5.9142876E1,4.3586006E1,1.209248E1,7.8619366E0,1.32163315E1,0E0,0E0,0E0,0E0,2.3786934E1,1.0643501E1,0E0,1.7100243E1,0E0,0E0,0E0,0E0],"parents":[2147483647,0,0,1,1,2,2,3,3,4,4,9,9,10,10,12,12],"right_children":[2,4,6,8,10,-1,-1,-1,-1,12,14,-1,16,-1,-1,-1,-1],"split_conditions":[9.714286E1,6.3131315E-1,2.25E2,3E2,1.7633411E1,-0E0,-8.621004E-2,-0E0,-7.467762E-2,2.31107E-2,5.3533794E1,1.9862449E-2,7.377049E1,-2.5116934E-2,3.9217025E-2,1.2817946E-1,3.727846E-2],"split_indices":[6,6,7,7,1,0,0,0,0,1,4,0,6,0,0,0,0],"split_type":[0,0,0,0,0,0,0,0,0,0,0,0,0,0,0,0,0],"sum_hessian":[6.38E2,5.07E2,1.31E2,9.1E1,4.16E2,3.7E1,9.4E1,4E1,5.1E1,3.16E2,1E2,1.79E2,1.37E2,6E1,4E1,6.7E1,7E1],"tree_param":{"num_deleted":"0","num_feature":"9","num_nodes":"17","size_leaf_vector":"1"}},{"base_weights":[-5.219353E-2,2.2262116E-1,-1.9406432E-1,4.3934647E-2,-2.655256E-2,-4.6823007E-1,-3.3130597E-2,-8.849365E-2,-2.2605032E-1,9.372826E-2,-3.3579007E-1,4.0955734E-2,-8.200448E-2,-2.2957264E-1,3.273929E-1,-7.101173E-2,-0E0,-0E0,-6.137797E-2,-0E0,5.5906888E-2],"categories":[],"categories_nodes":[],"categories_segments":[],"categories_sizes":[],"default_left":[0,0,0,0,0,0,0,0,0,0,0,0,0,0,0,0,0,0,0,0,0],"id":24,"left_children":[1,3,5,-1,-1,7,9,-1,11,13,15,-1,-1,17,19,-1,-1,-1,-1,-1,-1],"loss_changes":[2.6342302E1,1.5020934E1,1.8566454E1,0E0,0E0,7.905098E0,1.3987578E1,0E0,2.8926504E1,1.8064228E1,9.555777E0,0E0,0E0,6.9456887E0,4.466647E0,0E0,0E0,0E0,0E0,0E0,0E0],"parents":[2147483647,0,0,1,1,2,2,5,5,6,6,8,8,9,9,10,10,13,13,14,14],"right_children":[2,4,6,-1,-1,8,10,-1,12,14,16,-1,-1,18,20,-1,-1,-1,-1,-1,-1],"split_conditions":[3.0060497E1,9.642857E1,1.7458433E1,4.3934647E-2,-2.655256E-2,3.1290483E1,1.955E3,-8.849365E-2,7.330066E1,1.564683E1,1.3592238E1,4.0955734E-2,-8.200448E-2,2.0161676E1,4.0151165E1,-7.101173E-2,-0E0,-0E0,-6.137797E-2,-0E0,5.5906888E-2],"split_indices":[5,6,3,0,0,6,7,0,6,2,2,0,0,3,5,0,0,0,0,0,0],"split_type":[0,0,0,0,0,0,0,0,0,0,0,0,0,0,0,0,0,0,0,0,0],"sum_hessian":[6.07E2,1.98E2,4.09E2,1.58E2,4E1,1.4E2,2.69E2,5.7E1,8.3E1,1.85E2,8.4E1,3.4E1,4.9E1,7.2E1,1.13E2,4.9E1,3.5E1,4E1,3.2E1,3.9E1,7.4E1],"tree_param":{"num_deleted":"0","num_feature":"9","num_nodes":"21","size_leaf_vector":"1"}},{"base_weights":[-8.681764E-3,-2.357258E-1,1.7794433E-1,-3.2872E-1,-5.160759E-2,1.0062118E-1,8.260393E-2,-0E0,-3.8797915E-1,2.1306558E-2,-3.5595495E-2,2.3059623E-1,-4.2916592E-2,-5.1584405E-1,-1.2271728E-2,3.266011E-1,-2.9272083E-2,-6.5958663E-3,-9.5381826E-2,-2.3882708E-3,6.0891565E-2],"categories":[],"categories_nodes":[],"categories_segments":[],"categories_sizes":[],"default_left":[0,0,0,0,0,0,0,0,0,0,0,0,0,0,0,0,0,0,0,0,0],"id":25,"left_children":[1,3,5,7,9,11,-1,-1,13,-1,-1,15,-1,17,-1,19,-1,-1,-1,-1,-1],"loss_changes":[2.9613686E1,4.644985E0,1.38868475E1,2.7146645E0,9.446227E0,2.0991596E1,0E0,0E0,4.6115303E0,0E0,0E0,1.3911758E1,0E0,1.0175192E1,0E0,1.504294E1,0E0,0E0,0E0,0E0,0E0],"parents":[2147483647,0,0,1,1,2,2,3,3,4,4,5,5,8,8,11,11,13,13,15,15],"right_children":[2,4,6,8,10,12,-1,-1,14,-1,-1,16,-1,18,-1,20,-1,-1,-1,-1,-1],"split_conditions":[1.5216398E1,1.1026485E1,3.5847363E1,1.2882787E2,3.0784964E1,5.3769024E1,8.260393E-2,-0E0,3.0033716E2,2.1306558E-2,-3.5595495E-2,9.701657E1,-4.2916592E-2,4.0376225E1,-1.2271728E-2,9.622253E1,-2.9272083E-2,-6.5958663E-3,-9.5381826E-2,-2.3882708E-3,6.0891565E-2],"split_indices":[2,2,2,8,5,5,0,0,8,0,0,6,0,5,0,8,0,0,0,0,0],"split_type":[0,0,0,0,0,0,0,0,0,0,0,0,0,0,0,0,0,0,0,0,0],"sum_hessian":[6.23E2,2.88E2,3.35E2,1.77E2,1.11E2,3.01E2,3.4E1,3.6E1,1.41E2,5.1E1,6E1,2.41E2,6E1,8.7E1,5.4E1,2.07E2,3.4E1,3.8E1,4.9E1,6.3E1,1.44E2],"tree_param":{"num_deleted":"0","num_feature":"9","num_nodes":"21","size_leaf_vector":"1"}},{"base_weights":[-3.8524922E-2,-1.9966242E-1,1.4062119E-1,-7.066232E-2,-1.3604742E-1,-1.4158605E-2,4.9052903E-1,-3.9195934E-1,1.4090309E-1,3.347684E-2,-1.4627516E-1,2.6560804E-2,8.9781314E-2,-4.895259E-1,-1.2696971E-2,5.9353165E-2,-8.398393E-3,-2.3452733E-2,1.477717E-1,-4.4028573E-2,-0E0,-2.843943E-2,-1.0143437E-1,4.2927325E-2,-4.7220136E-3],"categories":[],"categories_nodes":[],"categories_segments":[],"categories_sizes":[],"default_left":[0,0,0,0,0,0,0,0,0,0,0,0,0,0,0,0,0,0,0,0,0,0,0,0,0],"id":26,"left_children":[1,3,5,-1,7,9,11,13,15,17,19,-1,-1,21,-1,-1,-1,-1,23,-1,-1,-1,-1,-1,-1],"loss_changes":[1.9963982E1,8.484397E0,1.925386E1,0E0,2.4920176E1,2.6645544E0,5.114792E0,3.7244377E0,1.4224914E1,5.313832E0,4.6273394E0,0E0,0E0,8.873142E0,0E0,0E0,0E0,0E0,6.276389E0,0E0,0E0,0E0,0E0,0E0,0E0],"parents":[2147483647,0,0,1,1,2,2,4,4,5,5,6,6,7,7,8,8,9,9,10,10,13,13,18,18],"right_children":[2,4,6,-1,8,10,12,14,16,18,20,-1,-1,22,-1,-1,-1,-1,24,-1,-1,-1,-1,-1,-1],"split_conditions":[1.89015E1,1.4222579E1,2.2125889E1,-7.066232E-2,7.313998E-1,2.295518E1,2.2335873E1,1.7458433E1,1.2698413E1,1.6099829E2,2.4953607E2,2.6560804E-2,8.9781314E-2,2.0343054E1,-1.2696971E-2,5.9353165E-2,-8.398393E-3,-2.3452733E-2,1.2464244E1,-4.4028573E-2,-0E0,-2.843943E-2,-1.0143437E-1,4.2927325E-2,-4.7220136E-3],"split_indices":[3,3,2,0,1,3,3,3,1,8,8,0,0,2,0,0,0,0,2,0,0,0,0,0,0],"split_type":[0,0,0,0,0,0,0,0,0,0,0,0,0,0,0,0,0,0,0,0,0,0,0,0,0],"sum_hessian":[6.08E2,3.29E2,2.79E2,3.4E1,2.95E2,1.91E2,8.8E1,1.58E2,1.37E2,1.26E2,6.5E1,5.2E1,3.6E1,1.07E2,5.1E1,5.5E1,8.2E1,3.2E1,9.4E1,3.2E1,3.3E1,7.1E1,3.6E1,5.1E1,4.3E1],"tree_param":{"num_deleted":"0","num_feature":"9","num_nodes":"25","size_leaf_vector":"1"}},{"base_weights":[5.8635775E-2,2.6702905E-1,-1.1600732E-1,-9.550157E-3,3.5523966E-1,-7.3766984E-2,-2.2947194E-2,8.080208E-2,2.6793823E-1,6.1612397E-2,-2.23949E-1,3.6171988E-1,5.618102E-3,-1.09391555E-1,2.7781627E-1,-8.0296785E-2,5.449535E-3,-0E0,5.86198E-2,-3.6878742E-2,1.9053567E-2,8.380442E-2,-1.9072539E-3],"categories":[],"categories_nodes":[],"categories_segments":[],"categories_sizes":[],"default_left":[0,0,0,0,0,0,0,0,0,0,0,0,0,0,0,0,0,0,0,0,0,0,0],"id":27,"left_children":[1,3,5,-1,7,-1,9,-1,11,13,15,17,-1,19,21,-1,-1,-1,-1,-1,-1,-1,-1],"loss_changes":[2.5906061E1,1.1214642E1,1.6533283E1,0E0,6.158947E0,0E0,7.321923E0,0E0,3.874117E0,1.0287462E1,1.6592817E1,5.378109E0,0E0,8.385384E0,1.6540615E1,0E0,0E0,0E0,0E0,0E0,0E0,0E0,0E0],"parents":[2147483647,0,0,1,1,2,2,4,4,6,6,8,8,9,9,10,10,11,11,13,13,14,14],"right_children":[2,4,6,-1,8,-1,10,-1,12,14,16,18,-1,20,22,-1,-1,-1,-1,-1,-1,-1,-1],"split_conditions":[3.721146E1,8.336904E1,1.5854737E1,-9.550157E-3,1.5912174E1,-7.3766984E-2,1.92E3,8.080208E-2,1.36E3,2.31107E-2,1.8848505E1,2E1,5.618102E-3,9.1E2,1.7718845E1,-8.0296785E-2,5.449535E-3,-0E0,5.86198E-2,-3.6878742E-2,1.9053567E-2,8.380442E-2,-1.9072539E-3],"split_indices":[5,8,3,0,3,0,7,0,7,1,3,7,0,7,3,0,0,0,0,0,0,0,0],"split_type":[0,0,0,0,0,0,0,0,0,0,0,0,0,0,0,0,0,0,0,0,0,0,0],"sum_hessian":[6.32E2,2.95E2,3.37E2,5.3E1,2.42E2,4.4E1,2.93E2,3.8E1,2.04E2,1.98E2,9.5E1,1.31E2,7.3E1,1.04E2,9.4E1,3.8E1,5.7E1,3.7E1,9.4E1,6.7E1,3.7E1,4.1E1,5.3E1],"tree_param":{"num_deleted":"0","num_feature":"9","num_nodes":"23","size_leaf_vector":"1"}},{"base_weights":[-3.5644166E-2,7.1031675E-2,-2.929577E-1,1.4134361E-2,2.7325207E-1,-1.0927326E-1,-9.657129E-2,-1.626871E-1,1.4580001E-1,-0E0,5.2514102E-2,2.2861453E-2,-2.6853886E-1,2.9702207E-2,-3.6584732E-1,-1.2057327E-2,2.5853404E-1,-3.2395106E-2,4.8481893E-2,-0E0,-4.921112E-2,-7.268367E-2,-2.1469135E-2,-1.7668955E-2,6.82068E-2],"categories":[],"categories_nodes":[],"categories_segments":[],"categories_sizes":[],"default_left":[0,0,0,0,0,0,0,0,0,0,0,0,0,0,0,0,0,0,0,0,0,0,0,0,0],"id":28,"left_children":[1,3,5,7,9,-1,11,13,15,-1,-1,17,19,-1,21,-1,23,-1,-1,-1,-1,-1,-1,-1,-1],"loss_changes":[2.0583609E1,5.633062E0,2.3922256E1,1.0567726E1,3.87327E0,0E0,5.31678E0,1.6055017E1,8.176321E0,0E0,0E0,1.437949E1,2.4175925E0,0E0,4.134159E0,0E0,2.4017405E1,0E0,0E0,0E0,0E0,0E0,0E0,0E0,0E0],"parents":[2147483647,0,0,1,1,2,2,3,3,4,4,6,6,7,7,8,8,11,11,12,12,14,14,16,16],"right_children":[2,4,6,8,10,-1,12,14,16,-1,-1,18,20,-1,22,-1,24,-1,-1,-1,-1,-1,-1,-1,-1],"split_conditions":[9.1358025E1,5.8821133E1,1.8431551E1,1.8844537E2,1.6099829E2,-1.0927326E-1,1.215E3,2.8E2,1.55E2,-0E0,5.2514102E-2,4.4893585E1,3.9969322E1,2.9702207E-2,1.17E3,-1.2057327E-2,4.085925E1,-3.2395106E-2,4.8481893E-2,-0E0,-4.921112E-2,-7.268367E-2,-2.1469135E-2,-1.7668955E-2,6.82068E-2],"split_indices":[6,4,3,8,8,0,7,7,7,0,0,4,4,0,7,0,4,0,0,0,0,0,0,0,0],"split_type":[0,0,0,0,0,0,0,0,0,0,0,0,0,0,0,0,0,0,0,0,0,0,0,0,0],"sum_hessian":[6.39E2,4.46E2,1.93E2,3.65E2,8.1E1,3.9E1,1.54E2,1.45E2,2.2E2,3.5E1,4.6E1,8.3E1,7.1E1,4.3E1,1.02E2,6.1E1,1.59E2,4.3E1,4E1,3.2E1,3.9E1,3.4E1,6.8E1,6.4E1,9.5E1],"tree_param":{"num_deleted":"0","num_feature":"9","num_nodes":"25","size_leaf_vector":"1"}},{"base_weights":[-6.3326016E-2,3.0735288E-2,-3.7623504E-1,1.17876306E-1,-3.8012277E-2,-8.2922906E-2,-1.8546666E-1,7.536861E-2,5.1304262E-2,7.114916E-4,-3.176408E-1,5.145592E-2,-0E0,-5.7810575E-2,-7.1671735E-3,9.544834E-3,-1.3599735E-2],"categories":[],"categories_nodes":[],"categories_segments":[],"categories_sizes":[],"default_left":[0,0,0,0,0,0,0,0,0,0,0,0,0,0,0,0,0],"id":29,"left_children":[1,3,5,7,-1,-1,9,11,-1,-1,13,-1,15,-1,-1,-1,-1],"loss_changes":[2.2236263E1,1.6629429E1,8.482052E0,5.732972E0,0E0,0E0,4.6352463E0,1.06401615E1,0E0,0E0,2.4374933E0,0E0,3.8311133E0,0E0,0E0,0E0,0E0],"parents":[2147483647,0,0,1,1,2,2,3,3,6,6,7,7,10,10,12,12],"right_children":[2,4,6,8,-1,-1,10,12,-1,-1,14,-1,16,-1,-1,-1,-1],"split_conditions":[5.3687866E1,9.701657E1,3.3766235E1,3.3513718E1,-3.8012277E-2,-8.2922906E-2,7.646665E1,3.8237076E1,5.1304262E-2,7.114916E-4,6.432305E1,5.145592E-2,5.5851276E1,-5.7810575E-2,-7.1671735E-3,9.544834E-3,-1.3599735E-2],"split_indices":[5,6,6,2,0,0,6,4,0,0,5,0,4,0,0,0,0],"split_type":[0,0,0,0,0,0,0,0,0,0,0,0,0,0,0,0,0],"sum_hessian":[6.37E2,4.86E2,1.51E2,3.97E2,8.9E1,4.7E1,1.04E2,3.63E2,3.4E1,3.5E1,6.9E1,5.5E1,3.08E2,3.3E1,3.6E1,1.95E2,1.13E2],"tree_param":{"num_deleted":"0","num_feature":"9","num_nodes":"17","size_leaf_vector":"1"}},{"base_weights":[-4.0510334E-2,-2.8771964E-1,-0E0,3.990833E-3,-7.552883E-2,4.0594918E-1,-8.040109E-2,6.5338306E-2,1.3672681E-2,2.5423147E-2,-6.0764587E-1,9.892309E-2,-6.415442E-2,-1.0448667E-1,-1.5826378E-2,-1.1894803E-2,2.9005969E-2],"categories":[],"categories_nodes":[],"categories_segments":[],"categories_sizes":[],"default_left":[0,0,0,0,0,0,0,0,0,0,0,0,0,0,0,0,0],"id":30,"left_children":[1,3,5,-1,-1,7,9,-1,-1,11,13,15,-1,-1,-1,-1,-1],"loss_changes":[7.3021426E0,1.2693592E1,2.0517508E1,0E0,0E0,2.3365517E0,3.12774E1,0E0,0E0,1.8223703E1,8.136963E0,1.1380875E1,0E0,0E0,0E0,0E0,0E0],"parents":[2147483647,0,0,1,1,2,2,5,5,6,6,9,9,10,10,11,11],"right_children":[2,4,6,-1,-1,8,10,-1,-1,12,14,16,-1,-1,-1,-1,-1],"split_conditions":[3.5573643E1,3.0078924E1,6E1,3.990833E-3,-7.552883E-2,5.2496532E1,8.25E0,6.5338306E-2,1.3672681E-2,3.3557974E2,2.2276277E2,1.7492078E2,-6.415442E-2,-1.0448667E-1,-1.5826378E-2,-1.1894803E-2,2.9005969E-2],"split_indices":[4,4,7,0,0,4,0,0,0,8,8,8,0,0,0,0,0],"split_type":[0,0,0,0,0,0,0,0,0,0,0,0,0,0,0,0,0],"sum_hessian":[6.16E2,7.6E1,5.4E2,3.6E1,4E1,8.2E1,4.58E2,4.7E1,3.5E1,3.81E2,7.7E1,3.45E2,3.6E1,4.4E1,3.3E1,1.33E2,2.12E2],"tree_param":{"num_deleted":"0","num_feature":"9","num_nodes":"17","size_leaf_vector":"1"}},{"base_weights":[6.1727893E-2,2.275488E-1,-2.7024683E-1,2.9398143E-1,2.0299744E-2,-4.359419E-1,-0E0,7.2991945E-2,2.1664482E-1,-2.0738512E-2,2.4511024E-2,-2.048159E-2,-8.897832E-2,3.1519368E-1,-1.7103162E-2,1.9708209E-2,6.129905E-2],"categories":[],"categories_nodes":[],"categories_segments":[],"categories_sizes":[],"default_left":[0,0,0,0,0,0,0,0,0,0,0,0,0,0,0,0,0],"id":31,"left_children":[1,3,5,7,9,11,-1,-1,13,-1,-1,-1,-1,15,-1,-1,-1],"loss_changes":[3.7574493E1,5.424988E0,9.151869E0,7.171976E0,6.5694637E0,8.752012E0,0E0,0E0,1.16072235E1,0E0,0E0,0E0,0E0,5.758095E0,0E0,0E0,0E0],"parents":[2147483647,0,0,1,1,2,2,3,3,4,4,5,5,8,8,13,13],"right_children":[2,4,6,8,10,12,-1,-1,14,-1,-1,-1,-1,16,-1,-1,-1],"split_conditions":[3.75E0,1.7E0,2.0476167E2,1.1496838E2,1.8844537E2,9.166667E0,-0E0,7.2991945E-2,9.98087E1,-2.0738512E-2,2.4511024E-2,-2.048159E-2,-8.897832E-2,2.31107E-2,-1.7103162E-2,1.9708209E-2,6.129905E-2],"split_indices":[0,0,8,8,8,0,0,0,6,0,0,0,0,1,0,0,0],"split_type":[0,0,0,0,0,0,0,0,0,0,0,0,0,0,0,0,0],"sum_hessian":[6.23E2,4.23E2,2E2,3.07E2,1.16E2,1.16E2,8.4E1,4.7E1,2.6E2,4.8E1,6.8E1,7E1,4.6E1,2.11E2,4.9E1,1.29E2,8.2E1],"tree_param":{"num_deleted":"0","num_feature":"9","num_nodes":"17","size_leaf_vector":"1"}},{"base_weights":[-3.5874873E-2,8.587234E-2,-3.4193197E-1,-9.1674276E-2,4.162973E-1,-4.1235265E-1,-0E0,1.5624967E-1,-2.0381193E-1,5.592229E-3,5.364505E-1,-2.2915646E-1,-8.068082E-2,-0E0,3.8213298E-2,-2.7615812E-1,-0E0,7.955546E-2,2.3130668E-2,-4.9451236E-2,-0E0,-5.7404097E-2,-3.3675532E-3],"categories":[],"categories_nodes":[],"categories_segments":[],"categories_sizes":[],"default_left":[0,0,0,0,0,0,0,0,0,0,0,0,0,0,0,0,0,0,0,0,0,0,0],"id":32,"left_children":[1,3,5,7,9,11,-1,13,15,-1,17,19,-1,-1,-1,21,-1,-1,-1,-1,-1,-1,-1],"loss_changes":[2.6907995E1,3.0165895E1,4.633684E0,1.0077486E1,6.367697E0,6.146513E0,0E0,3.197597E0,3.4258375E0,0E0,2.9857903E0,6.2130265E0,0E0,0E0,0E0,6.9895067E0,0E0,0E0,0E0,0E0,0E0,0E0,0E0],"parents":[2147483647,0,0,1,1,2,2,3,3,4,4,5,5,7,7,8,8,10,10,11,11,15,15],"right_children":[2,4,6,8,10,12,-1,14,16,-1,18,20,-1,-1,-1,22,-1,-1,-1,-1,-1,-1,-1],"split_conditions":[4.333333E0,6.778129E-2,2.6567602E1,3.8237076E1,4.0343082E1,1.7126787E1,-0E0,1.3815764E1,1.833333E0,5.592229E-3,1.7E0,1.0531221E1,-8.068082E-2,-0E0,3.8213298E-2,3.2114628E1,-0E0,7.955546E-2,2.3130668E-2,-4.9451236E-2,-0E0,-5.7404097E-2,-3.3675532E-3],"split_indices":[0,1,2,4,4,2,0,2,0,0,0,2,0,0,0,5,0,0,0,0,0,0,0],"split_type":[0,0,0,0,0,0,0,0,0,0,0,0,0,0,0,0,0,0,0,0,0,0,0],"sum_hessian":[6.24E2,4.42E2,1.82E2,2.84E2,1.58E2,1.48E2,3.4E1,7.9E1,2.05E2,4.7E1,1.11E2,9.8E1,5E1,4E1,3.9E1,1.48E2,5.7E1,7.4E1,3.7E1,6E1,3.8E1,7.4E1,7.4E1],"tree_param":{"num_deleted":"0","num_feature":"9","num_nodes":"23","size_leaf_vector":"1"}},{"base_weights":[-6.209412E-2,1.9537732E-3,-4.013869E-1,-8.48478E-2,2.3340043E-1,-7.978288E-2,-2.0440193E-1,-1.9070871E-1,1.1064086E-2,9.197413E-2,4.8624657E-2,-4.6107773E-2,-0E0,-2.9448885E-1,-0E0,-2.0678632E-2,5.52497E-2,-4.598672E-2,-0E0,-1.5904842E-2,1.44847175E-2],"categories":[],"categories_nodes":[],"categories_segments":[],"categories_sizes":[],"default_left":[0,0,0,0,0,0,0,0,0,0,0,0,0,0,0,0,0,0,0,0,0],"id":33,"left_children":[1,3,5,7,9,-1,11,13,-1,15,-1,-1,-1,17,19,-1,-1,-1,-1,-1,-1],"loss_changes":[1.694474E1,1.3055126E1,4.5647316E0,8.55588E0,3.3554783E0,0E0,3.7835407E0,5.8287306E0,0E0,1.3840285E1,0E0,0E0,0E0,3.6009254E0,2.972609E0,0E0,0E0,0E0,0E0,0E0,0E0],"parents":[2147483647,0,0,1,1,2,2,3,3,4,4,6,6,7,7,9,9,13,13,14,14],"right_children":[2,4,6,8,10,-1,12,14,-1,16,-1,-1,-1,18,20,-1,-1,-1,-1,-1,-1],"split_conditions":[8.666667E0,2.2088058E1,9.862662E0,5.007153E-1,2.31107E-2,-7.978288E-2,9.622253E1,1.916667E0,1.1064086E-2,2.1292828E2,4.8624657E-2,-4.6107773E-2,-0E0,3.1138977E2,1.8844537E2,-2.0678632E-2,5.52497E-2,-4.598672E-2,-0E0,-1.5904842E-2,1.44847175E-2],"split_indices":[0,2,2,1,1,0,8,0,0,8,0,0,0,8,8,0,0,0,0,0,0],"split_type":[0,0,0,0,0,0,0,0,0,0,0,0,0,0,0,0,0,0,0,0,0],"sum_hessian":[6.17E2,5.16E2,1.01E2,3.68E2,1.48E2,3.2E1,6.9E1,2.4E2,1.28E2,9.4E1,5.4E1,3.6E1,3.3E1,1.57E2,8.3E1,5.1E1,4.3E1,1.18E2,3.9E1,3.5E1,4.8E1],"tree_param":{"num_deleted":"0","num_feature":"9","num_nodes":"21","size_leaf_vector":"1"}},{"base_weights":[1.331872E-2,-6.0762465E-2,8.145085E-2,1.7333858E-1,-1.3478543E-1,4.7000285E-2,1.22136444E-1,1.609235E-2,-2.3542522E-1,-4.1283857E-2,2.0819992E-1,-5.069751E-2,-1.03539035E-1,8.672534E-3,-4.1987497E-2,1.0269896E-2,4.837325E-2,4.568816E-3,-3.1422805E-2],"categories":[],"categories_nodes":[],"categories_segments":[],"categories_sizes":[],"default_left":[0,0,0,0,0,0,0,0,0,0,0,0,0,0,0,0,0,0,0],"id":34,"left_children":[1,-1,3,5,7,-1,9,-1,11,13,15,-1,17,-1,-1,-1,-1,-1,-1],"loss_changes":[2.3808126E1,0E0,1.272496E1,4.51488E0,6.200848E0,0E0,6.211459E0,0E0,2.8103914E0,7.017007E0,5.491789E0,0E0,3.836755E0,0E0,0E0,0E0,0E0,0E0,0E0],"parents":[2147483647,0,0,2,2,3,3,4,4,6,6,8,8,9,9,10,10,12,12],"right_children":[2,-1,4,6,8,-1,10,-1,12,14,16,-1,18,-1,-1,-1,-1,-1,-1],"split_conditions":[6.3131315E-1,-6.0762465E-2,9.538461E1,9E1,1.3E2,4.7000285E-2,4.085925E1,1.609235E-2,1.17E3,2.16E3,1.9465824E1,-5.069751E-2,2.35E3,8.672534E-3,-4.1987497E-2,1.0269896E-2,4.837325E-2,4.568816E-3,-3.1422805E-2],"split_indices":[6,0,6,7,7,0,4,0,7,7,3,0,7,0,0,0,0,0,0],"split_type":[0,0,0,0,0,0,0,0,0,0,0,0,0,0,0,0,0,0,0],"sum_hessian":[6.13E2,6.3E1,5.5E2,3.97E2,1.53E2,5.9E1,3.38E2,3.3E1,1.2E2,1.05E2,2.33E2,3.6E1,8.4E1,7.2E1,3.3E1,1.54E2,7.9E1,3.5E1,4.9E1],"tree_param":{"num_deleted":"0","num_feature":"9","num_nodes":"19","size_leaf_vector":"1"}},{"base_weights":[-2.2208568E-2,3.7806326E-1,-9.469358E-2,7.3471524E-2,-0E0,-1.7044767E-3,-3.890813E-1,-7.6485716E-2,-0E0],"categories":[],"categories_nodes":[],"categories_segments":[],"categories_sizes":[],"default_left":[0,0,0,0,0,0,0,0,0],"id":35,"left_children":[1,3,5,-1,-1,-1,7,-1,-1],"loss_changes":[2.0740265E1,9.334808E0,1.3823751E1,0E0,0E0,0E0,9.997011E0,0E0,0E0],"parents":[2147483647,0,0,1,1,2,2,6,6],"right_children":[2,4,6,-1,-1,-1,8,-1,-1],"split_conditions":[2.205761E1,2.333333E0,8.75E0,7.3471524E-2,-0E0,-1.7044767E-3,2.1100008E2,-7.6485716E-2,-0E0],"split_indices":[5,0,0,0,0,0,8,0,0],"split_type":[0,0,0,0,0,0,0,0,0],"sum_hessian":[6.35E2,8.7E1,5.48E2,5.4E1,3.3E1,4.43E2,1.05E2,6E1,4.5E1],"tree_param":{"num_deleted":"0","num_feature":"9","num_nodes":"9","size_leaf_vector":"1"}},{"base_weights":[2.7430845E-2,-2.3834257E-1,7.712526E-2,4.3747565E-3,-6.417093E-2,-8.375133E-2,2.414073E-1,-1.7004728E-1,4.0103167E-2,4.011334E-1,-0E0,-2.4757095E-2,-3.7634566E-2,-0E0,6.479444E-2,-2.7794907E-2,6.563358E-2,-3.151531E-2,8.006764E-3],"categories":[],"categories_nodes":[],"categories_segments":[],"categories_sizes":[],"default_left":[0,0,0,0,0,0,0,0,0,0,0,0,0,0,0,0,0,0,0],"id":36,"left_children":[1,3,5,-1,-1,7,9,11,-1,13,15,17,-1,-1,-1,-1,-1,-1,-1],"loss_changes":[9.57043E0,1.04914875E1,1.6307022E1,0E0,0E0,1.1765493E1,1.1121029E1,4.4195724E0,0E0,1.0163746E1,2.0109217E1,5.20504E0,0E0,0E0,0E0,0E0,0E0,0E0,0E0],"parents":[2147483647,0,0,1,1,2,2,5,5,6,6,7,7,9,9,10,10,11,11],"right_children":[2,4,6,-1,-1,8,10,12,-1,14,16,18,-1,-1,-1,-1,-1,-1,-1],"split_conditions":[7.905138E-1,3.195297E1,1.8516178E1,4.3747565E-3,-6.417093E-2,5.547623E1,2.195428E1,7.350007E1,4.0103167E-2,9.920733E0,1.8620226E1,1.6424627E1,-3.7634566E-2,-0E0,6.479444E-2,-2.7794907E-2,6.563358E-2,-3.151531E-2,8.006764E-3],"split_indices":[6,5,3,0,0,1,3,6,0,2,2,3,0,0,0,0,0,0,0],"split_type":[0,0,0,0,0,0,0,0,0,0,0,0,0,0,0,0,0,0,0],"sum_hessian":[6.12E2,8.3E1,5.29E2,3.9E1,4.4E1,2.59E2,2.7E2,2.23E2,3.6E1,1.57E2,1.13E2,1.22E2,1.01E2,3.4E1,1.23E2,8E1,3.3E1,4.1E1,8.1E1],"tree_param":{"num_deleted":"0","num_feature":"9","num_nodes":"19","size_leaf_vector":"1"}},{"base_weights":[1.0776703E-2,-7.488529E-2,5.482625E-2,-1.604382E-1,7.4434276E-3,-1.7811929E-1,2.5979012E-2,-3.366771E-1,5.3439247E-3,-0E0,-7.0207104E-2,-0E0,-6.1712064E-2,3.4850314E-2,-1.04174145E-1,-5.1109377E-2,5.746133E-3],"categories":[],"categories_nodes":[],"categories_segments":[],"categories_sizes":[],"default_left":[0,0,0,0,0,0,0,0,0,0,0,0,0,0,0,0,0],"id":37,"left_children":[1,3,5,7,-1,9,-1,11,-1,13,-1,-1,-1,-1,15,-1,-1],"loss_changes":[3.12724E0,3.5549183E0,1.8792301E1,7.265283E0,0E0,1.5288988E1,0E0,3.9798555E0,0E0,6.458353E0,0E0,0E0,0E0,0E0,7.8591623E0,0E0,0E0],"parents":[2147483647,0,0,1,1,2,2,3,3,5,5,7,7,9,9,14,14],"right_children":[2,4,6,8,-1,10,-1,12,-1,14,-1,-1,-1,-1,16,-1,-1],"split_conditions":[1.1448463E1,4.1677307E1,1.7577425E1,1.9514761E1,7.4434276E-3,1.669E1,2.5979012E-2,3.883547E1,5.3439247E-3,1.3E2,-7.0207104E-2,-0E0,-6.1712064E-2,3.4850314E-2,1.4845343E1,-5.1109377E-2,5.746133E-3],"split_indices":[2,4,3,3,0,3,0,4,0,7,0,0,0,0,3,0,0],"split_type":[0,0,0,0,0,0,0,0,0,0,0,0,0,0,0,0,0],"sum_hessian":[6.35E2,1.9E2,4.45E2,1.3E2,6E1,1.7E2,2.75E2,7.6E1,5.4E1,1.19E2,5.1E1,3.3E1,4.3E1,3.2E1,8.7E1,3.2E1,5.5E1],"tree_param":{"num_deleted":"0","num_feature":"9","num_nodes":"17","size_leaf_vector":"1"}},{"base_weights":[-4.8341293E-2,2.875814E-1,-1.1982338E-1,3.8494223E-1,-0E0,-1.4878805E-2,-3.0992264E-1,7.060427E-2,6.0662236E-3,1.3767815E-1,-1.3417022E-1,-9.196652E-2,-9.790001E-2,4.5145616E-2,-2.1011925E-3,-4.3789558E-2,1.8572786E-1,9.685843E-3,-2.0262235E-1,-9.933622E-3,6.6114075E-2,-0E0,-3.9417807E-2],"categories":[],"categories_nodes":[],"categories_segments":[],"categories_sizes":[],"default_left":[0,0,0,0,0,0,0,0,0,0,0,0,0,0,0,0,0,0,0,0,0,0,0],"id":38,"left_children":[1,3,5,7,-1,9,11,-1,-1,13,15,-1,17,-1,-1,-1,19,-1,21,-1,-1,-1,-1],"loss_changes":[1.7364046E1,2.7112198E0,1.1049116E1,4.0211706E0,0E0,8.369129E0,1.7091307E1,0E0,0E0,8.04788E0,1.9011631E1,0E0,4.107781E0,0E0,0E0,0E0,1.2589427E1,0E0,2.7710829E0,0E0,0E0,0E0,0E0],"parents":[2147483647,0,0,1,1,2,2,3,3,5,5,6,6,9,9,10,10,12,12,16,16,18,18],"right_children":[2,4,6,8,-1,10,12,-1,-1,14,16,-1,18,-1,-1,-1,20,-1,22,-1,-1,-1,-1],"split_conditions":[5.8E1,2.195428E1,9.117647E1,2.166667E0,-0E0,1.083333E0,1.8545713E1,7.060427E-2,6.0662236E-3,4.8640167E1,5.2807358E1,-9.196652E-2,2.8928528E1,4.5145616E-2,-2.1011925E-3,-4.3789558E-2,1.48E3,9.685843E-3,1.05E3,-9.933622E-3,6.6114075E-2,-0E0,-3.9417807E-2],"split_indices":[7,3,6,0,0,0,3,0,0,6,6,0,5,0,0,0,7,0,7,0,0,0,0],"split_type":[0,0,0,0,0,0,0,0,0,0,0,0,0,0,0,0,0,0,0,0,0,0,0],"sum_hessian":[6.37E2,1.01E2,5.36E2,6.8E1,3.3E1,3.6E2,1.76E2,3.5E1,3.3E1,1.46E2,2.14E2,4.8E1,1.28E2,6.4E1,8.2E1,1.32E2,8.2E1,3.7E1,9.1E1,4.4E1,3.8E1,3.8E1,5.3E1],"tree_param":{"num_deleted":"0","num_feature":"9","num_nodes":"23","size_leaf_vector":"1"}},{"base_weights":[-7.4813E-2,-2.9783475E-1,-2.1439543E-2,-5.8682173E-2,-1.0681862E-2,1.1547867E-1,-2.9003477E-1,6.629829E-2,3.192716E-2,-1.1267012E-1,-9.13366E-2,-2.0394677E-1,3.6254663E-2,-4.4181455E-2,2.239113E-2,-1.139741E-2,-5.137504E-2],"categories":[],"categories_nodes":[],"categories_segments":[],"categories_sizes":[],"default_left":[0,0,0,0,0,0,0,0,0,0,0,0,0,0,0,0,0],"id":39,"left_children":[1,3,5,-1,-1,7,9,-1,11,13,-1,15,-1,-1,-1,-1,-1],"loss_changes":[7.374707E0,3.4129353E0,2.0950123E1,0E0,0E0,1.2145109E1,1.4197092E1,0E0,2.0676073E1,1.343723E1,0E0,3.48498E0,0E0,0E0,0E0,0E0,0E0],"parents":[2147483647,0,0,1,1,2,2,5,5,6,6,8,8,9,9,11,11],"right_children":[2,4,6,-1,-1,8,10,-1,12,14,-1,16,-1,-1,-1,-1,-1],"split_conditions":[9.877623E0,4.6573296E1,3.416667E0,-5.8682173E-2,-1.0681862E-2,3.275862E1,9.574468E1,6.629829E-2,1.9289923E1,6.517007E1,-9.13366E-2,5.543985E1,3.6254663E-2,-4.4181455E-2,2.239113E-2,-1.139741E-2,-5.137504E-2],"split_indices":[6,4,0,0,0,6,6,0,3,6,0,4,0,0,0,0,0],"split_type":[0,0,0,0,0,0,0,0,0,0,0,0,0,0,0,0,0],"sum_hessian":[5.72E2,9.4E1,4.78E2,3.9E1,5.5E1,3.11E2,1.67E2,4E1,2.71E2,1.3E2,3.7E1,1.37E2,1.34E2,7.6E1,5.4E1,1.05E2,3.2E1],"tree_param":{"num_deleted":"0","num_feature":"9","num_nodes":"17","size_leaf_vector":"1"}},{"base_weights":[4.4484762E-3,6.718294E-2,-1.2676863E-1,1.3596004E-1,-4.9373824E-2,7.213698E-2,-3.7309732E-2,4.9331456E-2,9.191189E-3,-6.487636E-2,1.2867114E-1,-2.6909062E-3,3.0784339E-2,-0E0,2.3593959E-1,-0E0,4.887133E-2],"categories":[],"categories_nodes":[],"categories_segments":[],"categories_sizes":[],"default_left":[0,0,0,0,0,0,0,0,0,0,0,0,0,0,0,0,0],"id":40,"left_children":[1,3,5,7,9,11,-1,-1,-1,-1,13,-1,-1,-1,15,-1,-1],"loss_changes":[6.2715425E0,4.6525993E0,9.086105E0,5.3468375E0,1.8507551E1,3.435764E0,0E0,0E0,0E0,0E0,2.929949E0,0E0,0E0,0E0,3.4647264E0,0E0,0E0],"parents":[2147483647,0,0,1,1,2,2,3,3,4,4,5,5,10,10,14,14],"right_children":[2,4,6,8,10,12,-1,-1,-1,-1,14,-1,-1,-1,16,-1,-1],"split_conditions":[9.117647E1,4.6633392E1,3.513036E1,3.883547E1,3.7498146E1,2.7542181E1,-3.7309732E-2,4.9331456E-2,9.191189E-3,-6.487636E-2,1.6282608E2,-2.6909062E-3,3.0784339E-2,-0E0,5.4558395E1,-0E0,4.887133E-2],"split_indices":[6,5,5,4,4,5,0,0,0,0,8,0,0,0,5,0,0],"split_type":[0,0,0,0,0,0,0,0,0,0,0,0,0,0,0,0,0],"sum_hessian":[6.28E2,4.43E2,1.85E2,2.95E2,1.48E2,8E1,1.05E2,4E1,2.55E2,4.2E1,1.06E2,4.4E1,3.6E1,3.8E1,6.8E1,3.2E1,3.6E1],"tree_param":{"num_deleted":"0","num_feature":"9","num_nodes":"17","size_leaf_vector":"1"}},{"base_weights":[-2.7049698E-2,-1.7197621E-1,1.3899033E-1,-3.7138513E-1,9.467476E-2,2.8379193E-1,1.98003E-3,-2.3330621E-1,-5.577868E-1,-8.971099E-2,4.141867E-2,4.2236005E-3,5.807771E-2,-5.8752127E-2,2.9606963E-2,-0E0,-3.7514648E-1,-1.07858E-1,-7.454569E-3,3.2298889E-3,-2.9164232E-2,2.8150904E-4,-2.7395513E-2,-1.4192211E-2,-6.542094E-2],"categories":[],"categories_nodes":[],"categories_segments":[],"categories_sizes":[],"default_left":[0,0,0,0,0,0,0,0,0,0,0,0,0,0,0,0,0,0,0,0,0,0,0,0,0],"id":41,"left_children":[1,3,5,7,9,11,13,15,17,19,-1,-1,-1,21,-1,-1,23,-1,-1,-1,-1,-1,-1,-1,-1],"loss_changes":[1.7038227E1,2.1308285E1,5.650159E0,4.7025623E0,9.517555E0,5.635627E0,4.8768086E0,5.742573E0,1.0758142E1,3.1456535E0,0E0,0E0,0E0,2.974536E0,0E0,0E0,2.8694859E0,0E0,0E0,0E0,0E0,0E0,0E0,0E0,0E0],"parents":[2147483647,0,0,1,1,2,2,3,3,4,4,5,5,6,6,7,7,8,8,9,9,13,13,16,16],"right_children":[2,4,6,8,10,12,14,16,18,20,-1,-1,-1,22,-1,-1,24,-1,-1,-1,-1,-1,-1,-1,-1],"split_conditions":[2.1422801E2,1.9307505E-1,1.083333E0,1.9577705E1,8.6695015E1,1.4447654E1,2.1284578E1,1.8106041E1,1.8545713E1,1.7006804E1,4.141867E-2,4.2236005E-3,5.807771E-2,4.652406E0,2.9606963E-2,-0E0,2.333333E0,-1.07858E-1,-7.454569E-3,3.2298889E-3,-2.9164232E-2,2.8150904E-4,-2.7395513E-2,-1.4192211E-2,-6.542094E-2],"split_indices":[8,1,0,2,8,2,2,3,3,1,0,0,0,1,0,0,0,0,0,0,0,0,0,0,0],"split_type":[0,0,0,0,0,0,0,0,0,0,0,0,0,0,0,0,0,0,0,0,0,0,0,0,0],"sum_hessian":[6.18E2,3.4E2,2.78E2,2E2,1.4E2,1.21E2,1.57E2,1.32E2,6.8E1,7.4E1,6.6E1,6.2E1,5.9E1,1.18E2,3.9E1,5E1,8.2E1,3.5E1,3.3E1,3.2E1,4.2E1,7.6E1,4.2E1,4.2E1,4E1],"tree_param":{"num_deleted":"0","num_feature":"9","num_nodes":"25","size_leaf_vector":"1"}},{"base_weights":[1.8655652E-2,3.076061E-2,-2.4986757E-2,-6.9495305E-2,2.4706332E-2,-1.1335322E-1,2.1422128E-1,-3.2578653E-1,2.5782794E-2,-2.3468731E-2,3.3217093E-1,-7.751779E-2,-2.5223823E-2,6.832808E-2,-4.641276E-3],"categories":[],"categories_nodes":[],"categories_segments":[],"categories_sizes":[],"default_left":[0,0,0,0,0,0,0,0,0,0,0,0,0,0,0],"id":42,"left_children":[1,-1,3,-1,5,7,9,11,-1,-1,13,-1,-1,-1,-1],"loss_changes":[8.548811E0,0E0,1.9000872E1,0E0,1.4602247E1,2.1549423E1,1.2711557E1,5.995384E0,0E0,0E0,1.7324524E1,0E0,0E0,0E0,0E0],"parents":[2147483647,0,0,2,2,4,4,5,5,6,6,7,7,10,10],"right_children":[2,-1,4,-1,6,8,10,12,-1,-1,14,-1,-1,-1,-1],"split_conditions":[9E1,3.076061E-2,1.6E2,-6.9495305E-2,6.778129E-2,2.154461E2,3.9083397E1,4.5E2,2.5782794E-2,-2.3468731E-2,2.3514652E1,-7.751779E-2,-2.5223823E-2,6.832808E-2,-4.641276E-3],"split_indices":[7,0,7,0,1,8,4,7,0,0,1,0,0,0,0],"split_type":[0,0,0,0,0,0,0,0,0,0,0,0,0,0,0],"sum_hessian":[6.09E2,1.04E2,5.05E2,4.3E1,4.62E2,2.59E2,2.03E2,1.62E2,9.7E1,3.9E1,1.64E2,3.2E1,1.3E2,1.06E2,5.8E1],"tree_param":{"num_deleted":"0","num_feature":"9","num_nodes":"15","size_leaf_vector":"1"}},{"base_weights":[5.221629E-2,-1.0218153E-1,1.4133659E-1,6.982999E-3,-1.5216424E-1,4.7018193E-3,2.0147145E-1,-3.392567E-1,-0E0,2.9260167E-1,-0E0,-2.842488E-3,-7.264557E-2,4.730022E-2,-2.0768613E-1,6.827874E-2,1.7768832E-2,-2.49365E-2,2.1930942E-2,1.5456978E-2,-6.852036E-2],"categories":[],"categories_nodes":[],"categories_segments":[],"categories_sizes":[],"default_left":[0,0,0,0,0,0,0,0,0,0,0,0,0,0,0,0,0,0,0,0,0],"id":43,"left_children":[1,3,5,-1,7,-1,9,11,13,15,17,-1,-1,-1,19,-1,-1,-1,-1,-1,-1],"loss_changes":[9.883415E0,2.7344558E0,2.33815E0,0E0,6.169739E0,0E0,4.3381805E0,6.0171614E0,1.2606352E1,5.9390078E0,5.6389904E0,0E0,0E0,0E0,1.3286778E1,0E0,0E0,0E0,0E0,0E0,0E0],"parents":[2147483647,0,0,1,1,2,2,4,4,6,6,7,7,8,8,9,9,10,10,14,14],"right_children":[2,4,6,-1,8,-1,10,12,14,16,18,-1,-1,-1,20,-1,-1,-1,-1,-1,-1],"split_conditions":[4.0343082E1,1.3E2,4.5E2,6.982999E-3,1.585E3,4.7018193E-3,1.87E3,7.925411E1,3.449587E1,4.3219894E1,4.8589417E1,-2.842488E-3,-7.264557E-2,4.730022E-2,2.415E3,6.827874E-2,1.7768832E-2,-2.49365E-2,2.1930942E-2,1.5456978E-2,-6.852036E-2],"split_indices":[4,7,7,0,7,0,7,6,4,4,4,0,0,0,7,0,0,0,0,0,0],"split_type":[0,0,0,0,0,0,0,0,0,0,0,0,0,0,0,0,0,0,0,0,0],"sum_hessian":[6.1E2,2.1E2,4E2,3.5E1,1.75E2,1.7E2,2.3E2,7.4E1,1.01E2,1.5E2,8E1,4.1E1,3.3E1,3.3E1,6.8E1,4.1E1,1.09E2,3.2E1,4.8E1,3.2E1,3.6E1],"tree_param":{"num_deleted":"0","num_feature":"9","num_nodes":"21","size_leaf_vector":"1"}},{"base_weights":[2.9447615E-2,1.893095E-1,-3.897124E-2,-1.1398395E-2,3.1957516E-1,-7.723043E-4,-3.383325E-2,6.2240142E-2,1.194613E-2],"categories":[],"categories_nodes":[],"categories_segments":[],"categories_sizes":[],"default_left":[0,0,0,0,0,0,0,0,0],"id":44,"left_children":[1,3,5,-1,7,-1,-1,-1,-1],"loss_changes":[8.262207E0,9.361501E0,3.7614312E0,0E0,5.409382E0,0E0,0E0,0E0,0E0],"parents":[2147483647,0,0,1,1,2,2,4,4],"right_children":[2,4,6,-1,8,-1,-1,-1,-1],"split_conditions":[2.65E2,2.4552084E1,7.011739E1,-1.1398395E-2,3.5320114E1,-7.723043E-4,-3.383325E-2,6.2240142E-2,1.194613E-2],"split_indices":[7,5,5,0,5,0,0,0,0],"split_type":[0,0,0,0,0,0,0,0,0],"sum_hessian":[5.88E2,1.87E2,4.01E2,5.2E1,1.35E2,3.69E2,3.2E1,6.2E1,7.3E1],"tree_param":{"num_deleted":"0","num_feature":"9","num_nodes":"9","size_leaf_vector":"1"}},{"base_weights":[-4.8726588E-3,-3.8715553E-2,1.3164726E-1,9.004187E-2,-1.812267E-1,2.7948698E-2,-0E0,2.446913E-2,-3.0634942E-2,-2.142962E-2,-5.1366583E-2,-5.2454323E-2,8.664563E-2,-0E0,3.938274E-2],"categories":[],"categories_nodes":[],"categories_segments":[],"categories_sizes":[],"default_left":[0,0,0,0,0,0,0,0,0,0,0,0,0,0,0],"id":45,"left_children":[1,3,5,7,9,-1,-1,-1,-1,11,-1,-1,13,-1,-1],"loss_changes":[3.6376112E0,1.13638E1,2.4534085E0,1.20935E1,9.95969E0,0E0,0E0,0E0,0E0,1.1738133E1,0E0,0E0,4.327927E0,0E0,0E0],"parents":[2147483647,0,0,1,1,2,2,3,3,4,4,9,9,12,12],"right_children":[2,4,6,8,10,-1,-1,-1,-1,12,-1,-1,14,-1,-1],"split_conditions":[9.83871E1,3.773241E1,4.6633392E1,2.1185E1,7.377049E1,2.7948698E-2,-0E0,2.446913E-2,-3.0634942E-2,6.3131315E-1,-5.1366583E-2,-5.2454323E-2,2.6567602E1,-0E0,3.938274E-2],"split_indices":[6,5,5,3,6,0,0,0,0,6,0,0,2,0,0],"split_type":[0,0,0,0,0,0,0,0,0,0,0,0,0,0,0],"sum_hessian":[6.13E2,5.13E2,1E2,2.59E2,2.54E2,6.6E1,3.4E1,2.05E2,5.4E1,1.63E2,9.1E1,3.7E1,1.26E2,9.4E1,3.2E1],"tree_param":{"num_deleted":"0","num_feature":"9","num_nodes":"15","size_leaf_vector":"1"}},{"base_weights":[8.905498E-3,5.5278875E-2,-2.4935162E-2,-9.6403226E-2,1.7567886E-1,-2.8952E-1,6.788616E-4,1.177136E-1,5.962089E-2,1.5246983E-2,-7.949087E-2,-2.7526768E-2,1.2225174E-2,2.7230525E-1,-0E0,5.0997768E-2,-0E0,9.999008E-3,-1.2681615E-2],"categories":[],"categories_nodes":[],"categories_segments":[],"categories_sizes":[],"default_left":[0,0,0,0,0,0,0,0,0,0,0,0,0,0,0,0,0,0,0],"id":46,"left_children":[1,3,-1,5,7,9,11,13,-1,-1,-1,-1,-1,15,17,-1,-1,-1,-1],"loss_changes":[7.4617E0,1.1642118E1,0E0,6.4948854E0,6.1157856E0,1.814149E1,5.065831E0,6.8976545E0,0E0,0E0,0E0,0E0,0E0,5.2069874E0,2.5684748E0,0E0,0E0,0E0,0E0],"parents":[2147483647,0,0,1,1,3,3,4,4,5,5,6,6,7,7,13,13,14,14],"right_children":[2,4,-1,6,8,10,12,14,-1,-1,-1,-1,-1,16,18,-1,-1,-1,-1],"split_conditions":[8.166667E0,4.5E2,-2.4935162E-2,1.7281706E1,5.166667E0,5.8E1,1.1987861E1,7.697369E1,5.962089E-2,1.5246983E-2,-7.949087E-2,-2.7526768E-2,1.2225174E-2,1.8152922E1,3.69972E1,5.0997768E-2,-0E0,9.999008E-3,-1.2681615E-2],"split_indices":[0,7,0,3,0,7,6,6,0,0,0,0,0,3,5,0,0,0,0],"split_type":[0,0,0,0,0,0,0,0,0,0,0,0,0,0,0,0,0,0,0],"sum_hessian":[6.37E2,5.38E2,9.9E1,2.27E2,3.11E2,8.3E1,1.44E2,2.77E2,3.4E1,3.6E1,4.7E1,3.2E1,1.12E2,1.27E2,1.5E2,7.7E1,5E1,6.9E1,8.1E1],"tree_param":{"num_deleted":"0","num_feature":"9","num_nodes":"19","size_leaf_vector":"1"}},{"base_weights":[-5.7186005E-3,-1.7636377E-1,4.619246E-2,-7.070566E-2,-5.4322127E-2,1.7982623E-1,-0E0,-2.1504726E-2,7.5545083E-3,6.768584E-4,6.278961E-2,4.8566233E-2,-3.894209E-2,-2.4336785E-2,1.5810513E-1,4.6882924E-2,5.7755634E-3],"categories":[],"categories_nodes":[],"categories_segments":[],"categories_sizes":[],"default_left":[0,0,0,0,0,0,0,0,0,0,0,0,0,0,0,0,0],"id":47,"left_children":[1,3,5,7,-1,9,11,-1,-1,-1,-1,13,-1,-1,15,-1,-1],"loss_changes":[7.533822E0,4.9493527E0,4.390488E0,3.2882729E0,0E0,8.614563E0,8.561313E0,0E0,0E0,0E0,0E0,1.0037659E1,0E0,0E0,5.654807E0,0E0,0E0],"parents":[2147483647,0,0,1,1,2,2,3,3,5,5,6,6,11,11,14,14],"right_children":[2,4,6,8,-1,10,12,-1,-1,-1,-1,14,-1,-1,16,-1,-1],"split_conditions":[1.0084743E2,5.3769024E1,2.9092007E1,7.1036415E1,-5.4322127E-2,2.5703636E1,5.635433E1,-2.1504726E-2,7.5545083E-3,6.768584E-4,6.278961E-2,1.71725E1,-3.894209E-2,-2.4336785E-2,4.8032917E1,4.6882924E-2,5.7755634E-3],"split_indices":[8,5,5,6,0,5,4,0,0,0,0,3,0,0,6,0,0],"split_type":[0,0,0,0,0,0,0,0,0,0,0,0,0,0,0,0,0],"sum_hessian":[6.39E2,1.6E2,4.79E2,1.28E2,3.2E1,1.36E2,3.43E2,8.4E1,4.4E1,9.9E1,3.7E1,2.93E2,5E1,8E1,2.13E2,5.7E1,1.56E2],"tree_param":{"num_deleted":"0","num_feature":"9","num_nodes":"17","size_leaf_vector":"1"}},{"base_weights":[1.1495733E-4,3.651578E-2,-1.481856E-2,-3.5029028E-2,-0E0,6.6039294E-2,-4.497352E-2,1.5409565E-1,-7.898871E-2,1.3320898E-2,-9.376782E-2,4.5358803E-2,-0E0,-2.792929E-2,5.907849E-3,-4.950315E-2,-0E0],"categories":[],"categories_nodes":[],"categories_segments":[],"categories_sizes":[],"default_left":[0,0,0,0,0,0,0,0,0,0,0,0,0,0,0,0,0],"id":48,"left_children":[1,-1,3,-1,5,7,9,11,13,-1,15,-1,-1,-1,-1,-1,-1],"loss_changes":[5.5707603E0,0E0,4.6967373E0,0E0,2.3829575E0,4.4837933E0,3.2765038E0,7.0750895E0,3.4057512E0,0E0,9.374258E0,0E0,0E0,0E0,0E0,0E0,0E0],"parents":[2147483647,0,0,2,2,4,4,5,5,6,6,7,7,8,8,10,10],"right_children":[2,-1,4,-1,6,8,10,12,14,-1,16,-1,-1,-1,-1,-1,-1],"split_conditions":[9.16667E-1,3.651578E-2,1.4222579E1,-3.5029028E-2,1.9314375E2,4.637759E1,2.5490965E1,7.9E2,1.83E3,1.3320898E-2,3.2114628E1,4.5358803E-2,-0E0,-2.792929E-2,5.907849E-3,-4.950315E-2,-0E0],"split_indices":[0,0,3,0,8,5,5,7,7,0,5,0,0,0,0,0,0],"split_type":[0,0,0,0,0,0,0,0,0,0,0,0,0,0,0,0,0],"sum_hessian":[6.05E2,3.4E1,5.71E2,3.3E1,5.38E2,2.39E2,2.99E2,1.62E2,7.7E1,5.5E1,2.44E2,6.6E1,9.6E1,4.5E1,3.2E1,5.4E1,1.9E2],"tree_param":{"num_deleted":"0","num_feature":"9","num_nodes":"17","size_leaf_vector":"1"}},{"base_weights":[6.128753E-2,3.2356296E-2,1.6675966E-2,-3.1858493E-2,5.3429246E-2,8.209342E-2,-1.9440142E-2,3.4008693E-2,4.2024493E-2,-0E0,3.2136284E-2],"categories":[],"categories_nodes":[],"categories_segments":[],"categories_sizes":[],"default_left":[0,0,0,0,0,0,0,0,0,0,0],"id":49,"left_children":[1,-1,3,-1,5,7,-1,9,-1,-1,-1],"loss_changes":[6.200953E0,0E0,6.7704406E0,0E0,3.9918435E0,6.206667E0,0E0,4.6201506E0,0E0,0E0,0E0],"parents":[2147483647,0,0,2,2,4,4,5,5,7,7],"right_children":[2,-1,4,-1,6,8,-1,10,-1,-1,-1],"split_conditions":[6E1,3.2356296E-2,1.6E2,-3.1858493E-2,5.1E3,3.555E3,-1.9440142E-2,3.8394623E1,4.2024493E-2,-0E0,3.2136284E-2],"split_indices":[7,0,7,0,7,7,0,1,0,0,0],"split_type":[0,0,0,0,0,0,0,0,0,0,0],"sum_hessian":[6.33E2,9.7E1,5.36E2,4.9E1,4.87E2,4.45E2,4.2E1,3.91E2,5.4E1,3.43E2,4.8E1],"tree_param":{"num_deleted":"0","num_feature":"9","num_nodes":"11","size_leaf_vector":"1"}},{"base_weights":[1.6554967E-2,1.8704599E-2,-7.282994E-3,4.30953E-2,-2.490769E-1,-3.6772076E-2,1.2850753E-2,-5.516571E-2,-9.070948E-3],"categories":[],"categories_nodes":[],"categories_segments":[],"categories_sizes":[],"default_left":[0,0,0,0,0,0,0,0,0],"id":50,"left_children":[1,-1,3,5,7,-1,-1,-1,-1],"loss_changes":[3.3718853E0,0E0,8.799207E0,1.0635303E1,3.3913412E0,0E0,0E0,0E0,0E0],"parents":[2147483647,0,0,2,2,3,3,4,4],"right_children":[2,-1,4,6,8,-1,-1,-1,-1],"split_conditions":[6.5E1,1.8704599E-2,8.25E0,1.85E2,1.255E3,-3.6772076E-2,1.2850753E-2,-5.516571E-2,-9.070948E-3],"split_indices":[7,0,0,7,7,0,0,0,0],"split_type":[0,0,0,0,0,0,0,0,0],"sum_hessian":[6.19E2,1.08E2,5.11E2,4.16E2,9.5E1,5.2E1,3.64E2,3.2E1,6.3E1],"tree_param":{"num_deleted":"0","num_feature":"9","num_nodes":"9","size_leaf_vector":"1"}},{"base_weights":[-2.8813411E-3,-3.3160675E-2,3.674309E-2,7.505803E-2,-1.8943023E-2,2.6099306E-1,-9.74444E-3,5.5608887E-2,4.4569993E-4,-5.0691564E-2,7.664414E-2,-0E0,2.1003924E-2],"categories":[],"categories_nodes":[],"categories_segments":[],"categories_sizes":[],"default_left":[0,0,0,0,0,0,0,0,0,0,0,0,0],"id":51,"left_children":[1,3,-1,5,-1,7,9,-1,-1,-1,11,-1,-1],"loss_changes":[7.0380135E0,9.210165E0,0E0,6.7645984E0,0E0,4.9518147E0,1.1172997E1,0E0,0E0,0E0,2.2684436E0,0E0,0E0],"parents":[2147483647,0,0,1,1,3,3,5,5,6,6,10,10],"right_children":[2,4,-1,6,-1,8,10,-1,-1,-1,12,-1,-1],"split_conditions":[3.3513718E1,1.7E0,3.674309E-2,6.0151127E1,-1.8943023E-2,4.9011395E1,8.0797104E1,5.5608887E-2,4.4569993E-4,-5.0691564E-2,9.655629E1,-0E0,2.1003924E-2],"split_indices":[2,0,0,6,0,4,6,0,0,0,6,0,0],"split_type":[0,0,0,0,0,0,0,0,0,0,0,0,0],"sum_hessian":[6.25E2,5.82E2,4.3E1,2.94E2,2.88E2,1E2,1.94E2,4.8E1,5.2E1,3.7E1,1.57E2,7.2E1,8.5E1],"tree_param":{"num_deleted":"0","num_feature":"9","num_nodes":"13","size_leaf_vector":"1"}},{"base_weights":[-3.0757278E-2,-9.696475E-2,6.9177955E-2,-0E0,-4.673039E-2,1.0957485E-3,4.1178823E-2,4.681025E-2,-1.7806776E-1,1.8609454E-1,-1.2535144E-1,-1.7618466E-2,1.3567188E-2,-0E0,-4.4797037E-2,4.8653316E-2,-0E0,-3.6842465E-2,1.0411194E-2],"categories":[],"categories_nodes":[],"categories_segments":[],"categories_sizes":[],"default_left":[0,0,0,0,0,0,0,0,0,0,0,0,0,0,0,0,0,0,0],"id":52,"left_children":[1,3,5,7,-1,9,-1,11,13,15,17,-1,-1,-1,-1,-1,-1,-1,-1],"loss_changes":[5.1519294E0,1.2339903E1,4.868494E0,4.159245E0,0E0,7.022078E0,0E0,4.1980286E0,3.938219E0,4.844335E0,6.585058E0,0E0,0E0,0E0,0E0,0E0,0E0,0E0,0E0],"parents":[2147483647,0,0,1,1,2,2,3,3,5,5,7,7,8,8,9,9,10,10],"right_children":[2,4,6,8,-1,10,-1,12,14,16,18,-1,-1,-1,-1,-1,-1,-1,-1],"split_conditions":[7.313998E-1,3.75E0,5.8764095E1,5.677988E1,-4.673039E-2,4.2978317E1,4.1178823E-2,2.6079914E1,2.8166294E1,4.569639E1,6.3317913E1,-1.7618466E-2,1.3567188E-2,-0E0,-4.4797037E-2,4.8653316E-2,-0E0,-3.6842465E-2,1.0411194E-2],"split_indices":[1,0,4,4,0,4,0,5,5,5,6,0,0,0,0,0,0,0,0],"split_type":[0,0,0,0,0,0,0,0,0,0,0,0,0,0,0,0,0,0,0],"sum_hessian":[6.25E2,3.95E2,2.3E2,3.01E2,9.4E1,1.97E2,3.3E1,2.37E2,6.4E1,8.9E1,1.08E2,4.5E1,1.92E2,3.2E1,3.2E1,3.8E1,5.1E1,6.6E1,4.2E1],"tree_param":{"num_deleted":"0","num_feature":"9","num_nodes":"19","size_leaf_vector":"1"}},{"base_weights":[-2.6461422E-2,-5.015564E-2,2.8081631E-2,-1.374171E-1,3.5040967E-2,-8.199266E-2,-4.723069E-2,1.2215282E-2,-1.0219902E-1,2.0390168E-2,-1.6539337E-2,-4.3703176E-2,5.746706E-3],"categories":[],"categories_nodes":[],"categories_segments":[],"categories_sizes":[],"default_left":[0,0,0,0,0,0,0,0,0,0,0,0,0],"id":53,"left_children":[1,3,-1,5,7,9,-1,-1,11,-1,-1,-1,-1],"loss_changes":[4.90805E0,5.549305E0,0E0,4.692287E0,3.6246424E0,4.932601E0,0E0,0E0,5.903696E0,0E0,0E0,0E0,0E0],"parents":[2147483647,0,0,1,1,3,3,4,4,5,5,8,8],"right_children":[2,4,-1,6,8,10,-1,-1,12,-1,-1,-1,-1],"split_conditions":[3.395611E1,1.89015E1,2.8081631E-2,2.5208487E1,5.666667E0,6.900708E1,-4.723069E-2,1.2215282E-2,2.3948431E2,2.0390168E-2,-1.6539337E-2,-4.3703176E-2,5.746706E-3],"split_indices":[2,3,0,2,0,8,0,0,8,0,0,0,0],"split_type":[0,0,0,0,0,0,0,0,0,0,0,0,0],"sum_hessian":[6.28E2,5.9E2,3.8E1,3.08E2,2.82E2,2.68E2,4E1,2.09E2,7.3E1,3.4E1,2.34E2,3.2E1,4.1E1],"tree_param":{"num_deleted":"0","num_feature":"9","num_nodes":"13","size_leaf_vector":"1"}},{"base_weights":[3.5411377E-2,-9.313803E-2,1.33528765E-2,-0E0,-5.8964495E-2],"categories":[],"categories_nodes":[],"categories_segments":[],"categories_sizes":[],"default_left":[0,0,0,0,0],"id":54,"left_children":[1,3,-1,-1,-1],"loss_changes":[6.9598455E0,1.0364435E1,0E0,0E0,0E0],"parents":[2147483647,0,0,1,1],"right_children":[2,4,-1,-1,-1],"split_conditions":[1.6099829E2,9.166667E0,1.33528765E-2,-0E0,-5.8964495E-2],"split_indices":[8,0,0,0,0],"split_type":[0,0,0,0,0],"sum_hessian":[6.14E2,2.06E2,4.08E2,1.69E2,3.7E1],"tree_param":{"num_deleted":"0","num_feature":"9","num_nodes":"5","size_leaf_vector":"1"}},{"base_weights":[5.2812165E-3,7.3536955E-2,-1.0491006E-1,2.1654595E-2,4.06398E-2,-0E0,-4.833947E-2,4.076945E-2,-1.5360088E-2,-3.834159E-2,1.6076295E-1,2.277782E-2,-3.2436505E-2,2.5912836E-1,-0E0,-1.0989434E-2,1.6603181E-2,-0E0,5.714851E-2],"categories":[],"categories_nodes":[],"categories_segments":[],"categories_sizes":[],"default_left":[0,0,0,0,0,0,0,0,0,0,0,0,0,0,0,0,0,0,0],"id":55,"left_children":[1,3,5,7,-1,9,-1,-1,11,-1,13,15,-1,17,-1,-1,-1,-1,-1],"loss_changes":[5.795025E0,6.073909E0,9.266313E0,7.17009E0,0E0,1.1405141E1,0E0,0E0,5.488541E0,0E0,2.8631353E0,4.8445964E0,0E0,5.6136675E0,0E0,0E0,0E0,0E0,0E0],"parents":[2147483647,0,0,1,1,2,2,3,3,5,5,8,8,10,10,11,11,13,13],"right_children":[2,4,6,8,-1,10,-1,-1,12,-1,14,16,-1,18,-1,-1,-1,-1,-1],"split_conditions":[4.6633392E1,4.1870697E1,4.507537E0,1.5278027E1,4.06398E-2,1.739579E1,-4.833947E-2,4.076945E-2,3.69972E1,-3.834159E-2,2.2335873E1,2.5703636E1,-3.2436505E-2,5.7891598E1,-0E0,-1.0989434E-2,1.6603181E-2,-0E0,5.714851E-2],"split_indices":[5,5,1,3,0,3,0,0,5,0,3,5,0,5,0,0,0,0,0],"split_type":[0,0,0,0,0,0,0,0,0,0,0,0,0,0,0,0,0,0,0],"sum_hessian":[6.27E2,4.06E2,2.21E2,3.53E2,5.3E1,1.62E2,5.9E1,4.2E1,3.11E2,5E1,1.12E2,2.63E2,4.8E1,7.3E1,3.9E1,1.18E2,1.45E2,3.4E1,3.9E1],"tree_param":{"num_deleted":"0","num_feature":"9","num_nodes":"19","size_leaf_vector":"1"}},{"base_weights":[3.1700623E-3,2.2655752E-2,-2.1202527E-2,-8.381252E-2,6.23895E-2,2.8742442E-3,-2.3324434E-1,-0E0,1.6966698E-1,-6.628828E-2,2.0342255E-3,-1.01481706E-1,3.4709696E-2,5.1032896E-3,5.0391365E-2,-2.063804E-2,-0E0,1.6223215E-2,-1.9574E-2],"categories":[],"categories_nodes":[],"categories_segments":[],"categories_sizes":[],"default_left":[0,0,0,0,0,0,0,0,0,0,0,0,0,0,0,0,0,0,0],"id":56,"left_children":[1,3,-1,5,7,-1,9,11,13,-1,-1,15,-1,17,-1,-1,-1,-1,-1],"loss_changes":[2.880272E0,3.1974154E0,0E0,4.0013285E0,3.847615E0,0E0,9.092845E0,1.0469128E1,6.9406714E0,0E0,0E0,2.3445234E0,0E0,4.2096004E0,0E0,0E0,0E0,0E0,0E0],"parents":[2147483647,0,0,1,1,3,3,4,4,6,6,7,7,8,8,11,11,13,13],"right_children":[2,4,-1,6,8,-1,10,12,14,-1,-1,16,-1,18,-1,-1,-1,-1,-1],"split_conditions":[7.113547E1,2.5703636E1,-2.1202527E-2,2.1538486E1,7.313998E-1,2.8742442E-3,1.5E0,3.1980014E2,1.47E3,-6.628828E-2,2.0342255E-3,2.1422801E2,3.4709696E-2,2.4351031E2,5.0391365E-2,-2.063804E-2,-0E0,1.6223215E-2,-1.9574E-2],"split_indices":[5,5,0,5,1,0,0,8,7,0,0,8,0,8,0,0,0,0,0],"split_type":[0,0,0,0,0,0,0,0,0,0,0,0,0,0,0,0,0,0,0],"sum_hessian":[6.16E2,5.75E2,4.1E1,1.33E2,4.42E2,6.8E1,6.5E1,2.77E2,1.65E2,3.2E1,3.3E1,2.09E2,6.8E1,1.09E2,5.6E1,1.42E2,6.7E1,7.3E1,3.6E1],"tree_param":{"num_deleted":"0","num_feature":"9","num_nodes":"19","size_leaf_vector":"1"}},{"base_weights":[-5.1774018E-2,1.3841352E-1,-1.1934416E-1,-1.2279294E-2,3.3302525E-1,-6.4441346E-2,-6.587706E-3,-0E0,6.9463566E-2],"categories":[],"categories_nodes":[],"categories_segments":[],"categories_sizes":[],"default_left":[0,0,0,0,0,0,0,0,0],"id":57,"left_children":[1,3,5,-1,7,-1,-1,-1,-1],"loss_changes":[9.386072E0,9.945583E0,1.3604158E1,0E0,9.3858E0,0E0,0E0,0E0,0E0],"parents":[2147483647,0,0,1,1,2,2,4,4],"right_children":[2,4,6,-1,8,-1,-1,-1,-1],"split_conditions":[1.6680851E1,1.6099829E2,1.71725E1,-1.2279294E-2,1.5077613E1,-6.4441346E-2,-6.587706E-3,-0E0,6.9463566E-2],"split_indices":[3,8,3,0,3,0,0,0,0],"split_type":[0,0,0,0,0,0,0,0,0],"sum_hessian":[6.21E2,1.49E2,4.72E2,6.1E1,8.8E1,5.4E1,4.18E2,3.6E1,5.2E1],"tree_param":{"num_deleted":"0","num_feature":"9","num_nodes":"9","size_leaf_vector":"1"}},{"base_weights":[-0E0,-5.003053E-2,8.771082E-2,-0E0,-1.9987957E-1,-0E0,2.612646E-1,-3.8015734E-2,-0E0,-3.781912E-2,1.0572144E-1,-0E0,4.6502132E-2,2.9014166E-2,-0E0],"categories":[],"categories_nodes":[],"categories_segments":[],"categories_sizes":[],"default_left":[0,0,0,0,0,0,0,0,0,0,0,0,0,0,0],"id":58,"left_children":[1,3,5,-1,7,9,11,-1,-1,-1,13,-1,-1,-1,-1],"loss_changes":[3.6067934E0,3.8503213E0,5.328235E0,0E0,2.919426E0,8.256104E0,2.7461195E0,0E0,0E0,0E0,2.3112595E0,0E0,0E0,0E0,0E0],"parents":[2147483647,0,0,1,1,2,2,4,4,5,5,6,6,10,10],"right_children":[2,4,6,-1,8,10,12,-1,-1,-1,14,-1,-1,-1,-1],"split_conditions":[4.876541E1,5.9132133E1,2.5510204E0,-0E0,2.3058354E2,1.7065834E1,8.450587E1,-3.8015734E-2,-0E0,-3.781912E-2,5.635433E1,-0E0,4.6502132E-2,2.9014166E-2,-0E0],"split_indices":[4,5,1,0,8,3,8,0,0,0,4,0,0,0,0],"split_type":[0,0,0,0,0,0,0,0,0,0,0,0,0,0,0],"sum_hessian":[5.92E2,3.61E2,2.31E2,2.71E2,9E1,1.48E2,8.3E1,5.8E1,3.2E1,4.1E1,1.07E2,3.2E1,5.1E1,4.4E1,6.3E1],"tree_param":{"num_deleted":"0","num_feature":"9","num_nodes":"15","size_leaf_vector":"1"}},{"base_weights":[5.7887077E-2,-1.2080275E-1,9.6599564E-2,-0E0,-3.018072E-2,-0E0,1.349221E-1,7.13295E-2,-2.9628567E-2,4.382526E-2,7.139408E-2,-1.0221088E-3,2.87305E-2,-0E0,2.3841962E-1,3.855745E-3,-2.3787104E-2,4.112638E-2,-0E0],"categories":[],"categories_nodes":[],"categories_segments":[],"categories_sizes":[],"default_left":[0,0,0,0,0,0,0,0,0,0,0,0,0,0,0,0,0,0,0],"id":59,"left_children":[1,3,5,-1,-1,7,9,11,-1,-1,13,-1,-1,15,17,-1,-1,-1,-1],"loss_changes":[5.3722916E0,2.4716673E0,2.245348E0,0E0,0E0,4.7822404E0,5.7549663E0,3.4091625E0,0E0,0E0,5.214982E0,0E0,0E0,3.0390759E0,2.243833E0,0E0,0E0,0E0,0E0],"parents":[2147483647,0,0,1,1,2,2,5,5,6,6,7,7,10,10,13,13,14,14],"right_children":[2,4,6,-1,-1,8,10,12,-1,-1,14,-1,-1,16,18,-1,-1,-1,-1],"split_conditions":[1.6176353E1,4.7788696E1,3.9580357E1,-0E0,-3.018072E-2,3.883547E1,4.192527E1,1.42E3,-2.9628567E-2,4.382526E-2,2.822561E2,-1.0221088E-3,2.87305E-2,2.3663974E2,3.363028E2,3.855745E-3,-2.3787104E-2,4.112638E-2,-0E0],"split_indices":[3,4,4,0,0,4,4,7,0,0,8,0,0,8,8,0,0,0,0],"split_type":[0,0,0,0,0,0,0,0,0,0,0,0,0,0,0,0,0,0,0],"sum_hessian":[6.27E2,9.5E1,5.32E2,4.8E1,4.7E1,1.52E2,3.8E2,1.2E2,3.2E1,6.8E1,3.12E2,7.1E1,4.9E1,2.16E2,9.6E1,1.83E2,3.3E1,6.1E1,3.5E1],"tree_param":{"num_deleted":"0","num_feature":"9","num_nodes":"19","size_leaf_vector":"1"}},{"base_weights":[-1.9992127E-3,2.5072763E-2,-2.6036989E-2,4.9292177E-2,-2.964425E-2,-0E0,1.61666E-1,-3.0316798E-2,3.8964067E-2,6.804911E-2,4.2937838E-2,7.0644446E-6,-2.4264408E-2,-9.429012E-3,1.987098E-2],"categories":[],"categories_nodes":[],"categories_segments":[],"categories_sizes":[],"default_left":[0,0,0,0,0,0,0,0,0,0,0,0,0,0,0],"id":60,"left_children":[1,3,-1,5,-1,7,9,11,-1,13,-1,-1,-1,-1,-1],"loss_changes":[5.7895074E0,4.797273E0,0E0,3.49746E0,0E0,6.276856E0,2.8959303E0,3.4633996E0,0E0,3.058237E0,0E0,0E0,0E0,0E0,0E0],"parents":[2147483647,0,0,1,1,3,3,5,5,6,6,7,7,9,9],"right_children":[2,4,-1,6,-1,8,10,12,-1,14,-1,-1,-1,-1,-1],"split_conditions":[9.666667E0,7.074868E1,-2.6036989E-2,5.104651E1,-2.964425E-2,5.0575817E1,6.75E0,4.333333E0,3.8964067E-2,3.721555E1,4.2937838E-2,7.0644446E-6,-2.4264408E-2,-9.429012E-3,1.987098E-2],"split_indices":[0,4,0,5,0,1,0,0,0,4,0,0,0,0,0],"split_type":[0,0,0,0,0,0,0,0,0,0,0,0,0,0,0],"sum_hessian":[6.47E2,5.64E2,8.3E1,5.32E2,3.2E1,3.81E2,1.51E2,3.49E2,3.2E1,1.17E2,3.4E1,2.84E2,6.5E1,3.3E1,8.4E1],"tree_param":{"num_deleted":"0","num_feature":"9","num_nodes":"15","size_leaf_vector":"1"}},{"base_weights":[8.436477E-3,-3.1393815E-2,7.635652E-2,2.1747248E-2,-8.646223E-2,-1.7833613E-2,1.6689865E-1,-1.3639948E-1,8.944966E-3,4.550181E-2,-3.417677E-4,-4.700479E-2,-2.9229124E-3,-2.4270494E-2,1.701704E-2],"categories":[],"categories_nodes":[],"categories_segments":[],"categories_sizes":[],"default_left":[0,0,0,0,0,0,0,0,0,0,0,0,0,0,0],"id":61,"left_children":[1,3,5,-1,7,-1,9,11,-1,-1,-1,-1,13,-1,-1],"loss_changes":[2.462915E0,5.4588847E0,6.907487E0,0E0,3.4572277E0,0E0,9.235063E0,8.507906E0,0E0,0E0,0E0,0E0,7.2370005E0,0E0,0E0],"parents":[2147483647,0,0,1,1,2,2,4,4,6,6,7,7,12,12],"right_children":[2,4,6,-1,8,-1,10,12,-1,-1,-1,-1,14,-1,-1],"split_conditions":[6.778129E-2,6E1,2.7542181E1,2.1747248E-2,6.1311665E1,-1.7833613E-2,4.6113914E1,4.5E2,8.944966E-3,4.550181E-2,-3.417677E-4,-4.700479E-2,1.3735735E1,-2.4270494E-2,1.701704E-2],"split_indices":[1,7,5,0,5,0,5,7,0,0,0,0,2,0,0],"split_type":[0,0,0,0,0,0,0,0,0,0,0,0,0,0,0],"sum_hessian":[6.16E2,3.61E2,2.55E2,6.1E1,3E2,6.3E1,1.92E2,2.44E2,5.6E1,9.3E1,9.9E1,7.4E1,1.7E2,8E1,9E1],"tree_param":{"num_deleted":"0","num_feature":"9","num_nodes":"15","size_leaf_vector":"1"}},{"base_weights":[-9.643839E-3,-3.3492915E-2,1.5957588E-2,-2.9207021E-2,8.996274E-3,-3.705888E-2,8.3653174E-2,-1.2390797E-1,2.4901351E-2,-2.1870553E-2,1.5940055E-1,-9.815866E-4,-2.8432699E-2,3.786574E-2,-2.5934705E-3],"categories":[],"categories_nodes":[],"categories_segments":[],"categories_sizes":[],"default_left":[0,0,0,0,0,0,0,0,0,0,0,0,0,0,0],"id":62,"left_children":[1,3,-1,-1,5,7,9,11,-1,-1,13,-1,-1,-1,-1],"loss_changes":[2.7706044E0,6.906607E0,0E0,0E0,2.4352E0,7.109299E0,5.6890144E0,2.481789E0,0E0,0E0,6.5004177E0,0E0,0E0,0E0,0E0],"parents":[2147483647,0,0,1,1,4,4,5,5,6,6,7,7,10,10],"right_children":[2,4,-1,-1,6,8,10,12,-1,-1,14,-1,-1,-1,-1],"split_conditions":[3.3319638E2,3.6667618E1,1.5957588E-2,-2.9207021E-2,6.778129E-2,2.8329858E2,4.117465E1,3.987348E1,2.4901351E-2,-2.1870553E-2,2.5E1,-9.815866E-4,-2.8432699E-2,3.786574E-2,-2.5934705E-3],"split_indices":[8,4,0,0,1,8,4,5,0,0,1,0,0,0,0],"split_type":[0,0,0,0,0,0,0,0,0,0,0,0,0,0,0],"sum_hessian":[6.22E2,5.54E2,6.8E1,1.04E2,4.5E2,2.54E2,1.96E2,1.98E2,5.6E1,3.3E1,1.63E2,1.12E2,8.6E1,9.7E1,6.6E1],"tree_param":{"num_deleted":"0","num_feature":"9","num_nodes":"15","size_leaf_vector":"1"}},{"base_weights":[-0E0,-2.1669976E-2,3.3145398E-2,1.0109435E-1,-2.9013649E-2,4.8536494E-2,5.5470895E-2,1.0522287E-1,-3.246156E-2,4.270842E-3,3.271037E-2],"categories":[],"categories_nodes":[],"categories_segments":[],"categories_sizes":[],"default_left":[0,0,0,0,0,0,0,0,0,0,0],"id":63,"left_children":[1,-1,3,5,-1,7,-1,9,-1,-1,-1],"loss_changes":[4.631055E0,0E0,1.1142678E1,8.688258E0,0E0,8.530934E0,0E0,4.0800886E0,0E0,0E0,0E0],"parents":[2147483647,0,0,2,2,3,3,5,5,7,7],"right_children":[2,-1,4,6,-1,8,-1,10,-1,-1,-1],"split_conditions":[7.905138E-1,-2.1669976E-2,8.25E0,3.8121548E1,-2.9013649E-2,1.2361624E1,5.5470895E-2,5.007153E-1,-3.246156E-2,4.270842E-3,3.271037E-2],"split_indices":[6,0,0,1,0,1,0,1,0,0,0],"split_type":[0,0,0,0,0,0,0,0,0,0,0],"sum_hessian":[5.99E2,8.3E1,5.16E2,4.24E2,9.2E1,3.82E2,4.2E1,3.35E2,4.7E1,2.51E2,8.4E1],"tree_param":{"num_deleted":"0","num_feature":"9","num_nodes":"11","size_leaf_vector":"1"}},{"base_weights":[6.6109477E-3,-4.3215655E-2,1.2443111E-1,2.684448E-2,-7.908822E-2,6.320089E-2,-3.8301935E-3,1.4662316E-2,-1.1788657E-1,-3.7742384E-2,1.2663513E-2,-5.4158073E-2,-5.1801156E-2,-2.4608022E-2,8.451128E-3],"categories":[],"categories_nodes":[],"categories_segments":[],"categories_sizes":[],"default_left":[0,0,0,0,0,0,0,0,0,0,0,0,0,0,0],"id":64,"left_children":[1,3,5,-1,7,-1,9,-1,11,-1,-1,-1,13,-1,-1],"loss_changes":[5.0037575E0,5.273283E0,1.442845E1,0E0,4.0803137E0,0E0,8.389414E0,0E0,7.975884E0,0E0,0E0,0E0,7.1867547E0,0E0,0E0],"parents":[2147483647,0,0,1,1,2,2,4,4,6,6,8,8,12,12],"right_children":[2,4,6,-1,8,-1,10,-1,12,-1,-1,-1,14,-1,-1],"split_conditions":[5.208317E1,3.0078924E1,5.635433E1,2.684448E-2,6.6758475E0,6.320089E-2,5.9051147E1,1.4662316E-2,3.5573643E1,-3.7742384E-2,1.2663513E-2,-5.4158073E-2,4.0738525E1,-2.4608022E-2,8.451128E-3],"split_indices":[4,4,4,0,2,0,4,0,4,0,0,0,5,0,0],"split_type":[0,0,0,0,0,0,0,0,0,0,0,0,0,0,0],"sum_hessian":[6.25E2,4.23E2,2.02E2,3.7E1,3.86E2,5.2E1,1.5E2,4.8E1,3.38E2,4.4E1,1.06E2,4.4E1,2.94E2,1.42E2,1.52E2],"tree_param":{"num_deleted":"0","num_feature":"9","num_nodes":"15","size_leaf_vector":"1"}},{"base_weights":[-1.4466777E-2,-9.1393694E-2,8.487377E-2,-2.3395848E-1,5.475303E-3,1.5626924E-2,4.5474008E-2,-1.3357839E-1,-5.2899614E-2,9.267669E-2,-2.516787E-2,2.4490828E-2,-5.9393108E-2,1.684521E-2,-4.3438654E-2,-0E0,2.8034473E-2,1.3366947E-3,-3.144437E-2,1.4053848E-2,-1.16154095E-2,-8.362596E-3,2.2501832E-2],"categories":[],"categories_nodes":[],"categories_segments":[],"categories_sizes":[],"default_left":[0,0,0,0,0,0,0,0,0,0,0,0,0,0,0,0,0,0,0,0,0,0,0],"id":65,"left_children":[1,3,5,7,9,11,-1,13,-1,15,-1,-1,17,-1,-1,19,-1,21,-1,-1,-1,-1,-1],"loss_changes":[5.980579E0,6.9312363E0,5.8498545E0,3.256466E0,5.609304E0,5.160597E0,0E0,1.0864189E1,0E0,2.531571E0,0E0,0E0,3.8692305E0,0E0,0E0,2.6436124E0,0E0,3.388848E0,0E0,0E0,0E0,0E0,0E0],"parents":[2147483647,0,0,1,1,2,2,3,3,4,4,5,5,7,7,9,9,12,12,15,15,17,17],"right_children":[2,4,6,8,10,12,-1,14,-1,16,-1,-1,18,-1,-1,20,-1,22,-1,-1,-1,-1,-1],"split_conditions":[6.778129E-2,1.89015E1,2.7433752E1,1.7883333E1,2.383759E1,5.058366E0,4.5474008E-2,1.3815764E1,-5.2899614E-2,2.2125889E1,-2.516787E-2,2.4490828E-2,8.083333E0,1.684521E-2,-4.3438654E-2,2.333333E0,2.8034473E-2,3.8121548E1,-3.144437E-2,1.4053848E-2,-1.16154095E-2,-8.362596E-3,2.2501832E-2],"split_indices":[1,3,2,3,3,1,0,2,0,2,0,0,0,0,0,0,0,1,0,0,0,0,0],"split_type":[0,0,0,0,0,0,0,0,0,0,0,0,0,0,0,0,0,0,0,0,0,0,0],"sum_hessian":[6.35E2,3.76E2,2.59E2,1.62E2,2.14E2,2.22E2,3.7E1,1.24E2,3.8E1,1.64E2,5E1,7.4E1,1.48E2,5E1,7.4E1,1.09E2,5.5E1,1.05E2,4.3E1,5.8E1,5.1E1,6.6E1,3.9E1],"tree_param":{"num_deleted":"0","num_feature":"9","num_nodes":"23","size_leaf_vector":"1"}},{"base_weights":[2.1614742E-2,-2.6588023E-2,4.5866754E-2,1.2201618E-1,-5.138138E-2,-7.9569954E-4,2.9877502E-1,5.7851113E-2,-6.1174992E-2,3.7519313E-2,-2.5388101E-2,4.7273052E-1,2.211848E-2,2.1803783E-2,-1.6726446E-3,-1.6279733E-2,1.5886018E-2,7.935343E-2,8.005047E-3,-1.1573018E-2,2.7020466E-2],"categories":[],"categories_nodes":[],"categories_segments":[],"categories_sizes":[],"default_left":[0,0,0,0,0,0,0,0,0,0,0,0,0,0,0,0,0,0,0,0,0],"id":66,"left_children":[1,-1,3,5,7,9,11,13,-1,15,-1,17,19,-1,-1,-1,-1,-1,-1,-1,-1],"loss_changes":[4.680295E0,0E0,5.443689E0,9.693686E0,1.665305E1,3.697022E0,7.062791E0,3.0356727E0,0E0,4.015515E0,0E0,5.1317654E0,4.007842E0,0E0,0E0,0E0,0E0,0E0,0E0,0E0,0E0],"parents":[2147483647,0,0,2,2,3,3,4,4,5,5,6,6,7,7,9,9,11,11,12,12],"right_children":[2,-1,4,6,8,10,12,14,-1,16,-1,18,20,-1,-1,-1,-1,-1,-1,-1,-1],"split_conditions":[1.4303712E1,-2.6588023E-2,2.2228143E2,9.562058E-2,5.058366E0,9.98087E1,2.416667E0,1.166667E0,-6.1174992E-2,6.3131315E-1,-2.5388101E-2,6.86385E1,5.2807358E1,2.1803783E-2,-1.6726446E-3,-1.6279733E-2,1.5886018E-2,7.935343E-2,8.005047E-3,-1.1573018E-2,2.7020466E-2],"split_indices":[3,0,8,1,1,6,0,0,0,6,0,6,6,0,0,0,0,0,0,0,0],"split_type":[0,0,0,0,0,0,0,0,0,0,0,0,0,0,0,0,0,0,0,0,0],"sum_hessian":[6.28E2,4.2E1,5.86E2,3.46E2,2.4E2,1.97E2,1.49E2,1.91E2,4.9E1,1.57E2,4E1,8.2E1,6.7E1,8.5E1,1.06E2,4.2E1,1.15E2,5E1,3.2E1,3.4E1,3.3E1],"tree_param":{"num_deleted":"0","num_feature":"9","num_nodes":"21","size_leaf_vector":"1"}},{"base_weights":[-1.1634469E-2,4.890853E-2,-1.8409638E-1,8.200441E-2,-2.853628E-2,6.6654626E-3,-2.7572626E-1,2.998332E-2,4.3870512E-2,-4.762963E-2,-7.551655E-3,7.119639E-2,-2.7498525E-2,-5.439197E-3,2.1728782E-2],"categories":[],"categories_nodes":[],"categories_segments":[],"categories_sizes":[],"default_left":[0,0,0,0,0,0,0,0,0,0,0,0,0,0,0],"id":67,"left_children":[1,3,5,7,-1,-1,9,11,-1,-1,-1,13,-1,-1,-1],"loss_changes":[8.5827875E0,5.635745E0,5.6670966E0,6.7886963E0,0E0,0E0,2.900753E0,5.2271366E0,0E0,0E0,0E0,5.529005E0,0E0,0E0,0E0],"parents":[2147483647,0,0,1,1,2,2,3,3,6,6,7,7,11,11],"right_children":[2,4,6,8,-1,-1,10,12,-1,-1,-1,14,-1,-1,-1],"split_conditions":[4.916667E0,3.4138785E2,3.4E2,3.6E3,-2.853628E-2,6.6654626E-3,4.876541E1,2.18E3,4.3870512E-2,-4.762963E-2,-7.551655E-3,2.8E2,-2.7498525E-2,-5.439197E-3,2.1728782E-2],"split_indices":[0,8,7,7,0,0,4,7,0,0,0,7,0,0,0],"split_type":[0,0,0,0,0,0,0,0,0,0,0,0,0,0,0],"sum_hessian":[6.37E2,4.61E2,1.76E2,4.26E2,3.5E1,4E1,1.36E2,3.73E2,5.3E1,7.7E1,5.9E1,3.35E2,3.8E1,1.47E2,1.88E2],"tree_param":{"num_deleted":"0","num_feature":"9","num_nodes":"15","size_leaf_vector":"1"}},{"base_weights":[-1.618239E-2],"categories":[],"categories_nodes":[],"categories_segments":[],"categories_sizes":[],"default_left":[0],"id":68,"left_children":[-1],"loss_changes":[0E0],"parents":[2147483647],"right_children":[-1],"split_conditions":[-1.9948415E-3],"split_indices":[0],"split_type":[0],"sum_hessian":[6.24E2],"tree_param":{"num_deleted":"0","num_feature":"9","num_nodes":"1","size_leaf_vector":"1"}},{"base_weights":[1.9398866E-2,4.1681185E-2,-2.2542492E-2,-4.3340012E-2,9.289608E-2,-1.9169517E-2,1.1345444E-1,3.0974112E-2,2.5915563E-1,3.1079052E-2,-0E0,8.8897616E-2,-2.7163759E-2,-0E0,4.8055317E-2,-6.7458614E-3,1.9604256E-2],"categories":[],"categories_nodes":[],"categories_segments":[],"categories_sizes":[],"default_left":[0,0,0,0,0,0,0,0,0,0,0,0,0,0,0,0,0],"id":69,"left_children":[1,3,-1,5,7,-1,9,11,13,-1,-1,15,-1,-1,-1,-1,-1],"loss_changes":[3.7384167E0,3.3339415E0,0E0,5.202383E0,4.3155403E0,0E0,2.6143436E0,5.901735E0,3.7387648E0,0E0,0E0,3.8112428E0,0E0,0E0,0E0,0E0,0E0],"parents":[2147483647,0,0,1,1,3,3,4,4,6,6,7,7,8,8,11,11],"right_children":[2,4,-1,6,8,-1,10,12,14,-1,-1,16,-1,-1,-1,-1,-1],"split_conditions":[3.4232245E2,1.7281706E1,-2.2542492E-2,5.616225E0,3.0033716E2,-1.9169517E-2,9.007214E1,2.663635E2,8.28877E1,3.1079052E-2,-0E0,4.4507545E1,-2.7163759E-2,-0E0,4.8055317E-2,-6.7458614E-3,1.9604256E-2],"split_indices":[8,3,0,1,8,0,8,8,6,0,0,6,0,0,0,0,0],"split_type":[0,0,0,0,0,0,0,0,0,0,0,0,0,0,0,0,0],"sum_hessian":[6.26E2,5.82E2,4.4E1,1.96E2,3.86E2,1.26E2,7E1,3E2,8.6E1,3.7E1,3.3E1,2.57E2,4.3E1,3.2E1,5.4E1,7E1,1.87E2],"tree_param":{"num_deleted":"0","num_feature":"9","num_nodes":"17","size_leaf_vector":"1"}},{"base_weights":[-1.1986041E-2,2.51571E-2,-1.4786753E-1,-8.1348665E-2,1.1831462E-2,-7.11721E-4,-4.8643433E-2,1.1584845E-1,-2.817677E-1,-1.8724944E-3,3.665059E-2,-5.1058866E-2,-9.2891743E-4],"categories":[],"categories_nodes":[],"categories_segments":[],"categories_sizes":[],"default_left":[0,0,0,0,0,0,0,0,0,0,0,0,0],"id":70,"left_children":[1,3,5,7,-1,-1,-1,9,11,-1,-1,-1,-1],"loss_changes":[4.635871E0,4.720644E0,5.776055E0,9.804718E0,0E0,0E0,0E0,4.215496E0,3.1206388E0,0E0,0E0,0E0,0E0],"parents":[2147483647,0,0,1,1,2,2,3,3,7,7,8,8],"right_children":[2,4,6,8,-1,-1,-1,10,12,-1,-1,-1,-1],"split_conditions":[5.388282E1,1.3592238E1,1.8381338E1,9.669623E0,1.1831462E-2,-7.11721E-4,-4.8643433E-2,3.96683E1,2.5509872E2,-1.8724944E-3,3.665059E-2,-5.1058866E-2,-9.2891743E-4],"split_indices":[5,2,2,2,0,0,0,4,8,0,0,0,0],"split_type":[0,0,0,0,0,0,0,0,0,0,0,0,0],"sum_hessian":[6.31E2,4.81E2,1.5E2,1.74E2,3.07E2,1.07E2,4.3E1,8.1E1,9.3E1,4E1,4.1E1,5.3E1,4E1],"tree_param":{"num_deleted":"0","num_feature":"9","num_nodes":"13","size_leaf_vector":"1"}},{"base_weights":[-0E0,4.71012E-2,-2.869516E-2,-0E0,-2.5668416E-2,-1.2000997E-1,5.4439936E-2,-0E0,-4.386602E-2,4.0852193E-2,-1.22378105E-2,8.0154175E-3,-1.6847102E-2,-4.8107162E-2,8.087863E-3],"categories":[],"categories_nodes":[],"categories_segments":[],"categories_sizes":[],"default_left":[0,0,0,0,0,0,0,0,0,0,0,0,0,0,0],"id":71,"left_children":[1,-1,3,5,-1,7,9,11,-1,-1,13,-1,-1,-1,-1],"loss_changes":[9.17513E0,0E0,4.438092E0,4.474766E0,0E0,5.242511E0,9.641036E0,2.5066967E0,0E0,0E0,1.2577771E1,0E0,0E0,0E0,0E0],"parents":[2147483647,0,0,2,2,3,3,5,5,6,6,7,7,10,10],"right_children":[2,-1,4,6,-1,8,10,12,-1,-1,14,-1,-1,-1,-1],"split_conditions":[9.16667E-1,4.71012E-2,9.98087E1,1.6910065E1,-2.5668416E-2,5.7072674E1,1.8106041E1,1.5943184E1,-4.386602E-2,4.0852193E-2,1.8882328E1,8.0154175E-3,-1.6847102E-2,-4.8107162E-2,8.087863E-3],"split_indices":[0,0,6,3,0,6,3,3,0,0,3,0,0,0,0],"split_type":[0,0,0,0,0,0,0,0,0,0,0,0,0,0,0],"sum_hessian":[6.33E2,3.6E1,5.97E2,5.15E2,8.2E1,1.53E2,3.62E2,1.11E2,4.2E1,7.5E1,2.87E2,6.7E1,4.4E1,5.2E1,2.35E2],"tree_param":{"num_deleted":"0","num_feature":"9","num_nodes":"15","size_leaf_vector":"1"}},{"base_weights":[-0E0,-1.0345914E-1,3.2726288E-2,4.1296645E-3,-1.9989304E-1,2.0641296E-1,-1.09207705E-2,-0E0,-3.8858425E-2,-0E0,5.1034473E-2,-4.757864E-2,2.0347897E-2,-1.8869251E-1,9.652802E-3,4.2626774E-3,-4.919869E-2,1.3415474E-2,-5.173256E-3],"categories":[],"categories_nodes":[],"categories_segments":[],"categories_sizes":[],"default_left":[0,0,0,0,0,0,0,0,0,0,0,0,0,0,0,0,0,0,0],"id":72,"left_children":[1,3,5,-1,7,9,11,-1,-1,-1,-1,13,-1,15,17,-1,-1,-1,-1],"loss_changes":[2.8544154E0,3.2131367E0,5.413202E0,0E0,3.2335367E0,7.340347E0,3.350177E0,0E0,0E0,0E0,0E0,4.1708803E0,0E0,7.9721465E0,2.2660596E0,0E0,0E0,0E0,0E0],"parents":[2147483647,0,0,1,1,2,2,4,4,5,5,6,6,11,11,13,13,14,14],"right_children":[2,4,6,-1,8,10,12,-1,-1,-1,-1,14,-1,16,18,-1,-1,-1,-1],"split_conditions":[8.6695015E1,2.4E2,3.8763947E1,4.1296645E-3,2.5E0,1.8649323E1,2.304881E1,-0E0,-3.8858425E-2,-0E0,5.1034473E-2,3.3E2,2.0347897E-2,5.4060566E1,1.7766834E1,4.2626774E-3,-4.919869E-2,1.3415474E-2,-5.173256E-3],"split_indices":[8,7,4,0,0,3,3,0,0,0,0,7,0,4,3,0,0,0,0],"split_type":[0,0,0,0,0,0,0,0,0,0,0,0,0,0,0,0,0,0,0],"sum_hessian":[6.05E2,1.33E2,4.72E2,4.3E1,9E1,1.05E2,3.67E2,3.2E1,5.8E1,4.8E1,5.7E1,3.22E2,4.5E1,1.05E2,2.17E2,4.6E1,5.9E1,9.3E1,1.24E2],"tree_param":{"num_deleted":"0","num_feature":"9","num_nodes":"19","size_leaf_vector":"1"}},{"base_weights":[-0E0,-4.851997E-2,2.1093394E-1,-1.3381902E-2,-2.9921103E-2,4.535841E-2,-0E0,-7.013617E-2,1.23329476E-1,1.409868E-2,-1.8675196E-1,-9.783906E-4,2.259794E-1,-1.9895232E-3,2.5500767E-2,3.7701754E-3,-3.7352983E-2,4.616203E-2,-0E0],"categories":[],"categories_nodes":[],"categories_segments":[],"categories_sizes":[],"default_left":[0,0,0,0,0,0,0,0,0,0,0,0,0,0,0,0,0,0,0],"id":73,"left_children":[1,3,5,7,-1,-1,-1,9,11,13,15,-1,17,-1,-1,-1,-1,-1,-1],"loss_changes":[7.845073E0,3.9471078E0,4.73641E0,4.5057774E0,0E0,0E0,0E0,4.6998315E0,2.9799585E0,3.0184474E0,5.8214145E0,0E0,3.4160385E0,0E0,0E0,0E0,0E0,0E0,0E0],"parents":[2147483647,0,0,1,1,2,2,3,3,7,7,8,8,9,9,10,10,12,12],"right_children":[2,4,6,8,-1,-1,-1,10,12,14,16,-1,18,-1,-1,-1,-1,-1,-1],"split_conditions":[5.9051147E1,5.5851276E1,6E2,4.6573296E1,-2.9921103E-2,4.535841E-2,-0E0,4.8509262E1,3.128602E1,4.3434265E1,1.22655846E2,-9.783906E-4,4.637759E1,-1.9895232E-3,2.5500767E-2,3.7701754E-3,-3.7352983E-2,4.616203E-2,-0E0],"split_indices":[4,4,7,4,0,0,0,5,5,5,8,0,5,0,0,0,0,0,0],"split_type":[0,0,0,0,0,0,0,0,0,0,0,0,0,0,0,0,0,0,0],"sum_hessian":[6.09E2,5.02E2,1.07E2,4.44E2,5.8E1,5.9E1,4.8E1,3.32E2,1.12E2,1.8E2,1.52E2,3.8E1,7.4E1,1.46E2,3.4E1,4.5E1,1.07E2,4.1E1,3.3E1],"tree_param":{"num_deleted":"0","num_feature":"9","num_nodes":"19","size_leaf_vector":"1"}},{"base_weights":[-2.3408098E-2,-0E0,-2.4103345E-2,-1.4215839E-2,2.0778341E-2,-4.75821E-2,3.3409264E-2,-1.5885789E-2,-2.5738927E-2,4.9123657E-4,-3.0805254E-2],"categories":[],"categories_nodes":[],"categories_segments":[],"categories_sizes":[],"default_left":[0,0,0,0,0,0,0,0,0,0,0],"id":74,"left_children":[1,3,-1,5,-1,7,-1,9,-1,-1,-1],"loss_changes":[4.163975E0,2.8931396E0,0E0,6.081567E0,0E0,2.7687883E0,0E0,4.194064E0,0E0,0E0,0E0],"parents":[2147483647,0,0,1,1,3,3,5,5,7,7],"right_children":[2,4,-1,6,-1,8,-1,10,-1,-1,-1],"split_conditions":[9.25E0,6.833333E0,-2.4103345E-2,3.8394623E1,2.0778341E-2,3.75E0,3.3409264E-2,8.9481945E0,-2.5738927E-2,4.9123657E-4,-3.0805254E-2],"split_indices":[0,0,0,1,0,0,0,1,0,0,0],"split_type":[0,0,0,0,0,0,0,0,0,0,0],"sum_hessian":[6.34E2,5.5E2,8.4E1,4.98E2,5.2E1,4.6E2,3.8E1,4.06E2,5.4E1,3.67E2,3.9E1],"tree_param":{"num_deleted":"0","num_feature":"9","num_nodes":"11","size_leaf_vector":"1"}},{"base_weights":[1.5538041E-2,5.729384E-2,-8.214829E-2,-3.1303752E-2,2.0167106E-1,1.0046672E-2,-2.9967993E-2,5.026232E-3,-1.8587474E-2,1.20673984E-1,4.748219E-2,2.3495436E-2,-5.242168E-3,2.0119286E-1,-9.9052405E-3,4.1819315E-2,-0E0],"categories":[],"categories_nodes":[],"categories_segments":[],"categories_sizes":[],"default_left":[0,0,0,0,0,0,0,0,0,0,0,0,0,0,0,0,0],"id":75,"left_children":[1,3,5,7,9,-1,-1,11,-1,13,-1,-1,-1,15,-1,-1,-1],"loss_changes":[3.3712344E0,7.8158283E0,6.725611E0,2.5010574E0,2.9809952E0,0E0,0E0,3.7738624E0,0E0,4.023318E0,0E0,0E0,0E0,4.53559E0,0E0,0E0,0E0],"parents":[2147483647,0,0,1,1,2,2,3,3,4,4,7,7,9,9,13,13],