{"learner":{"attributes":{"scikit_learn":"{\"_estimator_type\": \"regressor\"}"},"feature_names":["duration_p","wv100_k_av","3_8y_fir_p","FWI_12h_av","8_ny_fir_p","f_load_av","HDW_av","CircVar","landform","gT_8_7_av","sW_100_av","wSv_1_av","rh_950_av","d_2m_C_av","f_start","BLH_m_rt","wv10_kh_av","aspect_av","wv_850_av"],"feature_types":["float","float","float","float","float","float","float","float","c","float","float","float","float","float","float","float","float","float","float"],"gradient_booster":{"model":{"cats":{"enc":[{"offsets":[],"values":[]},{"offsets":[],"values":[]},{"offsets":[],"values":[]},{"offsets":[],"values":[]},{"offsets":[],"values":[]},{"offsets":[],"values":[]},{"offsets":[],"values":[]},{"offsets":[],"values":[]},{"offsets":[0,4,8,12,16,20,24,28,32,36,40,44,47],"values":[49,49,46,48,49,50,46,48,50,49,46,48,50,50,46,48,50,51,46,48,50,52,46,48,51,49,46,48,51,50,46,48,51,52,46,48,52,49,46,48,52,50,46,48,110,97,110]},{"offsets":[],"values":[]},{"offsets":[],"values":[]},{"offsets":[],"values":[]},{"offsets":[],"values":[]},{"offsets":[],"values":[]},{"offsets":[],"values":[]},{"offsets":[],"values":[]},{"offsets":[],"values":[]},{"offsets":[],"values":[]},{"offsets":[],"values":[]}],"feature_segments":[0,0,0,0,0,0,0,0,0,12,12,12,12,12,12,12,12,12,12,12],"sorted_idx":[0,1,2,3,4,5,6,7,8,9,10,11]},"gbtree_model_param":{"num_parallel_tree":"1","num_trees":"2700"},"iteration_indptr":[0,1,2,3,4,5,6,7,8,9,10,11,12,13,14,15,16,17,18,19,20,21,22,23,24,25,26,27,28,29,30,31,32,33,34,35,36,37,38,39,40,41,42,43,44,45,46,47,48,49,50,51,52,53,54,55,56,57,58,59,60,61,62,63,64,65,66,67,68,69,70,71,72,73,74,75,76,77,78,79,80,81,82,83,84,85,86,87,88,89,90,91,92,93,94,95,96,97,98,99,100,101,102,103,104,105,106,107,108,109,110,111,112,113,114,115,116,117,118,119,120,121,122,123,124,125,126,127,128,129,130,131,132,133,134,135,136,137,138,139,140,141,142,143,144,145,146,147,148,149,150,151,152,153,154,155,156,157,158,159,160,161,162,163,164,165,166,167,168,169,170,171,172,173,174,175,176,177,178,179,180,181,182,183,184,185,186,187,188,189,190,191,192,193,194,195,196,197,198,199,200,201,202,203,204,205,206,207,208,209,210,211,212,213,214,215,216,217,218,219,220,221,222,223,224,225,226,227,228,229,230,231,232,233,234,235,236,237,238,239,240,241,242,243,244,245,246,247,248,249,250,251,252,253,254,255,256,257,258,259,260,261,262,263,264,265,266,267,268,269,270,271,272,273,274,275,276,277,278,279,280,281,282,283,284,285,286,287,288,289,290,291,292,293,294,295,296,297,298,299,300,301,302,303,304,305,306,307,308,309,310,311,312,313,314,315,316,317,318,319,320,321,322,323,324,325,326,327,328,329,330,331,332,333,334,335,336,337,338,339,340,341,342,343,344,345,346,347,348,349,350,351,352,353,354,355,356,357,358,359,360,361,362,363,364,365,366,367,368,369,370,371,372,373,374,375,376,377,378,379,380,381,382,383,384,385,386,387,388,389,390,391,392,393,394,395,396,397,398,399,400,401,402,403,404,405,406,407,408,409,410,411,412,413,414,415,416,417,418,419,420,421,422,423,424,425,426,427,428,429,430,431,432,433,434,435,436,437,438,439,440,441,442,443,444,445,446,447,448,449,450,451,452,453,454,455,456,457,458,459,460,461,462,463,464,465,466,467,468,469,470,471,472,473,474,475,476,477,478,479,480,481,482,483,484,485,486,487,488,489,490,491,492,493,494,495,496,497,498,499,500,501,502,503,504,505,506,507,508,509,510,511,512,513,514,515,516,517,518,519,520,521,522,523,524,525,526,527,528,529,530,531,532,533,534,535,536,537,538,539,540,541,542,543,544,545,546,547,548,549,550,551,552,553,554,555,556,557,558,559,560,561,562,563,564,565,566,567,568,569,570,571,572,573,574,575,576,577,578,579,580,581,582,583,584,585,586,587,588,589,590,591,592,593,594,595,596,597,598,599,600,601,602,603,604,605,606,607,608,609,610,611,612,613,614,615,616,617,618,619,620,621,622,623,624,625,626,627,628,629,630,631,632,633,634,635,636,637,638,639,640,641,642,643,644,645,646,647,648,649,650,651,652,653,654,655,656,657,658,659,660,661,662,663,664,665,666,667,668,669,670,671,672,673,674,675,676,677,678,679,680,681,682,683,684,685,686,687,688,689,690,691,692,693,694,695,696,697,698,699,700,701,702,703,704,705,706,707,708,709,710,711,712,713,714,715,716,717,718,719,720,721,722,723,724,725,726,727,728,729,730,731,732,733,734,735,736,737,738,739,740,741,742,743,744,745,746,747,748,749,750,751,752,753,754,755,756,757,758,759,760,761,762,763,764,765,766,767,768,769,770,771,772,773,774,775,776,777,778,779,780,781,782,783,784,785,786,787,788,789,790,791,792,793,794,795,796,797,798,799,800,801,802,803,804,805,806,807,808,809,810,811,812,813,814,815,816,817,818,819,820,821,822,823,824,825,826,827,828,829,830,831,832,833,834,835,836,837,838,839,840,841,842,843,844,845,846,847,848,849,850,851,852,853,854,855,856,857,858,859,860,861,862,863,864,865,866,867,868,869,870,871,872,873,874,875,876,877,878,879,880,881,882,883,884,885,886,887,888,889,890,891,892,893,894,895,896,897,898,899,900,901,902,903,904,905,906,907,908,909,910,911,912,913,914,915,916,917,918,919,920,921,922,923,924,925,926,927,928,929,930,931,932,933,934,935,936,937,938,939,940,941,942,943,944,945,946,947,948,949,950,951,952,953,954,955,956,957,958,959,960,961,962,963,964,965,966,967,968,969,970,971,972,973,974,975,976,977,978,979,980,981,982,983,984,985,986,987,988,989,990,991,992,993,994,995,996,997,998,999,1000,1001,1002,1003,1004,1005,1006,1007,1008,1009,1010,1011,1012,1013,1014,1015,1016,1017,1018,1019,1020,1021,1022,1023,1024,1025,1026,1027,1028,1029,1030,1031,1032,1033,1034,1035,1036,1037,1038,1039,1040,1041,1042,1043,1044,1045,1046,1047,1048,1049,1050,1051,1052,1053,1054,1055,1056,1057,1058,1059,1060,1061,1062,1063,1064,1065,1066,1067,1068,1069,1070,1071,1072,1073,1074,1075,1076,1077,1078,1079,1080,1081,1082,1083,1084,1085,1086,1087,1088,1089,1090,1091,1092,1093,1094,1095,1096,1097,1098,1099,1100,1101,1102,1103,1104,1105,1106,1107,1108,1109,1110,1111,1112,1113,1114,1115,1116,1117,1118,1119,1120,1121,1122,1123,1124,1125,1126,1127,1128,1129,1130,1131,1132,1133,1134,1135,1136,1137,1138,1139,1140,1141,1142,1143,1144,1145,1146,1147,1148,1149,1150,1151,1152,1153,1154,1155,1156,1157,1158,1159,1160,1161,1162,1163,1164,1165,1166,1167,1168,1169,1170,1171,1172,1173,1174,1175,1176,1177,1178,1179,1180,1181,1182,1183,1184,1185,1186,1187,1188,1189,1190,1191,1192,1193,1194,1195,1196,1197,1198,1199,1200,1201,1202,1203,1204,1205,1206,1207,1208,1209,1210,1211,1212,1213,1214,1215,1216,1217,1218,1219,1220,1221,1222,1223,1224,1225,1226,1227,1228,1229,1230,1231,1232,1233,1234,1235,1236,1237,1238,1239,1240,1241,1242,1243,1244,1245,1246,1247,1248,1249,1250,1251,1252,1253,1254,1255,1256,1257,1258,1259,1260,1261,1262,1263,1264,1265,1266,1267,1268,1269,1270,1271,1272,1273,1274,1275,1276,1277,1278,1279,1280,1281,1282,1283,1284,1285,1286,1287,1288,1289,1290,1291,1292,1293,1294,1295,1296,1297,1298,1299,1300,1301,1302,1303,1304,1305,1306,1307,1308,1309,1310,1311,1312,1313,1314,1315,1316,1317,1318,1319,1320,1321,1322,1323,1324,1325,1326,1327,1328,1329,1330,1331,1332,1333,1334,1335,1336,1337,1338,1339,1340,1341,1342,1343,1344,1345,1346,1347,1348,1349,1350,1351,1352,1353,1354,1355,1356,1357,1358,1359,1360,1361,1362,1363,1364,1365,1366,1367,1368,1369,1370,1371,1372,1373,1374,1375,1376,1377,1378,1379,1380,1381,1382,1383,1384,1385,1386,1387,1388,1389,1390,1391,1392,1393,1394,1395,1396,1397,1398,1399,1400,1401,1402,1403,1404,1405,1406,1407,1408,1409,1410,1411,1412,1413,1414,1415,1416,1417,1418,1419,1420,1421,1422,1423,1424,1425,1426,1427,1428,1429,1430,1431,1432,1433,1434,1435,1436,1437,1438,1439,1440,1441,1442,1443,1444,1445,1446,1447,1448,1449,1450,1451,1452,1453,1454,1455,1456,1457,1458,1459,1460,1461,1462,1463,1464,1465,1466,1467,1468,1469,1470,1471,1472,1473,1474,1475,1476,1477,1478,1479,1480,1481,1482,1483,1484,1485,1486,1487,1488,1489,1490,1491,1492,1493,1494,1495,1496,1497,1498,1499,1500,1501,1502,1503,1504,1505,1506,1507,1508,1509,1510,1511,1512,1513,1514,1515,1516,1517,1518,1519,1520,1521,1522,1523,1524,1525,1526,1527,1528,1529,1530,1531,1532,1533,1534,1535,1536,1537,1538,1539,1540,1541,1542,1543,1544,1545,1546,1547,1548,1549,1550,1551,1552,1553,1554,1555,1556,1557,1558,1559,1560,1561,1562,1563,1564,1565,1566,1567,1568,1569,1570,1571,1572,1573,1574,1575,1576,1577,1578,1579,1580,1581,1582,1583,1584,1585,1586,1587,1588,1589,1590,1591,1592,1593,1594,1595,1596,1597,1598,1599,1600,1601,1602,1603,1604,1605,1606,1607,1608,1609,1610,1611,1612,1613,1614,1615,1616,1617,1618,1619,1620,1621,1622,1623,1624,1625,1626,1627,1628,1629,1630,1631,1632,1633,1634,1635,1636,1637,1638,1639,1640,1641,1642,1643,1644,1645,1646,1647,1648,1649,1650,1651,1652,1653,1654,1655,1656,1657,1658,1659,1660,1661,1662,1663,1664,1665,1666,1667,1668,1669,1670,1671,1672,1673,1674,1675,1676,1677,1678,1679,1680,1681,1682,1683,1684,1685,1686,1687,1688,1689,1690,1691,1692,1693,1694,1695,1696,1697,1698,1699,1700,1701,1702,1703,1704,1705,1706,1707,1708,1709,1710,1711,1712,1713,1714,1715,1716,1717,1718,1719,1720,1721,1722,1723,1724,1725,1726,1727,1728,1729,1730,1731,1732,1733,1734,1735,1736,1737,1738,1739,1740,1741,1742,1743,1744,1745,1746,1747,1748,1749,1750,1751,1752,1753,1754,1755,1756,1757,1758,1759,1760,1761,1762,1763,1764,1765,1766,1767,1768,1769,1770,1771,1772,1773,1774,1775,1776,1777,1778,1779,1780,1781,1782,1783,1784,1785,1786,1787,1788,1789,1790,1791,1792,1793,1794,1795,1796,1797,1798,1799,1800,1801,1802,1803,1804,1805,1806,1807,1808,1809,1810,1811,1812,1813,1814,1815,1816,1817,1818,1819,1820,1821,1822,1823,1824,1825,1826,1827,1828,1829,1830,1831,1832,1833,1834,1835,1836,1837,1838,1839,1840,1841,1842,1843,1844,1845,1846,1847,1848,1849,1850,1851,1852,1853,1854,1855,1856,1857,1858,1859,1860,1861,1862,1863,1864,1865,1866,1867,1868,1869,1870,1871,1872,1873,1874,1875,1876,1877,1878,1879,1880,1881,1882,1883,1884,1885,1886,1887,1888,1889,1890,1891,1892,1893,1894,1895,1896,1897,1898,1899,1900,1901,1902,1903,1904,1905,1906,1907,1908,1909,1910,1911,1912,1913,1914,1915,1916,1917,1918,1919,1920,1921,1922,1923,1924,1925,1926,1927,1928,1929,1930,1931,1932,1933,1934,1935,1936,1937,1938,1939,1940,1941,1942,1943,1944,1945,1946,1947,1948,1949,1950,1951,1952,1953,1954,1955,1956,1957,1958,1959,1960,1961,1962,1963,1964,1965,1966,1967,1968,1969,1970,1971,1972,1973,1974,1975,1976,1977,1978,1979,1980,1981,1982,1983,1984,1985,1986,1987,1988,1989,1990,1991,1992,1993,1994,1995,1996,1997,1998,1999,2000,2001,2002,2003,2004,2005,2006,2007,2008,2009,2010,2011,2012,2013,2014,2015,2016,2017,2018,2019,2020,2021,2022,2023,2024,2025,2026,2027,2028,2029,2030,2031,2032,2033,2034,2035,2036,2037,2038,2039,2040,2041,2042,2043,2044,2045,2046,2047,2048,2049,2050,2051,2052,2053,2054,2055,2056,2057,2058,2059,2060,2061,2062,2063,2064,2065,2066,2067,2068,2069,2070,2071,2072,2073,2074,2075,2076,2077,2078,2079,2080,2081,2082,2083,2084,2085,2086,2087,2088,2089,2090,2091,2092,2093,2094,2095,2096,2097,2098,2099,2100,2101,2102,2103,2104,2105,2106,2107,2108,2109,2110,2111,2112,2113,2114,2115,2116,2117,2118,2119,2120,2121,2122,2123,2124,2125,2126,2127,2128,2129,2130,2131,2132,2133,2134,2135,2136,2137,2138,2139,2140,2141,2142,2143,2144,2145,2146,2147,2148,2149,2150,2151,2152,2153,2154,2155,2156,2157,2158,2159,2160,2161,2162,2163,2164,2165,2166,2167,2168,2169,2170,2171,2172,2173,2174,2175,2176,2177,2178,2179,2180,2181,2182,2183,2184,2185,2186,2187,2188,2189,2190,2191,2192,2193,2194,2195,2196,2197,2198,2199,2200,2201,2202,2203,2204,2205,2206,2207,2208,2209,2210,2211,2212,2213,2214,2215,2216,2217,2218,2219,2220,2221,2222,2223,2224,2225,2226,2227,2228,2229,2230,2231,2232,2233,2234,2235,2236,2237,2238,2239,2240,2241,2242,2243,2244,2245,2246,2247,2248,2249,2250,2251,2252,2253,2254,2255,2256,2257,2258,2259,2260,2261,2262,2263,2264,2265,2266,2267,2268,2269,2270,2271,2272,2273,2274,2275,2276,2277,2278,2279,2280,2281,2282,2283,2284,2285,2286,2287,2288,2289,2290,2291,2292,2293,2294,2295,2296,2297,2298,2299,2300,2301,2302,2303,2304,2305,2306,2307,2308,2309,2310,2311,2312,2313,2314,2315,2316,2317,2318,2319,2320,2321,2322,2323,2324,2325,2326,2327,2328,2329,2330,2331,2332,2333,2334,2335,2336,2337,2338,2339,2340,2341,2342,2343,2344,2345,2346,2347,2348,2349,2350,2351,2352,2353,2354,2355,2356,2357,2358,2359,2360,2361,2362,2363,2364,2365,2366,2367,2368,2369,2370,2371,2372,2373,2374,2375,2376,2377,2378,2379,2380,2381,2382,2383,2384,2385,2386,2387,2388,2389,2390,2391,2392,2393,2394,2395,2396,2397,2398,2399,2400,2401,2402,2403,2404,2405,2406,2407,2408,2409,2410,2411,2412,2413,2414,2415,2416,2417,2418,2419,2420,2421,2422,2423,2424,2425,2426,2427,2428,2429,2430,2431,2432,2433,2434,2435,2436,2437,2438,2439,2440,2441,2442,2443,2444,2445,2446,2447,2448,2449,2450,2451,2452,2453,2454,2455,2456,2457,2458,2459,2460,2461,2462,2463,2464,2465,2466,2467,2468,2469,2470,2471,2472,2473,2474,2475,2476,2477,2478,2479,2480,2481,2482,2483,2484,2485,2486,2487,2488,2489,2490,2491,2492,2493,2494,2495,2496,2497,2498,2499,2500,2501,2502,2503,2504,2505,2506,2507,2508,2509,2510,2511,2512,2513,2514,2515,2516,2517,2518,2519,2520,2521,2522,2523,2524,2525,2526,2527,2528,2529,2530,2531,2532,2533,2534,2535,2536,2537,2538,2539,2540,2541,2542,2543,2544,2545,2546,2547,2548,2549,2550,2551,2552,2553,2554,2555,2556,2557,2558,2559,2560,2561,2562,2563,2564,2565,2566,2567,2568,2569,2570,2571,2572,2573,2574,2575,2576,2577,2578,2579,2580,2581,2582,2583,2584,2585,2586,2587,2588,2589,2590,2591,2592,2593,2594,2595,2596,2597,2598,2599,2600,2601,2602,2603,2604,2605,2606,2607,2608,2609,2610,2611,2612,2613,2614,2615,2616,2617,2618,2619,2620,2621,2622,2623,2624,2625,2626,2627,2628,2629,2630,2631,2632,2633,2634,2635,2636,2637,2638,2639,2640,2641,2642,2643,2644,2645,2646,2647,2648,2649,2650,2651,2652,2653,2654,2655,2656,2657,2658,2659,2660,2661,2662,2663,2664,2665,2666,2667,2668,2669,2670,2671,2672,2673,2674,2675,2676,2677,2678,2679,2680,2681,2682,2683,2684,2685,2686,2687,2688,2689,2690,2691,2692,2693,2694,2695,2696,2697,2698,2699,2700],"tree_info":[0,0,0,0,0,0,0,0,0,0,0,0,0,0,0,0,0,0,0,0,0,0,0,0,0,0,0,0,0,0,0,0,0,0,0,0,0,0,0,0,0,0,0,0,0,0,0,0,0,0,0,0,0,0,0,0,0,0,0,0,0,0,0,0,0,0,0,0,0,0,0,0,0,0,0,0,0,0,0,0,0,0,0,0,0,0,0,0,0,0,0,0,0,0,0,0,0,0,0,0,0,0,0,0,0,0,0,0,0,0,0,0,0,0,0,0,0,0,0,0,0,0,0,0,0,0,0,0,0,0,0,0,0,0,0,0,0,0,0,0,0,0,0,0,0,0,0,0,0,0,0,0,0,0,0,0,0,0,0,0,0,0,0,0,0,0,0,0,0,0,0,0,0,0,0,0,0,0,0,0,0,0,0,0,0,0,0,0,0,0,0,0,0,0,0,0,0,0,0,0,0,0,0,0,0,0,0,0,0,0,0,0,0,0,0,0,0,0,0,0,0,0,0,0,0,0,0,0,0,0,0,0,0,0,0,0,0,0,0,0,0,0,0,0,0,0,0,0,0,0,0,0,0,0,0,0,0,0,0,0,0,0,0,0,0,0,0,0,0,0,0,0,0,0,0,0,0,0,0,0,0,0,0,0,0,0,0,0,0,0,0,0,0,0,0,0,0,0,0,0,0,0,0,0,0,0,0,0,0,0,0,0,0,0,0,0,0,0,0,0,0,0,0,0,0,0,0,0,0,0,0,0,0,0,0,0,0,0,0,0,0,0,0,0,0,0,0,0,0,0,0,0,0,0,0,0,0,0,0,0,0,0,0,0,0,0,0,0,0,0,0,0,0,0,0,0,0,0,0,0,0,0,0,0,0,0,0,0,0,0,0,0,0,0,0,0,0,0,0,0,0,0,0,0,0,0,0,0,0,0,0,0,0,0,0,0,0,0,0,0,0,0,0,0,0,0,0,0,0,0,0,0,0,0,0,0,0,0,0,0,0,0,0,0,0,0,0,0,0,0,0,0,0,0,0,0,0,0,0,0,0,0,0,0,0,0,0,0,0,0,0,0,0,0,0,0,0,0,0,0,0,0,0,0,0,0,0,0,0,0,0,0,0,0,0,0,0,0,0,0,0,0,0,0,0,0,0,0,0,0,0,0,0,0,0,0,0,0,0,0,0,0,0,0,0,0,0,0,0,0,0,0,0,0,0,0,0,0,0,0,0,0,0,0,0,0,0,0,0,0,0,0,0,0,0,0,0,0,0,0,0,0,0,0,0,0,0,0,0,0,0,0,0,0,0,0,0,0,0,0,0,0,0,0,0,0,0,0,0,0,0,0,0,0,0,0,0,0,0,0,0,0,0,0,0,0,0,0,0,0,0,0,0,0,0,0,0,0,0,0,0,0,0,0,0,0,0,0,0,0,0,0,0,0,0,0,0,0,0,0,0,0,0,0,0,0,0,0,0,0,0,0,0,0,0,0,0,0,0,0,0,0,0,0,0,0,0,0,0,0,0,0,0,0,0,0,0,0,0,0,0,0,0,0,0,0,0,0,0,0,0,0,0,0,0,0,0,0,0,0,0,0,0,0,0,0,0,0,0,0,0,0,0,0,0,0,0,0,0,0,0,0,0,0,0,0,0,0,0,0,0,0,0,0,0,0,0,0,0,0,0,0,0,0,0,0,0,0,0,0,0,0,0,0,0,0,0,0,0,0,0,0,0,0,0,0,0,0,0,0,0,0,0,0,0,0,0,0,0,0,0,0,0,0,0,0,0,0,0,0,0,0,0,0,0,0,0,0,0,0,0,0,0,0,0,0,0,0,0,0,0,0,0,0,0,0,0,0,0,0,0,0,0,0,0,0,0,0,0,0,0,0,0,0,0,0,0,0,0,0,0,0,0,0,0,0,0,0,0,0,0,0,0,0,0,0,0,0,0,0,0,0,0,0,0,0,0,0,0,0,0,0,0,0,0,0,0,0,0,0,0,0,0,0,0,0,0,0,0,0,0,0,0,0,0,0,0,0,0,0,0,0,0,0,0,0,0,0,0,0,0,0,0,0,0,0,0,0,0,0,0,0,0,0,0,0,0,0,0,0,0,0,0,0,0,0,0,0,0,0,0,0,0,0,0,0,0,0,0,0,0,0,0,0,0,0,0,0,0,0,0,0,0,0,0,0,0,0,0,0,0,0,0,0,0,0,0,0,0,0,0,0,0,0,0,0,0,0,0,0,0,0,0,0,0,0,0,0,0,0,0,0,0,0,0,0,0,0,0,0,0,0,0,0,0,0,0,0,0,0,0,0,0,0,0,0,0,0,0,0,0,0,0,0,0,0,0,0,0,0,0,0,0,0,0,0,0,0,0,0,0,0,0,0,0,0,0,0,0,0,0,0,0,0,0,0,0,0,0,0,0,0,0,0,0,0,0,0,0,0,0,0,0,0,0,0,0,0,0,0,0,0,0,0,0,0,0,0,0,0,0,0,0,0,0,0,0,0,0,0,0,0,0,0,0,0,0,0,0,0,0,0,0,0,0,0,0,0,0,0,0,0,0,0,0,0,0,0,0,0,0,0,0,0,0,0,0,0,0,0,0,0,0,0,0,0,0,0,0,0,0,0,0,0,0,0,0,0,0,0,0,0,0,0,0,0,0,0,0,0,0,0,0,0,0,0,0,0,0,0,0,0,0,0,0,0,0,0,0,0,0,0,0,0,0,0,0,0,0,0,0,0,0,0,0,0,0,0,0,0,0,0,0,0,0,0,0,0,0,0,0,0,0,0,0,0,0,0,0,0,0,0,0,0,0,0,0,0,0,0,0,0,0,0,0,0,0,0,0,0,0,0,0,0,0,0,0,0,0,0,0,0,0,0,0,0,0,0,0,0,0,0,0,0,0,0,0,0,0,0,0,0,0,0,0,0,0,0,0,0,0,0,0,0,0,0,0,0,0,0,0,0,0,0,0,0,0,0,0,0,0,0,0,0,0,0,0,0,0,0,0,0,0,0,0,0,0,0,0,0,0,0,0,0,0,0,0,0,0,0,0,0,0,0,0,0,0,0,0,0,0,0,0,0,0,0,0,0,0,0,0,0,0,0,0,0,0,0,0,0,0,0,0,0,0,0,0,0,0,0,0,0,0,0,0,0,0,0,0,0,0,0,0,0,0,0,0,0,0,0,0,0,0,0,0,0,0,0,0,0,0,0,0,0,0,0,0,0,0,0,0,0,0,0,0,0,0,0,0,0,0,0,0,0,0,0,0,0,0,0,0,0,0,0,0,0,0,0,0,0,0,0,0,0,0,0,0,0,0,0,0,0,0,0,0,0,0,0,0,0,0,0,0,0,0,0,0,0,0,0,0,0,0,0,0,0,0,0,0,0,0,0,0,0,0,0,0,0,0,0,0,0,0,0,0,0,0,0,0,0,0,0,0,0,0,0,0,0,0,0,0,0,0,0,0,0,0,0,0,0,0,0,0,0,0,0,0,0,0,0,0,0,0,0,0,0,0,0,0,0,0,0,0,0,0,0,0,0,0,0,0,0,0,0,0,0,0,0,0,0,0,0,0,0,0,0,0,0,0,0,0,0,0,0,0,0,0,0,0,0,0,0,0,0,0,0,0,0,0,0,0,0,0,0,0,0,0,0,0,0,0,0,0,0,0,0,0,0,0,0,0,0,0,0,0,0,0,0,0,0,0,0,0,0,0,0,0,0,0,0,0,0,0,0,0,0,0,0,0,0,0,0,0,0,0,0,0,0,0,0,0,0,0,0,0,0,0,0,0,0,0,0,0,0,0,0,0,0,0,0,0,0,0,0,0,0,0,0,0,0,0,0,0,0,0,0,0,0,0,0,0,0,0,0,0,0,0,0,0,0,0,0,0,0,0,0,0,0,0,0,0,0,0,0,0,0,0,0,0,0,0,0,0,0,0,0,0,0,0,0,0,0,0,0,0,0,0,0,0,0,0,0,0,0,0,0,0,0,0,0,0,0,0,0,0,0,0,0,0,0,0,0,0,0,0,0,0,0,0,0,0,0,0,0,0,0,0,0,0,0,0,0,0,0,0,0,0,0,0,0,0,0,0,0,0,0,0,0,0,0,0,0,0,0,0,0,0,0,0,0,0,0,0,0,0,0,0,0,0,0,0,0,0,0,0,0,0,0,0,0,0,0,0,0,0,0,0,0,0,0,0,0,0,0,0,0,0,0,0,0,0,0,0,0,0,0,0,0,0,0,0,0,0,0,0,0,0,0,0,0,0,0,0,0,0,0,0,0,0,0,0,0,0,0,0,0,0,0,0,0,0,0,0,0,0,0,0,0,0,0,0,0,0,0,0,0,0,0,0,0,0,0,0,0,0,0,0,0,0,0,0,0,0,0,0,0,0,0,0,0,0,0,0,0,0,0,0,0,0,0,0,0,0,0,0,0,0,0,0,0,0,0,0,0,0,0,0,0,0,0,0,0,0,0,0,0,0,0,0,0,0,0,0,0,0,0,0,0,0,0,0,0,0,0,0,0,0,0,0,0,0,0,0,0,0,0,0,0,0,0,0,0,0,0,0,0,0,0,0,0,0,0,0,0,0,0,0,0,0,0,0,0,0,0,0,0,0,0,0,0,0,0,0,0,0,0,0,0,0,0,0,0,0,0,0,0,0,0,0,0,0,0,0,0,0,0,0,0,0,0,0,0,0,0,0,0,0,0,0,0,0,0,0,0,0,0,0,0,0,0,0,0,0,0,0,0,0,0,0,0,0,0,0,0,0,0,0,0,0,0,0,0,0,0,0,0,0,0,0,0,0,0,0,0,0,0,0,0,0,0,0,0,0,0,0,0,0,0,0,0,0,0,0,0,0,0,0,0,0,0,0,0,0,0,0,0,0,0,0,0,0,0,0,0,0,0,0,0,0,0,0,0,0,0,0,0,0,0,0,0,0,0,0,0,0,0,0,0,0,0,0,0,0,0,0,0,0,0,0,0,0,0,0,0,0,0,0,0,0,0,0,0,0,0,0,0,0,0,0,0,0,0,0,0,0,0,0,0,0,0,0,0,0,0,0,0,0,0,0,0,0,0,0,0,0,0,0,0,0,0,0,0,0,0,0,0,0,0,0,0,0,0,0,0,0,0,0,0,0,0,0,0,0,0,0,0,0,0,0,0,0,0,0,0,0,0,0,0,0,0,0,0,0,0,0,0,0,0,0,0,0,0,0,0,0,0,0,0,0,0,0,0,0,0,0,0,0,0,0,0,0,0,0,0,0,0,0,0,0,0,0,0,0,0,0,0,0,0,0,0,0,0,0,0,0,0,0,0,0,0,0,0,0,0,0,0,0,0,0,0,0,0,0,0,0,0,0,0,0,0,0,0,0,0,0,0,0,0,0,0,0,0,0,0,0,0,0,0,0,0,0,0,0,0,0,0,0,0,0,0,0,0,0,0,0,0,0,0,0,0,0,0,0,0,0,0,0,0,0,0,0,0,0,0,0,0,0,0,0,0,0,0,0,0,0,0,0,0,0,0,0,0,0,0,0,0,0,0,0,0,0,0,0,0,0,0,0,0,0,0,0,0,0,0,0,0,0,0,0,0,0,0,0,0,0,0,0,0,0,0,0,0,0,0,0,0,0,0,0,0,0,0,0,0,0,0,0,0,0,0,0,0,0,0,0,0,0,0,0,0,0,0,0,0,0,0,0,0,0,0,0,0,0,0,0,0,0,0,0,0,0,0,0,0,0,0,0,0,0,0,0,0,0,0,0,0,0,0,0,0,0,0,0,0,0,0,0,0,0,0,0,0,0,0,0,0,0,0,0,0,0,0,0,0,0,0,0,0,0,0,0,0,0,0,0,0,0,0,0,0,0,0,0,0,0,0,0,0,0,0,0,0,0,0,0,0,0,0,0,0,0,0,0,0,0,0,0,0,0,0,0,0,0,0,0,0,0,0,0,0,0,0,0,0,0,0,0,0,0,0,0,0,0,0,0,0,0,0,0,0,0,0,0,0,0,0,0,0,0,0,0,0,0,0,0,0,0,0,0,0,0,0,0,0,0,0,0,0,0,0,0,0,0,0,0,0,0,0,0,0],"trees":[{"base_weights":[-7.2002463E-4,5.8926755E-1,-1.9645578E0,-7.9166263E-1,1.3754677E0,-1.10490814E-1,-1.3527238E0,2.4727532E-1,-1.3219236E0,1.8198907E0,-0E0,-2E0,-9.4525236E-1,7.380649E-1,-1.3127124E0,-8.2697725E-1,-1.9077955E0,8.0434626E-1,2E0,-2.7382547E-1,1.3101403E0,-1.10490814E-1,-7.128418E-2,-1.5373982E0,-2.2577277E-1,-2.4876297E-1,1.192795E0,-1.10490814E-1,-3.570533E-2,-1.555518E0,-2.5420675E-1,-3.047601E-1,-1.10490814E-1,1.1864705E0,-2.3236685E-1,2E0,-1.880162E-2,6.685376E-1,-5.786313E-1,1.4607651E-2,1.10490814E-1,-5.701547E-1,-2E0,-1.0582283E0,5.152258E-1,-6.732538E-2,4.4246912E-2,1.6271156E0,-3.898292E-2,-1.8571141E0,-4.8170825E-3,4.4780932E-2,-5.775129E-1,-5.3395983E-2,3.5828516E-2,1.6394027E-1,1.7426087E0,-3.4117516E-2,1.659614E-2,1.4571534E0,2E0,-5.5111432E-3,6.1787363E-2,-1.09486155E-1,-2.5146073E-1,-7.946676E-2,-1.07517575E-4,-1.10490814E-1,-5.4961972E-2,-1.04242824E-1,-8.498483E-3,-8.8977115E-3,8.2271403E-1,1.2352773E0,1.10490814E-1,-1.10490814E-1,-7.61057E-1,4.4983983E-2,-8.978672E-1,5.6370795E-2,-2.4759233E-2,3.6518708E-2,1.9772549E0,7.7159685E-1,2E0,2E0,9.1705585E-1,-4.858909E-1,3.3265892E-2,1.527244E-2,7.318946E-2,3.4320883E-2,9.3532965E-2,-5.925055E-2,-1.4688569E-2,-4.1125622E-1,-1.10490814E-1,1.10490814E-1,5.7861123E-2,3.2413173E-1,1.5296351E0,2E0,1.3487071E0,1.10490814E-1,1.1618589E0,-5.604111E-3,9.636243E-2,2.3278844E-1,-8.1983566E-1,-3.700006E-2,1.425083E-2,-8.2241325E-3,6.1018817E-2,1.0886496E-1,4.2802706E-2,5.08426E-2,1.10490814E-1,3.9669864E-2,8.862155E-2,1.10490814E-1,-9.799773E-3,-8.762328E-3,3.4490034E-2,-6.5347336E-2,-0E0],"categories":[2,3,0,1,2,4,5,6],"categories_nodes":[38,104],"categories_segments":[0,2],"categories_sizes":[2,6],"default_left":[0,0,0,0,0,0,0,0,0,0,0,0,0,0,0,0,0,0,0,0,0,0,0,0,0,0,0,0,0,0,0,0,0,0,0,0,0,0,1,0,0,0,0,0,0,0,0,0,0,0,0,0,0,0,0,0,0,0,0,0,0,0,0,0,0,0,0,0,0,0,0,0,0,0,0,0,0,0,0,0,0,0,0,0,0,0,0,0,0,0,0,0,0,0,0,0,0,0,0,0,0,0,0,0,1,0,0,0,0,0,0,0,0,0,0,0,0,0,0,0,0,0,0,0,0],"id":0,"left_children":[1,3,5,7,9,-1,11,13,15,17,19,21,23,25,27,29,31,33,35,37,39,-1,-1,41,43,45,47,-1,-1,49,51,53,-1,55,57,59,-1,61,63,-1,-1,65,67,69,71,-1,-1,73,-1,75,-1,-1,77,-1,-1,79,81,-1,-1,83,85,-1,-1,-1,87,-1,-1,-1,-1,-1,-1,-1,89,91,-1,-1,93,-1,95,-1,-1,-1,97,99,101,103,105,107,-1,-1,-1,-1,-1,-1,-1,109,-1,-1,-1,111,113,115,117,-1,119,-1,-1,121,123,-1,-1,-1,-1,-1,-1,-1,-1,-1,-1,-1,-1,-1,-1,-1,-1],"loss_changes":[1.1722222E3,8.457623E2,5.0324158E1,1.5693675E2,3.0309802E2,0E0,5.678714E1,7.622426E1,5.21261E1,1.00730225E2,4.55188E1,5.7522583E-1,4.523015E1,3.460757E1,9.214298E0,4.3063744E1,5.408026E1,3.4172886E1,6.3920532E1,3.059362E1,2.3840084E1,0E0,0E0,3.1079544E1,3.296638E1,2.758593E1,4.5112793E1,0E0,0E0,1.9496925E1,2.215047E1,1.539445E1,0E0,3.43687E1,5.6365356E0,2.6169922E1,0E0,9.6552925E0,3.5652164E1,0E0,0E0,1.21482935E1,7.1815033E0,1.7868124E1,6.42657E0,0E0,0E0,2.9953537E0,0E0,2.1077454E1,0E0,0E0,2.2976097E1,0E0,0E0,1.3996893E1,7.85672E0,0E0,0E0,3.918582E1,1.5175293E1,0E0,0E0,0E0,1.4030548E1,0E0,0E0,0E0,0E0,0E0,0E0,0E0,4.7908564E0,5.5928535E0,0E0,0E0,2.3733454E0,0E0,2.5396183E1,0E0,0E0,0E0,4.9282455E0,1.6839695E1,3.3647614E0,1.0886719E1,1.6946997E1,1.3429616E1,0E0,0E0,0E0,0E0,0E0,0E0,0E0,6.165434E0,0E0,0E0,0E0,1.3882077E1,3.847992E0,4.556305E0,1.8421974E0,0E0,3.332072E1,0E0,0E0,3.3347585E0,1.1335873E1,0E0,0E0,0E0,0E0,0E0,0E0,0E0,0E0,0E0,0E0,0E0,0E0,0E0,0E0,0E0,0E0],"parents":[2147483647,0,0,1,1,2,2,3,3,4,4,6,6,7,7,8,8,9,9,10,10,11,11,12,12,13,13,14,14,15,15,16,16,17,17,18,18,19,19,20,20,23,23,24,24,25,25,26,26,29,29,30,30,31,31,33,33,34,34,35,35,37,37,38,38,41,41,42,42,43,43,44,44,47,47,49,49,52,52,55,55,56,56,59,59,60,60,64,64,72,72,73,73,76,76,78,78,82,82,83,83,84,84,85,85,86,86,87,87,95,95,99,99,100,100,101,101,102,102,104,104,107,107,108,108],"right_children":[2,4,6,8,10,-1,12,14,16,18,20,22,24,26,28,30,32,34,36,38,40,-1,-1,42,44,46,48,-1,-1,50,52,54,-1,56,58,60,-1,62,64,-1,-1,66,68,70,72,-1,-1,74,-1,76,-1,-1,78,-1,-1,80,82,-1,-1,84,86,-1,-1,-1,88,-1,-1,-1,-1,-1,-1,-1,90,92,-1,-1,94,-1,96,-1,-1,-1,98,100,102,104,106,108,-1,-1,-1,-1,-1,-1,-1,110,-1,-1,-1,112,114,116,118,-1,120,-1,-1,122,124,-1,-1,-1,-1,-1,-1,-1,-1,-1,-1,-1,-1,-1,-1,-1,-1],"split_conditions":[6.166667E0,4.070998E1,4.5290234E1,7.6181816E1,2.833333E0,-1.10490814E-1,8.860588E0,1.4100494E1,9.9750626E1,8.227848E0,3.505392E2,4.9032962E-1,1.9448868E1,9.5735425E-1,3.5493008E1,6.9888034E0,2.1E2,2.0553206E-1,2.4956407E-1,2.25E2,2.3181407E-1,-1.10490814E-1,-7.128418E-2,9.25E0,-7.087035E0,3.6667618E1,2.4101198E-1,-1.10490814E-1,-3.570533E-2,3.2720395E2,2.1911603E-1,9.82859E0,-1.10490814E-1,5.2071796E1,1.2908687E1,1.8988466E1,-1.880162E-2,9.574782E0,1E-45,1.4607651E-2,1.10490814E-1,5.8864793E-3,2.2431687E-1,2.6104895E-2,8.981528E1,-6.732538E-2,4.4246912E-2,1.8517685E1,-3.898292E-2,1.8545946E1,-4.8170825E-3,4.4780932E-2,3.0156267E1,-5.3395983E-2,3.5828516E-2,9.905304E0,1.2830908E2,-3.4117516E-2,1.659614E-2,2.205558E-2,9.98087E1,-5.5111432E-3,6.1787363E-2,-1.09486155E-1,9.686387E1,-7.946676E-2,-1.07517575E-4,-1.10490814E-1,-5.4961972E-2,-1.04242824E-1,-8.498483E-3,-8.8977115E-3,2.3349472E1,2.0751563E-1,1.10490814E-1,-1.10490814E-1,4.472757E-1,4.4983983E-2,1.1668156E1,5.6370795E-2,-2.4759233E-2,3.6518708E-2,2.5844257E2,1.2098037E1,7.350007E1,1.7E0,1.8423824E-1,3.416667E0,3.3265892E-2,1.527244E-2,7.318946E-2,3.4320883E-2,9.3532965E-2,-5.925055E-2,-1.4688569E-2,1.1063104E1,-1.10490814E-1,1.10490814E-1,5.7861123E-2,3.8514905E2,9.816643E0,1.347448E2,5.6426952E1,1.10490814E-1,1E-45,-5.604111E-3,9.636243E-2,2.102171E-1,2.0540042E2,-3.700006E-2,1.425083E-2,-8.2241325E-3,6.1018817E-2,1.0886496E-1,4.2802706E-2,5.08426E-2,1.10490814E-1,3.9669864E-2,8.862155E-2,1.10490814E-1,-9.799773E-3,-8.762328E-3,3.4490034E-2,-6.5347336E-2,-0E0],"split_indices":[0,3,3,4,0,0,1,13,4,4,15,2,5,4,11,16,14,10,10,14,10,0,0,0,9,3,10,0,0,15,10,16,0,15,16,1,0,16,8,0,0,7,10,7,15,0,0,1,0,5,0,0,3,0,0,13,17,0,0,2,4,0,0,0,11,0,0,0,0,0,0,0,1,10,0,0,2,0,16,0,0,0,17,16,4,0,10,0,0,0,0,0,0,0,0,16,0,0,0,15,13,17,15,0,8,0,0,10,17,0,0,0,0,0,0,0,0,0,0,0,0,0,0,0,0],"split_type":[0,0,0,0,0,0,0,0,0,0,0,0,0,0,0,0,0,0,0,0,0,0,0,0,0,0,0,0,0,0,0,0,0,0,0,0,0,0,1,0,0,0,0,0,0,0,0,0,0,0,0,0,0,0,0,0,0,0,0,0,0,0,0,0,0,0,0,0,0,0,0,0,0,0,0,0,0,0,0,0,0,0,0,0,0,0,0,0,0,0,0,0,0,0,0,0,0,0,0,0,0,0,0,0,1,0,0,0,0,0,0,0,0,0,0,0,0,0,0,0,0,0,0,0,0],"sum_hessian":[1.007E3,7.75E2,2.32E2,2.81E2,4.94E2,9.8E1,1.34E2,9.5E1,1.86E2,3.73E2,1.21E2,2.8E1,1.06E2,7.3E1,2.2E1,1.03E2,8.3E1,8.2E1,2.91E2,1.01E2,2E1,1.6E1,1.2E1,5.7E1,4.9E1,2.3E1,5E1,9E0,1.3E1,4.4E1,5.9E1,2E1,6.3E1,6E1,2.2E1,2.8E2,1.1E1,2.4E1,7.7E1,1.2E1,8E0,2.3E1,3.4E1,2.3E1,2.6E1,1.2E1,1.1E1,4.1E1,9E0,3.6E1,8E0,1.3E1,4.6E1,1.2E1,8E0,2.2E1,3.8E1,1.3E1,9E0,1.08E2,1.72E2,9E0,1.5E1,1.3E1,6.4E1,8E0,1.5E1,2.2E1,1.2E1,1.1E1,1.2E1,8E0,1.8E1,2.4E1,1.7E1,1.9E1,1.7E1,8E0,3.8E1,9E0,1.3E1,8E0,3E1,5E1,5.8E1,1.55E2,1.7E1,5.1E1,1.3E1,1E1,8E0,1.2E1,1.2E1,9E0,8E0,3E1,8E0,1.9E1,1.1E1,3.3E1,1.7E1,3.7E1,2.1E1,1.32E2,2.3E1,8E0,9E0,1.6E1,3.5E1,2.2E1,8E0,2.1E1,1.2E1,9E0,8E0,8E0,2.9E1,8E0,1.3E1,1.3E1,1E1,8E0,8E0,2.4E1,1.1E1],"tree_param":{"num_deleted":"0","num_feature":"19","num_nodes":"125","size_leaf_vector":"1"}},{"base_weights":[2.169899E-2,5.9703356E-1,-1.8250438E0,1.1982071E0,-1.5045626E0,-2E0,-3.298568E-2,1.5570916E0,-2.4149379E-2,-1.7238195E0,3.6847048E-2,-9.7542536E-1,-1.10490814E-1,-8.93339E-1,7.3369414E-1,1.048654E0,2E0,-2.74097E-1,1.3082706E0,2.9186063E-2,-1.9212086E0,-3.3049652E-1,-1.10490814E-1,3.3091288E-4,-1.04053095E-1,5.756314E-2,1.2916907E-2,9.63246E-3,1.3369241E0,2E0,3.67893E-1,-9.369224E-2,-6.672993E-2,1.0555666E-1,1.1969764E-2,-1.1632847E0,-2E0,-1.03700384E-1,1.69718E-1,3.177536E-1,-8.322018E-2,7.471714E-1,2E0,1.10490814E-1,5.618044E-2,-1.45378E-1,8.889445E-2,8.241253E-1,-3.2919714E-1,-8.795945E-2,-2.7889717E-2,-1.0717126E0,-2E0,-1.9238863E-2,4.7909832E-1,4.8738264E-2,8.1572585E-2,-4.8253584E-1,9.745737E-1,2E0,1.3659232E0,-5.256354E-2,3.3366185E-2,6.5299414E-2,2.8036632E-2,-1.0869231E0,1.9665542E-1,-1.4760195E0,9.411829E-4,-1.10490814E-1,-6.2421784E-2,-7.6464857E-3,5.8724448E-2,4.448451E-2,-1.9575648E-1,-5.979459E-2,5.1853447E-3,1.0860317E-1,7.2285724E-1,4.7382545E-2,1.10490814E-1,8.9928824E-1,1.10490814E-1,-1.347183E0,-1.6373571E-2,6.7757356E-1,-5.4171126E-2,-1.10490814E-1,-3.0787773E-2,-3.57708E-2,2.4798514E-2,-4.0153407E-2,4.9965575E-2,3.22463E-3,8.028234E-2,-8.53052E-2,-4.636665E-2,-7.559346E-4,8.820159E-2],"categories":[],"categories_nodes":[],"categories_segments":[],"categories_sizes":[],"default_left":[0,0,0,0,0,0,0,0,0,0,0,0,0,0,0,0,0,0,0,0,0,0,0,0,0,0,0,0,0,0,0,0,0,0,0,0,0,0,0,0,0,0,0,0,0,0,0,0,0,0,0,1,0,0,0,0,0,0,0,0,0,0,0,0,0,0,0,0,0,0,0,0,0,0,0,0,0,0,0,0,0,0,0,0,0,0,0,0,0,0,0,0,0,0,0,0,0,0,0],"id":1,"left_children":[1,3,5,7,9,11,13,15,17,19,-1,21,-1,23,25,27,29,31,33,-1,35,37,-1,-1,-1,-1,-1,39,41,43,45,-1,47,-1,-1,49,51,-1,53,55,-1,57,59,-1,-1,61,-1,63,65,-1,-1,67,69,-1,71,-1,73,75,77,79,81,-1,-1,-1,-1,83,85,87,-1,-1,-1,-1,-1,-1,89,-1,-1,-1,91,-1,-1,93,-1,95,-1,97,-1,-1,-1,-1,-1,-1,-1,-1,-1,-1,-1,-1,-1],"loss_changes":[1.0593243E3,9.6335925E2,1.384076E2,2.6027142E2,8.3255585E1,4.758911E1,2.8061247E1,1.2815112E2,4.6309635E1,7.104935E1,0E0,4.4190395E1,0E0,1.8607748E1,2.8900366E0,7.3840546E1,1.0355267E2,3.427668E1,1.3336807E1,0E0,1.0697998E1,3.1126127E1,0E0,0E0,0E0,0E0,0E0,2.7389614E1,8.688251E1,6.607422E0,2.8140846E1,0E0,2.4897512E1,0E0,0E0,5.955963E0,1.9886963E1,0E0,5.4367776E0,6.329676E0,0E0,3.3028824E1,6.9003906E0,0E0,0E0,2.0257677E1,0E0,1.8115311E0,3.3286377E1,0E0,0E0,1.4198345E1,1.6000671E0,0E0,8.005729E0,0E0,8.152267E0,7.309239E0,2.2277191E1,1.3656158E1,1.0533009E1,0E0,0E0,0E0,0E0,6.1304626E0,2.9240906E1,9.220707E0,0E0,0E0,0E0,0E0,0E0,0E0,8.778664E0,0E0,0E0,0E0,2.2511917E1,0E0,0E0,1.11616535E1,0E0,4.8819733E-1,0E0,2.368766E1,0E0,0E0,0E0,0E0,0E0,0E0,0E0,0E0,0E0,0E0,0E0,0E0,0E0],"parents":[2147483647,0,0,1,1,2,2,3,3,4,4,5,5,6,6,7,7,8,8,9,9,11,11,13,13,14,14,15,15,16,16,17,17,18,18,20,20,21,21,27,27,28,28,29,29,30,30,32,32,35,35,36,36,38,38,39,39,41,41,42,42,45,45,47,47,48,48,51,51,52,52,54,54,56,56,57,57,58,58,59,59,60,60,65,65,66,66,67,67,74,74,78,78,81,81,83,83,85,85],"right_children":[2,4,6,8,10,12,14,16,18,20,-1,22,-1,24,26,28,30,32,34,-1,36,38,-1,-1,-1,-1,-1,40,42,44,46,-1,48,-1,-1,50,52,-1,54,56,-1,58,60,-1,-1,62,-1,64,66,-1,-1,68,70,-1,72,-1,74,76,78,80,82,-1,-1,-1,-1,84,86,88,-1,-1,-1,-1,-1,-1,90,-1,-1,-1,92,-1,-1,94,-1,96,-1,98,-1,-1,-1,-1,-1,-1,-1,-1,-1,-1,-1,-1,-1],"split_conditions":[6E0,2.4858339E-1,2.899656E4,2.75E0,4.2270092E1,4.8E2,1.81296E1,2.0456505E1,5.1338387E4,2.9996086E1,3.6847048E-2,2.4101198E-1,-1.10490814E-1,2.5118296E1,1.1166667E1,3.6667618E1,-6.2294745E0,1.5516666E1,6.381707E1,2.9186063E-2,3.0206715E1,4.9407396E0,-1.10490814E-1,3.3091288E-4,-1.04053095E-1,5.756314E-2,1.2916907E-2,5.932659E1,2.205558E-2,7.5716995E1,3.9559777E4,-9.369224E-2,2.25E2,1.0555666E-1,1.1969764E-2,1.9899776E1,1.405E3,-1.03700384E-1,4.5290234E1,6.2842155E1,-8.322018E-2,8.590389E3,3.5547344E4,1.10490814E-1,5.618044E-2,1.767483E1,8.889445E-2,-6.8861866E0,2.035774E-1,-8.795945E-2,-2.7889717E-2,3.2420203E2,7.313998E-1,-1.9238863E-2,1.9417797E1,4.8738264E-2,1.9860174E-1,1.9271563E-1,-8.82472E0,4.1162617E1,5.5087918E4,-5.256354E-2,3.3366185E-2,6.5299414E-2,2.8036632E-2,1.879698E2,2.637795E2,3.904561E1,9.411829E-4,-1.10490814E-1,-6.2421784E-2,-7.6464857E-3,5.8724448E-2,4.448451E-2,2.3287588E4,-5.979459E-2,5.1853447E-3,1.0860317E-1,4.600256E1,4.7382545E-2,1.10490814E-1,1.8709436E2,1.10490814E-1,1.554952E2,-1.6373571E-2,2.253126E-1,-5.4171126E-2,-1.10490814E-1,-3.0787773E-2,-3.57708E-2,2.4798514E-2,-4.0153407E-2,4.9965575E-2,3.22463E-3,8.028234E-2,-8.53052E-2,-4.636665E-2,-7.559346E-4,8.820159E-2],"split_indices":[0,10,6,0,3,14,5,1,6,3,0,10,0,1,0,3,9,5,3,0,3,16,0,0,0,0,0,12,2,3,6,0,14,0,0,5,14,0,3,17,0,6,6,0,0,5,0,9,10,0,0,15,2,0,5,0,10,10,9,3,6,0,0,0,0,17,17,3,0,0,0,0,0,0,6,0,0,0,17,0,0,15,0,17,0,10,0,0,0,0,0,0,0,0,0,0,0,0,0],"split_type":[0,0,0,0,0,0,0,0,0,0,0,0,0,0,0,0,0,0,0,0,0,0,0,0,0,0,0,0,0,0,0,0,0,0,0,0,0,0,0,0,0,0,0,0,0,0,0,0,0,0,0,0,0,0,0,0,0,0,0,0,0,0,0,0,0,0,0,0,0,0,0,0,0,0,0,0,0,0,0,0,0,0,0,0,0,0,0,0,0,0,0,0,0,0,0,0,0,0,0],"sum_hessian":[9.93E2,7.58E2,2.35E2,5.9E2,1.68E2,1.97E2,3.8E1,4.56E2,1.34E2,1.53E2,1.5E1,5E1,1.47E2,1.8E1,2E1,2.46E2,2.1E2,1.14E2,2E1,1.2E1,1.41E2,3.6E1,1.4E1,1E1,8E0,1.1E1,9E0,5.4E1,1.92E2,1.7E2,4E1,1.3E1,1.01E2,1.2E1,8E0,2.4E1,1.17E2,8E0,2.8E1,4.6E1,8E0,1.12E2,8E1,1.58E2,1.2E1,2.9E1,1.1E1,2.2E1,7.9E1,1.3E1,1.1E1,2.9E1,8.8E1,1E1,1.8E1,1.2E1,3.4E1,1.7E1,9.5E1,4.9E1,3.1E1,1.4E1,1.5E1,8E0,1.4E1,3.2E1,4.7E1,2.1E1,8E0,7.9E1,9E0,9E0,9E0,9E0,2.5E1,8E0,9E0,1.7E1,7.8E1,1.4E1,3.5E1,2.3E1,8E0,2.3E1,9E0,3.4E1,1.3E1,1.2E1,9E0,1.5E1,1E1,8E0,7E1,1E1,1.3E1,1.4E1,9E0,2E1,1.4E1],"tree_param":{"num_deleted":"0","num_feature":"19","num_nodes":"99","size_leaf_vector":"1"}},{"base_weights":[-6.883785E-3,5.21127E-1,-1.684814E0,1.1209173E0,-1.4381213E0,-2E0,-1.0641984E0,1.5342704E0,1.4835984E-1,-9.960362E-1,-2E0,-2E0,-3.070426E-2,-7.75801E-1,-1.10490814E-1,2E0,8.9217484E-1,-1.1696819E-1,1.1817987E0,-5.87956E-1,-1.8587164E0,-3.3080384E-2,-1.10490814E-1,-5.0545845E-2,-2E0,-2.0181778E-1,-1.4646077E0,2E0,2.37993E-1,-5.6730807E-1,1.0549773E0,-8.0446196E-1,1.7182195E-1,1.7538795E0,-3.7941355E-2,2.6962815E-2,-8.197784E-1,-1.10490814E-1,-2.195337E-2,-5.4734185E-2,-2E0,-5.734694E-1,4.2230985E-1,8.30014E-3,-1.9157777E0,7.397319E-1,2E0,9.552981E-1,-6.8546005E-2,-9.132458E-2,3.779754E-2,-5.1700443E-1,1.3552992E0,-2.8380847E-1,-1.1951493E0,1.0140588E0,-5.1478144E-2,2.0147515E-2,1.10490814E-1,-1.1484411E0,-2.1032992E-1,-6.323808E-2,-1.10490814E-1,-1.0520674E0,1.2198027E-3,5.2833658E-2,-2.4929811E-4,-1.1923349E0,-1.10490814E-1,1.0868883E0,5.3391766E-2,1.326588E0,1.10490814E-1,7.4681446E-2,2.1872709E-2,-8.290544E-2,1.0603481E-2,1.7371573E0,5.9548193E-1,4.172538E-3,-4.142683E-2,-9.597831E-2,-3.2138497E-2,7.5825244E-2,3.478495E-2,-5.1257473E-1,3.1254226E-1,-9.168149E-2,-8.509831E-1,2.030725E-1,-5.645346E-2,-7.581266E-2,-2.5916733E-2,-1.04047164E-1,5.7529245E-4,2.4453111E-2,8.761622E-2,2.8359374E-2,-2.3646647E-2,2.0367282E-2,1.10490814E-1,1.9593654E0,6.9776205E-3,1.1041691E0,1.548882E-1,6.7100893E-3,-7.716717E-1,-2.5780696E-2,5.325116E-1,-7.758485E-2,-5.2459425E-1,4.5163598E-2,-2.607068E-2,5.4085728E-2,1.10490814E-1,2.9567888E-2,8.83366E-2,3.417844E-2,-2.4810946E-2,-2.439585E-2,-6.5499164E-2,-2.8295275E-3,4.2471405E-2,-3.8048323E-2,-1.1568294E-2],"categories":[],"categories_nodes":[],"categories_segments":[],"categories_sizes":[],"default_left":[0,0,0,0,0,0,0,0,0,0,0,0,0,0,0,0,0,0,0,0,0,0,0,0,0,0,0,0,0,1,0,0,0,0,0,0,0,0,0,0,0,0,0,0,0,0,0,0,0,0,0,0,0,0,0,0,0,0,0,0,0,0,0,0,0,0,0,0,0,0,0,0,0,0,0,0,0,0,0,0,0,0,0,0,0,0,0,0,0,0,0,0,0,0,0,0,0,0,0,0,0,0,0,1,0,0,0,0,0,0,0,0,0,0,0,0,0,0,0,0,0,0,0,0,0],"id":2,"left_children":[1,3,5,7,9,11,13,15,17,19,21,23,-1,25,-1,27,29,31,33,35,37,-1,-1,-1,39,41,43,45,47,49,51,53,55,57,-1,-1,59,-1,-1,-1,61,63,65,-1,67,69,71,73,-1,-1,-1,75,77,79,81,83,85,-1,-1,87,89,-1,-1,91,-1,-1,-1,93,-1,95,97,99,-1,-1,-1,-1,-1,101,103,-1,-1,-1,-1,-1,-1,105,107,-1,109,111,-1,-1,-1,-1,-1,-1,-1,-1,-1,-1,-1,113,-1,115,117,-1,119,-1,121,-1,123,-1,-1,-1,-1,-1,-1,-1,-1,-1,-1,-1,-1,-1,-1],"loss_changes":[8.9122723E2,9.006913E2,6.7567444E1,2.3483612E2,5.7720795E1,2.5502258E1,3.8029015E1,1.2136005E2,4.9697403E1,4.0634438E1,1.1862427E1,4.6624146E0,0E0,3.6949657E1,0E0,7.826642E1,4.342578E1,2.9061546E1,4.1858414E1,2.1973457E1,1.93479E1,0E0,0E0,0E0,9.327393E0,1.3319521E1,3.231402E1,7.195068E1,3.1998774E1,2.8161394E1,7.709262E1,8.102575E0,1.9880043E1,1.952488E1,0E0,0E0,1.3467972E1,0E0,0E0,0E0,2.0756226E0,1.0524201E1,5.339691E0,0E0,8.19635E0,1.1581139E1,6.274658E0,3.4903564E0,0E0,0E0,0E0,2.0063154E1,3.7399475E1,4.0886335E0,6.3239174E0,1.7095318E0,1.431178E1,0E0,0E0,4.8081665E0,1.011343E1,0E0,0E0,2.619423E0,0E0,0E0,0E0,1.976234E1,0E0,9.375244E0,5.0155826E0,1.6944572E1,0E0,0E0,0E0,0E0,0E0,3.0835602E1,1.0408304E1,0E0,0E0,0E0,0E0,0E0,0E0,6.5892324E0,8.621717E0,0E0,4.699854E0,9.034434E0,0E0,0E0,0E0,0E0,0E0,0E0,0E0,0E0,0E0,0E0,0E0,4.374481E0,0E0,4.785471E0,8.746035E0,0E0,2.8910065E0,0E0,5.511631E0,0E0,9.037914E-1,0E0,0E0,0E0,0E0,0E0,0E0,0E0,0E0,0E0,0E0,0E0,0E0,0E0,0E0],"parents":[2147483647,0,0,1,1,2,2,3,3,4,4,5,5,6,6,7,7,8,8,9,9,10,10,11,11,13,13,15,15,16,16,17,17,18,18,19,19,20,20,24,24,25,25,26,26,27,27,28,28,29,29,30,30,31,31,32,32,33,33,36,36,40,40,41,41,42,42,44,44,45,45,46,46,47,47,51,51,52,52,53,53,54,54,55,55,56,56,59,59,60,60,63,63,67,67,69,69,70,70,71,71,77,77,78,78,85,85,86,86,88,88,89,89,101,101,103,103,104,104,106,106,108,108,110,110],"right_children":[2,4,6,8,10,12,14,16,18,20,22,24,-1,26,-1,28,30,32,34,36,38,-1,-1,-1,40,42,44,46,48,50,52,54,56,58,-1,-1,60,-1,-1,-1,62,64,66,-1,68,70,72,74,-1,-1,-1,76,78,80,82,84,86,-1,-1,88,90,-1,-1,92,-1,-1,-1,94,-1,96,98,100,-1,-1,-1,-1,-1,102,104,-1,-1,-1,-1,-1,-1,106,108,-1,110,112,-1,-1,-1,-1,-1,-1,-1,-1,-1,-1,-1,114,-1,116,118,-1,120,-1,122,-1,124,-1,-1,-1,-1,-1,-1,-1,-1,-1,-1,-1,-1,-1,-1],"split_conditions":[6E0,2.4858339E-1,4.876541E1,2.333333E0,9.94898E1,1.1274925E2,2.7464485E-1,-7.1417847E0,2.3002459E-1,1.9457577E1,1.405E3,2.2718413E-3,-3.070426E-2,1.10721436E2,-1.10490814E-1,3.9869152E1,-7.0003767E0,8.421572E0,-6.53062E0,5.5E2,6.0288586E1,-3.3080384E-2,-1.10490814E-1,-5.0545845E-2,-8.742614E0,7.884891E1,2.65E2,4.170759E1,2.6508966E-3,1.8348185E-4,3.6054966E1,7.865586E1,1E2,3.949147E1,-3.7941355E-2,2.6962815E-2,2.9162637E2,-1.10490814E-1,-2.195337E-2,-5.4734185E-2,1.45E2,6.0482986E1,1.1864714E1,8.30014E-3,8.113207E1,8.832288E1,6.3131315E-1,3.564336E-4,-6.8546005E-2,-9.132458E-2,3.779754E-2,1.7281706E1,1.083333E0,6.2E2,1.33E3,2.3455227E1,5.1510162E1,2.0147515E-2,1.10490814E-1,1.8545946E1,1.26108265E1,-6.323808E-2,-1.10490814E-1,1.697748E1,1.2198027E-3,5.2833658E-2,-2.4929811E-4,1.8829006E1,-1.10490814E-1,2.875049E1,2.25E2,2.1943699E1,1.10490814E-1,7.4681446E-2,2.1872709E-2,-8.290544E-2,1.0603481E-2,-4.9561996E0,3E1,4.172538E-3,-4.142683E-2,-9.597831E-2,-3.2138497E-2,7.5825244E-2,3.478495E-2,3.0729458E1,1.4168228E1,-9.168149E-2,8.860588E0,1.0683442E-2,-5.645346E-2,-7.581266E-2,-2.5916733E-2,-1.04047164E-1,5.7529245E-4,2.4453111E-2,8.761622E-2,2.8359374E-2,-2.3646647E-2,2.0367282E-2,1.10490814E-1,1.3792529E1,6.9776205E-3,9.439124E-5,1.1227893E-3,6.7100893E-3,-6.039255E0,-2.5780696E-2,1.4871795E1,-7.758485E-2,9.1898735E1,4.5163598E-2,-2.607068E-2,5.4085728E-2,1.10490814E-1,2.9567888E-2,8.83366E-2,3.417844E-2,-2.4810946E-2,-2.439585E-2,-6.5499164E-2,-2.8295275E-3,4.2471405E-2,-3.8048323E-2,-1.1568294E-2],"split_indices":[0,10,3,0,4,11,7,9,10,18,14,7,0,11,0,12,9,16,9,14,11,0,0,0,9,11,14,3,7,7,3,4,14,4,0,0,15,0,0,0,14,4,13,0,4,4,4,7,0,0,0,5,0,14,14,12,3,0,0,5,1,0,0,5,0,0,0,5,0,12,14,1,0,0,0,0,0,9,14,0,0,0,0,0,0,12,12,0,1,7,0,0,0,0,0,0,0,0,0,0,0,1,0,7,7,0,9,0,4,0,4,0,0,0,0,0,0,0,0,0,0,0,0,0,0],"split_type":[0,0,0,0,0,0,0,0,0,0,0,0,0,0,0,0,0,0,0,0,0,0,0,0,0,0,0,0,0,0,0,0,0,0,0,0,0,0,0,0,0,0,0,0,0,0,0,0,0,0,0,0,0,0,0,0,0,0,0,0,0,0,0,0,0,0,0,0,0,0,0,0,0,0,0,0,0,0,0,0,0,0,0,0,0,0,0,0,0,0,0,0,0,0,0,0,0,0,0,0,0,0,0,0,0,0,0,0,0,0,0,0,0,0,0,0,0,0,0,0,0,0,0,0,0],"sum_hessian":[1.001E3,7.62E2,2.39E2,5.84E2,1.78E2,1.29E2,1.1E2,4.09E2,1.75E2,1.18E2,6E1,1.15E2,1.4E1,9.3E1,1.7E1,2.34E2,1.75E2,1.4E2,3.5E1,8.2E1,3.6E1,8E0,5.2E1,8E0,1.07E2,5.2E1,4.1E1,2.08E2,2.6E1,1.7E1,1.58E2,4.1E1,9.9E1,2.7E1,8E0,1.4E1,6.8E1,2.7E1,9E0,1.4E1,9.3E1,3.3E1,1.9E1,9E0,3.2E1,4.8E1,1.6E2,1.8E1,8E0,9E0,8E0,2.5E1,1.33E2,1.9E1,2.2E1,2E1,7.9E1,9E0,1.8E1,4.3E1,2.5E1,1E1,8.3E1,1.8E1,1.5E1,8E0,1.1E1,2.1E1,1.1E1,3.1E1,1.7E1,2.6E1,1.34E2,9E0,9E0,1E1,1.5E1,8.7E1,4.6E1,1.1E1,8E0,1E1,1.2E1,8E0,1.2E1,3.5E1,4.4E1,1.3E1,3E1,1.7E1,8E0,1E1,8E0,1.3E1,8E0,1.5E1,1.6E1,9E0,8E0,1.2E1,1.4E1,7.6E1,1.1E1,2E1,2.6E1,1E1,2.5E1,9E0,3.5E1,9E0,2.1E1,9E0,8E0,9E0,6.7E1,1.1E1,9E0,1.5E1,1.1E1,1.6E1,9E0,1E1,2.5E1,1.2E1,9E0],"tree_param":{"num_deleted":"0","num_feature":"19","num_nodes":"125","size_leaf_vector":"1"}},{"base_weights":[1.4120779E-2,-1.0799018E0,6.6550076E-1,-3.8183147E-1,-1.7362224E0,2.4715184E-1,1.879776E0,2.939809E-1,-1.15571E0,-2E0,-9.0400493E-1,5.881472E-1,-1.0709993E0,2E0,9.154769E-1,-7.001403E-2,4.7112447E-1,-7.983092E-1,-1.10490814E-1,-3.4612197E-2,-2E0,-1.82462E0,-9.040795E-2,3.1342936E-1,2E0,-1.4936213E0,7.4010545E-1,2E0,1.1457578E0,-8.3483525E-2,1.4855069E0,8.101981E-1,-1.7118154E-1,-1.3360941E0,7.52306E-2,-1.10490814E-1,-1.4372139E0,-1.2721241E-2,-2E0,-6.1474532E-2,4.0123433E-1,-7.4388725E-1,4.9892318E-1,2E0,3.0081954E-3,-4.8618972E-1,-1.9038757E0,5.899016E-3,7.5147115E-2,1.2997017E0,1.10490814E-1,8.951727E-2,2.6639534E-2,-6.051423E-3,1.9899682E0,2.998403E-1,1.4379312E0,-4.565502E-1,3.0866997E-2,-1.09848514E-1,-5.101849E-1,-3.8979095E-1,4.828905E-2,-3.6821973E-2,-1.0108977E-1,-1.10490814E-1,-5.4188807E-2,-8.089187E-3,5.6226026E-2,-1.8051046E0,1.5045768E-1,1.682536E-2,8.743465E-1,1.10490814E-1,6.364148E-2,-7.713042E-2,6.2647252E-3,-1.10490814E-1,-9.1310626E-1,2.143152E-2,1.10490814E-1,1.10490814E-1,5.691797E-2,-2.1922644E-2,7.437927E-1,1.8322563E0,2.2868307E-2,-3.1230814E-4,-4.4221148E-2,-6.823065E-2,3.9502434E-3,-3.6105305E-2,-1.7448914E-3,-3.2321032E-2,-1.10490814E-1,6.7780143E-1,-5.102422E-2,1.4406168E0,-3.849531E-1,1.6334807E0,4.7423333E-1,-3.2048267E-3,-7.9000555E-2,1.0363973E-2,5.5824053E-2,5.5888586E-2,1.10490814E-1,6.330643E-2,-0E0,2E0,-0E0,-2.1458767E-1,-1.043613E-1,9.013826E-1,2E0,1.2192069E0,-0E0,1.10490814E-1,4.9550753E-2,9.5479353E-4,-9.989312E-2,6.508493E-2,1.3659177E-2,1.10490814E-1,6.832227E-2,7.98429E-2,1.22460015E-2,-4.1874774E-2,4.022293E-2],"categories":[],"categories_nodes":[],"categories_segments":[],"categories_sizes":[],"default_left":[0,0,0,0,0,0,1,0,0,0,0,0,0,0,0,0,0,0,0,0,0,0,0,0,0,0,0,0,0,0,0,0,0,0,0,0,0,0,0,0,0,0,0,0,0,0,0,0,0,0,0,0,0,0,0,0,0,0,0,0,0,0,0,0,0,0,0,0,0,0,0,1,0,0,0,0,0,0,0,0,0,0,0,0,0,0,0,0,0,0,0,0,0,0,0,0,0,0,0,0,0,0,0,0,0,0,0,0,0,0,0,0,0,0,0,0,0,0,0,0,0,0,0,0,0,0,0,0,0],"id":3,"left_children":[1,3,5,7,9,11,13,15,17,19,21,23,25,27,29,-1,31,33,-1,-1,35,37,39,41,43,45,47,49,51,-1,53,55,57,59,61,-1,63,-1,65,-1,67,69,71,73,-1,75,77,-1,-1,79,-1,-1,-1,-1,81,83,85,87,-1,-1,89,91,-1,-1,-1,-1,-1,-1,-1,93,95,97,99,-1,-1,-1,-1,-1,101,-1,-1,-1,-1,-1,103,105,-1,-1,-1,-1,-1,-1,-1,-1,-1,107,-1,109,111,113,115,-1,-1,-1,-1,-1,-1,-1,-1,117,-1,119,-1,121,123,125,127,-1,-1,-1,-1,-1,-1,-1,-1,-1,-1,-1,-1],"loss_changes":[7.27801E2,1.7333527E2,3.244257E2,9.898717E1,5.8725708E1,2.1627737E2,4.5888733E1,2.9327461E1,2.7652664E1,1.3041992E1,4.8806705E1,1.5293794E2,7.794521E1,7.8931274E0,6.8809494E1,0E0,2.0664082E1,3.21801E1,0E0,0E0,3.8024902E-1,2.1815498E1,2.0135445E1,6.430528E1,4.760167E1,3.1719772E1,7.4186697E0,7.760071E0,4.9392147E0,0E0,3.2269806E1,1.878265E1,7.648316E0,2.0811394E1,1.1259458E1,0E0,4.3129616E0,0E0,3.398117E0,0E0,9.5985565E0,4.771218E1,4.979341E1,4.8149414E0,0E0,1.5210987E1,1.7236023E1,0E0,0E0,1.7231644E1,0E0,0E0,0E0,0E0,4.3891983E0,1.2056137E1,9.377838E0,3.7458043E0,0E0,0E0,9.659542E0,1.5856125E0,0E0,0E0,0E0,0E0,0E0,0E0,0E0,1.3498459E1,1.731606E1,7.238685E1,4.5919235E1,0E0,0E0,0E0,0E0,0E0,8.797817E0,0E0,0E0,0E0,0E0,0E0,2.9593363E0,2.4297066E0,0E0,0E0,0E0,0E0,0E0,0E0,0E0,0E0,0E0,6.3937244E0,0E0,2.6720806E1,2.457542E1,1.6238266E1,3.7332123E1,0E0,0E0,0E0,0E0,0E0,0E0,0E0,0E0,5.02195E0,0E0,3.4392197E1,0E0,3.8798695E0,1.0172882E0,8.400635E0,3.734341E1,0E0,0E0,0E0,0E0,0E0,0E0,0E0,0E0,0E0,0E0,0E0,0E0],"parents":[2147483647,0,0,1,1,2,2,3,3,4,4,5,5,6,6,7,7,8,8,9,9,10,10,11,11,12,12,13,13,14,14,16,16,17,17,20,20,21,21,22,22,23,23,24,24,25,25,26,26,27,27,28,28,30,30,31,31,32,32,33,33,34,34,36,36,38,38,40,40,41,41,42,42,43,43,45,45,46,46,49,49,54,54,55,55,56,56,57,57,60,60,61,61,69,69,70,70,71,71,72,72,78,78,84,84,85,85,95,95,97,97,98,98,99,99,100,100,109,109,111,111,113,113,114,114,115,115,116,116],"right_children":[2,4,6,8,10,12,14,16,18,20,22,24,26,28,30,-1,32,34,-1,-1,36,38,40,42,44,46,48,50,52,-1,54,56,58,60,62,-1,64,-1,66,-1,68,70,72,74,-1,76,78,-1,-1,80,-1,-1,-1,-1,82,84,86,88,-1,-1,90,92,-1,-1,-1,-1,-1,-1,-1,94,96,98,100,-1,-1,-1,-1,-1,102,-1,-1,-1,-1,-1,104,106,-1,-1,-1,-1,-1,-1,-1,-1,-1,108,-1,110,112,114,116,-1,-1,-1,-1,-1,-1,-1,-1,118,-1,120,-1,122,124,126,128,-1,-1,-1,-1,-1,-1,-1,-1,-1,-1,-1,-1],"split_conditions":[1.3581678E1,3.4156067E1,4.1901184E4,1.365E3,3.753284E1,1.8E3,2.0189143E-3,5.159107E0,1.6006037E1,7.7426567E0,4.070998E1,5.0547466E1,6.18E3,1.1778087E1,4.395378E1,-7.001403E-2,2.372106E-1,1.1131711E1,-1.10490814E-1,-3.4612197E-2,1.6716002E4,4.2165924E1,4.6709988E1,3.563194E1,6.701322E0,1.7722818E1,4.7997276E1,2.0781889E1,1.2752376E1,-8.3483525E-2,1.7026728E1,2.205558E-2,4.2192467E1,2.1265562E1,2.205558E-2,-1.10490814E-1,3.0206715E1,-1.2721241E-2,6.04282E0,-6.1474532E-2,4.5981724E1,1.675874E4,1.747458E1,2.2439278E1,3.0081954E-3,8.712746E0,2.899656E4,5.899016E-3,7.5147115E-2,8.5277405E0,1.10490814E-1,8.951727E-2,2.6639534E-2,-6.051423E-3,1.0041412E1,2.40313E4,7.350007E1,7.1190643E0,3.0866997E-2,-1.09848514E-1,6.6438093E0,1.0469184E1,4.828905E-2,-3.6821973E-2,-1.0108977E-1,-1.10490814E-1,-5.4188807E-2,-8.089187E-3,5.6226026E-2,1.8658E1,9.8039215E1,5.774622E-5,7.585704E-4,1.10490814E-1,6.364148E-2,-7.713042E-2,6.2647252E-3,-1.10490814E-1,3.3459625E4,2.143152E-2,1.10490814E-1,1.10490814E-1,5.691797E-2,-2.1922644E-2,1.7017784E1,4.089285E1,2.2868307E-2,-3.1230814E-4,-4.4221148E-2,-6.823065E-2,3.9502434E-3,-3.6105305E-2,-1.7448914E-3,-3.2321032E-2,-1.10490814E-1,2.9439243E1,-5.102422E-2,2.2590767E-1,2.408777E-1,9.686387E1,1.9860174E-1,-3.2048267E-3,-7.9000555E-2,1.0363973E-2,5.5824053E-2,5.5888586E-2,1.10490814E-1,6.330643E-2,-0E0,9.106313E0,-0E0,2.684871E-2,-1.043613E-1,8.01553E1,1.2249774E2,1.3509537E2,2.40313E4,1.10490814E-1,4.9550753E-2,9.5479353E-4,-9.989312E-2,6.508493E-2,1.3659177E-2,1.10490814E-1,6.832227E-2,7.98429E-2,1.22460015E-2,-4.1874774E-2,4.022293E-2],"split_indices":[1,12,6,14,11,14,7,13,18,18,3,18,14,13,3,0,10,18,0,0,6,11,11,3,13,1,3,1,18,0,18,2,3,5,2,0,3,0,16,0,3,6,5,1,0,16,6,0,0,13,0,0,0,0,13,6,4,18,0,0,1,1,0,0,0,0,0,0,0,5,4,7,7,0,0,0,0,0,6,0,0,0,0,0,5,3,0,0,0,0,0,0,0,0,0,3,0,10,10,11,10,0,0,0,0,0,0,0,0,13,0,7,0,11,11,11,6,0,0,0,0,0,0,0,0,0,0,0,0],"split_type":[0,0,0,0,0,0,0,0,0,0,0,0,0,0,0,0,0,0,0,0,0,0,0,0,0,0,0,0,0,0,0,0,0,0,0,0,0,0,0,0,0,0,0,0,0,0,0,0,0,0,0,0,0,0,0,0,0,0,0,0,0,0,0,0,0,0,0,0,0,0,0,0,0,0,0,0,0,0,0,0,0,0,0,0,0,0,0,0,0,0,0,0,0,0,0,0,0,0,0,0,0,0,0,0,0,0,0,0,0,0,0,0,0,0,0,0,0,0,0,0,0,0,0,0,0,0,0,0,0],"sum_hessian":[1.017E3,3.79E2,6.38E2,1.85E2,1.94E2,4.76E2,1.62E2,9.9E1,8.6E1,1.3E2,6.4E1,3.79E2,9.7E1,1.17E2,4.5E1,9E0,9E1,6.5E1,2.1E1,9E0,1.21E2,2.9E1,3.5E1,3.21E2,5.8E1,7.9E1,1.8E1,9.9E1,1.8E1,8E0,3.7E1,5.9E1,3.1E1,4E1,2.5E1,1.02E2,1.9E1,8E0,2.1E1,1.1E1,2.4E1,4.7E1,2.74E2,4.5E1,1.3E1,2.4E1,5.5E1,1E1,8E0,2.7E1,7.2E1,9E0,9E0,9E0,2.8E1,3.4E1,2.5E1,2.3E1,8E0,2.1E1,1.9E1,1.6E1,9E0,8E0,1.1E1,1.3E1,8E0,1.3E1,1.1E1,2.1E1,2.6E1,1.21E2,1.53E2,3.1E1,1.4E1,9E0,1.5E1,3.6E1,1.9E1,1.3E1,1.4E1,1.8E1,1E1,1.3E1,2.1E1,1.7E1,8E0,1.1E1,1.2E1,8E0,1.1E1,8E0,8E0,9E0,1.2E1,1.8E1,8E0,2.6E1,9.5E1,5.1E1,1.02E2,8E0,1.1E1,8E0,1.3E1,8E0,9E0,1E1,8E0,1.7E1,9E0,8.7E1,8E0,2.3E1,2.8E1,3.9E1,6.3E1,9E0,8E0,7.7E1,1E1,1.5E1,8E0,1.7E1,1.1E1,3.1E1,8E0,3.1E1,3.2E1],"tree_param":{"num_deleted":"0","num_feature":"19","num_nodes":"129","size_leaf_vector":"1"}},{"base_weights":[-2.9793052E-2,-9.116902E-1,6.3167137E-1,-3.6259878E-1,-1.6464385E0,9.676563E-1,-7.707849E-1,4.133168E-3,-1.6164337E0,-2E0,-8.4357524E-1,5.905513E-1,2E0,-1.262255E0,1.2449622E0,3.4195185E-1,-6.0144323E-1,-1.0329549E0,-1.10490814E-1,-2E0,-5.916848E-2,-5.489093E-1,-1.10490814E-1,1.0112789E0,-3.0266706E-2,2E0,-3.3019797E-3,-1.7591591E0,-5.473182E-1,1.10490814E-1,2.7580127E-2,6.212587E-1,-5.8800316E-1,3.8499254E-1,-9.6387875E-1,-0E0,-1.7244585E0,-6.2467817E-2,-2E0,2.2312108E-2,-1.3454037E0,1.6467258E-1,1.4114813E0,-7.633533E-1,6.0438937E-1,1.10490814E-1,8.08093E-1,-1.9886684E0,-2.0758417E-2,-9.476171E-2,2.5650507E-1,1.723166E-1,1.1019143E0,9.483241E-4,-6.410431E-2,4.2853277E-2,-0E0,-1.10490814E-1,-5.544915E-1,-2.0563968E-2,1.8651953E-2,-5.7766248E-2,-1.10490814E-1,-6.380911E-2,-1.10490814E-1,5.992248E-1,-8.2166776E-2,-4.7319396E-3,-1.8164066E0,-8.14285E-2,6.610769E-1,1.8274434E0,6.848584E-1,-9.7879015E-2,-1.5569819E0,1.3788077E0,2.7536726E-1,-5.1515205E-3,9.07902E-2,-1.10490814E-1,-1.2100486E0,-9.66269E-3,4.4102162E-2,-4.1292444E-2,3.9519453E-1,1.6648587E0,2.5267926E-1,-8.3674276E-1,9.580778E-3,-1.3846197E-2,9.884457E-1,-4.264136E-2,-1.10490814E-1,1.0587038E0,-7.522773E-2,1.273123E0,2E0,-1.786164E-1,1.10490814E-1,6.448698E-1,-1.0648353E0,-1.9909976E0,-1.3990846E-2,4.9407464E-2,9.4145164E-2,-3.3528566E-1,5.592677E-1,-1.7634582E-2,-1.10490814E-1,8.8641095E-1,-3.0756112E-2,1.2587429E0,1.10490814E-1,-1.3766386E-2,4.419929E-2,-8.0314055E-2,-9.071326E-3,2.5599282E-2,7.992964E-2,1.5421734E0,1.0868619E-1,1.5672312E0,8.931755E-3,1.10490814E-1,4.770636E-2,1.8153234E-1,-5.625812E-2,3.9237444E-3,5.9199322E-2,-9.802496E-2,-8.760886E-3,-1.10490814E-1,-5.195738E-2,-6.3124605E-2,3.166033E-2,8.504847E-1,-1.2779656E-2,2.8133043E-3,6.51541E-2,9.270389E-2,4.012359E-2,4.4602726E-2,9.601485E-2,-4.597379E-2,5.9028152E-2,1.10490814E-1,6.1580934E-2,-2.8869765E-2,4.163012E-2,6.330651E-2,1.1753064E-2],"categories":[2,7,0,1,2,4,5],"categories_nodes":[21,85],"categories_segments":[0,2],"categories_sizes":[2,5],"default_left":[0,0,0,0,0,0,0,1,1,0,0,0,0,0,0,0,0,0,0,0,0,1,0,0,0,0,0,0,0,0,0,0,0,0,0,0,0,0,0,0,0,0,0,1,0,0,0,0,0,0,0,0,0,0,0,0,0,0,0,0,0,0,0,0,0,0,0,0,0,0,1,0,0,0,0,0,0,0,0,0,0,0,0,0,0,1,0,0,0,0,0,0,0,0,0,0,0,0,0,0,0,0,0,0,0,0,0,0,0,0,0,0,0,0,0,0,0,0,0,0,0,1,0,0,0,0,0,0,0,0,0,0,0,0,0,1,0,0,0,0,0,0,0,0,0,0,0,0,0,0,0],"id":4,"left_children":[1,3,5,7,9,11,13,15,17,19,21,23,25,27,29,31,33,35,-1,37,-1,39,-1,41,43,45,-1,47,49,-1,-1,51,53,55,57,59,61,-1,63,65,67,69,71,73,75,-1,77,79,-1,-1,81,83,85,-1,-1,-1,-1,-1,87,-1,-1,-1,-1,-1,-1,89,-1,-1,91,-1,93,95,97,99,101,103,105,-1,-1,-1,107,-1,-1,-1,109,111,113,115,-1,-1,117,-1,-1,119,-1,121,123,125,-1,127,129,131,-1,-1,-1,133,135,-1,-1,137,-1,139,-1,-1,-1,-1,-1,-1,-1,141,143,145,-1,-1,-1,147,-1,-1,-1,-1,-1,-1,-1,-1,-1,149,-1,-1,-1,-1,-1,-1,-1,-1,-1,-1,-1,-1,-1,-1,-1],"loss_changes":[5.8668665E2,1.7286282E2,2.7207187E2,1.1561992E2,7.169214E1,2.00258E2,1.137997E2,4.040476E1,2.2466919E1,5.2546997E0,3.519889E1,9.272477E1,6.5361084E1,3.0676956E1,1.3499458E1,3.3690998E1,2.6044226E1,2.806232E1,0E0,3.0968323E0,0E0,3.17092E1,0E0,7.081511E1,6.83361E1,2.6773804E1,0E0,1.5193802E1,3.908324E1,0E0,0E0,2.07631E1,1.0996579E1,3.054198E0,2.5366184E1,2.8548837E0,1.5523758E0,0E0,2.5956726E0,3.7564514E1,1.638253E1,5.891007E1,4.1157074E1,3.5436756E1,1.933509E1,0E0,1.899522E1,7.132187E0,0E0,0E0,6.595624E0,1.1699524E1,2.1499702E1,0E0,0E0,0E0,0E0,0E0,9.244477E0,0E0,0E0,0E0,0E0,0E0,0E0,1.1092398E1,0E0,0E0,8.629776E0,0E0,4.6910133E1,2.0538544E1,7.538141E1,2.9796543E1,1.6207184E1,1.304615E0,1.0538609E1,0E0,0E0,0E0,1.825587E1,0E0,0E0,0E0,2.1821415E1,1.6090622E0,6.6121817E0,1.2267597E1,0E0,0E0,4.1773014E0,0E0,0E0,2.0929737E1,0E0,1.7484138E1,5.704651E0,1.2241753E1,0E0,5.3340397E0,1.073904E1,6.412117E0,0E0,0E0,0E0,1.5561663E1,9.914244E0,0E0,0E0,6.935898E0,0E0,2.5587845E0,0E0,0E0,0E0,0E0,0E0,0E0,0E0,2.1934586E0,1.8283527E1,7.348175E0,0E0,0E0,0E0,1.2014572E1,0E0,0E0,0E0,0E0,0E0,0E0,0E0,0E0,0E0,5.082077E0,0E0,0E0,0E0,0E0,0E0,0E0,0E0,0E0,0E0,0E0,0E0,0E0,0E0,0E0,0E0],"parents":[2147483647,0,0,1,1,2,2,3,3,4,4,5,5,6,6,7,7,8,8,9,9,10,10,11,11,12,12,13,13,14,14,15,15,16,16,17,17,19,19,21,21,23,23,24,24,25,25,27,27,28,28,31,31,32,32,33,33,34,34,35,35,36,36,38,38,39,39,40,40,41,41,42,42,43,43,44,44,46,46,47,47,50,50,51,51,52,52,58,58,65,65,68,68,70,70,71,71,72,72,73,73,74,74,75,75,76,76,80,80,84,84,85,85,86,86,87,87,90,90,93,93,95,95,96,96,97,97,99,99,100,100,101,101,105,105,106,106,109,109,111,111,119,119,120,120,121,121,125,125,135,135],"right_children":[2,4,6,8,10,12,14,16,18,20,22,24,26,28,30,32,34,36,-1,38,-1,40,-1,42,44,46,-1,48,50,-1,-1,52,54,56,58,60,62,-1,64,66,68,70,72,74,76,-1,78,80,-1,-1,82,84,86,-1,-1,-1,-1,-1,88,-1,-1,-1,-1,-1,-1,90,-1,-1,92,-1,94,96,98,100,102,104,106,-1,-1,-1,108,-1,-1,-1,110,112,114,116,-1,-1,118,-1,-1,120,-1,122,124,126,-1,128,130,132,-1,-1,-1,134,136,-1,-1,138,-1,140,-1,-1,-1,-1,-1,-1,-1,142,144,146,-1,-1,-1,148,-1,-1,-1,-1,-1,-1,-1,-1,-1,150,-1,-1,-1,-1,-1,-1,-1,-1,-1,-1,-1,-1,-1,-1,-1],"split_conditions":[1.4764254E1,3.7828197E1,1.92E3,9.89011E1,3.753284E1,5.9371483E1,6.18E3,4.0277667E-2,2.9728461E-2,5.3453037E1,7.7967094E1,-6.403689E0,-7.1417847E0,1.887303E1,-7.594675E0,2.5045317E-1,5.2E2,2.3960066E-1,-1.10490814E-1,3.0206715E1,-5.916848E-2,1E-45,-1.10490814E-1,1.6910065E1,2.3127387E4,7.3297775E1,-3.3019797E-3,6.641127E1,2.6366607E4,1.10490814E-1,2.7580127E-2,2.2976093E-1,1.1678009E1,5.43894E0,7.205475E0,2.2704086E4,-9.066694E0,-6.2467817E-2,4.969347E0,6.7320104E0,3.0206715E1,1.8600117E-1,1.1778087E1,7.276804E1,-5.7993636E0,1.10490814E-1,3.8534668E4,2.899656E4,-2.0758417E-2,-9.476171E-2,3.9559777E4,4.5713577E1,2.3846726E-1,9.483241E-4,-6.410431E-2,4.2853277E-2,-0E0,-1.10490814E-1,3.472004E1,-2.0563968E-2,1.8651953E-2,-5.7766248E-2,-1.10490814E-1,-6.380911E-2,-1.10490814E-1,3.311525E1,-8.2166776E-2,-4.7319396E-3,9.9866135E1,-8.14285E-2,2.6104895E-2,2.205558E-2,2.3211739E1,2.9613699E1,1.204466E1,2.1961902E2,9.234829E0,-5.1515205E-3,9.07902E-2,-1.10490814E-1,7.7697845E1,-9.66269E-3,4.4102162E-2,-4.1292444E-2,2.0856142E1,1E-45,1.9008718E1,1.8160286E1,9.580778E-3,-1.3846197E-2,1.1434291E1,-4.264136E-2,-1.10490814E-1,2.2554407E-1,-7.522773E-2,5.730578E1,7.087199E1,2.3002459E-1,1.10490814E-1,5.4314148E1,1.3227766E2,1.2525971E2,-1.3990846E-2,4.9407464E-2,9.4145164E-2,3.3571007E1,9.573284E1,-1.7634582E-2,-1.10490814E-1,2.1133567E-3,-3.0756112E-2,-8.748023E0,1.10490814E-1,-1.3766386E-2,4.419929E-2,-8.0314055E-2,-9.071326E-3,2.5599282E-2,7.992964E-2,4.291776E-4,2.1126734E1,3.3629083E-5,8.931755E-3,1.10490814E-1,4.770636E-2,2.205558E-2,-5.625812E-2,3.9237444E-3,5.9199322E-2,-9.802496E-2,-8.760886E-3,-1.10490814E-1,-5.195738E-2,-6.3124605E-2,3.166033E-2,1.1895407E-3,-1.2779656E-2,2.8133043E-3,6.51541E-2,9.270389E-2,4.012359E-2,4.4602726E-2,9.601485E-2,-4.597379E-2,5.9028152E-2,1.10490814E-1,6.1580934E-2,-2.8869765E-2,4.163012E-2,6.330651E-2,1.1753064E-2],"split_indices":[1,12,14,4,11,3,14,7,7,2,12,9,9,5,9,10,14,10,0,3,0,8,0,5,6,3,0,3,6,0,0,10,13,16,13,6,9,0,15,16,3,10,13,15,9,0,6,6,0,0,6,15,10,0,0,0,0,0,12,0,0,0,0,0,0,4,0,0,15,0,7,2,1,1,13,15,4,0,0,0,4,0,0,0,5,8,5,5,0,0,1,0,0,10,0,3,4,10,0,12,11,15,0,0,0,12,4,0,0,7,0,9,0,0,0,0,0,0,0,7,1,7,0,0,0,2,0,0,0,0,0,0,0,0,0,7,0,0,0,0,0,0,0,0,0,0,0,0,0,0,0],"split_type":[0,0,0,0,0,0,0,0,0,0,0,0,0,0,0,0,0,0,0,0,0,1,0,0,0,0,0,0,0,0,0,0,0,0,0,0,0,0,0,0,0,0,0,0,0,0,0,0,0,0,0,0,0,0,0,0,0,0,0,0,0,0,0,0,0,0,0,0,0,0,0,0,0,0,0,0,0,0,0,0,0,0,0,0,0,1,0,0,0,0,0,0,0,0,0,0,0,0,0,0,0,0,0,0,0,0,0,0,0,0,0,0,0,0,0,0,0,0,0,0,0,0,0,0,0,0,0,0,0,0,0,0,0,0,0,0,0,0,0,0,0,0,0,0,0,0,0,0,0,0,0],"sum_hessian":[1.001E3,4.29E2,5.72E2,2.47E2,1.82E2,4.62E2,1.1E2,1.92E2,5.5E1,1.08E2,7.4E1,3.51E2,1.11E2,8.9E1,2.1E1,1.24E2,6.8E1,3.8E1,1.7E1,9.6E1,1.2E1,6.6E1,8E0,2.09E2,1.42E2,9.6E1,1.5E1,5.1E1,3.8E1,8E0,1.3E1,9.6E1,2.8E1,1.8E1,5E1,1.6E1,2.2E1,1.1E1,8.5E1,3.9E1,2.7E1,6.8E1,1.41E2,6.6E1,7.6E1,7.4E1,2.2E1,4.3E1,8E0,1.5E1,2.3E1,5.1E1,4.5E1,1.4E1,1.4E1,8E0,1E1,1E1,4E1,8E0,8E0,9E0,1.3E1,1.1E1,7.4E1,2.9E1,1E1,8E0,1.9E1,1.5E1,5.3E1,8.8E1,5.3E1,3.7E1,2.9E1,2.1E1,5.5E1,1.1E1,1.1E1,2.3E1,2E1,1.3E1,1E1,9E0,4.2E1,2.6E1,1.9E1,2.9E1,1.1E1,9E0,2E1,9E0,1E1,4.5E1,8E0,5.4E1,3.4E1,3.5E1,1.8E1,2.1E1,1.6E1,2.1E1,8E0,1.1E1,1E1,1.7E1,3.8E1,1.2E1,8E0,2.8E1,1.4E1,1.8E1,8E0,1E1,9E0,1.4E1,1.5E1,1.1E1,9E0,2.9E1,1.6E1,4.2E1,1.2E1,2.6E1,8E0,2.5E1,1E1,1E1,1.1E1,8E0,8E0,1.1E1,1E1,9E0,8E0,2.8E1,1E1,8E0,2E1,8E0,1E1,8E0,2.1E1,8E0,8E0,1.6E1,2.6E1,1.1E1,1.4E1,1.8E1,1E1],"tree_param":{"num_deleted":"0","num_feature":"19","num_nodes":"151","size_leaf_vector":"1"}},{"base_weights":[-3.1658325E-2,4.637253E-1,-1.603006E0,9.836733E-1,-1.1606953E0,-1.8984532E0,-1.3824527E-1,2E0,6.1716163E-1,7.245661E-1,-1.3642577E0,-1.0549579E0,-2E0,-9.8011315E-1,6.9754946E-1,7.359379E-1,2E0,1.1062906E0,1.2725413E-2,-6.068668E-4,7.694907E-2,-8.599834E-1,-1.6904433E0,-1.2547213E0,-1.8640153E-2,-2E0,1.977054E-2,-1.0211698E-2,-8.683959E-2,4.957549E-2,1.3849015E-2,3.1407195E-1,8.0151945E-2,5.2101284E-2,2E0,7.2644657E-1,1.96566E0,-1.5861441E-1,1.0751096E0,-1.10490814E-1,-5.443154E-1,-2E0,-1.1153212E0,-8.946695E-2,-8.573314E-1,-7.7692837E-1,-1.10490814E-1,4.2921934E-2,-2.1075482E-2,1.3514782E0,1.10490814E-1,-5.4287845E-1,9.181832E-1,2E0,3.4693222E-2,-1.678388E-3,-9.5276374E-1,1.4343613E0,5.4383907E-3,-7.8874123E-1,2.451885E-2,-4.365065E-2,-1.10490814E-1,-1.0556275E-1,-6.486505E-1,-1.3891421E-2,-6.5828815E-2,-9.3900636E-2,3.6579482E-3,9.754768E-2,3.7588026E-2,-8.6770594E-2,3.8859688E-2,1.5710604E0,7.3565257E-1,5.0506134E-2,1.10490814E-1,-5.492726E-2,1.1895346E-1,-2.99718E-1,-1.02618456E-1,3.5015605E-2,1.0807982E-1,-4.224905E-1,-1.2871813E0,-2.8531763E-1,-5.8196034E-2,1.9584959E0,3.419881E-2,9.2073727E-1,-3.3123557E-2,-5.1591422E-2,2.0923345E-1,-4.693857E-2,1.1409734E-2,2.6237292E-3,-6.080312E-1,-3.9031047E-2,-9.168145E-2,3.5304672E-3,-3.2813974E-2,5.7689905E-2,1.10490814E-1,8.342076E-2,1.2742789E-2,3.8463972E-3,4.927526E-2,-1.5754368E-2,-4.0642895E-2],"categories":[],"categories_nodes":[],"categories_segments":[],"categories_sizes":[],"default_left":[0,0,0,0,0,0,0,0,0,0,0,0,0,0,0,0,0,0,0,0,0,0,0,0,0,0,0,0,0,0,0,0,0,0,0,0,0,0,0,0,0,0,0,0,0,0,0,0,0,0,0,0,0,0,0,0,0,0,0,0,0,0,0,0,0,0,0,0,0,0,0,0,0,0,0,0,0,0,0,0,0,0,0,0,0,0,0,0,0,0,0,0,0,0,0,0,0,0,0,0,0,0,0,0,0,0,0,0,0],"id":5,"left_children":[1,3,5,7,9,11,13,15,17,19,21,23,25,27,29,31,33,35,37,-1,-1,39,41,43,-1,45,-1,-1,-1,-1,-1,47,-1,-1,49,51,53,55,57,-1,59,61,63,-1,65,67,-1,-1,-1,69,-1,71,73,75,-1,77,79,81,-1,83,-1,-1,-1,-1,85,-1,-1,-1,-1,-1,-1,-1,-1,87,89,-1,-1,-1,91,93,-1,-1,-1,95,97,99,-1,101,-1,103,-1,-1,105,-1,-1,-1,107,-1,-1,-1,-1,-1,-1,-1,-1,-1,-1,-1,-1],"loss_changes":[8.0802026E2,6.677671E2,1.0674469E2,2.3062451E2,7.570932E1,3.305957E1,3.2656044E1,6.2834473E1,1.319268E2,1.0486758E1,2.6390442E1,5.877514E0,7.607562E1,1.007238E1,1.5988979E0,1.2544481E1,6.3466797E0,7.856085E1,3.8030163E1,0E0,0E0,2.7173866E1,1.8763092E1,3.1405716E0,0E0,2.8516296E1,0E0,0E0,0E0,0E0,0E0,1.0593376E1,0E0,0E0,2.444641E0,4.3536034E1,2.4230713E1,2.1949509E1,9.566994E0,0E0,1.5428036E1,8.743469E0,1.4832077E1,0E0,3.6183004E0,1.9594036E1,0E0,0E0,0E0,3.877018E0,0E0,3.3032265E1,1.6551605E1,7.034424E0,0E0,1.8855211E1,1.608527E1,6.672329E0,0E0,8.108046E0,0E0,0E0,0E0,0E0,4.05935E0,0E0,0E0,0E0,0E0,0E0,0E0,0E0,0E0,9.671982E0,3.1428108E1,0E0,0E0,0E0,1.3307916E1,6.1005836E0,0E0,0E0,0E0,3.0372424E0,2.4562569E0,2.466136E0,0E0,3.1646194E0,0E0,4.315361E1,0E0,0E0,1.185669E1,0E0,0E0,0E0,5.594816E-1,0E0,0E0,0E0,0E0,0E0,0E0,0E0,0E0,0E0,0E0,0E0,0E0],"parents":[2147483647,0,0,1,1,2,2,3,3,4,4,5,5,6,6,7,7,8,8,9,9,10,10,11,11,12,12,13,13,14,14,15,15,16,16,17,17,18,18,21,21,22,22,23,23,25,25,31,31,34,34,35,35,36,36,37,37,38,38,40,40,41,41,42,42,44,44,45,45,49,49,51,51,52,52,53,53,55,55,56,56,57,57,59,59,64,64,73,73,74,74,78,78,79,79,83,83,84,84,85,85,87,87,89,89,92,92,96,96],"right_children":[2,4,6,8,10,12,14,16,18,20,22,24,26,28,30,32,34,36,38,-1,-1,40,42,44,-1,46,-1,-1,-1,-1,-1,48,-1,-1,50,52,54,56,58,-1,60,62,64,-1,66,68,-1,-1,-1,70,-1,72,74,76,-1,78,80,82,-1,84,-1,-1,-1,-1,86,-1,-1,-1,-1,-1,-1,-1,-1,88,90,-1,-1,-1,92,94,-1,-1,-1,96,98,100,-1,102,-1,104,-1,-1,106,-1,-1,-1,108,-1,-1,-1,-1,-1,-1,-1,-1,-1,-1,-1,-1],"split_conditions":[6E0,2.4547783E-1,2.899656E4,-8.58061E0,8E1,-8.387383E0,1.81296E1,1.3487906E1,1.75E0,1.4636334E1,1.5123287E1,2.1E3,4.0738197E1,2.5118296E1,1.1166667E1,2.3002459E-1,7.501215E1,6.2E2,5.1402992E4,-6.068668E-4,7.694907E-2,1.6812206E1,3.44E3,1.8160286E1,-1.8640153E-2,3.3E2,1.977054E-2,-1.0211698E-2,-8.683959E-2,4.957549E-2,1.3849015E-2,2.8278656E4,8.0151945E-2,5.2101284E-2,3.6065574E0,8.590389E3,5.7869698E1,9.7560974E1,2.5243732E1,-1.10490814E-1,1.303597E1,9.087255E1,2.9132965E1,-8.946695E-2,6.0482986E1,1.284483E4,-1.10490814E-1,4.2921934E-2,-2.1075482E-2,6.252275E0,1.10490814E-1,1.7141832E1,1.582571E-4,1.1811024E1,3.4693222E-2,8.713697E0,3.75E0,5.799644E4,5.4383907E-3,9.093627E0,2.451885E-2,-4.365065E-2,-1.10490814E-1,-1.0556275E-1,4.6532265E1,-1.3891421E-2,-6.5828815E-2,-9.3900636E-2,3.6579482E-3,9.754768E-2,3.7588026E-2,-8.6770594E-2,3.8859688E-2,4.08016E4,3.4069344E1,5.0506134E-2,1.10490814E-1,-5.492726E-2,4.734706E-5,1.1434291E1,-1.02618456E-1,3.5015605E-2,1.0807982E-1,1.2098642E2,1.7951138E2,1.2800568E1,-5.8196034E-2,1.9121104E-1,3.419881E-2,2.0826441E-1,-3.3123557E-2,-5.1591422E-2,2.2907346E-1,-4.693857E-2,1.1409734E-2,2.6237292E-3,3.4019806E1,-3.9031047E-2,-9.168145E-2,3.5304672E-3,-3.2813974E-2,5.7689905E-2,1.10490814E-1,8.342076E-2,1.2742789E-2,3.8463972E-3,4.927526E-2,-1.5754368E-2,-4.0642895E-2],"split_indices":[0,10,6,9,14,9,5,18,0,18,18,14,18,1,0,10,17,14,6,0,0,5,14,5,0,14,0,0,0,0,0,6,0,0,4,6,12,4,1,0,18,17,11,0,4,6,0,0,0,13,0,5,7,4,0,18,0,6,0,16,0,0,0,0,12,0,0,0,0,0,0,0,0,6,1,0,0,0,7,1,0,0,0,17,17,13,0,10,0,10,0,0,10,0,0,0,11,0,0,0,0,0,0,0,0,0,0,0,0],"split_type":[0,0,0,0,0,0,0,0,0,0,0,0,0,0,0,0,0,0,0,0,0,0,0,0,0,0,0,0,0,0,0,0,0,0,0,0,0,0,0,0,0,0,0,0,0,0,0,0,0,0,0,0,0,0,0,0,0,0,0,0,0,0,0,0,0,0,0,0,0,0,0,0,0,0,0,0,0,0,0,0,0,0,0,0,0,0,0,0,0,0,0,0,0,0,0,0,0,0,0,0,0,0,0,0,0,0,0,0,0],"sum_hessian":[1.033E3,7.86E2,2.47E2,5.96E2,1.9E2,2.05E2,4.2E1,1.51E2,4.45E2,1.8E1,1.72E2,4.5E1,1.6E2,2.1E1,2.1E1,4.2E1,1.09E2,2.45E2,2E2,9E0,9E0,7E1,1.02E2,3.4E1,1.1E1,1.47E2,1.3E1,1E1,1.1E1,1.3E1,8E0,2.8E1,1.4E1,1E1,9.9E1,1.72E2,7.3E1,1.73E2,2.7E1,1.2E1,5.8E1,5.9E1,4.3E1,1.5E1,1.9E1,2.2E1,1.25E2,1.7E1,1.1E1,1.9E1,8E1,2.2E1,1.5E2,5.8E1,1.5E1,1.46E2,2.7E1,1.9E1,8E0,4.7E1,1.1E1,9E0,5E1,1.4E1,2.9E1,8E0,1.1E1,1E1,1.2E1,1E1,9E0,1.2E1,1E1,3E1,1.2E2,1E1,4.8E1,1.5E1,1.31E2,1.7E1,1E1,9E0,1E1,2.9E1,1.8E1,1.7E1,1.2E1,2E1,1E1,1.06E2,1.4E1,9E0,1.22E2,8E0,9E0,8E0,2.1E1,9E0,9E0,8E0,9E0,9E0,1.1E1,5.6E1,5E1,1.03E2,1.9E1,8E0,1.3E1],"tree_param":{"num_deleted":"0","num_feature":"19","num_nodes":"109","size_leaf_vector":"1"}},{"base_weights":[-4.1625947E-3,-9.825219E-1,5.9164196E-1,1.0986499E-1,-1.3452812E0,1.17106E0,-9.208144E-1,5.315851E-1,-5.9641856E-1,-8.8098925E-1,-1.8692219E0,2E0,8.055894E-1,-6.8104833E-1,-1.10490814E-1,7.786201E-1,-1.411026E-2,-1.0672077E0,1.6497143E-2,-4.2159036E-1,-1.907355E0,-1.3299757E0,-2E0,2E0,-6.512724E-2,1.0942584E0,2.788534E-1,-1.1851833E0,-5.8147017E-2,3.120958E-1,1.2638729E0,-8.338296E-2,-2.4308212E-2,8.438554E-2,-1.1720686E0,-5.2371506E-2,-1.10490814E-1,-7.7386826E-1,-1.6608809E0,-1.10490814E-1,-6.1112586E-2,2.8441835E-2,1.10490814E-1,6.700239E-1,1.5286673E0,-3.08963E-1,8.850546E-1,-1.10490814E-1,-8.877189E-1,-5.352611E-1,7.055402E-1,7.0748216E-1,-2.6108896E-2,1.0750221E-1,1.8506045E-2,-4.6900684E-1,8.142622E-1,2.5546963E-3,-1.4928426E0,-1.1313514E0,-5.316734E-3,-3.708282E-2,-1.910524E0,1.1412041E0,-1.0845028E-1,3.211679E-1,1.8020824E0,-1.0749072E0,2.006721E-1,1.3396416E0,-3.722057E-2,-1.2913677E0,1.3468504E-1,-1.22638695E-1,-9.293248E-2,6.680444E-2,-2.231221E-2,6.557067E-2,1.9131376E-3,-7.768766E-1,1.3120167E-2,1.3328501E0,-1.5532005E-2,-4.31185E-2,-1.0745129E-1,-7.993822E-2,-3.1391907E-2,-1.10490814E-1,-6.089344E-2,2.5469754E-2,1.4623891E0,-8.535179E-2,4.9964237E-1,-7.255605E-3,5.261409E-2,2E0,8.833933E-1,-1.10490814E-1,-1.60146E-2,9.704621E-1,-6.368287E-2,1.7601857E0,2.059103E-2,-1.8482084E0,-7.363063E-1,-2.117085E-2,4.5983877E-2,-4.0723506E-1,3.0722423E-2,-1.1128337E0,-7.636672E-3,9.259122E-2,3.5532456E-2,2.2936782E-2,-1.8380493E-2,6.3430184E-1,1.9859409E0,7.9226756E-1,-4.5459317E-3,2E0,3.8028467E-2,7.961217E-2,-1.694312E-3,7.2215006E-2,9.150419E-3,2E0,5.2439056E-2,-1.10490814E-1,-6.332944E-2,-5.442549E-3,-7.060725E-2,2.8960584E-4,-5.2061785E-2,-3.2319076E-2,-7.936836E-2,5.217583E-2,4.76872E-3,1.10490814E-1,5.779408E-2,6.274311E-2,2.4417728E-2,1.10490814E-1,5.1430438E-2,1.10490814E-1,6.2108632E-2],"categories":[0,1,2,4,8,9,10,11],"categories_nodes":[12],"categories_segments":[0],"categories_sizes":[8],"default_left":[0,0,0,0,0,0,0,0,0,0,0,0,1,0,0,0,0,0,0,0,0,0,0,0,0,0,0,0,0,0,0,0,0,0,0,0,0,0,0,0,0,0,0,0,0,0,0,0,0,0,0,0,0,0,0,0,0,0,0,0,0,0,0,0,0,0,0,0,0,0,0,0,0,0,0,0,0,0,0,0,0,0,0,0,0,0,0,0,0,0,0,0,0,0,0,0,0,0,0,0,0,0,0,0,0,0,0,0,0,0,0,0,0,0,0,0,0,0,0,0,0,0,0,0,0,0,0,0,0,0,0,0,0,0,0,0,0,0,0,0,0,0,0,0,0],"id":6,"left_children":[1,3,5,7,9,11,13,15,17,19,21,23,25,27,-1,29,-1,31,-1,33,35,37,39,41,-1,43,45,47,49,51,53,-1,-1,55,57,-1,-1,59,61,-1,-1,-1,-1,63,65,67,69,-1,71,73,75,77,-1,-1,-1,79,81,-1,83,85,-1,-1,87,89,91,93,95,97,99,101,-1,103,105,107,-1,-1,-1,-1,-1,109,-1,111,-1,-1,-1,-1,-1,-1,-1,113,115,-1,117,-1,-1,119,121,-1,-1,123,-1,125,-1,127,129,-1,-1,131,-1,133,-1,-1,-1,-1,-1,135,137,139,-1,141,-1,-1,-1,-1,-1,143,-1,-1,-1,-1,-1,-1,-1,-1,-1,-1,-1,-1,-1,-1,-1,-1,-1,-1,-1],"loss_changes":[5.8983276E2,1.5248517E2,5.52469E2,2.983246E1,6.7587585E1,1.6173956E2,5.788832E1,1.2736719E1,1.657528E1,7.232678E1,2.8199677E1,9.168524E1,5.063936E1,4.804255E1,0E0,1.0179733E1,0E0,5.7633877E0,0E0,4.261412E1,1.03137665E1,1.3073044E1,2.8190613E0,2.070868E1,0E0,3.8426025E1,4.446296E1,2.2690437E1,2.6933786E1,9.335019E0,1.3195675E1,0E0,0E0,2.8292002E1,1.8189133E1,0E0,0E0,7.8354015E0,1.0132721E1,0E0,0E0,0E0,0E0,4.21473E1,3.3668533E1,2.5614162E1,4.508461E1,0E0,2.9233711E1,2.097583E1,1.689932E1,5.821357E0,0E0,0E0,0E0,9.16611E0,1.8137411E1,0E0,9.155411E0,2.5513153E0,0E0,0E0,5.873642E0,2.4920242E1,4.0679985E1,7.08205E0,2.0783905E1,2.0045498E1,4.2856625E1,1.8166481E1,0E0,1.3333916E1,8.708309E0,7.4854856E0,0E0,0E0,0E0,0E0,0E0,5.5642395E0,0E0,3.1790466E0,0E0,0E0,0E0,0E0,0E0,0E0,0E0,3.13978E0,2.1696121E1,0E0,5.932164E0,0E0,0E0,9.631287E0,1.3378841E1,0E0,0E0,6.425396E0,0E0,5.6026993E0,0E0,8.772125E-1,9.265454E0,0E0,0E0,6.293357E0,0E0,1.7101173E0,0E0,0E0,0E0,0E0,0E0,3.7858343E0,4.960251E0,1.8585386E0,0E0,6.6336365E0,0E0,0E0,0E0,0E0,0E0,9.325485E-1,0E0,0E0,0E0,0E0,0E0,0E0,0E0,0E0,0E0,0E0,0E0,0E0,0E0,0E0,0E0,0E0,0E0,0E0,0E0],"parents":[2147483647,0,0,1,1,2,2,3,3,4,4,5,5,6,6,7,7,8,8,9,9,10,10,11,11,12,12,13,13,15,15,17,17,19,19,20,20,21,21,22,22,23,23,25,25,26,26,27,27,28,28,29,29,30,30,33,33,34,34,37,37,38,38,43,43,44,44,45,45,46,46,48,48,49,49,50,50,51,51,55,55,56,56,58,58,59,59,62,62,63,63,64,64,65,65,66,66,67,67,68,68,69,69,71,71,72,72,73,73,79,79,81,81,89,89,90,90,92,92,95,95,96,96,99,99,101,101,103,103,104,104,107,107,109,109,115,115,116,116,117,117,119,119,125,125],"right_children":[2,4,6,8,10,12,14,16,18,20,22,24,26,28,-1,30,-1,32,-1,34,36,38,40,42,-1,44,46,48,50,52,54,-1,-1,56,58,-1,-1,60,62,-1,-1,-1,-1,64,66,68,70,-1,72,74,76,78,-1,-1,-1,80,82,-1,84,86,-1,-1,88,90,92,94,96,98,100,102,-1,104,106,108,-1,-1,-1,-1,-1,110,-1,112,-1,-1,-1,-1,-1,-1,-1,114,116,-1,118,-1,-1,120,122,-1,-1,124,-1,126,-1,128,130,-1,-1,132,-1,134,-1,-1,-1,-1,-1,136,138,140,-1,142,-1,-1,-1,-1,-1,144,-1,-1,-1,-1,-1,-1,-1,-1,-1,-1,-1,-1,-1,-1,-1,-1,-1,-1,-1],"split_conditions":[1.3581678E1,5.2E2,3.833333E0,3.377528E1,1.3246002E1,-8.58061E0,9.736842E1,9.703704E1,2.8E2,5.666667E0,-8.603061E0,2.4956407E-1,1E-45,1.8829006E1,-1.10490814E-1,2.2496833E-1,-1.411026E-2,9.392568E0,1.6497143E-2,2.4956407E-1,-8.2951975E0,2.490401E-1,4.760083E1,1.0040172E1,-6.512724E-2,2.0456505E1,1.3417175E1,1.7949164E-1,5.4726955E1,9.994444E0,2.372106E-1,-8.338296E-2,-2.4308212E-2,2.2976093E-1,5.169179E0,-5.2371506E-2,-1.10490814E-1,8.860588E0,1.17645035E1,-1.10490814E-1,-6.1112586E-2,2.8441835E-2,1.10490814E-1,7.9440865E1,9.054163E0,4.00928E1,3.1906908E1,-1.10490814E-1,9.7836E0,2.5442642E2,6.0376118E1,1.4065934E1,-2.6108896E-2,1.0750221E-1,1.8506045E-2,1.1574125E1,8.422647E1,2.5546963E-3,9.6400375E1,5.413451E1,-5.316734E-3,-3.708282E-2,1.8917068E1,6.849315E0,8.828406E0,1.08E3,-6.441432E0,1.8394388E1,1.121014E1,-5.8177543E0,-3.722057E-2,2.5138092E4,2.0684847E1,2.8160291E4,-9.293248E-2,6.680444E-2,-2.231221E-2,6.557067E-2,1.9131376E-3,1.48E3,1.3120167E-2,8.213595E0,-1.5532005E-2,-4.31185E-2,-1.0745129E-1,-7.993822E-2,-3.1391907E-2,-1.10490814E-1,-6.089344E-2,1.69558E1,2.2387007E1,-8.535179E-2,2.2843002E1,-7.255605E-3,5.261409E-2,9.94898E1,1.0599692E1,-1.10490814E-1,-1.60146E-2,2.4939862E2,-6.368287E-2,1.1404449E1,2.059103E-2,2.5284187E1,6.6E2,-2.117085E-2,4.5983877E-2,2.0955475E-1,3.0722423E-2,4.156552E1,-7.636672E-3,9.259122E-2,3.5532456E-2,2.2936782E-2,-1.8380493E-2,4.792441E1,5.7118717E1,2E1,-4.5459317E-3,1.7E0,3.8028467E-2,7.961217E-2,-1.694312E-3,7.2215006E-2,9.150419E-3,1.583333E0,5.2439056E-2,-1.10490814E-1,-6.332944E-2,-5.442549E-3,-7.060725E-2,2.8960584E-4,-5.2061785E-2,-3.2319076E-2,-7.936836E-2,5.217583E-2,4.76872E-3,1.10490814E-1,5.779408E-2,6.274311E-2,2.4417728E-2,1.10490814E-1,5.1430438E-2,1.10490814E-1,6.2108632E-2],"split_indices":[1,14,0,12,13,9,4,4,14,0,9,10,8,5,0,10,0,1,0,10,9,10,3,18,0,1,16,10,3,13,10,0,0,10,18,0,0,1,18,0,0,0,0,4,4,3,18,0,13,17,3,4,0,0,0,1,4,0,4,4,0,0,5,4,16,14,9,5,16,9,0,6,1,6,0,0,0,0,0,14,0,16,0,0,0,0,0,0,0,5,18,0,5,0,0,4,13,0,0,17,0,13,0,18,14,0,0,10,0,3,0,0,0,0,0,3,12,14,0,0,0,0,0,0,0,0,0,0,0,0,0,0,0,0,0,0,0,0,0,0,0,0,0,0,0],"split_type":[0,0,0,0,0,0,0,0,0,0,0,0,1,0,0,0,0,0,0,0,0,0,0,0,0,0,0,0,0,0,0,0,0,0,0,0,0,0,0,0,0,0,0,0,0,0,0,0,0,0,0,0,0,0,0,0,0,0,0,0,0,0,0,0,0,0,0,0,0,0,0,0,0,0,0,0,0,0,0,0,0,0,0,0,0,0,0,0,0,0,0,0,0,0,0,0,0,0,0,0,0,0,0,0,0,0,0,0,0,0,0,0,0,0,0,0,0,0,0,0,0,0,0,0,0,0,0,0,0,0,0,0,0,0,0,0,0,0,0,0,0,0,0,0,0],"sum_hessian":[1.007E3,3.81E2,6.26E2,9.5E1,2.86E2,4.53E2,1.73E2,6E1,3.5E1,1.54E2,1.32E2,1.18E2,3.35E2,1.52E2,2.1E1,4.6E1,1.4E1,2.3E1,1.2E1,1.08E2,4.6E1,8E1,5.2E1,1.1E2,8E0,2.15E2,1.2E2,8.3E1,6.9E1,2.5E1,2.1E1,1.2E1,1.1E1,6.5E1,4.3E1,1.4E1,3.2E1,3.2E1,4.8E1,4.2E1,1E1,1.1E1,9.9E1,1.11E2,1.04E2,6.1E1,5.9E1,1.6E1,6.7E1,4.3E1,2.6E1,1.7E1,8E0,1.1E1,1E1,3.7E1,2.8E1,9E0,3.4E1,2E1,1.2E1,1.1E1,3.7E1,6.9E1,4.2E1,2E1,8.4E1,2.4E1,3.7E1,4.6E1,1.3E1,4.8E1,1.9E1,3.3E1,1E1,1.8E1,8E0,9E0,8E0,2.6E1,1.1E1,1.9E1,9E0,1.5E1,1.9E1,1.1E1,9E0,2.3E1,1.4E1,1.6E1,5.3E1,1.2E1,3E1,1.2E1,8E0,6.1E1,2.3E1,9E0,1.5E1,2.4E1,1.3E1,3.1E1,1.5E1,2.2E1,2.6E1,1.1E1,8E0,2.4E1,9E0,1.6E1,1E1,1.1E1,8E0,8E0,8E0,2.2E1,3.1E1,2E1,1E1,5.3E1,8E0,1.4E1,9E0,1.6E1,8E0,2E1,1.1E1,1.3E1,9E0,1.3E1,1.3E1,1.4E1,1E1,8E0,8E0,1.3E1,9E0,2E1,1.1E1,8E0,1.2E1,4.3E1,1E1,1.2E1,8E0],"tree_param":{"num_deleted":"0","num_feature":"19","num_nodes":"145","size_leaf_vector":"1"}},{"base_weights":[2.8735757E-2,4.8828506E-1,-1.1126004E0,9.794854E-1,-8.467834E-1,-1.2348201E0,7.363684E-2,-4.8764866E-2,1.4050847E0,-1.4709113E0,-1.5343447E-1,-7.8317195E-1,-1.8327428E0,2.8350845E-1,-7.2196907E-1,9.175698E-1,1.8316643E0,-1.1517073E0,-1.10490814E-1,-1.1018704E0,1.180894E-1,-2.340743E-1,-1.3013247E0,-8.2251865E-1,-2E0,8.421245E-1,-3.1994215E-1,-3.5174578E-1,-1.10490814E-1,6.318639E-1,1.4286416E0,5.754562E-1,2E0,-1.10490814E-1,-8.9077723E-1,-8.3986774E-2,-2.8537352E-2,-2.5682995E-1,9.641281E-1,1.5370585E-1,-1.09457E0,-7.476323E-1,-1.7662771E0,-2.4893515E-2,-5.689611E-2,-2E0,-3.8187195E-2,-3.3923266E-3,1.128896E0,-2.5200862E-3,-9.381409E-2,-8.121683E-1,4.019576E-2,2.5541374E-1,1.2572287E0,1.1991897E-2,1.6206806E0,-3.1770702E-2,1.1826905E0,9.727669E-1,2E0,-4.125461E-1,-1.5648391E0,-5.845531E-1,2.810692E-1,1.419751E-2,8.4724076E-2,4.5213777E-1,-6.588566E-2,-1.5459395E-2,-1.10490814E-1,-2.3426224E-1,-1.1003906E-1,-3.8906835E-2,-1.10490814E-1,-6.662799E-2,-2E0,1.3529841E0,2.6306452E-2,-4.7768313E-1,4.874925E-2,-1.7657258E-2,-6.2477086E-2,-1.0226143E-2,2.5527012E-2,1.1437147E0,-2.107449E-1,7.767686E-1,1.10490814E-1,1.087186E0,1.10490814E-1,1.5235461E0,2.5193185E-2,1.3420885E0,1.0512526E-2,2E0,1.1610572E0,-7.3174894E-1,1.04474306E-1,-1.3856074E-2,-1.10490814E-1,-1.3003203E-3,-9.235815E-1,-6.295966E-3,3.90849E-2,8.7727666E-2,8.617516E-2,4.4936847E-2,-6.746406E-1,-2E0,-6.1495654E-2,4.37074E-2,1.5206367E0,2.2842055E-2,-8.53516E-1,2.509767E-2,8.30639E-2,-5.3442633E-1,4.4940967E-2,1.0519089E-2,1.1575345E0,1.4189686E0,1.1236502E-2,4.960467E-2,1.021208E-1,4.2538572E-2,9.2560396E-2,1.4101397E0,1.10490814E-1,8.5125476E-2,2.481036E-2,-1.4383403E-2,-6.871949E-2,-8.017935E-3,2.064218E-2,-1.6738705E-2,-6.968468E-2,-4.8946217E-1,6.186099E-1,-5.4767E-2,-2.8938204E-3,-6.668492E-2,-1.10490814E-1,5.3100694E-2,1.02801345E-1,-7.002963E-2,-1.6768707E-2,-3.7845662E-3,-1.0889571E-1,9.335988E-2,1.9773027E-2,9.521539E-2,4.906104E-2,4.7302555E-2,9.606517E-2,1.7720042E-2,-6.557258E-2,5.1584933E-2,8.646918E-3],"categories":[2,6,7,2,7],"categories_nodes":[11,34],"categories_segments":[0,3],"categories_sizes":[3,2],"default_left":[0,0,0,0,0,0,0,0,0,0,0,1,0,0,0,0,0,0,0,0,0,0,0,0,0,0,0,0,0,0,0,0,0,0,1,0,0,0,0,0,0,0,0,0,0,0,0,0,0,0,0,0,0,0,0,0,0,0,0,0,0,0,0,0,0,0,0,0,0,0,0,0,0,0,0,0,0,0,0,0,0,0,0,0,0,0,0,0,0,0,0,0,0,0,0,0,0,0,0,0,0,0,0,0,0,0,0,0,0,0,0,0,0,0,0,0,0,0,0,0,0,0,0,0,0,0,0,0,0,0,0,0,0,0,0,0,0,0,0,0,0,0,0,0,0,0,0,0,0,0,0,0,0,0,0,0,0,0,0],"id":7,"left_children":[1,3,5,7,9,11,-1,13,15,17,19,21,23,25,27,29,31,33,-1,35,37,39,41,43,45,47,49,51,-1,53,55,57,59,-1,61,-1,-1,63,65,67,69,71,73,-1,-1,75,-1,-1,77,79,-1,81,83,85,87,-1,89,-1,91,93,95,97,99,101,103,-1,-1,105,-1,-1,-1,107,-1,-1,-1,-1,109,111,-1,113,-1,-1,-1,-1,-1,115,117,119,-1,121,-1,123,-1,125,-1,127,129,131,133,-1,-1,-1,135,-1,-1,137,-1,-1,139,141,-1,-1,143,-1,145,-1,-1,147,-1,-1,149,151,-1,-1,-1,-1,-1,153,-1,-1,-1,-1,-1,-1,-1,-1,-1,155,157,-1,-1,-1,-1,-1,-1,-1,-1,-1,-1,-1,-1,-1,-1,-1,-1,-1,-1,-1,-1],"loss_changes":[5.336852E2,4.7719244E2,9.039453E1,2.3299463E2,8.422395E1,7.318802E1,0E0,3.6068424E1,7.5654236E1,2.4714844E1,2.5543535E1,4.5483597E1,1.8621796E1,3.6685215E1,2.6387865E1,2.4839066E1,7.392572E1,2.1449394E1,0E0,4.0699234E0,2.4934324E1,2.8068888E1,1.9304367E1,8.5761356E-1,9.562164E0,1.5049545E1,2.284626E1,8.475443E0,0E0,2.7269207E1,1.3682434E1,3.1606138E1,2.148767E1,0E0,2.1846275E1,0E0,0E0,9.984533E0,8.825529E0,2.4190287E1,1.854829E1,2.5400255E1,1.0392548E1,0E0,0E0,4.7423096E0,0E0,0E0,5.1424866E0,1.9634361E1,0E0,2.6327667E0,2.9415874E0,3.2623363E1,1.703144E1,0E0,9.0963745E0,0E0,5.9201317E0,7.134794E0,8.103821E0,7.7685213E0,2.605259E1,6.2529955E0,4.115001E0,0E0,0E0,1.9197851E1,0E0,0E0,0E0,1.5613273E1,0E0,0E0,0E0,0E0,4.2556458E0,1.0159264E0,0E0,1.10341015E1,0E0,0E0,0E0,0E0,0E0,5.4704475E0,1.800511E1,6.633484E0,0E0,7.4463043E0,0E0,1.2751236E0,0E0,1.4011154E0,0E0,6.5185547E-1,4.4246025E0,6.1728325E0,1.6012168E0,0E0,0E0,0E0,3.642027E0,0E0,0E0,1.2625519E1,0E0,0E0,4.2438393E0,3.1332397E-1,0E0,0E0,1.4498405E0,0E0,4.2852497E0,0E0,0E0,2.6524158E1,0E0,0E0,6.8918095E0,8.790817E-1,0E0,0E0,0E0,0E0,0E0,1.3356857E0,0E0,0E0,0E0,0E0,0E0,0E0,0E0,0E0,0E0,1.1926519E1,2.716978E0,0E0,0E0,0E0,0E0,0E0,0E0,0E0,0E0,0E0,0E0,0E0,0E0,0E0,0E0,0E0,0E0,0E0,0E0,0E0,0E0],"parents":[2147483647,0,0,1,1,2,2,3,3,4,4,5,5,7,7,8,8,9,9,10,10,11,11,12,12,13,13,14,14,15,15,16,16,17,17,19,19,20,20,21,21,22,22,23,23,24,24,25,25,26,26,27,27,29,29,30,30,31,31,32,32,34,34,37,37,38,38,39,39,40,40,41,41,42,42,45,45,48,48,49,49,51,51,52,52,53,53,54,54,56,56,58,58,59,59,60,60,61,61,62,62,63,63,64,64,67,67,71,71,76,76,77,77,79,79,85,85,86,86,87,87,89,89,91,91,93,93,95,95,96,96,97,97,98,98,102,102,105,105,108,108,109,109,112,112,114,114,117,117,120,120,121,121,127,127,137,137,138,138],"right_children":[2,4,6,8,10,12,-1,14,16,18,20,22,24,26,28,30,32,34,-1,36,38,40,42,44,46,48,50,52,-1,54,56,58,60,-1,62,-1,-1,64,66,68,70,72,74,-1,-1,76,-1,-1,78,80,-1,82,84,86,88,-1,90,-1,92,94,96,98,100,102,104,-1,-1,106,-1,-1,-1,108,-1,-1,-1,-1,110,112,-1,114,-1,-1,-1,-1,-1,116,118,120,-1,122,-1,124,-1,126,-1,128,130,132,134,-1,-1,-1,136,-1,-1,138,-1,-1,140,142,-1,-1,144,-1,146,-1,-1,148,-1,-1,150,152,-1,-1,-1,-1,-1,154,-1,-1,-1,-1,-1,-1,-1,-1,-1,156,158,-1,-1,-1,-1,-1,-1,-1,-1,-1,-1,-1,-1,-1,-1,-1,-1,-1,-1,-1,-1],"split_conditions":[1.8E3,3.5E0,5.7403805E4,4.054808E1,1.675874E4,1.3210091E1,7.363684E-2,3.8763638E1,1.9989691E2,2.7464485E-1,1.6232822E1,1E-45,3.0206715E1,7.6181816E1,9.883721E1,3.8514905E2,3.6065574E0,3.507022E1,-1.10490814E-1,1.4648773E2,2.4139545E1,6.916076E1,9.023735E1,1.7976366E1,3.2187285E4,6.3131315E-1,8.132114E1,2.6508966E-3,-1.10490814E-1,5.2E2,4.5942368E1,1.53525E1,1.3821304E1,-1.10490814E-1,1E-45,-8.3986774E-2,-2.8537352E-2,5.4726955E1,6.657811E1,8.083333E0,1.2333333E1,1.361878E-1,3.4178787E1,-2.4893515E-2,-5.689611E-2,1.3807301E1,-3.8187195E-2,-3.3923266E-3,3.3389248E-3,2.899656E4,-9.381409E-2,5.701663E0,2.1726915E2,1.3221561E1,8.33848E1,1.1991897E-2,2.1376703E1,-3.1770702E-2,3.1142693E1,1.416667E0,2.166667E0,4.5787846E1,1.1640658E1,1.1242904E-2,1.913E1,1.419751E-2,8.4724076E-2,2.0671675E1,-6.588566E-2,-1.5459395E-2,-1.10490814E-1,3.166667E0,-1.1003906E-1,-3.8906835E-2,-1.10490814E-1,-6.662799E-2,2.7729767E2,6.878601E0,2.6306452E-2,1.5514043E2,4.874925E-2,-1.7657258E-2,-6.2477086E-2,-1.0226143E-2,2.5527012E-2,4.8473778E1,2.205558E-2,1.647736E1,1.10490814E-1,1.5430698E2,1.10490814E-1,4.8313492E2,2.5193185E-2,4.170759E1,1.0512526E-2,6.814727E1,5.9898613E1,2.5974026E0,4.6191513E1,-1.3856074E-2,-1.10490814E-1,-1.3003203E-3,7.690473E0,-6.295966E-3,3.90849E-2,3.84E3,8.617516E-2,4.4936847E-2,6.16003E1,5.8998995E0,-6.1495654E-2,4.37074E-2,7.5046486E1,2.2842055E-2,1.1404449E1,2.509767E-2,8.30639E-2,2.8E2,4.4940967E-2,1.0519089E-2,1.6521336E4,9.739899E0,1.1236502E-2,4.960467E-2,1.021208E-1,4.2538572E-2,9.2560396E-2,5.089322E1,1.10490814E-1,8.5125476E-2,2.481036E-2,-1.4383403E-2,-6.871949E-2,-8.017935E-3,2.064218E-2,-1.6738705E-2,-6.968468E-2,2.22E3,1.2114053E1,-5.4767E-2,-2.8938204E-3,-6.668492E-2,-1.10490814E-1,5.3100694E-2,1.02801345E-1,-7.002963E-2,-1.6768707E-2,-3.7845662E-3,-1.0889571E-1,9.335988E-2,1.9773027E-2,9.521539E-2,4.906104E-2,4.7302555E-2,9.606517E-2,1.7720042E-2,-6.557258E-2,5.1584933E-2,8.646918E-3],"split_indices":[14,0,6,3,6,13,0,3,17,7,5,8,3,4,4,15,4,3,0,15,1,11,4,18,6,4,11,7,0,14,3,5,18,0,8,0,0,3,4,0,0,7,3,0,0,11,0,0,7,6,0,18,17,18,4,0,1,0,18,0,0,3,13,7,5,0,0,18,0,0,0,0,0,0,0,0,17,16,0,15,0,0,0,0,0,11,2,1,0,17,0,15,0,3,0,11,11,2,11,0,0,0,16,0,0,14,0,0,4,15,0,0,11,0,13,0,0,14,0,0,6,13,0,0,0,0,0,3,0,0,0,0,0,0,0,0,0,14,1,0,0,0,0,0,0,0,0,0,0,0,0,0,0,0,0,0,0,0,0],"split_type":[0,0,0,0,0,0,0,0,0,0,0,1,0,0,0,0,0,0,0,0,0,0,0,0,0,0,0,0,0,0,0,0,0,0,1,0,0,0,0,0,0,0,0,0,0,0,0,0,0,0,0,0,0,0,0,0,0,0,0,0,0,0,0,0,0,0,0,0,0,0,0,0,0,0,0,0,0,0,0,0,0,0,0,0,0,0,0,0,0,0,0,0,0,0,0,0,0,0,0,0,0,0,0,0,0,0,0,0,0,0,0,0,0,0,0,0,0,0,0,0,0,0,0,0,0,0,0,0,0,0,0,0,0,0,0,0,0,0,0,0,0,0,0,0,0,0,0,0,0,0,0,0,0,0,0,0,0,0,0],"sum_hessian":[1.013E3,7.23E2,2.9E2,5.29E2,1.94E2,2.77E2,1.3E1,1.55E2,3.74E2,1.01E2,9.3E1,1.6E2,1.17E2,1.04E2,5.1E1,1.77E2,1.97E2,8.1E1,2E1,2E1,7.3E1,7.9E1,8.1E1,1.9E1,9.8E1,5.4E1,5E1,4.2E1,9E0,1.16E2,6.1E1,4.1E1,1.56E2,1.2E1,6.9E1,1E1,1E1,5.1E1,2.2E1,5.5E1,2.4E1,3.9E1,4.2E1,9E0,1E1,9E1,8E0,1.3E1,4.1E1,4.2E1,8E0,1.9E1,2.3E1,7.4E1,4.2E1,9E0,5.2E1,1.4E1,2.7E1,2.5E1,1.31E2,4.2E1,2.7E1,3.2E1,1.9E1,1.1E1,1.1E1,4.6E1,9E0,1.4E1,1E1,2.9E1,1E1,1E1,3.2E1,1.6E1,7.4E1,2.9E1,1.2E1,2.8E1,1.4E1,9E0,1E1,1.5E1,8E0,2.5E1,4.9E1,3E1,1.2E1,2.6E1,2.6E1,1.7E1,1E1,1.6E1,9E0,1.12E2,1.9E1,2.6E1,1.6E1,1.1E1,1.6E1,1.3E1,1.9E1,1E1,9E0,3.6E1,1E1,8E0,2.1E1,6.2E1,1.2E1,9E0,2E1,8E0,2E1,1E1,1.5E1,3.8E1,1.1E1,1.3E1,1.7E1,1.8E1,8E0,8E0,9E0,8E0,8E0,1.8E1,9.4E1,1.1E1,8E0,1.5E1,1.1E1,8E0,8E0,8E0,1.1E1,1.7E1,1.9E1,1.3E1,8E0,9E0,5.3E1,1E1,1E1,1E1,1E1,3E1,8E0,9E0,8E0,9E0,9E0,9E0,9E0,8E0,9E0,1E1,9E0],"tree_param":{"num_deleted":"0","num_feature":"19","num_nodes":"159","size_leaf_vector":"1"}},{"base_weights":[-7.6168836E-3,4.751327E-1,-9.6073043E-1,6.070986E-2,1.186949E0,-1.3025914E0,-2.8992727E-1,2.3176722E-1,-9.984856E-1,1.9971367E0,7.8079474E-1,-6.1937326E-1,-1.5838354E0,-1.5022299E0,5.758358E-2,3.7306088E-1,-6.076342E-1,-1.6359433E0,-3.4558883E-1,-1.6727973E-2,2E0,2.8942516E-1,1.2665738E0,-8.3157015E-1,1.731087E-2,-2.094104E-2,-1.642089E0,-2E0,-0E0,-6.170313E-1,5.5090076E-1,6.375506E-1,-7.165353E-1,4.811252E-1,-1.3441751E0,-1.10490814E-1,-3.329796E-2,-9.427393E-2,2.9430637E-1,5.2765746E-2,1.10490814E-1,-7.024791E-1,5.9326196E-1,1.7499826E0,3.7658837E-1,-1.4660046E0,-1.6698621E-1,-5.405154E-1,-1.8960633E0,-5.047693E-2,-1.10490814E-1,-7.440358E-2,-1.2647156E-1,8.048587E-1,-2.0604538E-2,9.5631397E-1,-2.5330508E-1,-1.3616787E0,-4.942955E-2,-3.4225464E-3,7.042081E-2,-1.10490814E-1,-5.413995E-1,4.88303E-2,-1.4077033E-2,-7.447699E-3,-7.231275E-2,1.1402655E0,-1.3848905E-1,1.10490814E-1,1.2425598E0,-1.8312447E-2,8.554705E-1,-1.9420113E-2,-1.8615258E0,4.8482765E-2,-7.863404E-1,-5.137653E-3,-7.067E-1,-1.0865018E0,-2E0,-3.0320197E-2,2.8960127E-2,1.7180165E0,4.8823804E-2,6.817988E-1,1.4686124E0,6.0273893E-3,-6.049284E-2,-1.8028756E0,-1.3071907E-3,2.1654566E-1,-3.713541E-2,-7.801704E-2,1.5913855E-2,1.10490814E-1,4.7607115E-1,5.505774E-2,-8.131839E-1,1.379688E-2,9.461338E-2,6.163069E-3,7.364564E-2,-1.10490814E-1,-3.650474E-2,-5.5063453E-2,-2.41011E-2,-5.4158326E-2,-9.641674E-3,-1.1061433E-2,-8.178289E-2,-6.673688E-2,-2E0,1.10490814E-1,5.3536158E-2,2.323295E-2,-2.3749864E-2,9.798459E-1,1.9824196E-1,1.6437357E-2,1.7221799E0,5.2727126E-2,-2.9353473E-1,-6.321994E-2,-1.10490814E-1,-1.5913669E-2,4.483612E-2,4.4779084E-3,7.12828E-2,-1.1281847E-2,-6.545121E-2,-1.10490814E-1,-1.3631427E0,3.2310046E-2,7.572733E-2,-8.508591E-3,6.162707E-2,4.3543767E-2,1.10490814E-1,2.4372254E-2,-6.054727E-2,-4.7145594E-2,4.482977E-2,-9.528328E-2,-2.9253846E-2],"categories":[0,1,2,4,5,6,7],"categories_nodes":[84],"categories_segments":[0],"categories_sizes":[7],"default_left":[0,0,0,0,0,0,0,0,0,0,0,0,0,0,0,0,0,0,0,0,0,0,0,0,0,0,0,0,0,0,0,0,0,0,0,0,0,0,0,0,0,0,0,1,0,0,0,0,0,0,0,0,0,0,0,0,0,0,0,0,0,0,0,0,0,0,0,0,1,0,0,0,0,0,0,0,0,0,0,0,0,0,0,0,1,0,0,1,0,0,0,1,0,0,0,0,1,0,0,0,0,0,0,0,0,0,0,0,0,0,0,0,0,0,0,0,0,0,0,0,0,0,0,0,0,0,0,0,0,0,0,0,0,0,0,0,0,0,0,0,0,0,0,0,0],"id":8,"left_children":[1,3,5,7,9,11,13,15,17,19,21,23,25,27,29,31,33,35,37,-1,39,41,43,45,-1,-1,47,49,-1,51,53,55,57,59,61,-1,-1,-1,63,-1,-1,65,67,69,71,73,75,77,79,-1,-1,-1,81,83,-1,85,87,89,91,-1,-1,-1,93,-1,-1,-1,-1,95,97,-1,99,-1,101,-1,103,-1,105,-1,107,109,111,-1,-1,113,115,117,119,121,-1,123,-1,125,-1,-1,-1,-1,127,-1,129,-1,-1,-1,-1,-1,-1,-1,-1,-1,-1,-1,-1,-1,131,-1,-1,-1,-1,133,135,-1,137,-1,139,-1,-1,-1,-1,141,-1,-1,-1,-1,143,-1,-1,-1,-1,-1,-1,-1,-1,-1,-1,-1,-1],"loss_changes":[4.680613E2,1.9865298E2,7.7647644E1,7.8298195E1,7.932623E1,4.17807E1,5.092451E1,4.4560417E1,2.3920998E1,5.1125183E1,3.9439133E1,1.4439329E1,9.847137E0,2.5656017E1,3.1964767E1,9.27598E1,4.4869843E1,1.2008476E1,2.9661848E1,0E0,1.1524719E1,2.6976776E1,3.4816086E1,2.3432487E1,0E0,0E0,4.0338684E1,5.8671494E0,0E0,1.3951409E1,1.3761572E1,7.378104E1,2.6764465E1,1.0754496E1,1.9009201E1,0E0,0E0,0E0,8.356356E0,0E0,0E0,6.793741E0,2.7606806E1,4.0485077E0,1.1777582E1,1.1356579E1,2.0993677E1,2.075223E0,1.2818634E1,0E0,0E0,0E0,8.039231E0,2.9914803E1,0E0,2.528894E1,1.5874831E1,1.8192993E1,6.2916026E0,0E0,0E0,0E0,1.5040393E1,0E0,0E0,0E0,0E0,2.6814766E1,2.4749636E1,0E0,1.0147911E1,0E0,6.60141E0,0E0,1.179644E1,0E0,7.6303196E-1,0E0,2.7896318E0,7.939398E0,4.0618896E0,0E0,0E0,2.2619247E0,5.315156E0,1.7881828E1,1.8093704E1,1.6628794E1,0E0,2.0351944E0,0E0,8.13262E0,0E0,0E0,0E0,0E0,1.0254187E1,0E0,3.9711332E0,0E0,0E0,0E0,0E0,0E0,0E0,0E0,0E0,0E0,0E0,0E0,0E0,0E0,3.3628845E0,0E0,0E0,0E0,0E0,1.0808716E1,1.757555E1,0E0,1.6677765E1,0E0,2.6163359E1,0E0,0E0,0E0,0E0,1.4841313E1,0E0,0E0,0E0,0E0,5.5996933E0,0E0,0E0,0E0,0E0,0E0,0E0,0E0,0E0,0E0,0E0,0E0,0E0],"parents":[2147483647,0,0,1,1,2,2,3,3,4,4,5,5,6,6,7,7,8,8,9,9,10,10,11,11,12,12,13,13,14,14,15,15,16,16,17,17,18,18,20,20,21,21,22,22,23,23,26,26,27,27,29,29,30,30,31,31,32,32,33,33,34,34,38,38,41,41,42,42,43,43,44,44,45,45,46,46,47,47,48,48,52,52,53,53,55,55,56,56,57,57,58,58,62,62,67,67,68,68,70,70,72,72,74,74,76,76,78,78,79,79,80,80,83,83,84,84,85,85,86,86,87,87,89,89,91,91,96,96,98,98,112,112,117,117,118,118,120,120,122,122,127,127,132,132],"right_children":[2,4,6,8,10,12,14,16,18,20,22,24,26,28,30,32,34,36,38,-1,40,42,44,46,-1,-1,48,50,-1,52,54,56,58,60,62,-1,-1,-1,64,-1,-1,66,68,70,72,74,76,78,80,-1,-1,-1,82,84,-1,86,88,90,92,-1,-1,-1,94,-1,-1,-1,-1,96,98,-1,100,-1,102,-1,104,-1,106,-1,108,110,112,-1,-1,114,116,118,120,122,-1,124,-1,126,-1,-1,-1,-1,128,-1,130,-1,-1,-1,-1,-1,-1,-1,-1,-1,-1,-1,-1,-1,132,-1,-1,-1,-1,134,136,-1,138,-1,140,-1,-1,-1,-1,142,-1,-1,-1,-1,144,-1,-1,-1,-1,-1,-1,-1,-1,-1,-1,-1,-1],"split_conditions":[1.56E3,5.3576794E1,2.0745017E-1,6.036356E1,-8.66981E0,2.1585786E-1,1.6965353E1,9.9750626E1,5.9409187E1,7.2196975E0,1.8212759E1,7.06E3,2.5457457E1,8.60693E1,7.3327937E0,2.4175468E-1,2.5E1,6.6130733E0,3.563194E1,-1.6727973E-2,6.6350044E1,1.8846315E-1,2.0751563E-1,1.9661722E1,1.731087E-2,-2.094104E-2,3.0206715E1,3.377528E1,-0E0,2.571196E1,2.3846726E-1,-6.1536193E0,8.4875626E1,1.1459023E1,2.12225E1,-1.10490814E-1,-3.329796E-2,-9.427393E-2,-6.4712143E0,5.2765746E-2,1.10490814E-1,8.997079E1,-7.1175456E0,5.413034E1,1.6784486E2,1.3747364E1,-7.6517086E0,9.7560974E1,1.87E3,-5.047693E-2,-1.10490814E-1,-7.440358E-2,2.048235E1,-7.760935E0,-2.0604538E-2,1.8988466E1,2.212857E1,3.0293576E2,2.1458623E2,-3.4225464E-3,7.042081E-2,-1.10490814E-1,1.0232439E1,4.88303E-2,-1.4077033E-2,-7.447699E-3,-7.231275E-2,5.7237507E1,5.687651E1,1.10490814E-1,2.0224771E1,-1.8312447E-2,2.1126734E1,-1.9420113E-2,6.5334404E1,4.8482765E-2,2.2316751E1,-5.137653E-3,2.5089863E-1,1.7543312E2,5.8998995E0,-3.0320197E-2,2.8960127E-2,1.0626265E1,1E-45,7.687832E1,6.3131315E-1,2.6692158E1,-6.049284E-2,2.6750973E1,-1.3071907E-3,5.3266346E1,-3.713541E-2,-7.801704E-2,1.5913855E-2,1.10490814E-1,1.6268231E2,5.505774E-2,1.7668736E2,1.379688E-2,9.461338E-2,6.163069E-3,7.364564E-2,-1.10490814E-1,-3.650474E-2,-5.5063453E-2,-2.41011E-2,-5.4158326E-2,-9.641674E-3,-1.1061433E-2,-8.178289E-2,-6.673688E-2,3.7533823E2,1.10490814E-1,5.3536158E-2,2.323295E-2,-2.3749864E-2,2.205558E-2,2.3002459E-1,1.6437357E-2,2.3945381E1,5.2727126E-2,7.5639694E1,-6.321994E-2,-1.10490814E-1,-1.5913669E-2,4.483612E-2,1.617989E1,7.12828E-2,-1.1281847E-2,-6.545121E-2,-1.10490814E-1,3.12E3,3.2310046E-2,7.572733E-2,-8.508591E-3,6.162707E-2,4.3543767E-2,1.10490814E-1,2.4372254E-2,-6.054727E-2,-4.7145594E-2,4.482977E-2,-9.528328E-2,-2.9253846E-2],"split_indices":[14,3,2,12,9,10,4,4,11,16,5,14,12,2,16,10,14,16,3,0,11,10,10,5,0,0,3,12,0,11,10,9,4,16,5,0,0,0,9,0,0,4,9,15,15,18,9,4,14,0,0,0,5,9,0,1,5,15,17,0,0,0,16,0,0,0,0,15,15,0,5,0,1,0,3,0,5,0,10,17,15,0,0,13,8,4,4,15,0,2,0,15,0,0,0,0,15,0,17,0,0,0,0,0,0,0,0,0,0,0,0,0,15,0,0,0,0,2,10,0,18,0,11,0,0,0,0,18,0,0,0,0,14,0,0,0,0,0,0,0,0,0,0,0,0],"split_type":[0,0,0,0,0,0,0,0,0,0,0,0,0,0,0,0,0,0,0,0,0,0,0,0,0,0,0,0,0,0,0,0,0,0,0,0,0,0,0,0,0,0,0,0,0,0,0,0,0,0,0,0,0,0,0,0,0,0,0,0,0,0,0,0,0,0,0,0,0,0,0,0,0,0,0,0,0,0,0,0,0,0,0,0,1,0,0,0,0,0,0,0,0,0,0,0,0,0,0,0,0,0,0,0,0,0,0,0,0,0,0,0,0,0,0,0,0,0,0,0,0,0,0,0,0,0,0,0,0,0,0,0,0,0,0,0,0,0,0,0,0,0,0,0,0],"sum_hessian":[1.012E3,6.72E2,3.4E2,4.26E2,2.46E2,2.24E2,1.16E2,3.68E2,5.8E1,8E1,1.66E2,6.7E1,1.57E2,2.5E1,9.1E1,3.16E2,5.2E1,2.8E1,3E1,9E0,7.1E1,8.4E1,8.2E1,5.5E1,1.2E1,8E0,1.49E2,1.7E1,8E0,3.8E1,5.3E1,2.55E2,6.1E1,2.1E1,3.1E1,1.8E1,1E1,9E0,2.1E1,1.5E1,5.6E1,1.9E1,6.5E1,5.2E1,3E1,2.7E1,2.8E1,2.9E1,1.2E2,9E0,8E0,1.4E1,2.4E1,4.2E1,1.1E1,1.88E2,6.7E1,3E1,3.1E1,1.3E1,8E0,1.4E1,1.7E1,1E1,1.1E1,1.1E1,8E0,3.7E1,2.8E1,3E1,2.2E1,1.2E1,1.8E1,8E0,1.9E1,1E1,1.8E1,9E0,2E1,2.3E1,9.7E1,1.5E1,9E0,1.8E1,2.4E1,1.25E2,6.3E1,5.2E1,1.5E1,2.2E1,8E0,2.2E1,9E0,8E0,9E0,1.2E1,2.5E1,1E1,1.8E1,8E0,1.4E1,8E0,1E1,1E1,9E0,9E0,9E0,1.2E1,8E0,8E0,1.5E1,1.5E1,8.2E1,1E1,8E0,1.4E1,1E1,7.6E1,4.9E1,1.2E1,5.1E1,1.2E1,4E1,1.1E1,1.1E1,1.2E1,1E1,1.7E1,8E0,8E0,1E1,6E1,2.2E1,4E1,3.6E1,3.6E1,1.3E1,1.7E1,3.4E1,2.1E1,1.9E1,8E0,9E0,1.4E1,8E0],"tree_param":{"num_deleted":"0","num_feature":"19","num_nodes":"145","size_leaf_vector":"1"}},{"base_weights":[-3.6832087E-2,-2.5344867E-1,1.5959392E0,1.5437526E-1,-1.3966817E0,2E0,5.129657E-1,5.929162E-1,-1.0094317E0,-1.8634897E0,-1.018036E0,2E0,2.9952481E-2,-5.657949E-1,1.2240878E0,8.9458615E-1,-8.669225E-2,-1.2920502E0,-2.6364633E-1,-2E0,-2.7375527E-2,-1.6318328E0,-3.6808205E-1,1.10490814E-1,4.4493653E-2,-6.415305E-2,1.0537002E-3,1.7126904E0,9.308788E-3,5.4077333E-1,1.3316271E0,-2.565623E-1,7.015237E-2,-9.2593384E-1,-1.750949E0,-6.283825E-1,1.3146545E-1,-3.9964687E-2,-2E0,-1.8734081E0,5.672479E-3,-1.10490814E-1,-1.9455373E-2,1.10490814E-1,5.7079133E-2,1.9818714E-1,1.1745927E0,1.6778188E0,3.8829896E-1,5.4627728E-2,-8.4185004E-1,-1.6805935E-1,-1.3129758E0,-4.7798265E-2,-1.8672558E0,-1.8502674E-1,-7.797106E-2,-2.36198E-2,3.8745746E-2,-5.9982613E-2,-2E0,-1.0031075E0,-2E0,-6.7805403E-1,3.3183575E-1,-6.3133407E-1,4.9296132E-1,7.594377E-1,1.6504142E0,1.1358027E0,2E0,-3.19763E-1,1.3148993E0,3.894049E-1,-4.928245E-1,-1.5487484E0,-3.469735E-1,-4.7550225E-1,2.5165891E-2,-2.8254144E-2,-1.5698004E0,-7.37827E-2,-1.10490814E-1,-3.8188502E-2,1.2515221E-2,-1.10490814E-1,-5.1817283E-2,-7.5850815E-2,-3.2062385E-2,-6.4081945E-2,-1.10490814E-1,-5.1356545E-3,-5.6191735E-2,-1.8982187E-2,5.434679E-1,-2.1423577E-1,-5.516854E-2,8.1834793E-1,6.397912E-2,4.1195825E-1,7.646994E-2,1.10490814E-1,3.971615E-2,2.9826954E-1,1.7646556E0,6.840959E-2,1.10490814E-1,-5.4560114E-2,3.922899E-3,4.3102864E-2,9.235248E-2,6.757167E-1,-2.7108818E-1,-8.2885966E-2,-2.0240765E-2,-1.1020071E-1,-4.338913E-2,-8.385558E-2,1.757827E-1,-3.6984485E-2,-7.34566E-3,-2.626333E-2,-1.0452293E-1,-2.47155E-3,8.6668605E-1,6.008407E-3,-2.984151E-2,1.0474431E-2,7.213769E-2,-3.6718864E-2,1.5288552E-2,-0E0,3.842737E-2,-1.2957542E-2,5.106926E-2,4.6926636E-2,1.10490814E-1,1.0131771E-2,7.750584E-2,-4.444562E-2,1.4806737E-2,3.8983352E-2,-3.948741E-2,-1.8598113E-2,2.9927704E-2,6.1358467E-2,2.9162738E-2],"categories":[2],"categories_nodes":[49],"categories_segments":[0],"categories_sizes":[1],"default_left":[0,0,0,0,0,0,0,0,0,0,0,0,0,0,0,0,0,0,0,0,0,0,0,0,0,0,0,0,0,0,0,0,0,0,0,0,0,0,0,0,0,0,0,0,0,0,0,0,0,1,0,0,0,0,0,0,0,0,0,0,0,0,0,0,0,0,0,0,0,0,0,0,0,0,0,0,0,0,0,0,0,0,0,0,0,0,0,0,0,0,0,0,0,0,0,0,0,0,0,0,0,0,0,0,0,0,0,0,0,0,0,0,0,0,0,0,0,0,0,0,0,0,0,0,0,0,0,0,0,0,0,0,0,0,0,0,0,0,0,0,0,0,0,0,0,0,0],"id":9,"left_children":[1,3,5,7,9,11,13,15,17,19,21,23,-1,25,27,29,31,33,35,37,-1,39,41,-1,-1,-1,-1,43,-1,45,47,49,-1,51,53,55,57,-1,59,61,-1,-1,63,-1,-1,65,67,69,71,73,75,77,79,-1,81,83,-1,-1,-1,-1,85,87,89,91,93,95,97,99,101,103,105,107,109,111,113,115,117,119,-1,-1,121,-1,-1,-1,-1,-1,-1,-1,-1,-1,-1,-1,-1,-1,123,125,-1,127,129,131,-1,-1,-1,133,135,-1,-1,-1,-1,-1,-1,137,139,-1,141,-1,-1,-1,143,-1,-1,-1,-1,-1,145,-1,-1,-1,-1,-1,-1,-1,-1,-1,-1,-1,-1,-1,-1,-1,-1,-1,-1,-1,-1,-1,-1],"loss_changes":[3.5588385E2,4.1487512E2,8.369083E1,3.356877E2,3.8578827E1,1.9726715E1,3.9979527E1,9.831578E1,3.7177475E1,1.9595245E1,5.1960876E1,1.2652405E1,0E0,7.9373016E0,1.5092472E1,5.0093445E1,3.5060547E1,1.9460175E1,8.026474E0,1.2058746E1,0E0,2.934906E1,3.8487587E1,0E0,0E0,0E0,0E0,3.7630043E0,0E0,4.002816E1,4.6689514E1,2.487547E1,0E0,2.1686432E1,3.1454468E0,9.261749E0,9.286072E0,0E0,3.2280884E0,1.3054199E1,0E0,0E0,1.415332E1,0E0,0E0,3.0952955E1,1.0956871E1,1.68042E1,2.8945503E1,1.6815437E1,1.5545052E1,6.0838804E0,8.846481E0,0E0,2.9972382E0,4.9156985E0,0E0,0E0,0E0,0E0,4.211853E0,2.0382557E0,3.785553E-1,3.8356714E0,6.0542097E0,4.6454678E0,1.2652695E1,7.4031734E0,7.3051224E0,2.3105E1,3.3092346E0,7.2743025E0,1.5929222E0,1.1250671E1,1.60514E1,3.930153E0,1.974096E1,1.1140347E0,0E0,0E0,1.1301727E1,0E0,0E0,0E0,0E0,0E0,0E0,0E0,0E0,0E0,0E0,0E0,0E0,0E0,6.1701927E0,2.3527591E0,0E0,1.5360249E1,7.141303E0,3.1688585E0,0E0,0E0,0E0,8.263302E0,4.7482147E0,0E0,0E0,0E0,0E0,0E0,0E0,1.3827286E1,6.033947E0,0E0,1.3973524E1,0E0,0E0,0E0,4.816136E0,0E0,0E0,0E0,0E0,0E0,7.3671436E-1,0E0,0E0,0E0,0E0,0E0,0E0,0E0,0E0,0E0,0E0,0E0,0E0,0E0,0E0,0E0,0E0,0E0,0E0,0E0,0E0,0E0,0E0],"parents":[2147483647,0,0,1,1,2,2,3,3,4,4,5,5,6,6,7,7,8,8,9,9,10,10,11,11,13,13,14,14,15,15,16,16,17,17,18,18,19,19,21,21,22,22,27,27,29,29,30,30,31,31,33,33,34,34,35,35,36,36,38,38,39,39,42,42,45,45,46,46,47,47,48,48,49,49,50,50,51,51,52,52,54,54,55,55,60,60,61,61,62,62,63,63,64,64,65,65,66,66,67,67,68,68,69,69,70,70,71,71,72,72,73,73,74,74,75,75,76,76,77,77,80,80,94,94,95,95,97,97,98,98,99,99,103,103,104,104,111,111,112,112,114,114,118,118,124,124],"right_children":[2,4,6,8,10,12,14,16,18,20,22,24,-1,26,28,30,32,34,36,38,-1,40,42,-1,-1,-1,-1,44,-1,46,48,50,-1,52,54,56,58,-1,60,62,-1,-1,64,-1,-1,66,68,70,72,74,76,78,80,-1,82,84,-1,-1,-1,-1,86,88,90,92,94,96,98,100,102,104,106,108,110,112,114,116,118,120,-1,-1,122,-1,-1,-1,-1,-1,-1,-1,-1,-1,-1,-1,-1,-1,124,126,-1,128,130,132,-1,-1,-1,134,136,-1,-1,-1,-1,-1,-1,138,140,-1,142,-1,-1,-1,144,-1,-1,-1,-1,-1,146,-1,-1,-1,-1,-1,-1,-1,-1,-1,-1,-1,-1,-1,-1,-1,-1,-1,-1,-1,-1,-1,-1],"split_conditions":[4.407141E1,6E0,3.9869152E1,2.4858339E-1,5.256975E1,7.1677864E1,1.6699001E1,-6.403689E0,2.205558E-2,2.899656E4,2.205558E-2,-7.579957E0,2.9952481E-2,4.617435E-4,1.3030458E-3,6.5447975E1,4.6779125E4,1.4271849E1,1.675874E4,9.540125E0,-2.7375527E-2,3.3798484E4,2.5252167E1,1.10490814E-1,4.4493653E-2,-6.415305E-2,1.0537002E-3,2.7858246E2,9.308788E-3,2.205558E-2,2.333333E0,7.2753075E1,7.015237E-2,3.6363647E1,1.17645035E1,1.9457577E1,1.2559154E1,-3.9964687E-2,-8.726544E0,8.477366E1,5.672479E-3,-1.10490814E-1,4.5981724E1,1.10490814E-1,5.7079133E-2,2.2341184E4,2.2976093E-1,2.7663566E4,2.1538012E-1,1E-45,1.8658E1,2.1265562E1,2.6001045E1,-4.7798265E-2,2.5460226E1,3.948171E-3,-7.797106E-2,-2.36198E-2,3.8745746E-2,-5.9982613E-2,1.1875314E2,7.0652566E0,2.5267048E1,-7.1708217E0,1.8212759E1,3.2130096E1,-7.6325135E0,1.565062E1,2.666667E0,1.9356168E2,4.1497974E0,1.3067787E2,2.2718637E-1,3.25E0,1.5773386E1,2.4294992E2,-5.8800836E0,2.0835513E2,2.5165891E-2,-2.8254144E-2,9.6400375E1,-7.37827E-2,-1.10490814E-1,-3.8188502E-2,1.2515221E-2,-1.10490814E-1,-5.1817283E-2,-7.5850815E-2,-3.2062385E-2,-6.4081945E-2,-1.10490814E-1,-5.1356545E-3,-5.6191735E-2,-1.8982187E-2,1.725682E1,-7.9750643E0,-5.516854E-2,3.7144924E1,1.5554772E-4,4.1162617E1,7.646994E-2,1.10490814E-1,3.971615E-2,-6.739677E0,4.102831E1,6.840959E-2,1.10490814E-1,-5.4560114E-2,3.922899E-3,4.3102864E-2,9.235248E-2,2.205558E-2,2.0667025E-1,-8.2885966E-2,2.3945381E1,-1.1020071E-1,-4.338913E-2,-8.385558E-2,6.2008743E-4,-3.6984485E-2,-7.34566E-3,-2.626333E-2,-1.0452293E-1,-2.47155E-3,2.253126E-1,6.008407E-3,-2.984151E-2,1.0474431E-2,7.213769E-2,-3.6718864E-2,1.5288552E-2,-0E0,3.842737E-2,-1.2957542E-2,5.106926E-2,4.6926636E-2,1.10490814E-1,1.0131771E-2,7.750584E-2,-4.444562E-2,1.4806737E-2,3.8983352E-2,-3.948741E-2,-1.8598113E-2,2.9927704E-2,6.1358467E-2,2.9162738E-2],"split_indices":[18,0,12,10,4,3,5,9,2,6,2,9,0,7,7,11,6,13,6,18,0,6,11,0,0,0,0,17,0,2,0,4,0,3,18,18,18,0,9,4,0,0,3,0,0,6,10,6,10,8,5,5,12,0,11,7,0,0,0,0,11,13,12,9,5,12,9,1,0,17,4,17,10,0,18,17,9,17,0,0,4,0,0,0,0,0,0,0,0,0,0,0,0,0,18,9,0,11,7,3,0,0,0,9,3,0,0,0,0,0,0,2,10,0,18,0,0,0,7,0,0,0,0,0,10,0,0,0,0,0,0,0,0,0,0,0,0,0,0,0,0,0,0,0,0,0,0],"split_type":[0,0,0,0,0,0,0,0,0,0,0,0,0,0,0,0,0,0,0,0,0,0,0,0,0,0,0,0,0,0,0,0,0,0,0,0,0,0,0,0,0,0,0,0,0,0,0,0,0,1,0,0,0,0,0,0,0,0,0,0,0,0,0,0,0,0,0,0,0,0,0,0,0,0,0,0,0,0,0,0,0,0,0,0,0,0,0,0,0,0,0,0,0,0,0,0,0,0,0,0,0,0,0,0,0,0,0,0,0,0,0,0,0,0,0,0,0,0,0,0,0,0,0,0,0,0,0,0,0,0,0,0,0,0,0,0,0,0,0,0,0,0,0,0,0,0,0],"sum_hessian":[1.001E3,8.85E2,1.16E2,6.53E2,2.32E2,6.8E1,4.8E1,4.75E2,1.78E2,1.01E2,1.31E2,5.7E1,1.1E1,1.9E1,2.9E1,3.29E2,1.46E2,1.28E2,5E1,9E1,1.1E1,6.6E1,6.5E1,4.5E1,1.2E1,9E0,1E1,1.9E1,1E1,1.84E2,1.45E2,1.31E2,1.5E1,7.4E1,5.4E1,2.6E1,2.4E1,1E1,8E1,5.8E1,8E0,1E1,5.5E1,8E0,1.1E1,1.21E2,6.3E1,1.05E2,4E1,8.6E1,4.5E1,2.6E1,4.8E1,8E0,4.6E1,1.8E1,8E0,1.2E1,1.2E1,1E1,7E1,1.9E1,3.9E1,1.9E1,3.6E1,3.1E1,9E1,3.6E1,2.7E1,4.4E1,6.1E1,2.3E1,1.7E1,5.4E1,3.2E1,1.7E1,2.8E1,1.8E1,8E0,1.3E1,3.5E1,2.1E1,2.5E1,8E0,1E1,6.2E1,8E0,8E0,1.1E1,8E0,3.1E1,8E0,1.1E1,8E0,2.8E1,1.6E1,1.5E1,5E1,4E1,2.5E1,1.1E1,1.8E1,9E0,2E1,2.4E1,1.5E1,4.6E1,8E0,1.5E1,9E0,8E0,3.8E1,1.6E1,9E0,2.3E1,9E0,8E0,8E0,2E1,1E1,8E0,9E0,2.6E1,1E1,1.8E1,8E0,8E0,2.3E1,2.7E1,8E0,3.2E1,1.1E1,1.4E1,1.1E1,9E0,8E0,1.6E1,2.4E1,1.4E1,8E0,8E0,1.1E1,1.2E1,8E0,1.2E1,8E0,1E1],"tree_param":{"num_deleted":"0","num_feature":"19","num_nodes":"147","size_leaf_vector":"1"}},{"base_weights":[-1.6176082E-2,4.31198E-1,-1.2091411E0,-5.3402567E-1,9.665477E-1,-1.4620415E0,1.7742166E-2,2.6394713E-1,-8.922292E-1,1.374632E0,2.2515146E-1,-2E0,-1.1775657E0,-6.098895E-2,3.5936004E-1,-1.0224614E0,6.511936E-1,-4.7029388E-1,-1.4032278E0,9.068863E-1,2E0,-5.751556E-2,1.0877124E0,-4.6660494E-2,-1.10490814E-1,-1.4316903E0,-4.6202067E-1,-8.564139E-2,7.336766E-1,-8.318521E-2,-2.5785636E-2,8.0975944E-1,-1.37450285E-2,4.1266453E-1,-6.5680677E-1,-4.0603954E-1,-1.7346467E0,-1.1016321E-1,1.1539311E0,2E0,1.0782464E0,-5.640222E-2,3.2572124E-2,1.3779975E0,-5.6173764E-3,-1.0078931E0,-1.9247551E0,1.789397E-2,-7.728824E-1,-2.0695524E-2,8.582439E-3,9.420064E-3,6.49647E-2,1.0244122E0,2.8126928E-1,3.980953E-2,2.5265059E-3,-8.7139237E-1,1.6568819E-2,-3.6452983E-2,4.6829527E-4,-1.9353533E0,-3.3312775E-2,-5.544549E-1,6.459758E-2,9.9508864E-1,1.10490814E-1,1.10490814E-1,5.3566605E-2,6.932945E-1,9.224495E-2,-6.127819E-1,2.1623448E-1,9.6431893E-1,9.2995256E-2,-6.414943E-1,-1.7689657E0,-1.10490814E-1,-1.0857663E0,-1.0788491E0,-1.6844243E-2,1.2068872E0,1.8626051E-2,4.3155648E-2,-1.5406118E-2,-4.5930613E-3,-1.009681E0,-5.618744E-2,-1.10490814E-1,-6.746626E-2,-7.9949036E-2,6.0437125E-1,1.3008286E0,9.743993E-3,5.5031296E-2,-0E0,-6.166286E-2,6.715346E-1,-5.0292455E-2,6.749378E-2,2.7519178E-2,-9.071738E-1,-0E0,-1.10490814E-1,-3.3728115E-2,-7.85765E-2,-2.245895E-2,-2.7407713E-2,-9.1052644E-2,3.6369544E-2,1.3861872E0,-6.3929677E-1,-8.428137E-2,2.7449748E-2,-4.952127E-2,1.0473098E0,2.6329502E-1,5.615528E-1,1.6956099E0,1.0208023E-2,8.95339E-1,-3.335334E-2,8.356932E-2,-5.506851E-1,-7.923954E-2,4.6861526E-2,8.884005E-2,-5.3313084E-2,-7.701814E-5,1.8887429E-2,7.089737E-2,2.83063E-2,-6.89564E-3,6.719522E-2,-9.170926E-3,1.0219851E-1,3.8264707E-2,2.2121547E-2,6.96363E-2,-2.2697832E-2,2.1878988E-2,-8.731189E-3,-4.5889713E-2],"categories":[0,1,3,4,5,6,7],"categories_nodes":[120],"categories_segments":[0],"categories_sizes":[7],"default_left":[0,0,0,0,0,0,0,0,0,0,0,0,0,0,0,0,0,0,0,0,0,0,0,0,0,0,0,0,0,0,0,0,0,1,0,0,0,0,0,0,0,0,0,0,0,0,0,0,0,0,0,0,0,0,0,0,0,0,0,0,0,1,0,0,0,0,0,0,0,0,0,0,0,0,0,0,0,0,0,0,0,1,0,0,0,0,0,0,0,0,0,0,0,0,0,0,0,0,0,0,0,0,0,0,0,0,0,0,0,0,0,0,0,0,0,0,0,0,0,0,1,0,0,0,0,0,0,0,0,0,0,0,0,0,0,0,0,0,0,0,0,0,0],"id":10,"left_children":[1,3,5,7,9,11,13,15,17,19,21,23,25,-1,27,29,31,33,35,37,39,41,43,-1,-1,45,47,49,51,-1,-1,53,-1,55,57,59,61,63,65,67,69,-1,71,73,-1,75,77,-1,79,-1,-1,-1,-1,81,83,-1,-1,85,-1,-1,-1,87,-1,89,-1,91,-1,-1,-1,93,-1,95,97,99,-1,101,103,-1,105,107,-1,109,-1,-1,-1,-1,111,-1,-1,113,-1,115,117,-1,-1,-1,-1,119,121,-1,-1,123,-1,-1,-1,-1,-1,-1,-1,-1,125,127,-1,-1,-1,129,131,133,135,-1,137,-1,139,141,-1,-1,-1,-1,-1,-1,-1,-1,-1,-1,-1,-1,-1,-1,-1,-1,-1,-1,-1],"loss_changes":[5.418896E2,3.8213187E2,8.646973E1,7.625889E1,1.42986E2,4.6358856E1,1.9840675E1,4.2830563E1,3.842006E1,1.0923694E2,4.260072E1,6.1011047E0,3.0800537E1,0E0,7.0141063E0,4.18964E0,9.94138E0,1.7736845E1,2.5682724E1,5.012236E1,2.1222717E1,1.2275529E1,1.5536724E1,0E0,0E0,2.4088104E1,1.2762825E1,1.7362131E0,5.0102243E0,0E0,0E0,5.7715645E0,0E0,2.0154667E0,1.8445786E1,2.759965E0,1.1747269E1,2.4211037E1,2.8641678E1,4.669922E0,5.798916E0,0E0,1.4744066E1,1.9932556E0,0E0,1.8707726E1,1.1310989E1,0E0,4.5489426E0,0E0,0E0,0E0,0E0,4.0695076E0,6.1587477E0,0E0,0E0,7.340355E0,0E0,0E0,0E0,2.571762E0,0E0,1.3224383E1,0E0,1.6340546E1,0E0,0E0,0E0,3.1884956E0,0E0,8.387408E0,1.2051893E1,1.2722301E0,0E0,8.99312E0,1.0518784E1,0E0,3.9581184E0,5.6046753E0,0E0,1.4675865E0,0E0,0E0,0E0,0E0,1.0010952E1,0E0,0E0,1.1678533E1,0E0,9.826881E0,2.1998047E1,0E0,0E0,0E0,0E0,3.5354538E0,5.1476145E0,0E0,0E0,5.774267E0,0E0,0E0,0E0,0E0,0E0,0E0,0E0,0E0,3.845291E-1,7.6708755E0,0E0,0E0,0E0,3.949522E0,4.3785048E0,1.5681955E1,5.8449097E0,0E0,3.469633E0,0E0,8.346454E0,2.4602075E0,0E0,0E0,0E0,0E0,0E0,0E0,0E0,0E0,0E0,0E0,0E0,0E0,0E0,0E0,0E0,0E0,0E0,0E0,0E0],"parents":[2147483647,0,0,1,1,2,2,3,3,4,4,5,5,6,6,7,7,8,8,9,9,10,10,11,11,12,12,14,14,15,15,16,16,17,17,18,18,19,19,20,20,21,21,22,22,25,25,26,26,27,27,28,28,31,31,33,33,34,34,35,35,36,36,37,37,38,38,39,39,40,40,42,42,43,43,45,45,46,46,48,48,53,53,54,54,57,57,61,61,63,63,65,65,69,69,71,71,72,72,73,73,75,75,76,76,78,78,79,79,81,81,86,86,89,89,91,91,92,92,97,97,98,98,101,101,110,110,111,111,115,115,116,116,117,117,118,118,120,120,122,122,123,123],"right_children":[2,4,6,8,10,12,14,16,18,20,22,24,26,-1,28,30,32,34,36,38,40,42,44,-1,-1,46,48,50,52,-1,-1,54,-1,56,58,60,62,64,66,68,70,-1,72,74,-1,76,78,-1,80,-1,-1,-1,-1,82,84,-1,-1,86,-1,-1,-1,88,-1,90,-1,92,-1,-1,-1,94,-1,96,98,100,-1,102,104,-1,106,108,-1,110,-1,-1,-1,-1,112,-1,-1,114,-1,116,118,-1,-1,-1,-1,120,122,-1,-1,124,-1,-1,-1,-1,-1,-1,-1,-1,126,128,-1,-1,-1,130,132,134,136,-1,138,-1,140,142,-1,-1,-1,-1,-1,-1,-1,-1,-1,-1,-1,-1,-1,-1,-1,-1,-1,-1,-1],"split_conditions":[4.916667E0,4.070998E1,2.899656E4,7.6181816E1,1.75E0,6.9439346E3,8.8282005E1,9.239179E0,1.6475239E1,2.205558E-2,5.1402992E4,3.6581177E3,4.97304E1,-6.098895E-2,7.442177E1,3.6641895E1,6.036356E1,9.2789116E1,3.1851011E1,1.8350797E4,7.130134E1,7.124229E-5,7.235419E1,-4.6660494E-2,-1.10490814E-1,3.4156067E1,3.8496535E-3,1.508097E2,1.3151704E1,-8.318521E-2,-2.5785636E-2,1.2526154E1,-1.37450285E-2,4.2294515E-3,1.3792529E1,1.8650611E4,1.6769203E1,8.828406E0,5.32801E1,6.863636E1,9.895139E0,-5.640222E-2,4.4731183E0,1.5174507E0,-5.6173764E-3,2.688824E2,2.420339E1,1.789397E-2,1.284483E4,-2.0695524E-2,8.582439E-3,9.420064E-3,6.49647E-2,-6.1536193E0,1.7026623E-3,3.980953E-2,2.5265059E-3,4.6890497E0,1.6568819E-2,-3.6452983E-2,4.6829527E-4,7.713069E-5,-3.3312775E-2,1.9530453E1,6.459758E-2,2.1376703E1,1.10490814E-1,1.10490814E-1,5.3566605E-2,-9.115723E0,9.224495E-2,1.8128017E1,